{"learner":{"attributes":{"best_iteration":"0","best_score":"3.116475029807362"},"feature_names":["rsi_14","macd_signal","bb_position","vwap_deviation","volume_ratio","price_change_5","price_change_20","sentiment_avg_1h","sentiment_count_1h","sentiment_deviation","sentiment_momentum","has_breaking_event","hour_of_day","day_of_week","minutes_since_open"],"feature_types":[],"gradient_booster":{"model":{"cats":{"enc":[],"feature_segments":[],"sorted_idx":[]},"gbtree_model_param":{"num_parallel_tree":"1","num_trees":"21"},"iteration_indptr":[0,1,2,3,4,5,6,7,8,9,10,11,12,13,14,15,16,17,18,19,20,21],"tree_info":[0,0,0,0,0,0,0,0,0,0,0,0,0,0,0,0,0,0,0,0,0],"trees":[{"base_weights":[1.506012E-3,5.571397E-3,-1.0433415E0,8.713387E-3,-2.563332E-1,-2.6587927E0,-6.3441026E-1,-1.0592498E-2,3.940032E-2,-1.0372162E0,1.0407449E-2,-2.39765E-1,-1.1266762E0,-8.7056404E-1,9.08627E-1,-4.6470584E-4,-4.836827E-2,-2.3188242E-3,3.2616507E-3,-1.7630042E-1,-4.2718854E-2,-3.6576353E-3,5.4988086E-2,7.087675E-2,-1.593696E-1,-3.513887E-2,-1.4295688E-1,1.06650546E-1,-2.4439085E-3],"categories":[],"categories_nodes":[],"categories_segments":[],"categories_sizes":[],"default_left":[0,0,0,0,0,0,0,0,0,0,0,0,0,0,0,0,0,0,0,0,0,0,0,0,0,0,0,0,0],"id":0,"left_children":[1,3,5,7,9,11,13,15,17,19,21,-1,23,25,27,-1,-1,-1,-1,-1,-1,-1,-1,-1,-1,-1,-1,-1,-1],"loss_changes":[1.2658268E3,2.4427812E2,7.6131604E2,1.7377977E2,7.329948E2,7.572943E2,3.3712674E2,2.2366411E2,2.5100517E2,4.0471106E2,2.3893428E2,0E0,7.2279504E2,2.6524915E2,1.4430379E2,0E0,0E0,0E0,0E0,0E0,0E0,0E0,0E0,0E0,0E0,0E0,0E0,0E0,0E0],"parents":[2147483647,0,0,1,1,2,2,3,3,4,4,5,5,6,6,7,7,8,8,9,9,10,10,12,12,13,13,14,14],"right_children":[2,4,6,8,10,12,14,16,18,20,22,-1,24,26,28,-1,-1,-1,-1,-1,-1,-1,-1,-1,-1,-1,-1,-1,-1],"split_conditions":[3.08E-2,1.78E-2,3.54E-2,9E-4,9.3E-2,6.529E-1,3.95E2,1.0744E0,2E0,-4.739E-1,2.1854E0,-2.39765E-1,6.95323E1,2.45E2,6.22463E1,-4.6470584E-4,-4.836827E-2,-2.3188242E-3,3.2616507E-3,-1.7630042E-1,-4.2718854E-2,-3.6576353E-3,5.4988086E-2,7.087675E-2,-1.593696E-1,-3.513887E-2,-1.4295688E-1,1.06650546E-1,-2.4439085E-3],"split_indices":[3,3,1,3,1,2,14,1,14,5,4,0,0,14,0,0,0,0,0,0,0,0,0,0,0,0,0,0,0],"split_type":[0,0,0,0,0,0,0,0,0,0,0,0,0,0,0,0,0,0,0,0,0,0,0,0,0,0,0,0,0],"sum_hessian":[2.98E5,2.96846E5,1.154E3,2.93328E5,3.518E3,2.32E2,9.22E2,1.80053E5,1.13275E5,8.95E2,2.623E3,9.6E1,1.36E2,8E2,1.22E2,1.7981E5,2.43E2,2.6218E4,8.7057E4,6E1,8.35E2,2.437E3,1.86E2,6.1E1,7.5E1,7.39E2,6.1E1,5.3E1,6.9E1],"tree_param":{"num_deleted":"0","num_feature":"15","num_nodes":"29","size_leaf_vector":"1"}},{"base_weights":[-5.2291126E-4,9.682179E-2,-6.4864874E-2,1.07570544E-1,-4.692292E-1,-8.966795E-1,-5.875917E-2,9.840653E-2,4.8882785E-1,-2.2726808E0,-1.4064069E-1,-1.8656938E-1,-2.6714559E0,-5.192673E-2,-6.9935834E-1,1.4213842E-2,4.02013E-3,3.8025785E-2,1.0146219E-2,-1.1553352E-2,-1.6972591E-1,-1.5023003E-2,2.3690455E-2,-1.6014753E-2,7.1129374E-2,-6.914614E-2,-3.3610642E-1,-5.9647746E-2,-2.4270555E-3,-1.5937312E-2,-7.91876E-2],"categories":[],"categories_nodes":[],"categories_segments":[],"categories_sizes":[],"default_left":[0,0,0,0,0,0,0,0,0,0,0,0,0,0,0,0,0,0,0,0,0,0,0,0,0,0,0,0,0,0,0],"id":1,"left_children":[1,3,5,7,9,11,13,15,17,19,21,23,25,27,29,-1,-1,-1,-1,-1,-1,-1,-1,-1,-1,-1,-1,-1,-1,-1,-1],"loss_changes":[1.8689523E3,7.225298E2,9.123618E2,4.070968E2,1.3110897E3,1.6492168E3,7.805455E2,3.8079065E2,2.1229095E2,7.802279E2,1.8407278E2,2.0186938E2,1.942769E3,6.8162933E2,6.32997E2,0E0,0E0,0E0,0E0,0E0,0E0,0E0,0E0,0E0,0E0,0E0,0E0,0E0,0E0,0E0,0E0],"parents":[2147483647,0,0,1,1,2,2,3,3,4,4,5,5,6,6,7,7,8,8,9,9,10,10,11,11,12,12,13,13,14,14],"right_children":[2,4,6,8,10,12,14,16,18,20,22,24,26,28,30,-1,-1,-1,-1,-1,-1,-1,-1,-1,-1,-1,-1,-1,-1,-1,-1],"split_conditions":[2E0,1.78E-2,-1.6249E0,7.11E-1,2.66E-2,4E0,2.02E-2,-2.69E-1,1E0,1.1066667E1,1.2433333E1,1.7787E0,1.265E1,-3.14E-2,1.22667E1,1.4213842E-2,4.02013E-3,3.8025785E-2,1.0146219E-2,-1.1553352E-2,-1.6972591E-1,-1.5023003E-2,2.3690455E-2,-1.6014753E-2,7.1129374E-2,-6.914614E-2,-3.3610642E-1,-5.9647746E-2,-2.4270555E-3,-1.5937312E-2,-7.91876E-2],"split_indices":[13,3,1,1,1,13,3,1,13,12,12,4,12,3,12,0,0,0,0,0,0,0,0,0,0,0,0,0,0,0,0],"split_type":[0,0,0,0,0,0,0,0,0,0,0,0,0,0,0,0,0,0,0,0,0,0,0,0,0,0,0,0,0,0,0],"sum_hessian":[2.98393E5,1.18743E5,1.7965E5,1.16531E5,2.212E3,1.308E3,1.78342E5,1.13797E5,2.734E3,3.4E2,1.872E3,9.35E2,3.73E2,1.76461E5,1.881E3,1.0048E4,1.03749E5,1.401E3,1.333E3,1.21E2,2.19E2,1.486E3,3.86E2,8.64E2,7.1E1,2.84E2,8.9E1,5.21E2,1.7594E5,1.316E3,5.65E2],"tree_param":{"num_deleted":"0","num_feature":"15","num_nodes":"31","size_leaf_vector":"1"}},{"base_weights":[-5.5463164E-4,9.503194E-2,-6.348226E-2,8.5079946E-2,4.1741717E-1,-9.215515E-1,-5.7221644E-2,8.878017E-2,-1.1929234E0,6.499826E-1,1.7195903E-1,-1.7361583E-1,-2.726324E0,-5.0823342E-2,-6.590911E-1,1.2104081E-2,3.5555263E-3,-1.7810462E-1,2.2894908E-3,4.3244086E-2,-3.1402006E-3,1.332397E-2,-1.9395566E-2,-1.699758E-2,4.504591E-2,-3.88448E-2,-4.431408E-1,-4.2591333E-2,-2.4184918E-3,-1.6300766E-2,-7.168629E-2],"categories":[],"categories_nodes":[],"categories_segments":[],"categories_sizes":[],"default_left":[0,0,0,0,0,0,0,0,0,0,0,0,0,0,0,0,0,0,0,0,0,0,0,0,0,0,0,0,0,0,0],"id":2,"left_children":[1,3,5,7,9,11,13,15,17,19,21,23,25,27,29,-1,-1,-1,-1,-1,-1,-1,-1,-1,-1,-1,-1,-1,-1,-1,-1],"loss_changes":[1.7958555E3,3.802339E2,9.671145E2,5.4381555E2,2.0248315E2,1.7597362E3,6.88261E2,3.1053125E2,9.744907E2,2.791432E2,9.154767E1,1.6527719E2,4.562847E3,3.475262E2,4.845952E2,0E0,0E0,0E0,0E0,0E0,0E0,0E0,0E0,0E0,0E0,0E0,0E0,0E0,0E0,0E0,0E0],"parents":[2147483647,0,0,1,1,2,2,3,3,4,4,5,5,6,6,7,7,8,8,9,9,10,10,11,11,12,12,13,13,14,14],"right_children":[2,4,6,8,10,12,14,16,18,20,22,24,26,28,30,-1,-1,-1,-1,-1,-1,-1,-1,-1,-1,-1,-1,-1,-1,-1,-1],"split_conditions":[2E0,7.11E-1,-1.6249E0,3.08E-2,1E0,4E0,2.02E-2,-2.288E-1,3.2E-2,1.78E-2,2.5277E0,1.55E1,1.25167E1,-3.14E-2,1.66E2,1.2104081E-2,3.5555263E-3,-1.7810462E-1,2.2894908E-3,4.3244086E-2,-3.1402006E-3,1.332397E-2,-1.9395566E-2,-1.699758E-2,4.504591E-2,-3.88448E-2,-4.431408E-1,-4.2591333E-2,-2.4184918E-3,-1.6300766E-2,-7.168629E-2],"split_indices":[13,1,1,3,13,13,3,1,1,3,1,12,12,3,14,0,0,0,0,0,0,0,0,0,0,0,0,0,0,0,0],"split_type":[0,0,0,0,0,0,0,0,0,0,0,0,0,0,0,0,0,0,0,0,0,0,0,0,0,0,0,0,0,0,0],"sum_hessian":[2.98559E5,1.18523E5,1.80036E5,1.14975E5,3.548E3,1.303E3,1.78733E5,1.14644E5,3.31E2,1.821E3,1.727E3,9.22E2,3.81E2,1.76854E5,1.879E3,1.1847E4,1.02797E5,1.13E2,2.18E2,1.399E3,4.22E2,1.478E3,2.49E2,7.99E2,1.23E2,2.9E2,9.1E1,5.39E2,1.76315E5,1.315E3,5.64E2],"tree_param":{"num_deleted":"0","num_feature":"15","num_nodes":"31","size_leaf_vector":"1"}},{"base_weights":[2.5583766E-3,5.859199E-3,-8.476389E-1,8.426494E-3,-2.1072873E-1,-2.168991E0,-3.5485542E-1,-3.080103E-2,2.4348242E-2,-3.997554E-2,-7.7422816E-1,-1.3509883E0,-3.4911892E0,-5.79874E-1,1.070739E0,5.9287865E-3,-3.2446866E-3,-2.5962233E-3,1.8311151E-3,1.3573895E-1,-4.785375E-3,-5.4008897E-2,6.108072E-2,-1.2546498E-1,1.4128038E-3,-2.6273072E-1,-9.468212E-2,-9.258381E-2,-1.0159265E-2,9.856585E-2,1.4805704E-2],"categories":[],"categories_nodes":[],"categories_segments":[],"categories_sizes":[],"default_left":[0,0,0,0,0,0,0,0,0,0,0,0,0,0,0,0,0,0,0,0,0,0,0,0,0,0,0,0,0,0,0],"id":3,"left_children":[1,3,5,7,9,11,13,15,17,19,21,23,25,27,29,-1,-1,-1,-1,-1,-1,-1,-1,-1,-1,-1,-1,-1,-1,-1,-1],"loss_changes":[8.366649E2,1.6513547E2,7.4999536E2,1.833129E2,3.3471606E2,3.3381226E2,2.704013E2,4.3153406E2,1.9544446E2,4.1033282E2,4.9531735E2,3.116018E2,3.2529114E2,3.4791022E2,7.964143E1,0E0,0E0,0E0,0E0,0E0,0E0,0E0,0E0,0E0,0E0,0E0,0E0,0E0,0E0,0E0,0E0],"parents":[2147483647,0,0,1,1,2,2,3,3,4,4,5,5,6,6,7,7,8,8,9,9,10,10,11,11,12,12,13,13,14,14],"right_children":[2,4,6,8,10,12,14,16,18,20,22,24,26,28,30,-1,-1,-1,-1,-1,-1,-1,-1,-1,-1,-1,-1,-1,-1,-1,-1],"split_conditions":[3.08E-2,1.78E-2,7.6E-2,-1.6E-3,1.27833E1,1.22667E1,1.6283333E1,9.15E0,8.05E0,-9.752E-1,1.7616667E1,2.879E-1,6.63E-1,6.13114E1,9.141E-1,5.9287865E-3,-3.2446866E-3,-2.5962233E-3,1.8311151E-3,1.3573895E-1,-4.785375E-3,-5.4008897E-2,6.108072E-2,-1.2546498E-1,1.4128038E-3,-2.6273072E-1,-9.468212E-2,-9.258381E-2,-1.0159265E-2,9.856585E-2,1.4805704E-2],"split_indices":[3,3,1,3,12,12,12,12,12,6,12,5,2,0,1,0,0,0,0,0,0,0,0,0,0,0,0,0,0,0,0],"split_type":[0,0,0,0,0,0,0,0,0,0,0,0,0,0,0,0,0,0,0,0,0,0,0,0,0,0,0,0,0,0,0],"sum_hessian":[2.9813E5,2.96978E5,1.152E3,2.935E5,3.478E3,3.12E2,8.4E2,8.4734E4,2.08766E5,2.67E3,8.08E2,1.94E2,1.18E2,7.26E2,1.14E2,1.5745E4,6.8989E4,2.8938E4,1.79828E5,5.2E1,2.618E3,7.01E2,1.07E2,1.05E2,8.9E1,5.5E1,6.3E1,1.65E2,5.61E2,5.2E1,6.2E1],"tree_param":{"num_deleted":"0","num_feature":"15","num_nodes":"31","size_leaf_vector":"1"}},{"base_weights":[-1.139712E-3,2.0262299E-3,-8.1321514E-1,-2.8700772E-1,4.303493E-3,-2.3676999E0,-4.0681347E-1,9.517584E-2,-9.854687E-1,-5.03518E-1,5.8905985E-3,-1.2722383E-2,-3.2540102E0,-5.7681584E-1,7.5351447E-1,4.3549057E-2,-2.4646E-3,-4.316035E-3,-1.0129942E-1,7.824048E-2,-4.92634E-2,4.0346128E-4,-1.3244318E-2,-1.0469711E-1,-2.4128695E-1,-2.3007816E-2,-1.07750915E-1,6.985121E-2,-4.4986248E-4],"categories":[],"categories_nodes":[],"categories_segments":[],"categories_sizes":[],"default_left":[0,0,0,0,0,0,0,0,0,0,0,0,0,0,0,0,0,0,0,0,0,0,0,0,0,0,0,0,0],"id":4,"left_children":[1,3,5,7,9,11,13,15,17,19,21,-1,23,25,27,-1,-1,-1,-1,-1,-1,-1,-1,-1,-1,-1,-1,-1,-1],"loss_changes":[7.6730145E2,1.9567809E2,7.3122943E2,6.20463E2,2.377348E2,4.486914E2,1.8191241E2,1.6849753E2,7.688728E2,9.1724866E2,1.7346689E2,0E0,2.980349E2,1.4685052E2,5.791326E1,0E0,0E0,0E0,0E0,0E0,0E0,0E0,0E0,0E0,0E0,0E0,0E0,0E0,0E0],"parents":[2147483647,0,0,1,1,2,2,3,3,4,4,5,5,6,6,7,7,8,8,9,9,10,10,12,12,13,13,14,14],"right_children":[2,4,6,8,10,12,14,16,18,20,22,-1,24,26,28,-1,-1,-1,-1,-1,-1,-1,-1,-1,-1,-1,-1,-1,-1],"split_conditions":[3.08E-2,-1.6249E0,3.54E-2,-1.07E-2,-3.14E-2,1.0816667E1,1.635E1,-3.14E-2,1.09E1,9.55E0,2.02E-2,-1.2722383E-2,1.06E-2,1.38333E1,3.008E-1,4.3549057E-2,-2.4646E-3,-4.316035E-3,-1.0129942E-1,7.824048E-2,-4.92634E-2,4.0346128E-4,-1.3244318E-2,-1.0469711E-1,-2.4128695E-1,-2.3007816E-2,-1.07750915E-1,6.985121E-2,-4.4986248E-4],"split_indices":[3,1,1,3,3,12,12,3,12,12,3,0,1,12,5,0,0,0,0,0,0,0,0,0,0,0,0,0,0],"split_type":[0,0,0,0,0,0,0,0,0,0,0,0,0,0,0,0,0,0,0,0,0,0,0,0,0,0,0,0,0],"sum_hessian":[2.98445E5,2.97287E5,1.158E3,2.323E3,2.94964E5,2.39E2,9.19E2,1.502E3,8.21E2,9.18E2,2.94046E5,7.1E1,1.68E2,8.02E2,1.17E2,2.35E2,1.267E3,4.41E2,3.8E2,1.73E2,7.45E2,2.917E5,2.346E3,9.8E1,7E1,7.48E2,5.4E1,6.3E1,5.4E1],"tree_param":{"num_deleted":"0","num_feature":"15","num_nodes":"29","size_leaf_vector":"1"}},{"base_weights":[-4.2106495E-3,8.936395E-2,-6.594439E-2,9.703122E-2,-3.173428E-1,-9.3164176E-1,-5.9479713E-2,8.850487E-2,4.035589E-1,-2.0345209E0,2.9840149E-2,-4.2619713E-2,-2.995574E0,-5.4281473E-2,-7.860995E-1,1.2658057E-2,3.6276975E-3,3.4406655E-2,5.57025E-3,1.8152364E-2,-1.4046156E-1,-8.3951555E-2,4.4424976E-3,4.036207E-2,-1.364868E-2,-6.0132463E-2,-4.052095E-1,-4.688895E-2,-2.5829785E-3,-1.3381588E-1,-3.1179635E-2],"categories":[],"categories_nodes":[],"categories_segments":[],"categories_sizes":[],"default_left":[0,0,0,0,0,0,0,0,0,0,0,0,0,0,0,0,0,0,0,0,0,0,0,0,0,0,0,0,0,0,0],"id":5,"left_children":[1,3,5,7,9,11,13,15,17,19,21,23,25,27,29,-1,-1,-1,-1,-1,-1,-1,-1,-1,-1,-1,-1,-1,-1,-1,-1],"loss_changes":[1.7230366E3,3.6974335E2,1.0056938E3,3.04099E2,1.3080686E3,2.443934E3,6.737283E2,2.9734497E2,2.6172943E2,6.864082E2,1.842833E2,1.8267691E2,3.6631584E3,4.1022864E2,3.875196E2,0E0,0E0,0E0,0E0,0E0,0E0,0E0,0E0,0E0,0E0,0E0,0E0,0E0,0E0,0E0,0E0],"parents":[2147483647,0,0,1,1,2,2,3,3,4,4,5,5,6,6,7,7,8,8,9,9,10,10,11,11,12,12,13,13,14,14],"right_children":[2,4,6,8,10,12,14,16,18,20,22,24,26,28,30,-1,-1,-1,-1,-1,-1,-1,-1,-1,-1,-1,-1,-1,-1,-1,-1],"split_conditions":[2E0,1.78E-2,-1.6249E0,6.393E-1,2.86E-2,4E0,2.39E-2,-2.69E-1,1E0,6.1E1,2.001E-1,-1.7684E0,1.25167E1,-3.14E-2,7.4E-3,1.2658057E-2,3.6276975E-3,3.4406655E-2,5.57025E-3,1.8152364E-2,-1.4046156E-1,-8.3951555E-2,4.4424976E-3,4.036207E-2,-1.364868E-2,-6.0132463E-2,-4.052095E-1,-4.688895E-2,-2.5829785E-3,-1.3381588E-1,-3.1179635E-2],"split_indices":[13,3,1,1,1,13,3,1,13,14,2,6,12,3,1,0,0,0,0,0,0,0,0,0,0,0,0,0,0,0,0],"split_type":[0,0,0,0,0,0,0,0,0,0,0,0,0,0,0,0,0,0,0,0,0,0,0,0,0,0,0,0,0,0,0],"sum_hessian":[2.98271E5,1.1856E5,1.79711E5,1.16367E5,2.193E3,1.331E3,1.7838E5,1.13219E5,3.148E3,3.68E2,1.825E3,9.31E2,4E2,1.77114E5,1.266E3,9.998E3,1.03221E5,1.594E3,1.554E3,9E1,2.78E2,6E1,1.765E3,1.98E2,7.33E2,2.97E2,1.03E2,5.23E2,1.76591E5,9.9E1,1.167E3],"tree_param":{"num_deleted":"0","num_feature":"15","num_nodes":"31","size_leaf_vector":"1"}},{"base_weights":[6.295259E-4,8.583256E-2,-5.5448085E-2,2.550684E-1,6.694737E-2,-9.582021E-1,-5.2115224E-2,1.2113479E0,2.2788255E-1,7.5206354E-2,-3.3646664E-1,-2.8725684E-1,-4.3164167E0,-9.5573646E-1,-4.9346037E-2,9.1306776E-2,-7.547719E-2,4.8196143E-3,2.566858E-2,2.8821442E-3,1.32536935E-2,-8.824969E-2,-3.1975587E-3,-3.1430297E-2,9.630842E-2,-5.2843083E-2,-3.8385624E-1,-7.977396E-2,2.2416389E-2,-2.2094778E-3,-2.6952742E-2],"categories":[],"categories_nodes":[],"categories_segments":[],"categories_sizes":[],"default_left":[0,0,0,0,0,0,0,0,0,0,0,0,0,0,0,0,0,0,0,0,0,0,0,0,0,0,0,0,0,0,0],"id":6,"left_children":[1,3,5,7,9,11,13,15,17,19,21,23,25,27,29,-1,-1,-1,-1,-1,-1,-1,-1,-1,-1,-1,-1,-1,-1,-1,-1],"loss_changes":[1.4238485E3,3.780246E2,5.406776E2,3.084154E2,3.5456436E2,1.4881108E3,4.4800882E2,5.514252E2,4.334137E2,3.4772058E2,8.310336E2,4.1827472E2,1.1968718E3,4.920525E2,4.5075E2,0E0,0E0,0E0,0E0,0E0,0E0,0E0,0E0,0E0,0E0,0E0,0E0,0E0,0E0,0E0,0E0],"parents":[2147483647,0,0,1,1,2,2,3,3,4,4,5,5,6,6,7,7,8,8,9,9,10,10,11,11,12,12,13,13,14,14],"right_children":[2,4,6,8,10,12,14,16,18,20,22,24,26,28,30,-1,-1,-1,-1,-1,-1,-1,-1,-1,-1,-1,-1,-1,-1,-1,-1],"split_conditions":[2E0,-2.288E-1,-2.3334E0,-3.14E-2,1.78E-2,4.61272E1,-3.14E-2,1.17333E1,1.32E1,6.7E-3,3.2E-2,1.525E1,-9.2E-3,4E0,2.02E-2,9.1306776E-2,-7.547719E-2,4.8196143E-3,2.566858E-2,2.8821442E-3,1.32536935E-2,-8.824969E-2,-3.1975587E-3,-3.1430297E-2,9.630842E-2,-5.2843083E-2,-3.8385624E-1,-7.977396E-2,2.2416389E-2,-2.2094778E-3,-2.6952742E-2],"split_indices":[13,1,1,3,3,0,3,12,12,3,1,12,3,13,3,0,0,0,0,0,0,0,0,0,0,0,0,0,0,0,0],"split_type":[0,0,0,0,0,0,0,0,0,0,0,0,0,0,0,0,0,0,0,0,0,0,0,0,0,0,0,0,0,0,0],"sum_hessian":[2.98E5,1.18283E5,1.79717E5,1.1873E4,1.0641E5,6.6E2,1.79057E5,3.27E2,1.1546E4,1.04276E5,2.134E3,5.51E2,1.09E2,5.46E2,1.78511E5,2.67E2,6E1,7.906E3,3.64E3,9.5448E4,8.828E3,3.41E2,1.793E3,4.78E2,7.3E1,5.6E1,5.3E1,3.75E2,1.71E2,1.76652E5,1.859E3],"tree_param":{"num_deleted":"0","num_feature":"15","num_nodes":"31","size_leaf_vector":"1"}},{"base_weights":[-3.4889656E-3,8.374755E-2,-6.0893893E-2,1.3617541E-1,3.6316138E-2,-5.5031314E-2,-6.0876197E-1,9.85621E-2,2.583664E-1,-1.2112314E-1,8.124497E-2,-2.0976199E-1,-3.8193464E-2,-3.0769923E-1,-1.2898856E0,1.6481578E-2,3.7997596E-3,1.5013521E-2,-1.8104574E-2,-3.987824E-3,-1.8202273E-2,1.5014094E-2,3.477654E-3,1.11302165E-2,-1.5262539E-2,-3.5295077E-2,-1.861511E-3,-8.5723035E-2,-4.7801362E-4,-9.086327E-2,1.2921862E-2],"categories":[],"categories_nodes":[],"categories_segments":[],"categories_sizes":[],"default_left":[0,0,0,0,0,0,0,0,0,0,0,0,0,0,0,0,0,0,0,0,0,0,0,0,0,0,0,0,0,0,0],"id":7,"left_children":[1,3,5,7,9,11,13,15,17,19,21,23,25,27,29,-1,-1,-1,-1,-1,-1,-1,-1,-1,-1,-1,-1,-1,-1,-1,-1],"loss_changes":[1.4924966E3,2.9413257E2,5.773122E2,2.581875E2,4.3929227E2,4.6334784E2,3.898341E2,2.2399084E2,3.4390234E2,1.3852495E2,1.2371164E2,7.2067615E2,1.03134796E2,5.5402466E2,4.7652075E2,0E0,0E0,0E0,0E0,0E0,0E0,0E0,0E0,0E0,0E0,0E0,0E0,0E0,0E0,0E0,0E0],"parents":[2147483647,0,0,1,1,2,2,3,3,4,4,5,5,6,6,7,7,8,8,9,9,10,10,11,11,12,12,13,13,14,14],"right_children":[2,4,6,8,10,12,14,16,18,20,22,24,26,28,30,-1,-1,-1,-1,-1,-1,-1,-1,-1,-1,-1,-1,-1,-1,-1,-1],"split_conditions":[2E0,1E0,2.02E-2,2.9E-3,9.5E0,-6E-3,1.235E1,-5.233E-1,2.02E-2,4.5E-3,-1.01E-2,9.55E0,-1.4796E0,8.633333E0,1.65E1,1.6481578E-2,3.7997596E-3,1.5013521E-2,-1.8104574E-2,-3.987824E-3,-1.8202273E-2,1.5014094E-2,3.477654E-3,1.11302165E-2,-1.5262539E-2,-3.5295077E-2,-1.861511E-3,-8.5723035E-2,-4.7801362E-4,-9.086327E-2,1.2921862E-2],"split_indices":[13,13,3,3,12,3,12,6,3,3,3,12,6,12,12,0,0,0,0,0,0,0,0,0,0,0,0,0,0,0,0],"split_type":[0,0,0,0,0,0,0,0,0,0,0,0,0,0,0,0,0,0,0,0,0,0,0,0,0,0,0,0,0,0,0],"sum_hessian":[2.98032E5,1.18282E5,1.7975E5,5.6181E4,6.2101E4,1.77848E5,1.902E3,4.2959E4,1.3222E4,1.3787E4,4.8314E4,1.7453E4,1.60395E5,1.32E3,5.82E2,3.821E3,3.9138E4,1.2386E4,8.36E2,1.1782E4,2.005E3,2.447E3,4.5867E4,3.157E3,1.4296E4,2.3E2,1.60165E5,2.3E2,1.09E3,4.34E2,1.48E2],"tree_param":{"num_deleted":"0","num_feature":"15","num_nodes":"31","size_leaf_vector":"1"}},{"base_weights":[9.236548E-4,7.9171255E-2,-5.0636306E-2,1.22329414E-1,4.0233236E-2,-4.3397486E-2,-2.8630278E-1,2.4300332E-1,8.665608E-2,-8.476318E-2,8.654726E-2,-1.5011267E-1,-2.7960923E-2,-1.0959955E-2,-6.041037E-1,6.880824E-2,1.09778335E-2,-4.882247E-2,4.549032E-3,-4.7617517E-3,1.2936628E-2,1.5183605E-2,3.6536888E-3,-3.8096518E-3,-1.4071708E-2,-1.2374871E-3,-1.4301541E-2,-2.897769E-2,1.0181478E-2,-2.5308404E-2,-8.112343E-2],"categories":[],"categories_nodes":[],"categories_segments":[],"categories_sizes":[],"default_left":[0,0,0,0,0,0,0,0,0,0,0,0,0,0,0,0,0,0,0,0,0,0,0,0,0,0,0,0,0,0,0],"id":8,"left_children":[1,3,5,7,9,11,13,15,17,19,21,23,25,27,29,-1,-1,-1,-1,-1,-1,-1,-1,-1,-1,-1,-1,-1,-1,-1,-1],"loss_changes":[1.204717E3,1.99315E2,3.0705798E2,2.4214764E2,3.6098007E2,2.8767807E2,4.693659E2,3.4070892E2,1.9971527E2,6.066353E1,1.3307605E2,2.1420755E2,1.2642827E2,3.5090906E2,2.4751685E2,0E0,0E0,0E0,0E0,0E0,0E0,0E0,0E0,0E0,0E0,0E0,0E0,0E0,0E0,0E0,0E0],"parents":[2147483647,0,0,1,1,2,2,3,3,4,4,5,5,6,6,7,7,8,8,9,9,10,10,11,11,12,12,13,13,14,14],"right_children":[2,4,6,8,10,12,14,16,18,20,22,24,26,28,30,-1,-1,-1,-1,-1,-1,-1,-1,-1,-1,-1,-1,-1,-1,-1,-1],"split_conditions":[2E0,1E0,9.092E-1,9.45E0,1E1,-3.523E-1,1.06E1,-5.132E-1,-2.3434E0,5.688E-1,-2.89E-1,1.91E2,5.177E-1,8.633333E0,2.3811E0,6.880824E-2,1.09778335E-2,-4.882247E-2,4.549032E-3,-4.7617517E-3,1.2936628E-2,1.5183605E-2,3.6536888E-3,-3.8096518E-3,-1.4071708E-2,-1.2374871E-3,-1.4301541E-2,-2.897769E-2,1.0181478E-2,-2.5308404E-2,-8.112343E-2],"split_indices":[13,13,6,12,12,6,12,5,6,5,5,14,5,12,6,0,0,0,0,0,0,0,0,0,0,0,0,0,0,0,0],"split_type":[0,0,0,0,0,0,0,0,0,0,0,0,0,0,0,0,0,0,0,0,0,0,0,0,0,0,0,0,0,0,0],"sum_hessian":[2.98606E5,1.18607E5,1.79999E5,5.6254E4,6.2353E4,1.74636E5,5.363E3,1.2834E4,4.342E4,1.6857E4,4.5496E4,2.2068E4,1.52568E5,2.874E3,2.489E3,2.59E2,1.2575E4,1.75E2,4.3245E4,1.6359E4,4.98E2,2.657E3,4.2839E4,1.4121E4,7.947E3,1.50694E5,1.874E3,7.87E2,2.087E3,2.272E3,2.17E2],"tree_param":{"num_deleted":"0","num_feature":"15","num_nodes":"31","size_leaf_vector":"1"}},{"base_weights":[4.1346154E-3,7.530635E-2,-4.2827945E-2,6.531228E-2,3.984595E-1,-4.6943116E-1,-3.966552E-2,1.5983379E-1,4.5489457E-2,6.647755E-1,1.130109E-1,1.8191405E-2,-1.6662546E0,-3.7099052E-2,-4.026489E-1,6.4142616E-3,5.228141E-2,-3.7465263E-2,2.3820912E-3,1.5834147E-2,5.601744E-2,1.0165708E-2,-2.2488624E-2,-6.251227E-3,4.9953453E-2,-3.3328753E-2,-2.7523428E-1,-8.55659E-3,-1.6002496E-3,9.323637E-3,-9.4670154E-2],"categories":[],"categories_nodes":[],"categories_segments":[],"categories_sizes":[],"default_left":[0,0,0,0,0,0,0,0,0,0,0,0,0,0,0,0,0,0,0,0,0,0,0,0,0,0,0,0,0,0,0],"id":9,"left_children":[1,3,5,7,9,11,13,15,17,19,21,23,25,27,29,-1,-1,-1,-1,-1,-1,-1,-1,-1,-1,-1,-1,-1,-1,-1,-1],"loss_changes":[9.975378E2,3.8314832E2,2.4255637E2,2.1562744E2,2.704784E2,7.721306E2,1.6625723E2,5.574075E2,1.6278403E2,2.9159412E2,8.745305E1,1.3231406E2,1.4659786E3,1.2100275E2,1.1007822E3,0E0,0E0,0E0,0E0,0E0,0E0,0E0,0E0,0E0,0E0,0E0,0E0,0E0,0E0,0E0,0E0],"parents":[2147483647,0,0,1,1,2,2,3,3,4,4,5,5,6,6,7,7,8,8,9,9,10,10,11,11,12,12,13,13,14,14],"right_children":[2,4,6,8,10,12,14,16,18,20,22,24,26,28,30,-1,-1,-1,-1,-1,-1,-1,-1,-1,-1,-1,-1,-1,-1,-1,-1],"split_conditions":[2E0,7.11E-1,-1.6249E0,-1.252E-1,1E0,4E0,1.7047E0,4.754E-1,-1.7684E0,1.03E2,2.5277E0,1.55E1,-4.686E-1,-3.87E-1,4E0,6.4142616E-3,5.228141E-2,-3.7465263E-2,2.3820912E-3,1.5834147E-2,5.601744E-2,1.0165708E-2,-2.2488624E-2,-6.251227E-3,4.9953453E-2,-3.3328753E-2,-2.7523428E-1,-8.55659E-3,-1.6002496E-3,9.323637E-3,-9.4670154E-2],"split_indices":[13,1,1,1,13,13,1,5,6,14,1,12,6,5,13,0,0,0,0,0,0,0,0,0,0,0,0,0,0,0,0],"split_type":[0,0,0,0,0,0,0,0,0,0,0,0,0,0,0,0,0,0,0,0,0,0,0,0,0,0,0,0,0,0,0],"sum_hessian":[2.98447E5,1.18643E5,1.79804E5,1.15085E5,3.558E3,1.322E3,1.78482E5,1.995E4,9.5135E4,1.84E3,1.718E3,9.4E2,3.82E2,1.7723E5,1.252E3,1.9265E4,6.85E2,2.56E2,9.4879E4,1.044E3,7.96E2,1.481E3,2.37E2,8.21E2,1.19E2,3.04E2,7.8E1,6.488E3,1.70742E5,8.98E2,3.54E2],"tree_param":{"num_deleted":"0","num_feature":"15","num_nodes":"31","size_leaf_vector":"1"}},{"base_weights":[1.7224703E-3,6.9617406E-3,-4.3702745E-1,-1.4488608E-1,1.0649393E-2,-8.986946E-1,-6.491128E-2,3.7381023E-1,-2.9177895E-1,-3.7653682E-1,1.2782591E-2,-6.646707E-1,-2.1616209E0,-1.3740342E0,6.581611E-2,4.953461E-2,1.1076505E-2,-2.0725014E-2,2.7929237E-2,5.0519807E-3,-7.659244E-2,6.933225E-4,-2.0659875E-2,-1.8084472E-2,-7.218037E-2,-2.0658045E-1,-1.1868981E-2,-2.9660536E-2,-1.2019511E-1,1.8388455E-4,9.1990344E-2],"categories":[],"categories_nodes":[],"categories_segments":[],"categories_sizes":[],"default_left":[0,0,0,0,0,0,0,0,0,0,0,0,0,0,0,0,0,0,0,0,0,0,0,0,0,0,0,0,0,0,0],"id":10,"left_children":[1,3,5,7,9,11,13,15,17,19,21,23,25,27,29,-1,-1,-1,-1,-1,-1,-1,-1,-1,-1,-1,-1,-1,-1,-1,-1],"loss_changes":[6.853072E2,1.6496971E2,6.043123E2,5.323158E2,2.3756468E2,4.6258423E2,3.3363885E2,1.4463425E2,5.683551E2,8.697122E2,1.3207428E2,3.124181E2,9.277488E2,1.4090762E2,1.9543631E2,0E0,0E0,0E0,0E0,0E0,0E0,0E0,0E0,0E0,0E0,0E0,0E0,0E0,0E0,0E0,0E0],"parents":[2147483647,0,0,1,1,2,2,3,3,4,4,5,5,6,6,7,7,8,8,9,9,10,10,11,11,12,12,13,13,14,14],"right_children":[2,4,6,8,10,12,14,16,18,20,22,24,26,28,30,-1,-1,-1,-1,-1,-1,-1,-1,-1,-1,-1,-1,-1,-1,-1,-1],"split_conditions":[2.02E-2,-7.863E-1,2.798E-1,9.3333E0,-2.43E-2,2.77E2,5.40172E1,-8E0,3.81E2,-2.27E-2,2.5277E0,6.95323E1,1.5466666E1,9.141E-1,1.7616667E1,4.953461E-2,1.1076505E-2,-2.0725014E-2,2.7929237E-2,5.0519807E-3,-7.659244E-2,6.933225E-4,-2.0659875E-2,-1.8084472E-2,-7.218037E-2,-2.0658045E-1,-1.1868981E-2,-2.9660536E-2,-1.2019511E-1,1.8388455E-4,9.1990344E-2],"split_indices":[3,1,1,12,3,14,0,14,14,1,1,0,12,1,12,0,0,0,0,0,0,0,0,0,0,0,0,0,0,0,0],"split_type":[0,0,0,0,0,0,0,0,0,0,0,0,0,0,0,0,0,0,0,0,0,0,0,0,0,0,0,0,0,0,0],"sum_hessian":[2.98122E5,2.94605E5,3.517E3,6.984E3,2.87621E5,1.569E3,1.948E3,1.541E3,5.443E3,1.575E3,2.86046E5,1.325E3,2.44E2,1.76E2,1.772E3,3.04E2,1.237E3,4.757E3,6.86E2,1.115E3,4.6E2,2.85321E5,7.25E2,9.55E2,3.7E2,1.2E2,1.24E2,1.01E2,7.5E1,1.713E3,5.9E1],"tree_param":{"num_deleted":"0","num_feature":"15","num_nodes":"31","size_leaf_vector":"1"}},{"base_weights":[-3.0724916E-3,7.119657E-2,-5.1930655E-2,6.262083E-2,3.4938702E-1,-8.436686E-1,-4.5995504E-2,6.808196E-2,-3.8612828E-1,1.9049352E-1,5.5676746E-1,-7.681243E-2,-2.6081948E0,-4.12821E-2,-4.8701453E-1,8.086688E-3,2.409765E-3,-7.6469146E-2,-6.729147E-4,1.9867739E-2,-4.1056983E-3,-3.0809483E-2,3.343193E-2,7.788154E-2,-1.0559547E-2,-3.996634E-2,-4.133297E-1,-5.309819E-3,-1.0040941E-3,-8.997094E-3,-6.115557E-2],"categories":[],"categories_nodes":[],"categories_segments":[],"categories_sizes":[],"default_left":[0,0,0,0,0,0,0,0,0,0,0,0,0,0,0,0,0,0,0,0,0,0,0,0,0,0,0,0,0,0,0],"id":11,"left_children":[1,3,5,7,9,11,13,15,17,19,21,23,25,27,29,-1,-1,-1,-1,-1,-1,-1,-1,-1,-1,-1,-1,-1,-1,-1,-1],"loss_changes":[1.0810221E3,2.8200238E2,8.443773E2,2.8107236E2,1.1637717E2,1.808945E3,3.7074136E2,2.1101013E2,5.8751154E2,1.12985664E2,2.015722E2,2.0524753E2,4.138688E3,2.4286487E2,4.2608234E2,0E0,0E0,0E0,0E0,0E0,0E0,0E0,0E0,0E0,0E0,0E0,0E0,0E0,0E0,0E0,0E0],"parents":[2147483647,0,0,1,1,2,2,3,3,4,4,5,5,6,6,7,7,8,8,9,9,10,10,11,11,12,12,13,13,14,14],"right_children":[2,4,6,8,10,12,14,16,18,20,22,24,26,28,30,-1,-1,-1,-1,-1,-1,-1,-1,-1,-1,-1,-1,-1,-1,-1,-1],"split_conditions":[2E0,7.11E-1,-1.6249E0,1.78E-2,1.115E1,4E0,2.02E-2,-1.252E-1,2.66E-2,9.8333E0,1.3E-3,-3.14E-2,1.265E1,-2.1E-3,1.22667E1,8.086688E-3,2.409765E-3,-7.6469146E-2,-6.729147E-4,1.9867739E-2,-4.1056983E-3,-3.0809483E-2,3.343193E-2,7.788154E-2,-1.0559547E-2,-3.996634E-2,-4.133297E-1,-5.309819E-3,-1.0040941E-3,-8.997094E-3,-6.115557E-2],"split_indices":[13,1,1,3,12,13,3,1,1,12,3,3,12,3,12,0,0,0,0,0,0,0,0,0,0,0,0,0,0,0,0],"split_type":[0,0,0,0,0,0,0,0,0,0,0,0,0,0,0,0,0,0,0,0,0,0,0,0,0,0,0,0,0,0,0],"sum_hessian":[2.97911E5,1.18214E5,1.79697E5,1.1468E5,3.534E3,1.336E3,1.78361E5,1.13302E5,1.378E3,2.002E3,1.532E3,9.32E2,4.04E2,1.76476E5,1.885E3,1.9844E4,9.3458E4,3.38E2,1.04E3,1.138E3,8.64E2,1.33E2,1.399E3,7E1,8.62E2,3.07E2,9.7E1,4.3445E4,1.33031E5,1.331E3,5.54E2],"tree_param":{"num_deleted":"0","num_feature":"15","num_nodes":"31","size_leaf_vector":"1"}},{"base_weights":[-1.315719E-3,6.750877E-2,-4.662571E-2,5.912159E-2,3.386525E-1,-9.407969E-1,-4.35187E-2,6.641668E-2,-5.397255E-1,1.6990656E-1,5.722912E-1,-1.3767014E-1,-3.5637681E0,-4.0671494E-2,-8.2123566E-1,1.0912585E-2,2.6975218E-3,-7.2876535E-2,-1.1307635E-2,2.1787902E-2,-7.592797E-3,4.4351365E-2,1.1677942E-2,-2.1401845E-2,5.50945E-2,-3.8730726E-2,-4.3720308E-1,-3.4346774E-2,-1.9348711E-3,-1.5725516E-1,-2.8844157E-2],"categories":[],"categories_nodes":[],"categories_segments":[],"categories_sizes":[],"default_left":[0,0,0,0,0,0,0,0,0,0,0,0,0,0,0,0,0,0,0,0,0,0,0,0,0,0,0,0,0,0,0],"id":12,"left_children":[1,3,5,7,9,11,13,15,17,19,21,23,25,27,29,-1,-1,-1,-1,-1,-1,-1,-1,-1,-1,-1,-1,-1,-1,-1,-1],"loss_changes":[9.3050116E2,2.693645E2,4.9984354E2,5.020063E2,1.4002124E2,1.3119077E3,3.970141E2,2.1486221E2,3.9769598E2,1.767084E2,1.5864365E2,1.7251675E2,2.102727E3,2.2789795E2,3.6955487E2,0E0,0E0,0E0,0E0,0E0,0E0,0E0,0E0,0E0,0E0,0E0,0E0,0E0,0E0,0E0,0E0],"parents":[2147483647,0,0,1,1,2,2,3,3,4,4,5,5,6,6,7,7,8,8,9,9,10,10,11,11,12,12,13,13,14,14],"right_children":[2,4,6,8,10,12,14,16,18,20,22,24,26,28,30,-1,-1,-1,-1,-1,-1,-1,-1,-1,-1,-1,-1,-1,-1,-1,-1],"split_conditions":[2E0,7.11E-1,-2.3334E0,1.78E-2,1.08E2,4.37319E1,3.08E-2,-5.233E-1,2.66E-2,9.783334E0,1E0,1.41333E1,4E0,-3.14E-2,9.8E-3,1.0912585E-2,2.6975218E-3,-7.2876535E-2,-1.1307635E-2,2.1787902E-2,-7.592797E-3,4.4351365E-2,1.1677942E-2,-2.1401845E-2,5.50945E-2,-3.8730726E-2,-4.3720308E-1,-3.4346774E-2,-1.9348711E-3,-1.5725516E-1,-2.8844157E-2],"split_indices":[13,1,1,3,14,0,3,6,1,12,13,12,13,3,1,0,0,0,0,0,0,0,0,0,0,0,0,0,0,0,0],"split_type":[0,0,0,0,0,0,0,0,0,0,0,0,0,0,0,0,0,0,0,0,0,0,0,0,0,0,0,0,0,0,0],"sum_hessian":[2.98385E5,1.18455E5,1.7993E5,1.14902E5,3.553E3,6.22E2,1.79308E5,1.1352E5,1.382E3,2.064E3,1.489E3,4.77E2,1.45E2,1.78655E5,6.53E2,8.612E3,1.04908E5,3.51E2,1.031E3,1.13E3,9.34E2,7.71E2,7.18E2,3.87E2,9E1,9.5E1,5E1,5.43E2,1.78112E5,6.1E1,5.92E2],"tree_param":{"num_deleted":"0","num_feature":"15","num_nodes":"31","size_leaf_vector":"1"}},{"base_weights":[1.5465266E-4,1.16035804E-1,-2.6734846E-2,9.4635144E-2,4.0421134E-1,-2.3975132E-2,-7.7299863E-1,1.0404088E-1,-8.0943596E-1,2.274727E-1,6.968849E-1,7.744389E-3,-5.731646E-2,-1.8496077E-1,-5.909316E-1,1.1894686E-2,3.7379113E-3,-1.1676085E-1,-1.788027E-3,1.1072991E-1,8.366968E-3,1.9021707E-2,6.1765935E-2,7.5537525E-3,4.892505E-5,-4.224018E-2,-2.5737162E-3,-1.3602333E-1,-2.2635365E-2],"categories":[],"categories_nodes":[],"categories_segments":[],"categories_sizes":[],"default_left":[0,0,0,0,0,0,0,0,0,0,0,0,0,0,0,0,0,0,0,0,0,0,0,0,0,0,0,0,0],"id":13,"left_children":[1,3,5,7,9,11,13,15,17,19,21,23,25,-1,27,-1,-1,-1,-1,-1,-1,-1,-1,-1,-1,-1,-1,-1,-1],"loss_changes":[9.284236E2,3.4604346E2,4.9804083E2,4.4429642E2,2.0048944E2,2.5482005E2,4.7250983E2,2.0263165E2,6.3500366E2,2.8880124E2,2.4829614E2,1.19743774E2,5.4039417E2,0E0,2.4602536E2,0E0,0E0,0E0,0E0,0E0,0E0,0E0,0E0,0E0,0E0,0E0,0E0,0E0,0E0],"parents":[2147483647,0,0,1,1,2,2,3,3,4,4,5,5,6,6,7,7,8,8,9,9,10,10,11,11,12,12,14,14],"right_children":[2,4,6,8,10,12,14,16,18,20,22,24,26,-1,28,-1,-1,-1,-1,-1,-1,-1,-1,-1,-1,-1,-1,-1,-1],"split_conditions":[1E0,3.577E-1,3.08E-2,1.78E-2,1.2183333E1,3E0,5.9E-3,-1.252E-1,8E-3,-7.221E-1,8.8E-3,-1.01E-2,-1.6249E0,-1.8496077E-1,-7.221E-1,1.1894686E-2,3.7379113E-3,-1.1676085E-1,-1.788027E-3,1.1072991E-1,8.366968E-3,1.9021707E-2,6.1765935E-2,7.5537525E-3,4.892505E-5,-4.224018E-2,-2.5737162E-3,-1.3602333E-1,-2.2635365E-2],"split_indices":[13,1,3,3,12,13,1,1,5,5,3,3,1,0,5,0,0,0,0,0,0,0,0,0,0,0,0,0,0],"split_type":[0,0,0,0,0,0,0,0,0,0,0,0,0,0,0,0,0,0,0,0,0,0,0,0,0,0,0,0,0],"sum_hessian":[2.97953E5,5.6116E4,2.41837E5,5.2238E4,3.878E3,2.40947E5,8.9E2,5.1701E4,5.37E2,2.419E3,1.459E3,1.23477E5,1.1747E5,5.1E1,8.39E2,9.279E3,4.2422E4,1.8E2,3.57E2,7E1,2.349E3,9.2E2,5.39E2,5.565E3,1.17912E5,8.64E2,1.16606E5,5E1,7.89E2],"tree_param":{"num_deleted":"0","num_feature":"15","num_nodes":"29","size_leaf_vector":"1"}},{"base_weights":[7.794195E-4,6.1051495E-2,-3.8906075E-2,6.3831374E-2,-5.3778887E-1,-6.419428E-1,-3.4538005E-2,5.2715123E-2,2.225722E-1,-2.3080676E0,1.04887314E-1,-7.5068116E-2,-1.9915893E0,-5.646218E-1,-3.1427372E-2,9.467303E-3,1.9545096E-3,9.100172E-3,7.60171E-2,-2.1094982E-1,-4.0338606E-2,-1.7413085E-2,8.0956444E-2,-1.242177E-2,5.772547E-2,-2.9442145E-2,-3.3093822E-1,-5.999068E-3,-8.405294E-2,-1.2833794E-3,-1.0243386E-2],"categories":[],"categories_nodes":[],"categories_segments":[],"categories_sizes":[],"default_left":[0,0,0,0,0,0,0,0,0,0,0,0,0,0,0,0,0,0,0,0,0,0,0,0,0,0,0,0,0,0,0],"id":14,"left_children":[1,3,5,7,9,11,13,15,17,19,21,23,25,27,29,-1,-1,-1,-1,-1,-1,-1,-1,-1,-1,-1,-1,-1,-1,-1,-1],"loss_changes":[7.1437286E2,1.9742654E2,4.743408E2,2.082608E2,6.237104E2,9.9062964E2,2.9479004E2,2.0533496E2,4.063836E2,4.154513E2,2.7709323E2,1.9490967E2,2.482061E3,5.1755707E2,1.7756226E2,0E0,0E0,0E0,0E0,0E0,0E0,0E0,0E0,0E0,0E0,0E0,0E0,0E0,0E0,0E0,0E0],"parents":[2147483647,0,0,1,1,2,2,3,3,4,4,5,5,6,6,7,7,8,8,9,9,10,10,11,11,12,12,13,13,14,14],"right_children":[2,4,6,8,10,12,14,16,18,20,22,24,26,28,30,-1,-1,-1,-1,-1,-1,-1,-1,-1,-1,-1,-1,-1,-1,-1,-1],"split_conditions":[2E0,3.08E-2,-1.6249E0,8.4E-3,6.67E-2,4E0,-2.43E-2,-2.69E-1,1.815E1,1.8E-3,1.26E1,1.55833E1,-7.2E-3,3.298E-1,1.2E-2,9.467303E-3,1.9545096E-3,9.100172E-3,7.60171E-2,-2.1094982E-1,-4.0338606E-2,-1.7413085E-2,8.0956444E-2,-1.242177E-2,5.772547E-2,-2.9442145E-2,-3.3093822E-1,-5.999068E-3,-8.405294E-2,-1.2833794E-3,-1.0243386E-2],"split_indices":[13,3,1,3,1,13,3,1,12,5,12,12,3,2,3,0,0,0,0,0,0,0,0,0,0,0,0,0,0,0,0],"split_type":[0,0,0,0,0,0,0,0,0,0,0,0,0,0,0,0,0,0,0,0,0,0,0,0,0,0,0,0,0,0,0],"sum_hessian":[2.98658E5,1.18574E5,1.80084E5,1.18027E5,5.47E2,1.294E3,1.7879E5,1.10304E5,7.723E3,1.45E2,4.02E2,9.12E2,3.82E2,1.042E3,1.77748E5,1.0001E4,1.00303E5,7.49E3,2.33E2,6.3E1,8.2E1,3.1E2,9.2E1,8E2,1.12E2,2.94E2,8.8E1,7.46E2,2.96E2,1.72036E5,5.712E3],"tree_param":{"num_deleted":"0","num_feature":"15","num_nodes":"31","size_leaf_vector":"1"}},{"base_weights":[2.122918E-3,1.00242175E-1,-2.0711876E-2,1.09202266E-1,-7.668986E-1,1.1654728E-2,-5.469122E-2,9.4874054E-2,5.8653617E-1,-3.2240818E0,-1.3353361E-1,1.0898713E-1,-1.6401353E-3,-1.2317736E0,-5.0286554E-2,3.6407907E-2,4.45426E-3,-1.727196E-3,3.6307063E-2,-2.0799825E-2,-2.6413664E-1,-2.8736193E-2,9.2145376E-2,8.131329E-3,-8.660629E-3,4.139381E-5,-3.0887142E-2,-2.8606362E-4,-1.7657931E-1,-5.6349672E-2,-2.340241E-3],"categories":[],"categories_nodes":[],"categories_segments":[],"categories_sizes":[],"default_left":[0,0,0,0,0,0,0,0,0,0,0,0,0,0,0,0,0,0,0,0,0,0,0,0,0,0,0,0,0,0,0],"id":15,"left_children":[1,3,5,7,9,11,13,15,17,19,21,23,25,27,29,-1,-1,-1,-1,-1,-1,-1,-1,-1,-1,-1,-1,-1,-1,-1,-1],"loss_changes":[6.6825903E2,4.3757776E2,2.6609738E2,3.8112134E2,8.959947E2,1.6035138E2,6.119086E2,1.9830179E2,1.4083557E2,6.799447E2,4.0130096E2,2.2544894E2,1.6577983E2,1.2406437E3,4.4079218E2,0E0,0E0,0E0,0E0,0E0,0E0,0E0,0E0,0E0,0E0,0E0,0E0,0E0,0E0,0E0,0E0],"parents":[2147483647,0,0,1,1,2,2,3,3,4,4,5,5,6,6,7,7,8,8,9,9,10,10,11,11,12,12,13,13,14,14],"right_children":[2,4,6,8,10,12,14,16,18,20,22,24,26,28,30,-1,-1,-1,-1,-1,-1,-1,-1,-1,-1,-1,-1,-1,-1,-1,-1],"split_conditions":[1E0,2.39E-2,3E0,7.11E-1,3.2E-2,-4.9E-3,-2.3334E0,-1.6249E0,5.35496E1,5.76913E1,1.2683333E1,-2.17E-2,1.2125E0,-1.28E-2,-3.14E-2,3.6407907E-2,4.45426E-3,-1.727196E-3,3.6307063E-2,-2.0799825E-2,-2.6413664E-1,-2.8736193E-2,9.2145376E-2,8.131329E-3,-8.660629E-3,4.139381E-5,-3.0887142E-2,-2.8606362E-4,-1.7657931E-1,-5.6349672E-2,-2.340241E-3],"split_indices":[13,3,13,1,1,3,1,1,0,0,12,1,5,3,3,0,0,0,0,0,0,0,0,0,0,0,0,0,0,0,0],"split_type":[0,0,0,0,0,0,0,0,0,0,0,0,0,0,0,0,0,0,0,0,0,0,0,0,0,0,0,0,0,0,0],"sum_hessian":[2.98257E5,5.6307E4,2.4195E5,5.5732E4,5.75E2,1.23916E5,1.18034E5,5.4109E4,1.623E3,1.17E2,4.58E2,1.4891E4,1.09025E5,4.39E2,1.17595E5,4.89E2,5.362E4,2.98E2,1.325E3,5E1,6.7E1,3.75E2,8.3E1,1.2513E4,2.378E3,1.08591E5,4.34E2,2.87E2,1.52E2,3.78E2,1.17217E5],"tree_param":{"num_deleted":"0","num_feature":"15","num_nodes":"31","size_leaf_vector":"1"}},{"base_weights":[-1.7623119E-3,5.3324156E-2,-3.8041368E-2,4.5169085E-2,3.1621787E-1,-6.693699E-1,-3.3311132E-2,5.1501893E-2,-4.665106E-1,1.0928357E-1,5.491856E-1,4.1656373E-3,-2.3683255E0,-2.9610142E-2,-3.7723014E-1,2.4481522E-2,2.3831034E-3,-7.140385E-2,-7.985422E-3,5.5039782E-2,1.0841833E-3,4.1789517E-2,1.1955632E-2,-4.557097E-3,7.553105E-2,-1.3895298E-2,-4.0212622E-1,-4.191425E-3,-4.7862282E-4,-2.0930076E-3,-5.85899E-2],"categories":[],"categories_nodes":[],"categories_segments":[],"categories_sizes":[],"default_left":[0,0,0,0,0,0,0,0,0,0,0,0,0,0,0,0,0,0,0,0,0,0,0,0,0,0,0,0,0,0,0],"id":16,"left_children":[1,3,5,7,9,11,13,15,17,19,21,23,25,27,29,-1,-1,-1,-1,-1,-1,-1,-1,-1,-1,-1,-1,-1,-1,-1,-1],"loss_changes":[5.9504694E2,2.5345883E2,5.360841E2,3.716068E2,1.714195E2,1.5276597E3,2.267913E2,1.905383E2,4.133768E2,1.6370036E2,1.4847693E2,1.3754047E2,4.4932563E3,1.9152249E2,5.0545258E2,0E0,0E0,0E0,0E0,0E0,0E0,0E0,0E0,0E0,0E0,0E0,0E0,0E0,0E0,0E0,0E0],"parents":[2147483647,0,0,1,1,2,2,3,3,4,4,5,5,6,6,7,7,8,8,9,9,10,10,11,11,12,12,13,13,14,14],"right_children":[2,4,6,8,10,12,14,16,18,20,22,24,26,28,30,-1,-1,-1,-1,-1,-1,-1,-1,-1,-1,-1,-1,-1,-1,-1,-1],"split_conditions":[2E0,7.11E-1,-1.6249E0,1.78E-2,8.1E1,4E0,2.02E-2,-1.6249E0,2.55E-2,-4.739E-1,1E0,4.47E2,1.81E2,-1.8E-3,1.66E2,2.4481522E-2,2.3831034E-3,-7.140385E-2,-7.985422E-3,5.5039782E-2,1.0841833E-3,4.1789517E-2,1.1955632E-2,-4.557097E-3,7.553105E-2,-1.3895298E-2,-4.0212622E-1,-4.191425E-3,-4.7862282E-4,-2.0930076E-3,-5.85899E-2],"split_indices":[13,1,1,3,14,13,3,1,1,5,13,14,14,3,14,0,0,0,0,0,0,0,0,0,0,0,0,0,0,0,0],"split_type":[0,0,0,0,0,0,0,0,0,0,0,0,0,0,0,0,0,0,0,0,0,0,0,0,0,0,0,0,0,0,0],"sum_hessian":[2.97747E5,1.18228E5,1.79519E5,1.14672E5,3.556E3,1.334E3,1.78185E5,1.13271E5,1.401E3,1.884E3,1.672E3,9.56E2,3.78E2,1.76289E5,1.896E3,9.83E2,1.12288E5,3.38E2,1.063E3,1.52E2,1.732E3,8.68E2,8.04E2,9E2,5.6E1,2.77E2,1.01E2,4.757E4,1.28719E5,1.334E3,5.62E2],"tree_param":{"num_deleted":"0","num_feature":"15","num_nodes":"31","size_leaf_vector":"1"}},{"base_weights":[-1.7107566E-3,3.7228927E-4,-5.2910024E-1,-6.0802124E-2,6.953764E-3,-1.4783543E0,-9.277707E-2,2.4940799E-1,-1.3437755E-1,9.02765E-3,-1.5031263E-1,-1.0064055E0,-2.1680366E-1,1.109769E-1,-2.4905731E-1,1.1036766E-2,1.6615878E-1,-7.0390366E-3,1.07824005E-1,2.7323699E-2,3.9475752E-4,-1.1966536E-4,-4.8324555E-2,-2.4876243E-2,-1.17592625E-1,-2.2402015E-2,6.0279965E-2],"categories":[],"categories_nodes":[],"categories_segments":[],"categories_sizes":[],"default_left":[0,0,0,0,0,0,0,0,0,0,0,0,0,0,0,0,0,0,0,0,0,0,0,0,0,0,0],"id":17,"left_children":[1,3,5,7,9,11,13,15,17,19,21,23,-1,-1,25,-1,-1,-1,-1,-1,-1,-1,-1,-1,-1,-1,-1],"loss_changes":[3.2726724E2,1.19469215E2,4.8528357E2,6.578851E2,8.738022E1,4.9330542E2,2.910936E2,4.8629016E2,3.420564E2,1.6093813E2,4.2097824E2,2.1655563E2,0E0,0E0,2.1878687E2,0E0,0E0,0E0,0E0,0E0,0E0,0E0,0E0,0E0,0E0,0E0,0E0],"parents":[2147483647,0,0,1,1,2,2,3,3,4,4,5,5,6,6,7,7,8,8,9,9,10,10,11,11,14,14],"right_children":[2,4,6,8,10,12,14,16,18,20,22,24,-1,-1,26,-1,-1,-1,-1,-1,-1,-1,-1,-1,-1,-1,-1],"split_conditions":[3.08E-2,-6E-3,6.665E-1,2E0,1.78E-2,6.284E-1,-1.889E-1,1.1713E0,6.59937E1,-8.682E-1,2.8E2,2.12E2,-2.1680366E-1,1.109769E-1,3.89E2,1.1036766E-2,1.6615878E-1,-7.0390366E-3,1.07824005E-1,2.7323699E-2,3.9475752E-4,-1.1966536E-4,-4.8324555E-2,-2.4876243E-2,-1.17592625E-1,-2.2402015E-2,6.0279965E-2],"split_indices":[3,3,2,14,3,2,5,6,0,5,14,14,0,0,14,0,0,0,0,0,0,0,0,0,0,0,0],"split_type":[0,0,0,0,0,0,0,0,0,0,0,0,0,0,0,0,0,0,0,0,0,0,0,0,0,0,0],"sum_hessian":[2.979E5,2.96729E5,1.171E3,2.8822E4,2.67907E5,3.68E2,8.03E2,5.525E3,2.3297E4,2.64421E5,3.486E3,3.17E2,5.1E1,5E1,7.53E2,5.475E3,5E1,2.3233E4,6.4E1,5.55E2,2.63866E5,2.952E3,5.34E2,2.31E2,8.6E1,6.63E2,9E1],"tree_param":{"num_deleted":"0","num_feature":"15","num_nodes":"27","size_leaf_vector":"1"}},{"base_weights":[3.0841355E-4,3.6635958E-2,-5.513886E-2,3.9399136E-2,-6.2054324E-1,-4.7224317E-2,-6.246337E-1,9.411928E-2,1.4671629E-2,-1.6727664E0,-2.324602E-1,-3.4675953E-1,-3.5929754E-2,1.2686454E-1,-1.4701126E0,2.6727992E-3,1.2162492E-2,8.766471E-3,3.4676507E-4,-1.6644249E-2,-1.8229245E-1,4.1464694E-2,-2.28903E-2,-2.198152E-3,-3.462418E-2,-2.382208E-2,-1.5065144E-3,2.3721877E-2,-2.4710672E-2,-3.727452E-1,-5.0578453E-2],"categories":[],"categories_nodes":[],"categories_segments":[],"categories_sizes":[],"default_left":[0,0,0,0,0,0,0,0,0,0,0,0,0,0,0,0,0,0,0,0,0,0,0,0,0,0,0,0,0,0,0],"id":18,"left_children":[1,3,5,7,9,11,13,15,17,19,21,23,25,27,29,-1,-1,-1,-1,-1,-1,-1,-1,-1,-1,-1,-1,-1,-1,-1,-1],"loss_changes":[6.003351E2,3.2700864E2,5.3171826E2,2.4262708E2,3.0750705E2,3.93644E2,1.0275894E3,3.3842664E2,1.5350333E2,5.354568E2,1.3245216E2,4.425737E2,2.86453E2,1.85235E2,2.0808613E3,0E0,0E0,0E0,0E0,0E0,0E0,0E0,0E0,0E0,0E0,0E0,0E0,0E0,0E0,0E0,0E0],"parents":[2147483647,0,0,1,1,2,2,3,3,4,4,5,5,6,6,7,7,8,8,9,9,10,10,11,11,12,12,13,13,14,14],"right_children":[2,4,6,8,10,12,14,16,18,20,22,24,26,28,30,-1,-1,-1,-1,-1,-1,-1,-1,-1,-1,-1,-1,-1,-1,-1,-1],"split_conditions":[3E0,3.08E-2,1.0744E0,1E0,7.6E-2,-5.748E-1,4E0,1.032E-1,-1.01E-2,1.8042E0,2.134E-1,4E0,-1.63E-2,9.594E-1,4.9671E1,2.6727992E-3,1.2162492E-2,8.766471E-3,3.4676507E-4,-1.6644249E-2,-1.8229245E-1,4.1464694E-2,-2.28903E-2,-2.198152E-3,-3.462418E-2,-2.382208E-2,-1.5065144E-3,2.3721877E-2,-2.4710672E-2,-3.727452E-1,-5.0578453E-2],"split_indices":[13,3,1,13,1,1,13,1,3,6,1,13,3,4,0,0,0,0,0,0,0,0,0,0,0,0,0,0,0,0,0],"split_type":[0,0,0,0,0,0,0,0,0,0,0,0,0,0,0,0,0,0,0,0,0,0,0,0,0,0,0,0,0,0,0],"sum_hessian":[2.9804E5,1.80066E5,1.17974E5,1.79313E5,7.53E2,1.16358E5,1.616E3,5.5809E4,1.23504E5,2.02E2,5.51E2,4.227E3,1.12131E5,8.56E2,7.6E2,4.3853E4,1.1956E4,5.673E3,1.17831E5,1.21E2,8.1E1,9.6E1,4.55E2,2.254E3,1.973E3,1.456E3,1.10675E5,5.49E2,3.07E2,5.3E1,7.07E2],"tree_param":{"num_deleted":"0","num_feature":"15","num_nodes":"31","size_leaf_vector":"1"}},{"base_weights":[-3.931975E-3,1.3351567E-3,-3.3317742E-1,-3.5522692E-2,1.5708607E-2,-9.095541E-1,-1.228942E-1,-3.728466E-2,1.275118E-1,-4.240479E-2,3.0145243E-2,3.8312712E-1,-1.1169772E0,3.459223E-2,-5.700535E-1,4.694027E-3,-3.2174743E-3,-1.12582195E-4,-8.4255645E-3,1.180166E-3,8.697563E-3,5.032305E-2,-5.103488E-2,-1.0908144E-1,-4.0263917E-2,-4.6780207E-3,3.3389453E-2,-1.0315501E-1,-1.1109628E-2],"categories":[],"categories_nodes":[],"categories_segments":[],"categories_sizes":[],"default_left":[0,0,0,0,0,0,0,0,0,0,0,0,0,0,0,0,0,0,0,0,0,0,0,0,0,0,0,0,0],"id":19,"left_children":[1,3,5,7,9,11,13,15,-1,17,19,21,23,25,27,-1,-1,-1,-1,-1,-1,-1,-1,-1,-1,-1,-1,-1,-1],"loss_changes":[5.1632104E2,1.5524829E2,5.680847E2,3.7467813E2,1.7687875E2,3.3639734E2,2.4198808E2,2.9167813E2,0E0,2.1243169E2,1.5886993E2,1.5328629E2,3.5664185E2,2.0633522E2,4.6438016E2,0E0,0E0,0E0,0E0,0E0,0E0,0E0,0E0,0E0,0E0,0E0,0E0,0E0,0E0],"parents":[2147483647,0,0,1,1,2,2,3,3,4,4,5,5,6,6,7,7,9,9,10,10,11,11,12,12,13,13,14,14],"right_children":[2,4,6,8,10,12,14,16,-1,18,20,22,24,26,28,-1,-1,-1,-1,-1,-1,-1,-1,-1,-1,-1,-1,-1,-1],"split_conditions":[1.78E-2,-1.7E-3,8.86E-2,2.3811E0,8.966666E0,-3E-3,1.2066667E1,8.9E0,1.275118E-1,-3.1E1,5.338E-1,6.734E-1,8.9E-3,1.1183333E1,2.476E-1,4.694027E-3,-3.2174743E-3,-1.12582195E-4,-8.4255645E-3,1.180166E-3,8.697563E-3,5.032305E-2,-5.103488E-2,-1.0908144E-1,-4.0263917E-2,-4.6780207E-3,3.3389453E-2,-1.0315501E-1,-1.1109628E-2],"split_indices":[3,3,1,6,12,1,12,12,0,14,1,2,1,12,1,0,0,0,0,0,0,0,0,0,0,0,0,0,0],"split_type":[0,0,0,0,0,0,0,0,0,0,0,0,0,0,0,0,0,0,0,0,0,0,0,0,0,0,0,0,0],"sum_hessian":[2.97731E5,2.93044E5,4.687E3,8.2216E4,2.10828E5,1.252E3,3.435E3,8.2161E4,5.5E1,4.1952E4,1.68876E5,1.73E2,1.079E3,2.541E3,8.94E2,1.4053E4,6.8108E4,3.1821E4,1.0131E4,1.61529E5,7.347E3,1.2E2,5.3E1,2.43E2,8.36E2,2.114E3,4.27E2,1.68E2,7.26E2],"tree_param":{"num_deleted":"0","num_feature":"15","num_nodes":"29","size_leaf_vector":"1"}},{"base_weights":[2.7323575E-3,7.5442595E-3,-2.966138E-1,-3.4898606E-1,8.952794E-3,-1.01508096E-1,-8.2623816E-1,-1.0034151E-2,-2.2217824E0,-7.945778E-3,3.560685E-2,1.2344976E-1,-1.4004713E-1,-1.7275796E0,-2.5021982E-1,-1.2474513E-2,4.5044363E-2,-3.479603E-1,-1.5092911E-2,-3.4385858E-4,-6.0845762E-2,-2.915598E-3,3.064168E-3,-3.0199006E-2,-8.663131E-4,-2.4816802E-1,-6.7642756E-2,-2.7108852E-2,2.7221525E-2],"categories":[],"categories_nodes":[],"categories_segments":[],"categories_sizes":[],"default_left":[0,0,0,0,0,0,0,0,0,0,0,0,0,0,0,0,0,0,0,0,0,0,0,0,0,0,0,0,0],"id":20,"left_children":[1,3,5,7,9,11,13,15,17,19,21,-1,23,25,27,-1,-1,-1,-1,-1,-1,-1,-1,-1,-1,-1,-1,-1,-1],"loss_changes":[4.2956702E2,1.4739648E2,4.8743994E2,7.331577E2,1.3167924E2,3.420199E2,6.58938E2,2.1376979E2,1.6078015E3,2.3113802E2,2.7354803E2,0E0,1.935091E2,5.934857E2,1.8033022E2,0E0,0E0,0E0,0E0,0E0,0E0,0E0,0E0,0E0,0E0,0E0,0E0,0E0,0E0],"parents":[2147483647,0,0,1,1,2,2,3,3,4,4,5,5,6,6,7,7,8,8,9,9,10,10,12,12,13,13,14,14],"right_children":[2,4,6,8,10,12,14,16,18,20,22,-1,24,26,28,-1,-1,-1,-1,-1,-1,-1,-1,-1,-1,-1,-1,-1,-1],"split_conditions":[1.78E-2,-2.3334E0,1.22667E1,4.61272E1,9E-4,4.24762E1,1.308E-1,2.34E2,2.879E-1,1.3134E0,9.266666E0,1.2344976E-1,7.6E-2,-4.106E-1,1.68E1,-1.2474513E-2,4.5044363E-2,-3.479603E-1,-1.5092911E-2,-3.4385858E-4,-6.0845762E-2,-2.915598E-3,3.064168E-3,-3.0199006E-2,-8.663131E-4,-2.4816802E-1,-6.7642756E-2,-2.7108852E-2,2.7221525E-2],"split_indices":[3,1,12,0,3,0,1,14,5,1,12,0,1,5,12,0,0,0,0,0,0,0,0,0,0,0,0,0,0],"split_type":[0,0,0,0,0,0,0,0,0,0,0,0,0,0,0,0,0,0,0,0,0,0,0,0,0,0,0,0,0],"sum_hessian":[2.9822E5,2.93503E5,4.717E3,1.154E3,2.92349E5,3.448E3,1.269E3,9.78E2,1.76E2,1.78917E5,1.13432E5,5E1,3.398E3,4.94E2,7.75E2,7.75E2,2.03E2,5E1,1.26E2,1.7876E5,1.57E2,2.4353E4,8.9079E4,7.1E2,2.688E3,5E1,4.44E2,5.67E2,2.08E2],"tree_param":{"num_deleted":"0","num_feature":"15","num_nodes":"29","size_leaf_vector":"1"}}]},"name":"gbtree"},"learner_model_param":{"base_score":"[2.6991334E-2]","boost_from_average":"1","num_class":"0","num_feature":"15","num_target":"1"},"objective":{"name":"reg:squarederror","reg_loss_param":{"scale_pos_weight":"1"}}},"version":[3,2,0]}