{"learner":{"attributes":{"best_iteration":"0","best_score":"0.48857090707487316"},"feature_names":["rsi_14","macd_signal","bb_position","vwap_deviation","volume_ratio","price_change_5","price_change_20","price_change_1d","price_change_5d","sentiment_avg_1h","sentiment_count_1h","sentiment_deviation","sentiment_momentum","has_breaking_event","hour_of_day","day_of_week","minutes_since_open"],"feature_types":[],"gradient_booster":{"model":{"cats":{"enc":[],"feature_segments":[],"sorted_idx":[]},"gbtree_model_param":{"num_parallel_tree":"1","num_trees":"31"},"iteration_indptr":[0,1,2,3,4,5,6,7,8,9,10,11,12,13,14,15,16,17,18,19,20,21,22,23,24,25,26,27,28,29,30,31],"tree_info":[0,0,0,0,0,0,0,0,0,0,0,0,0,0,0,0,0,0,0,0,0,0,0,0,0,0,0,0,0,0,0],"trees":[{"base_weights":[-2.9324356E-4,-7.1595415E-2,8.956337E-2,-7.2085845E-1,-5.759437E-2,9.401125E-2,-4.00318E-1,-1.832174E-2,-8.4324783E-1,3.5532095E-2,-8.003865E-2,8.400483E-2,2.2395454E-1,-7.417698E-1,-2.41842E-3,-8.655576E-1,3.8497135E-1,-8.9650756E-1,2.843034E-1,2.43494E-1,-1.5289892E-2,-1.6406158E-1,-4.683527E-2,1.0120633E-1,1.9668315E-2,3.4026283E-1,-1.13898024E-1,3.3682847E-1,-8.5232484E-1,-3.1698015E-1,3.3669636E-1,-5.2569598E-2,1.04767755E-2,2.6902258E-2,-1.805385E-2,-4.823127E-2,-4.345061E-3,-6.1627205E-2,4.373409E-2,1.2960265E-2,-7.032317E-2,1.3198561E-2,-2.921061E-3,1.1017992E-3,-9.5506E-3,-7.5520476E-4,-4.6285256E-3,3.7567E-3,7.439492E-3,-1.4515259E-4,1.6879542E-2,-7.2520696E-2,1.7725447E-2,-1.295351E-4,-3.3585016E-2,-1.6926654E-2,4.217246E-2,-5.8461983E-2,-3.3286724E-2,-4.7120344E-2,-8.961985E-3,5.1900294E-2,5.4881196E-3],"categories":[],"categories_nodes":[],"categories_segments":[],"categories_sizes":[],"default_left":[0,0,0,0,0,0,0,0,0,0,0,0,0,0,0,0,0,0,0,0,0,0,0,0,0,0,0,0,0,0,0,0,0,0,0,0,0,0,0,0,0,0,0,0,0,0,0,0,0,0,0,0,0,0,0,0,0,0,0,0,0,0,0],"id":0,"left_children":[1,3,5,7,9,11,13,15,17,19,21,23,25,27,29,31,33,35,37,39,41,43,45,47,49,51,53,55,57,59,61,-1,-1,-1,-1,-1,-1,-1,-1,-1,-1,-1,-1,-1,-1,-1,-1,-1,-1,-1,-1,-1,-1,-1,-1,-1,-1,-1,-1,-1,-1,-1,-1],"loss_changes":[4.107643E2,3.2490887E2,6.1843796E1,6.485886E1,7.314412E1,3.653296E1,3.4699917E1,3.8930912E1,3.8841248E1,7.183625E1,7.8659515E1,2.8885391E1,7.899575E1,1.6677834E1,1.2796602E1,7.5601997E0,9.013389E0,3.3766327E1,2.771112E1,3.4966827E1,6.581306E1,4.0059097E1,2.933139E1,2.5540115E1,3.95256E1,3.865207E1,3.1993814E1,4.9031777E0,6.6108246E0,5.191964E0,9.074051E0,0E0,0E0,0E0,0E0,0E0,0E0,0E0,0E0,0E0,0E0,0E0,0E0,0E0,0E0,0E0,0E0,0E0,0E0,0E0,0E0,0E0,0E0,0E0,0E0,0E0,0E0,0E0,0E0,0E0,0E0,0E0,0E0],"parents":[2147483647,0,0,1,1,2,2,3,3,4,4,5,5,6,6,7,7,8,8,9,9,10,10,11,11,12,12,13,13,14,14,15,15,16,16,17,17,18,18,19,19,20,20,21,21,22,22,23,23,24,24,25,25,26,26,27,27,28,28,29,29,30,30],"right_children":[2,4,6,8,10,12,14,16,18,20,22,24,26,28,30,32,34,36,38,40,42,44,46,48,50,52,54,56,58,60,62,-1,-1,-1,-1,-1,-1,-1,-1,-1,-1,-1,-1,-1,-1,-1,-1,-1,-1,-1,-1,-1,-1,-1,-1,-1,-1,-1,-1,-1,-1,-1,-1],"split_conditions":[8.618E-1,-1.66702E1,1.069E-1,-2.603E-1,-5.2285E0,1.1126E1,2E0,-1.58E-1,6.977E-1,1E0,-2.5565E0,5.705E0,7.53E-2,1.29508E1,8.026E-1,3.846E-1,-8.37E-2,-3.5E-2,-3.34743E1,1.57E-2,-3.53E-1,-2.287E-1,3E0,3.1575E0,6.64E-2,-2.83E-2,4E0,9.2684E0,2.46E-2,2.171E-1,-2.62E-2,-5.2569598E-2,1.04767755E-2,2.6902258E-2,-1.805385E-2,-4.823127E-2,-4.345061E-3,-6.1627205E-2,4.373409E-2,1.2960265E-2,-7.032317E-2,1.3198561E-2,-2.921061E-3,1.1017992E-3,-9.5506E-3,-7.5520476E-4,-4.6285256E-3,3.7567E-3,7.439492E-3,-1.4515259E-4,1.6879542E-2,-7.2520696E-2,1.7725447E-2,-1.295351E-4,-3.3585016E-2,-1.6926654E-2,4.217246E-2,-5.8461983E-2,-3.3286724E-2,-4.7120344E-2,-8.961985E-3,5.1900294E-2,5.4881196E-3],"split_indices":[8,8,3,1,8,8,15,3,1,15,8,8,3,8,4,5,3,3,8,3,1,1,15,8,3,3,15,8,1,2,1,0,0,0,0,0,0,0,0,0,0,0,0,0,0,0,0,0,0,0,0,0,0,0,0,0,0,0,0,0,0,0,0],"split_type":[0,0,0,0,0,0,0,0,0,0,0,0,0,0,0,0,0,0,0,0,0,0,0,0,0,0,0,0,0,0,0,0,0,0,0,0,0,0,0,0,0,0,0,0,0,0,0,0,0,0,0,0,0,0,0,0,0,0,0,0,0,0,0],"sum_hessian":[6.4110082E4,3.5745695E4,2.8364385E4,7.535012E2,3.4992195E4,2.8109969E4,2.5441599E2,1.1196303E2,6.4153815E2,6.7955063E3,2.819669E4,2.610163E4,2.0083368E3,1.3645494E2,1.1796105E2,3.57382E1,7.622483E1,6.1279767E2,2.8740509E1,1.3338096E3,5.461697E3,7.9853633E3,2.0211326E4,2.05947E4,5.5069316E3,1.4940067E3,5.1433014E2,1.2495873E1,1.2395907E2,6.1229782E1,5.6731266E1,3.0489933E1,5.248267E0,6.347904E1,1.2745791E1,5.650634E2,4.7734238E1,7.747442E0,2.0993069E1,1.3220635E3,1.1746121E1,7.30009E2,4.7316875E3,1.01016644E3,6.975197E3,1.193331E4,8.278017E3,1.3306356E4,7.2883433E3,5.142802E3,3.6412976E2,1.0996369E1,1.4830103E3,4.2960815E2,8.472202E1,5.4981847E0,6.9976892E0,4.3985477E1,7.9973595E1,9.996699E0,5.123308E1,1.2995708E1,4.3735558E1],"tree_param":{"num_deleted":"0","num_feature":"17","num_nodes":"63","size_leaf_vector":"1"}},{"base_weights":[1.589017E-3,-6.5030925E-2,9.124506E-2,-6.510431E-1,-5.2744452E-2,9.884374E-2,-1.7944063E-1,-8.295172E-2,-7.6357734E-1,-1.7641686E-2,-1.0269852E-1,8.8847704E-2,3.1047577E-1,-3.9308906E-1,2.1689843E-2,-8.0772406E-1,2.881882E-1,-8.141122E-1,3.350076E-1,7.470893E-2,-4.5489464E-2,1.0840746E-1,-1.2835357E-1,5.529242E-3,1.0450245E-1,-1.3415924E0,3.3923122E-1,-1.03169315E-1,-7.7548665E-1,2.1835676E-1,-5.771343E-1,-7.1630694E-2,-2.406265E-2,6.306471E-3,6.6427656E-2,-4.482888E-2,-6.9987425E-3,-4.89006E-2,4.0432304E-2,2.6618217E-3,1.4757569E-2,-4.7416347E-3,9.356529E-4,1.1278919E-2,-2.6264174E-3,-9.667098E-3,-1.5284207E-4,1.355013E-2,-2.4265875E-3,6.420427E-3,1.834091E-3,-3.437526E-2,-8.4900655E-2,3.7120573E-2,1.3767833E-2,-3.8496133E-2,2.3023232E-3,-1.198958E-2,-5.6621343E-2,-3.0039696E-2,1.4249195E-2,4.053667E-2,-4.3808144E-2],"categories":[],"categories_nodes":[],"categories_segments":[],"categories_sizes":[],"default_left":[0,0,0,0,0,0,0,0,0,0,0,0,0,0,0,0,0,0,0,0,0,0,0,0,0,0,0,0,0,0,0,0,0,0,0,0,0,0,0,0,0,0,0,0,0,0,0,0,0,0,0,0,0,0,0,0,0,0,0,0,0,0,0],"id":1,"left_children":[1,3,5,7,9,11,13,15,17,19,21,23,25,27,29,31,33,35,37,39,41,43,45,47,49,51,53,55,57,59,61,-1,-1,-1,-1,-1,-1,-1,-1,-1,-1,-1,-1,-1,-1,-1,-1,-1,-1,-1,-1,-1,-1,-1,-1,-1,-1,-1,-1,-1,-1,-1,-1],"loss_changes":[3.8350195E2,2.6518494E2,5.6316513E1,4.829074E1,6.3266357E1,5.6296204E1,3.2139847E1,3.417374E1,3.5314056E1,5.450255E1,8.0657974E1,3.3162155E1,5.7483185E1,4.0123863E1,4.5596756E1,8.081755E0,1.4025881E1,3.343698E1,1.849381E1,2.3225698E1,5.158359E1,3.044732E1,1.0811287E2,5.774434E1,3.469745E1,3.667469E0,3.0202118E1,2.0671074E1,2.9600502E1,1.6073635E1,4.043911E1,0E0,0E0,0E0,0E0,0E0,0E0,0E0,0E0,0E0,0E0,0E0,0E0,0E0,0E0,0E0,0E0,0E0,0E0,0E0,0E0,0E0,0E0,0E0,0E0,0E0,0E0,0E0,0E0,0E0,0E0,0E0,0E0],"parents":[2147483647,0,0,1,1,2,2,3,3,4,4,5,5,6,6,7,7,8,8,9,9,10,10,11,11,12,12,13,13,14,14,15,15,16,16,17,17,18,18,19,19,20,20,21,21,22,22,23,23,24,24,25,25,26,26,27,27,28,28,29,29,30,30],"right_children":[2,4,6,8,10,12,14,16,18,20,22,24,26,28,30,32,34,36,38,40,42,44,46,48,50,52,54,56,58,60,62,-1,-1,-1,-1,-1,-1,-1,-1,-1,-1,-1,-1,-1,-1,-1,-1,-1,-1,-1,-1,-1,-1,-1,-1,-1,-1,-1,-1,-1,-1,-1,-1],"split_conditions":[1.008E0,-1.66702E1,8.14E-2,-2.108E-1,3E0,1.22373E1,2E0,-1.58E-1,6.977E-1,-8.26E-2,-3.1165E0,2.9E-3,-7.0719E0,1.8099E1,4E0,9.6E0,1.76E1,-4.71E-2,-3.34743E1,1.4012E0,2.46E-2,-4.07E-2,-2.1E-3,1E0,5.705E0,1.065E1,3.26E-2,3.2185E0,1E0,-4.521E-1,9.9127E0,-7.1630694E-2,-2.406265E-2,6.306471E-3,6.6427656E-2,-4.482888E-2,-6.9987425E-3,-4.89006E-2,4.0432304E-2,2.6618217E-3,1.4757569E-2,-4.7416347E-3,9.356529E-4,1.1278919E-2,-2.6264174E-3,-9.667098E-3,-1.5284207E-4,1.355013E-2,-2.4265875E-3,6.420427E-3,1.834091E-3,-3.437526E-2,-8.4900655E-2,3.7120573E-2,1.3767833E-2,-3.8496133E-2,2.3023232E-3,-1.198958E-2,-5.6621343E-2,-3.0039696E-2,1.4249195E-2,4.053667E-2,-4.3808144E-2],"split_indices":[8,8,3,1,15,8,15,3,1,1,7,3,7,8,15,14,14,3,8,7,1,3,3,15,8,14,3,7,15,1,8,0,0,0,0,0,0,0,0,0,0,0,0,0,0,0,0,0,0,0,0,0,0,0,0,0,0,0,0,0,0,0,0],"split_type":[0,0,0,0,0,0,0,0,0,0,0,0,0,0,0,0,0,0,0,0,0,0,0,0,0,0,0,0,0,0,0,0,0,0,0,0,0,0,0,0,0,0,0,0,0,0,0,0,0,0,0,0,0,0,0,0,0,0,0,0,0,0,0],"sum_hessian":[6.420521E4,3.6834895E4,2.7370314E4,7.553623E2,3.6079535E4,2.6623572E4,7.467407E2,1.2517835E2,6.301839E2,2.1190385E4,1.4889148E4,2.5424133E4,1.1994404E3,3.616393E2,3.851014E2,4.1994328E1,8.318403E1,6.027179E2,2.7466055E1,4.909036E3,1.628135E4,1.6130148E3,1.3276134E4,4.0215884E3,2.1402545E4,1.9738901E1,1.1797015E3,2.064138E2,1.5522551E2,2.903722E2,9.472921E1,1.3248171E1,2.8746159E1,7.294287E1,1.0241156E1,5.367311E2,6.598681E1,6.998881E0,2.0467175E1,4.474439E3,4.3459744E2,9.205744E3,7.0756055E3,9.331928E2,6.7982196E2,8.741557E3,4.534577E3,6.7972076E2,3.3418677E3,1.582389E4,5.5786543E3,7.9952655E0,1.1743635E1,1.5988353E2,1.01981805E3,3.6986073E1,1.6942773E2,6.27389E1,9.248662E1,2.1238405E1,2.691338E2,1.648888E1,7.8240326E1],"tree_param":{"num_deleted":"0","num_feature":"17","num_nodes":"63","size_leaf_vector":"1"}},{"base_weights":[1.4449419E-3,-6.382706E-2,8.524636E-2,-6.425446E-1,-5.1412154E-2,8.935103E-2,-3.6831042E-1,-2.9820409E-2,-7.675791E-1,8.489062E-2,-6.209505E-2,8.034569E-2,2.0380412E-1,-8.77612E-2,-3.0993003E-1,-7.387681E-1,3.4591994E-1,-6.438125E-1,-1.2519047E0,3.5470703E-1,-7.9315E-3,-9.72225E-2,-3.459406E-2,8.981884E-3,9.9961735E-2,3.2003433E-1,-2.2611563E-1,1.380069E0,-4.032788E-1,-4.9424965E-2,1.7643636E-3,8.846635E-3,7.241694E-2,-3.9396614E-2,5.4731607E-2,-7.6764435E-2,-5.355754E-2,4.1398406E-2,1.5574544E-2,2.2173407E-3,-1.1141532E-2,-6.4341063E-3,2.7949202E-3,-1.6425493E-3,-3.4339607E-2,1.8929917E-2,4.4453252E-5,6.115724E-3,1.3678281E-3,2.8949881E-2,1.351755E-2,-3.0063355E-2,-3.1274029E-3,4.0242992E-2,8.3279066E-2,-5.601579E-2,-1.7245201E-2],"categories":[],"categories_nodes":[],"categories_segments":[],"categories_sizes":[],"default_left":[0,0,0,0,0,0,0,0,0,0,0,0,0,0,0,0,0,0,0,0,0,0,0,0,0,0,0,0,0,0,0,0,0,0,0,0,0,0,0,0,0,0,0,0,0,0,0,0,0,0,0,0,0,0,0,0,0],"id":2,"left_children":[1,3,5,7,9,11,13,15,17,19,21,23,25,-1,27,29,31,33,35,37,39,41,43,45,47,49,51,53,55,-1,-1,-1,-1,-1,-1,-1,-1,-1,-1,-1,-1,-1,-1,-1,-1,-1,-1,-1,-1,-1,-1,-1,-1,-1,-1,-1,-1],"loss_changes":[3.5149603E2,2.595066E2,5.2414413E1,5.8093292E1,5.1502304E1,2.8724243E1,1.9904167E1,3.4779488E1,3.6957E1,6.438917E1,3.167926E1,3.6189438E1,1.01677444E2,0E0,3.8980072E1,8.775055E0,1.5651392E1,1.2709062E2,4.8690643E0,1.3201096E1,2.1510286E1,6.937758E1,2.0891245E1,1.6676208E1,3.2906967E1,2.0442444E1,2.6551743E1,7.90329E-1,9.306927E0,0E0,0E0,0E0,0E0,0E0,0E0,0E0,0E0,0E0,0E0,0E0,0E0,0E0,0E0,0E0,0E0,0E0,0E0,0E0,0E0,0E0,0E0,0E0,0E0,0E0,0E0,0E0,0E0],"parents":[2147483647,0,0,1,1,2,2,3,3,4,4,5,5,6,6,7,7,8,8,9,9,10,10,11,11,12,12,14,14,15,15,16,16,17,17,18,18,19,19,20,20,21,21,22,22,23,23,24,24,25,25,26,26,27,27,28,28],"right_children":[2,4,6,8,10,12,14,16,18,20,22,24,26,-1,28,30,32,34,36,38,40,42,44,46,48,50,52,54,56,-1,-1,-1,-1,-1,-1,-1,-1,-1,-1,-1,-1,-1,-1,-1,-1,-1,-1,-1,-1,-1,-1,-1,-1,-1,-1,-1,-1],"split_conditions":[8.99E-1,-1.66702E1,2.22203E1,-2.108E-1,-3.53E-1,1.1126E1,-7.0719E0,-1.58E-1,1.1473E0,-4.35E-2,-2.2737E0,-4.84E-1,8.14E-2,-8.77612E-2,2.72E-2,-3.53E-1,1.76E1,-5.12E-2,2.8556E0,-9.32E-2,-4.845E-1,1.368E-1,4.97E-2,-2.98E-2,5.447E0,3.26E-2,4.1015E0,1.15167E1,-7.732E-1,-4.9424965E-2,1.7643636E-3,8.846635E-3,7.241694E-2,-3.9396614E-2,5.4731607E-2,-7.6764435E-2,-5.355754E-2,4.1398406E-2,1.5574544E-2,2.2173407E-3,-1.1141532E-2,-6.4341063E-3,2.7949202E-3,-1.6425493E-3,-3.4339607E-2,1.8929917E-2,4.4453252E-5,6.115724E-3,1.3678281E-3,2.8949881E-2,1.351755E-2,-3.0063355E-2,-3.1274029E-3,4.0242992E-2,8.3279066E-2,-5.601579E-2,-1.7245201E-2],"split_indices":[8,8,8,1,1,8,7,3,7,3,8,7,3,0,3,1,14,3,7,3,8,1,3,3,8,3,7,14,5,0,0,0,0,0,0,0,0,0,0,0,0,0,0,0,0,0,0,0,0,0,0,0,0,0,0,0,0],"split_type":[0,0,0,0,0,0,0,0,0,0,0,0,0,0,0,0,0,0,0,0,0,0,0,0,0,0,0,0,0,0,0,0,0,0,0,0,0,0,0,0,0,0,0,0,0,0,0,0,0,0,0,0,0,0,0,0,0],"sum_hessian":[6.4258207E4,3.6122797E4,2.813541E4,7.575818E2,3.5365215E4,2.7883867E4,2.5154448E2,1.2860396E2,6.2897784E2,2.5698337E3,3.2795383E4,2.5851531E4,2.0323351E3,8.9867E0,2.4255779E2,4.421425E1,8.438971E1,5.0281555E2,1.2616228E2,6.5706067E2,1.912773E3,1.4399779E4,1.8395602E4,5.5741294E3,2.0277402E4,1.60002E3,4.323151E2,1.197509E1,2.3058269E2,3.321965E1,1.0994596E1,7.417941E1,1.0210296E1,4.648274E2,3.798817E1,4.621426E1,7.994802E1,5.3460026E1,6.0360065E2,1.5391411E3,3.736318E2,1.1945635E4,2.4541443E3,1.8347617E4,4.7985752E1,1.1845067E2,5.4556787E3,1.5503653E4,4.7737485E3,2.5584288E2,1.3441771E3,1.3044838E2,3.018667E2,5.239102E0,6.735988E0,1.5989282E1,2.1459341E2],"tree_param":{"num_deleted":"0","num_feature":"17","num_nodes":"57","size_leaf_vector":"1"}},{"base_weights":[-3.881924E-5,-5.703163E-2,8.195595E-2,-5.9579813E-1,-4.6239257E-2,8.5742384E-2,-3.120842E-1,-5.907856E-2,-7.172867E-1,-1.4092352E-2,-9.2153974E-2,-9.279119E-2,9.269259E-2,-5.6867135E-1,2.852049E-1,-2.0858045E-1,6.746369E-2,-7.732213E-1,5.372756E-1,7.6234646E-2,-4.1219793E-2,8.613342E-2,-1.1368629E-1,3.2745242E-1,-1.768608E-1,4.8616756E-2,1.22822516E-1,1.928679E-1,-7.578868E-1,9.114126E-1,-3.0827567E-1,-3.737478E-2,1.5128675E-3,-2.5434334E-2,-4.6055775E-2,-4.141313E-2,5.108265E-2,2.7745531E-3,1.51964E-2,-4.6021137E-3,1.7435683E-3,-1.2286242E-2,5.9528504E-3,-6.6203685E-3,3.7508868E-3,2.9758682E-2,-4.322029E-3,-3.4467276E-2,-6.4073387E-3,2.660595E-3,-1.9446647E-2,5.211635E-3,1.7255725E-2,-2.2082295E-2,5.0175644E-2,-5.3896166E-2,2.0895677E-3,6.116302E-2,2.4480203E-2,-2.3894386E-2,2.767007E-2],"categories":[],"categories_nodes":[],"categories_segments":[],"categories_sizes":[],"default_left":[0,0,0,0,0,0,0,0,0,0,0,0,0,0,0,0,0,0,0,0,0,0,0,0,0,0,0,0,0,0,0,0,0,0,0,0,0,0,0,0,0,0,0,0,0,0,0,0,0,0,0,0,0,0,0,0,0,0,0,0,0],"id":3,"left_children":[1,3,5,7,9,11,13,15,17,19,21,23,25,27,29,31,-1,33,35,37,39,41,43,45,47,49,51,53,55,57,59,-1,-1,-1,-1,-1,-1,-1,-1,-1,-1,-1,-1,-1,-1,-1,-1,-1,-1,-1,-1,-1,-1,-1,-1,-1,-1,-1,-1,-1,-1],"loss_changes":[2.996404E2,2.1992145E2,3.9255936E1,4.8390564E1,5.4737404E1,3.2324463E1,3.8547783E1,2.9376984E1,4.2911682E1,5.3455597E1,5.8638626E1,3.4552612E1,3.3284454E1,2.5439999E1,2.8499846E1,1.6213749E1,0E0,2.222873E1,1.8333067E1,2.3781378E1,6.4881035E1,1.8016396E1,4.81501E1,1.8125544E1,2.023965E1,2.0488834E1,6.1490707E1,1.8822287E1,3.608053E1,4.2942734E0,6.0711913E0,0E0,0E0,0E0,0E0,0E0,0E0,0E0,0E0,0E0,0E0,0E0,0E0,0E0,0E0,0E0,0E0,0E0,0E0,0E0,0E0,0E0,0E0,0E0,0E0,0E0,0E0,0E0,0E0,0E0,0E0],"parents":[2147483647,0,0,1,1,2,2,3,3,4,4,5,5,6,6,7,7,8,8,9,9,10,10,11,11,12,12,13,13,14,14,15,15,17,17,18,18,19,19,20,20,21,21,22,22,23,23,24,24,25,25,26,26,27,27,28,28,29,29,30,30],"right_children":[2,4,6,8,10,12,14,16,18,20,22,24,26,28,30,32,-1,34,36,38,40,42,44,46,48,50,52,54,56,58,60,-1,-1,-1,-1,-1,-1,-1,-1,-1,-1,-1,-1,-1,-1,-1,-1,-1,-1,-1,-1,-1,-1,-1,-1,-1,-1,-1,-1,-1,-1],"split_conditions":[1.1523E0,-1.66702E1,2.22203E1,-1.735E-1,3E0,-2.6125E0,3E0,1.76E1,6.977E-1,-8.26E-2,-3.1165E0,1E0,2E0,1E0,3.6716E0,-1.04234E1,6.746369E-2,-5.4341E0,-3.34743E1,1.4882E0,3.27E-2,8.1333E0,6.806E-1,5.447E0,-6.3243E0,1.8099E1,1.1126E1,4.62E-2,9.8802E0,4E0,7.76E-1,-3.737478E-2,1.5128675E-3,-2.5434334E-2,-4.6055775E-2,-4.141313E-2,5.108265E-2,2.7745531E-3,1.51964E-2,-4.6021137E-3,1.7435683E-3,-1.2286242E-2,5.9528504E-3,-6.6203685E-3,3.7508868E-3,2.9758682E-2,-4.322029E-3,-3.4467276E-2,-6.4073387E-3,2.660595E-3,-1.9446647E-2,5.211635E-3,1.7255725E-2,-2.2082295E-2,5.0175644E-2,-5.3896166E-2,2.0895677E-3,6.116302E-2,2.4480203E-2,-2.3894386E-2,2.767007E-2],"split_indices":[8,8,8,1,15,7,15,14,1,1,7,15,15,15,7,7,0,7,8,7,1,14,8,8,7,8,8,1,7,15,1,0,0,0,0,0,0,0,0,0,0,0,0,0,0,0,0,0,0,0,0,0,0,0,0,0,0,0,0,0,0],"split_type":[0,0,0,0,0,0,0,0,0,0,0,0,0,0,0,0,0,0,0,0,0,0,0,0,0,0,0,0,0,0,0,0,0,0,0,0,0,0,0,0,0,0,0,0,0,0,0,0,0,0,0,0,0,0,0,0,0,0,0,0,0],"sum_hessian":[6.4118098E4,3.782621E4,2.6291887E4,7.4177625E2,3.7084434E4,2.604242E4,2.49466E2,1.3718747E2,6.0458875E2,2.1813297E4,1.5271138E4,9.753652E2,2.5067055E4,1.7453577E2,7.493025E1,1.247922E2,1.2395264E1,5.79151E2,2.5437744E1,5.0376113E3,1.6775686E4,1.6452751E3,1.3625862E4,1.6211192E2,8.132533E2,1.0179092E4,1.4887964E4,3.473158E1,1.3980418E2,3.619918E1,3.873107E1,3.766805E1,8.712415E1,2.0927158E2,3.6987946E2,6.4746637E0,1.896308E1,4.618129E3,4.1948242E2,1.0057747E4,6.717937E3,1.4791185E2,1.4973633E3,1.2396337E4,1.2295256E3,9.81724E1,6.3939518E1,6.945171E1,7.438016E2,1.0074171E4,1.0492054E2,1.3740355E4,1.1476084E3,1.9737608E1,1.499397E1,9.95969E1,4.0207283E1,1.9719955E1,1.6479223E1,3.273327E1,5.9978004E0],"tree_param":{"num_deleted":"0","num_feature":"17","num_nodes":"61","size_leaf_vector":"1"}},{"base_weights":[2.0317514E-4,-5.3400896E-2,7.6135665E-2,-5.675594E-1,-4.2900503E-2,7.980732E-2,-3.01044E-1,-8.3155945E-2,-6.786338E-1,2.770483E-2,-5.8825236E-2,7.10581E-2,1.8603987E-1,-7.7751E-2,-2.4697597E-1,-2.7019706E-1,9.9909043E-1,-7.264702E-1,3.3207202E-1,2.4510841E-1,-7.506144E-3,-1.3320738E-1,-3.165397E-2,7.104586E-3,8.831901E-2,3.7716663E-1,6.189205E-2,-1.6513696E-1,-7.687225E-1,-3.998923E-2,-1.3846653E-3,2.5728637E-2,7.248376E-2,-3.133495E-2,-5.6090724E-2,-6.186647E-2,4.4977784E-2,1.5924929E-2,3.4933859E-3,-1.5795246E-3,1.6061235E-2,-2.1989623E-3,-8.98917E-3,-1.9196476E-3,4.2845565E-3,-1.7874226E-2,5.8099715E-4,5.533447E-3,6.217227E-4,-1.835846E-2,2.126546E-2,4.039289E-3,-2.7980018E-2,-2.3401432E-2,-1.4677508E-3,-5.737589E-2,-1.8118443E-2],"categories":[],"categories_nodes":[],"categories_segments":[],"categories_sizes":[],"default_left":[0,0,0,0,0,0,0,0,0,0,0,0,0,0,0,0,0,0,0,0,0,0,0,0,0,0,0,0,0,0,0,0,0,0,0,0,0,0,0,0,0,0,0,0,0,0,0,0,0,0,0,0,0,0,0,0,0],"id":4,"left_children":[1,3,5,7,9,11,13,15,17,19,21,23,25,-1,27,29,31,33,35,37,39,41,43,45,47,49,51,53,55,-1,-1,-1,-1,-1,-1,-1,-1,-1,-1,-1,-1,-1,-1,-1,-1,-1,-1,-1,-1,-1,-1,-1,-1,-1,-1,-1,-1],"loss_changes":[2.6124026E2,2.0309566E2,3.6805557E1,4.0452667E1,4.1458107E1,2.4435318E1,1.6990402E1,2.8928415E1,2.9845703E1,5.1950714E1,6.080036E1,2.6828804E1,4.7454666E1,0E0,1.0413644E1,1.5581806E1,3.8551369E0,2.2369965E1,2.6368296E1,1.2143463E1,4.6257538E1,3.344397E1,1.7430061E1,8.509677E0,3.2458176E1,2.838366E1,1.4302802E1,8.814608E0,4.6940536E0,0E0,0E0,0E0,0E0,0E0,0E0,0E0,0E0,0E0,0E0,0E0,0E0,0E0,0E0,0E0,0E0,0E0,0E0,0E0,0E0,0E0,0E0,0E0,0E0,0E0,0E0,0E0,0E0],"parents":[2147483647,0,0,1,1,2,2,3,3,4,4,5,5,6,6,7,7,8,8,9,9,10,10,11,11,12,12,14,14,15,15,16,16,17,17,18,18,19,19,20,20,21,21,22,22,23,23,24,24,25,25,26,26,27,27,28,28],"right_children":[2,4,6,8,10,12,14,16,18,20,22,24,26,-1,28,30,32,34,36,38,40,42,44,46,48,50,52,54,56,-1,-1,-1,-1,-1,-1,-1,-1,-1,-1,-1,-1,-1,-1,-1,-1,-1,-1,-1,-1,-1,-1,-1,-1,-1,-1,-1,-1],"split_conditions":[1.1154E0,-1.66702E1,2.22203E1,-1.67E-1,-5.2285E0,1.1126E1,-7.0719E0,1.61E1,6.977E-1,-3.53E-1,-2.5565E0,-4.84E-1,1.5494E0,-7.7751E-2,6.89E-1,-1.04234E1,1.785E1,1.1711E0,-3.34743E1,-1.373E0,5.341E-1,-4.3E-2,2.4371E0,-6.3243E0,5.705E0,-1.1523E0,1.85E1,-2.126E-1,7.8772E0,-3.998923E-2,-1.3846653E-3,2.5728637E-2,7.248376E-2,-3.133495E-2,-5.6090724E-2,-6.186647E-2,4.4977784E-2,1.5924929E-2,3.4933859E-3,-1.5795246E-3,1.6061235E-2,-2.1989623E-3,-8.98917E-3,-1.9196476E-3,4.2845565E-3,-1.7874226E-2,5.8099715E-4,5.533447E-3,6.217227E-4,-1.835846E-2,2.126546E-2,4.039289E-3,-2.7980018E-2,-2.3401432E-2,-1.4677508E-3,-5.737589E-2,-1.8118443E-2],"split_indices":[8,8,8,1,8,8,7,14,1,1,8,7,7,0,5,7,14,7,8,7,1,1,7,7,8,6,14,5,7,0,0,0,0,0,0,0,0,0,0,0,0,0,0,0,0,0,0,0,0,0,0,0,0,0,0,0,0],"split_type":[0,0,0,0,0,0,0,0,0,0,0,0,0,0,0,0,0,0,0,0,0,0,0,0,0,0,0,0,0,0,0,0,0,0,0,0,0,0,0,0,0,0,0,0,0,0,0,0,0,0,0,0,0,0,0,0,0],"sum_hessian":[6.4180215E4,3.7621703E4,2.6558512E4,7.5188983E2,3.6869812E4,2.6303252E4,2.5526036E2,1.4057602E2,6.113138E2,6.7852744E3,3.008454E4,2.430332E4,1.9999304E3,9.403711E0,2.4585666E2,1.20500626E2,2.0075392E1,5.8395654E2,2.7357258E1,9.4494244E2,5.840332E3,8.0482676E3,2.2036271E4,5.1656055E3,1.9137715E4,7.8672375E2,1.2132067E3,2.1365942E2,3.2197227E1,3.7125885E1,8.337474E1,1.0705589E1,9.369802E0,4.683472E2,1.1560933E2,6.951685E0,2.0405573E1,6.6544086E2,2.795016E2,5.442493E3,3.9783847E2,2.760938E3,5.2873296E3,2.0840123E4,1.1961486E3,6.223598E1,5.1033696E3,1.4783222E4,4.354493E3,4.7390427E1,7.393333E2,1.178257E3,3.4949688E1,6.5376274E1,1.4828314E2,1.5719687E1,1.6477541E1],"tree_param":{"num_deleted":"0","num_feature":"17","num_nodes":"57","size_leaf_vector":"1"}},{"base_weights":[5.9478433E-4,-5.4504618E-2,7.848829E-2,-5.714911E-1,-4.408562E-2,8.53488E-2,-1.595735E-1,-6.936313E-2,-6.6718304E-1,3.0796627E-2,-6.0906854E-2,7.5391114E-2,2.5571457E-1,4.9439308E-1,-2.110765E-1,-8.161031E-1,3.0446315E-1,-7.4580044E-1,-9.747892E-2,2.2193809E-1,-4.877304E-3,-1.341704E-1,-3.3201575E-2,6.2791593E-3,8.774295E-2,-6.932196E-2,2.681264E-1,8.800607E-2,9.4029784E-1,-9.2791885E-2,-3.7242606E-1,-4.9862582E-2,9.503268E-3,5.178397E-3,5.403101E-2,-3.965485E-2,1.52963055E-2,8.54773E-3,-4.7907002E-2,1.6845493E-2,2.5077986E-3,-1.564982E-3,1.5017226E-2,-2.238548E-3,-9.092311E-3,2.2470402E-2,-1.7442675E-3,2.027377E-3,-7.749607E-3,5.2872268E-3,1.8094638E-3,3.5637412E-2,9.999617E-3,-1.3383287E-2,3.483024E-2,5.847152E-2,1.4580246E-3,-1.8780349E-2,-6.5508275E-4,-2.1493493E-2,4.6081604E-3],"categories":[],"categories_nodes":[],"categories_segments":[],"categories_sizes":[],"default_left":[0,0,0,0,0,0,0,0,0,0,0,0,0,0,0,0,0,0,0,0,0,0,0,0,0,0,0,0,0,0,0,0,0,0,0,0,0,0,0,0,0,0,0,0,0,0,0,0,0,0,0,0,0,0,0,0,0,0,0,0,0],"id":5,"left_children":[1,3,5,7,9,11,13,15,17,19,21,23,25,27,29,31,33,35,37,39,41,43,45,47,49,-1,51,53,55,57,59,-1,-1,-1,-1,-1,-1,-1,-1,-1,-1,-1,-1,-1,-1,-1,-1,-1,-1,-1,-1,-1,-1,-1,-1,-1,-1,-1,-1,-1,-1],"loss_changes":[2.753924E2,2.0240796E2,4.3431427E1,3.5623352E1,4.640644E1,4.381717E1,2.5196692E1,3.3730576E1,2.7848877E1,4.608448E1,6.105774E1,2.0841202E1,2.9446976E1,9.827205E0,1.3159151E1,7.532154E0,1.2464697E1,2.7484955E1,1.7894604E1,2.0977089E1,4.5948494E1,3.5173233E1,1.7754696E1,2.0470436E1,1.9218552E1,0E0,4.277307E1,6.6185985E0,5.3882656E0,9.015018E0,7.8348274E0,0E0,0E0,0E0,0E0,0E0,0E0,0E0,0E0,0E0,0E0,0E0,0E0,0E0,0E0,0E0,0E0,0E0,0E0,0E0,0E0,0E0,0E0,0E0,0E0,0E0,0E0,0E0,0E0,0E0,0E0],"parents":[2147483647,0,0,1,1,2,2,3,3,4,4,5,5,6,6,7,7,8,8,9,9,10,10,11,11,12,12,13,13,14,14,15,15,16,16,17,17,18,18,19,19,20,20,21,21,22,22,23,23,24,24,26,26,27,27,28,28,29,29,30,30],"right_children":[2,4,6,8,10,12,14,16,18,20,22,24,26,28,30,32,34,36,38,40,42,44,46,48,50,-1,52,54,56,58,60,-1,-1,-1,-1,-1,-1,-1,-1,-1,-1,-1,-1,-1,-1,-1,-1,-1,-1,-1,-1,-1,-1,-1,-1,-1,-1,-1,-1,-1,-1],"split_conditions":[1.1154E0,-1.66702E1,8.14E-2,-2.603E-1,-5.2285E0,1.16412E1,7.6822E0,-1.58E-1,-5.12E-2,-3.004E-1,-2.5009E0,2.9E-3,-3.4E-2,5.9935E0,1.8099E1,1.41333E1,1.58333E1,6.977E-1,6.29E-2,-4.2E-2,4.584E-1,-4.3E-2,-5.12E-2,4.0579E0,5.705E0,-6.932196E-2,3.04E-2,3.356E-1,1.51333E1,4.691E-1,1.61667E1,-4.9862582E-2,9.503268E-3,5.178397E-3,5.403101E-2,-3.965485E-2,1.52963055E-2,8.54773E-3,-4.7907002E-2,1.6845493E-2,2.5077986E-3,-1.564982E-3,1.5017226E-2,-2.238548E-3,-9.092311E-3,2.2470402E-2,-1.7442675E-3,2.027377E-3,-7.749607E-3,5.2872268E-3,1.8094638E-3,3.5637412E-2,9.999617E-3,-1.3383287E-2,3.483024E-2,5.847152E-2,1.4580246E-3,-1.8780349E-2,-6.5508275E-4,-2.1493493E-2,4.6081604E-3],"split_indices":[8,8,3,1,8,8,8,3,3,1,8,3,3,8,8,14,14,1,1,3,1,1,3,8,8,0,3,1,14,4,14,0,0,0,0,0,0,0,0,0,0,0,0,0,0,0,0,0,0,0,0,0,0,0,0,0,0,0,0,0,0],"split_type":[0,0,0,0,0,0,0,0,0,0,0,0,0,0,0,0,0,0,0,0,0,0,0,0,0,0,0,0,0,0,0,0,0,0,0,0,0,0,0,0,0,0,0,0,0,0,0,0,0,0,0,0,0,0,0,0,0,0,0,0,0],"sum_hessian":[6.4163832E4,3.758072E4,2.6583111E4,7.413503E2,3.683937E4,2.5839115E4,7.4399445E2,1.1894261E2,6.2240765E2,6.7573184E3,3.008205E4,2.4413611E4,1.4255054E3,5.368772E1,6.903067E2,3.9285137E1,7.965747E1,5.46661E2,7.5746666E1,1.0619819E3,5.6953364E3,8.253292E3,2.182876E4,3.7019097E3,2.0711701E4,9.86308E0,1.4156423E3,2.8714956E1,2.4972765E1,3.992174E2,2.910893E2,3.3298927E1,5.98621E0,6.41792E1,1.54782715E1,5.233707E2,2.329027E1,5.834933E1,1.7397333E1,6.356126E2,4.263693E2,5.2424106E3,4.5292572E2,2.8712324E3,5.3820596E3,7.49691E1,2.175379E4,3.0537664E3,6.4814325E2,1.535053E4,5.3611714E3,1.8685081E2,1.2287915E3,1.8476992E1,1.0237965E1,1.9728071E1,5.2446933E0,8.694442E1,3.1227298E2,2.5912476E2,3.1964558E1],"tree_param":{"num_deleted":"0","num_feature":"17","num_nodes":"61","size_leaf_vector":"1"}},{"base_weights":[-1.1344441E-3,-5.3863734E-2,6.463665E-2,-4.8655373E-1,-4.4602297E-2,6.8090744E-2,-3.3673674E-1,-3.6462587E-1,-8.4662807E-1,-8.880304E-3,-9.5107175E-2,8.637088E-3,8.4313564E-2,-5.8087534E-1,2.815733E-1,-4.196427E-1,3.3302763E-1,-2.9716986E-1,-9.1316676E-1,5.9258685E-2,-2.9626863E-2,8.686784E-2,-1.1945797E-1,2.2778597E-1,-3.592149E-2,4.39235E-2,1.11893624E-1,8.170198E-2,-7.3239857E-1,8.8271534E-1,-2.9687724E-1,-5.963687E-3,-2.7189646E-2,3.230209E-2,-1.5991457E-2,9.304903E-3,-4.095744E-2,-5.716471E-2,-3.375032E-2,-3.474167E-4,9.8140305E-3,-5.494265E-3,-1.806496E-4,8.640887E-3,-1.0472966E-4,-7.998445E-3,-3.4058623E-3,2.427061E-2,6.939473E-3,-4.595823E-3,8.665897E-3,2.4781267E-3,-2.3187669E-2,5.001399E-3,1.5244712E-2,1.9648587E-2,-4.4024896E-2,-5.258515E-2,3.2305778E-3,6.55094E-2,1.7632637E-2,2.3367759E-2,-2.3588067E-2],"categories":[],"categories_nodes":[],"categories_segments":[],"categories_sizes":[],"default_left":[0,0,0,0,0,0,0,0,0,0,0,0,0,0,0,0,0,0,0,0,0,0,0,0,0,0,0,0,0,0,0,0,0,0,0,0,0,0,0,0,0,0,0,0,0,0,0,0,0,0,0,0,0,0,0,0,0,0,0,0,0,0,0],"id":6,"left_children":[1,3,5,7,9,11,13,15,17,19,21,23,25,27,29,31,33,35,37,39,41,43,45,47,49,51,53,55,57,59,61,-1,-1,-1,-1,-1,-1,-1,-1,-1,-1,-1,-1,-1,-1,-1,-1,-1,-1,-1,-1,-1,-1,-1,-1,-1,-1,-1,-1,-1,-1,-1,-1],"loss_changes":[2.2226491E2,1.4252408E2,3.9559532E1,3.2413254E1,6.283161E1,2.7270966E1,3.6919163E1,2.1578056E1,6.5939484E0,2.8840147E1,6.3944077E1,5.92084E1,2.4740387E1,1.7618088E1,2.4464018E1,1.925766E1,8.663663E0,5.6430783E0,8.381912E0,4.319986E1,3.265147E1,1.302496E1,2.6456543E1,2.3422604E1,5.90546E1,2.5831993E1,3.0197403E1,1.0364651E1,3.631717E1,7.328499E0,5.061037E0,0E0,0E0,0E0,0E0,0E0,0E0,0E0,0E0,0E0,0E0,0E0,0E0,0E0,0E0,0E0,0E0,0E0,0E0,0E0,0E0,0E0,0E0,0E0,0E0,0E0,0E0,0E0,0E0,0E0,0E0,0E0,0E0],"parents":[2147483647,0,0,1,1,2,2,3,3,4,4,5,5,6,6,7,7,8,8,9,9,10,10,11,11,12,12,13,13,14,14,15,15,16,16,17,17,18,18,19,19,20,20,21,21,22,22,23,23,24,24,25,25,26,26,27,27,28,28,29,29,30,30],"right_children":[2,4,6,8,10,12,14,16,18,20,22,24,26,28,30,32,34,36,38,40,42,44,46,48,50,52,54,56,58,60,62,-1,-1,-1,-1,-1,-1,-1,-1,-1,-1,-1,-1,-1,-1,-1,-1,-1,-1,-1,-1,-1,-1,-1,-1,-1,-1,-1,-1,-1,-1,-1,-1],"split_conditions":[8.248E-1,-1.66702E1,2.22203E1,-7.77E-2,3E0,-4.674E-1,3E0,1.61E1,-9.927E-1,-4.5293E0,-3.0152E0,1E0,2E0,1E0,3.6716E0,-3.34743E1,-4.8046E0,4.1015E0,2E0,-5.9865E0,-2.5565E0,-5.8257E0,-1.3864E0,-2.1261E0,4E0,1.8099E1,1.22373E1,9.8802E0,9.8802E0,4E0,1.005E1,-5.963687E-3,-2.7189646E-2,3.230209E-2,-1.5991457E-2,9.304903E-3,-4.095744E-2,-5.716471E-2,-3.375032E-2,-3.474167E-4,9.8140305E-3,-5.494265E-3,-1.806496E-4,8.640887E-3,-1.0472966E-4,-7.998445E-3,-3.4058623E-3,2.427061E-2,6.939473E-3,-4.595823E-3,8.665897E-3,2.4781267E-3,-2.3187669E-2,5.001399E-3,1.5244712E-2,1.9648587E-2,-4.4024896E-2,-5.258515E-2,3.2305778E-3,6.55094E-2,1.7632637E-2,2.3367759E-2,-2.3588067E-2],"split_indices":[8,8,8,7,15,7,15,14,6,8,7,15,15,15,7,8,7,7,15,8,8,8,8,7,15,8,8,7,7,15,14,0,0,0,0,0,0,0,0,0,0,0,0,0,0,0,0,0,0,0,0,0,0,0,0,0,0,0,0,0,0,0,0],"split_type":[0,0,0,0,0,0,0,0,0,0,0,0,0,0,0,0,0,0,0,0,0,0,0,0,0,0,0,0,0,0,0,0,0,0,0,0,0,0,0,0,0,0,0,0,0,0,0,0,0,0,0,0,0,0,0,0,0,0,0,0,0,0,0],"sum_hessian":[6.408705E4,3.5570242E4,2.8516809E4,7.443223E2,3.4825918E4,2.8274318E4,2.4248984E2,5.575412E2,1.8678114E2,2.0398957E4,1.4426963E4,6.0615137E3,2.2212807E4,1.7389015E2,6.859968E1,5.171568E2,4.038439E1,2.0766157E1,1.66015E2,4.7608374E3,1.5638119E4,1.7023829E3,1.272458E4,1.0235176E3,5.037996E3,9.014284E3,1.3198521E4,3.2450806E1,1.4143935E2,3.338208E1,3.5217594E1,1.5181538E2,3.653414E2,2.7303896E1,1.3080496E1,1.1117047E1,9.649109E0,8.249855E1,8.351644E1,3.2105132E3,1.5503245E3,3.8271885E3,1.1810931E4,8.653722E2,8.370107E2,7.111255E3,5.613325E3,2.6164777E2,7.6186975E2,3.9748416E3,1.0631544E3,8.91615E3,9.813395E1,1.2435507E4,7.630141E2,2.496596E1,7.4848475E0,1.0075467E2,4.0684685E1,1.7664589E1,1.571749E1,6.2468557E0,2.897074E1],"tree_param":{"num_deleted":"0","num_feature":"17","num_nodes":"63","size_leaf_vector":"1"}},{"base_weights":[1.9292829E-3,-3.0715495E-2,3.164068E-2,1.6162E-2,-6.012703E-2,-4.143101E-3,5.5868976E-2,9.0150416E-2,-1.3716928E-2,-8.2987085E-2,-1.2296776E-2,3.2438118E-2,-3.6819838E-2,1.1393648E-1,2.4083203E-2,1.4186658E-1,3.8359366E-2,-4.028084E-2,1.3423511E-1,-7.0668006E-1,-7.89754E-2,6.409438E-2,-6.669104E-2,-5.701465E-1,3.4678273E-2,-1.8516883E-1,-6.25133E-3,2.985124E-2,1.7298219E-1,-5.5875458E-2,4.4507984E-2,9.900893E-3,4.6248515E-3,-2.963458E-3,4.7344826E-3,3.4304708E-3,-3.1138964E-3,8.639591E-3,-1.4093308E-3,-1.5401478E-2,-4.8183605E-2,-4.4932934E-3,1.5088295E-3,1.5715938E-3,1.0152804E-2,-4.237773E-3,5.1009837E-3,-8.3803795E-3,-4.594742E-2,4.8880976E-2,1.666991E-3,-1.1176842E-2,-2.3236924E-3,6.322261E-5,-1.1531568E-2,-7.024105E-3,2.203957E-3,-1.1334602E-3,9.622707E-3,1.0724062E-3,-6.6862777E-3,3.2196082E-3,-2.516776E-3],"categories":[],"categories_nodes":[],"categories_segments":[],"categories_sizes":[],"default_left":[0,0,0,0,0,0,0,0,0,0,0,0,0,0,0,0,0,0,0,0,0,0,0,0,0,0,0,0,0,0,0,0,0,0,0,0,0,0,0,0,0,0,0,0,0,0,0,0,0,0,0,0,0,0,0,0,0,0,0,0,0,0,0],"id":7,"left_children":[1,3,5,7,9,11,13,15,17,19,21,23,25,27,29,31,33,35,37,39,41,43,45,47,49,51,53,55,57,59,61,-1,-1,-1,-1,-1,-1,-1,-1,-1,-1,-1,-1,-1,-1,-1,-1,-1,-1,-1,-1,-1,-1,-1,-1,-1,-1,-1,-1,-1,-1,-1,-1],"loss_changes":[6.214637E1,4.2093506E1,2.9082073E1,2.6022984E1,2.0511093E1,1.6190334E1,3.6914368E1,9.064236E0,3.296261E1,3.1703018E1,2.5217466E1,8.646136E0,3.244047E1,3.5122765E1,2.1114357E1,4.677578E0,9.317477E0,1.7034653E1,7.9998417E0,8.001209E0,1.49960785E1,1.145027E1,1.0811589E1,3.1773071E0,8.00399E0,6.4936523E0,1.0005122E1,7.0827055E0,1.583873E1,1.5838793E1,1.9423094E1,0E0,0E0,0E0,0E0,0E0,0E0,0E0,0E0,0E0,0E0,0E0,0E0,0E0,0E0,0E0,0E0,0E0,0E0,0E0,0E0,0E0,0E0,0E0,0E0,0E0,0E0,0E0,0E0,0E0,0E0,0E0,0E0],"parents":[2147483647,0,0,1,1,2,2,3,3,4,4,5,5,6,6,7,7,8,8,9,9,10,10,11,11,12,12,13,13,14,14,15,15,16,16,17,17,18,18,19,19,20,20,21,21,22,22,23,23,24,24,25,25,26,26,27,27,28,28,29,29,30,30],"right_children":[2,4,6,8,10,12,14,16,18,20,22,24,26,28,30,32,34,36,38,40,42,44,46,48,50,52,54,56,58,60,62,-1,-1,-1,-1,-1,-1,-1,-1,-1,-1,-1,-1,-1,-1,-1,-1,-1,-1,-1,-1,-1,-1,-1,-1,-1,-1,-1,-1,-1,-1,-1,-1],"split_conditions":[-1.78E-2,2E0,2E0,-8E-2,4E0,1.1011E0,3E0,2.964E-1,1.368E-1,-1.04234E1,-1.4033E0,-1.5983E0,9.3667E0,8.151E-1,9.5333E0,1E0,4.4698E1,9.6E0,8.715E-1,-6.623E-1,1.74833E1,5.4E-2,-1.22E-1,5.056E-1,-1.4057E0,3.4248E0,7.8772E0,4.01E-2,7.7E0,4E0,1.58667E1,9.900893E-3,4.6248515E-3,-2.963458E-3,4.7344826E-3,3.4304708E-3,-3.1138964E-3,8.639591E-3,-1.4093308E-3,-1.5401478E-2,-4.8183605E-2,-4.4932934E-3,1.5088295E-3,1.5715938E-3,1.0152804E-2,-4.237773E-3,5.1009837E-3,-8.3803795E-3,-4.594742E-2,4.8880976E-2,1.666991E-3,-1.1176842E-2,-2.3236924E-3,6.322261E-5,-1.1531568E-2,-7.024105E-3,2.203957E-3,-1.1334602E-3,9.622707E-3,1.0724062E-3,-6.6862777E-3,3.2196082E-3,-2.516776E-3],"split_indices":[7,15,15,1,15,7,15,2,1,7,7,6,14,7,14,15,0,14,2,6,14,1,7,7,6,7,7,7,14,15,14,0,0,0,0,0,0,0,0,0,0,0,0,0,0,0,0,0,0,0,0,0,0,0,0,0,0,0,0,0,0,0,0],"split_type":[0,0,0,0,0,0,0,0,0,0,0,0,0,0,0,0,0,0,0,0,0,0,0,0,0,0,0,0,0,0,0,0,0,0,0,0,0,0,0,0,0,0,0,0,0,0,0,0,0,0,0,0,0,0,0,0,0,0,0,0,0,0,0],"sum_hessian":[6.407158E4,3.0528734E4,3.3542844E4,1.1769847E4,1.8758887E4,1.3542374E4,2.0000469E4,3.3851846E3,8.384662E3,1.2692081E4,6.0668057E3,6.3894585E3,7.1529155E3,7.074291E3,1.2926179E4,1.6929465E3,1.6922379E3,7.1090093E3,1.2756528E3,7.999611E1,1.2612085E4,2.5231384E3,3.543667E3,2.2726349E1,6.366732E3,1.2212297E3,5.931686E3,2.9189734E3,4.1553174E3,2.629706E3,1.0296473E4,7.9066254E2,9.02284E2,6.1913513E2,1.0731028E3,1.1943926E3,5.9146167E3,1.0308737E3,2.4477917E2,3.221784E1,4.7778275E1,1.1468056E4,1.1440293E3,2.0439424E3,4.7919598E2,3.201382E3,3.4228497E2,1.1237782E1,1.1488567E1,7.990504E0,6.3587417E3,9.5612067E2,2.65109E2,5.7404014E3,1.9128479E2,2.2434071E2,2.6946326E3,3.7610495E2,3.7792126E3,1.3196779E3,1.3100281E3,8.512191E3,1.7842811E3],"tree_param":{"num_deleted":"0","num_feature":"17","num_nodes":"63","size_leaf_vector":"1"}},{"base_weights":[-3.6648687E-3,-5.3210765E-2,5.8002327E-2,-5.0762117E-1,-4.3579973E-2,6.13014E-2,-3.1818953E-1,2.1700622E-3,-6.0991627E-1,-1.1755846E-2,-8.858823E-2,2.644336E-2,8.49651E-2,2.3191966E-1,-4.6397445E-1,-6.928152E-1,3.586983E-1,-6.549036E-1,1.8804921E-1,6.3074395E-2,-3.4726888E-2,-1.0109674E-1,1.6192146E-1,1.1868174E-1,-3.3708997E-2,-2.813174E-2,1.3904008E-1,-3.920446E-3,8.30736E-2,-5.817723E-1,1.5773146E-1,-6.761236E-2,-1.4704279E-2,8.130069E-3,4.991372E-2,-1.7679607E-2,-4.030763E-2,-5.949193E-2,3.6405157E-2,3.489672E-3,-2.7324427E-2,-3.4071994E-3,2.1691374E-3,1.8764529E-3,-6.351325E-3,1.5030627E-2,2.4144005E-4,1.2857871E-2,6.329302E-5,-1.2838277E-2,-2.011567E-5,3.4264445E-3,-5.640645E-3,8.806672E-3,3.676417E-3,1.4464852E-2,-4.3537345E-2,-4.6313997E-2,-1.167967E-2,-1.6778937E-2,4.9543288E-2],"categories":[],"categories_nodes":[],"categories_segments":[],"categories_sizes":[],"default_left":[0,0,0,0,0,0,0,0,0,0,0,0,0,0,0,0,0,0,0,0,0,0,0,0,0,0,0,0,0,0,0,0,0,0,0,0,0,0,0,0,0,0,0,0,0,0,0,0,0,0,0,0,0,0,0,0,0,0,0,0,0],"id":8,"left_children":[1,3,5,7,9,11,13,15,17,19,21,23,25,27,29,31,33,35,37,39,41,43,45,47,49,51,53,55,-1,57,59,-1,-1,-1,-1,-1,-1,-1,-1,-1,-1,-1,-1,-1,-1,-1,-1,-1,-1,-1,-1,-1,-1,-1,-1,-1,-1,-1,-1,-1,-1],"loss_changes":[1.9632567E2,1.559056E2,3.5547333E1,3.855893E1,4.9975586E1,2.3406265E1,2.0078669E1,3.1113285E1,2.222963E1,3.5137882E1,4.530156E1,6.3679573E1,1.03377396E2,1.781972E1,1.4532932E1,1.0797083E1,1.0245962E1,2.629161E1,2.5900326E1,1.9702726E1,4.0826862E1,4.9484406E1,1.4981352E1,7.36584E1,5.161261E1,4.476855E1,2.777594E1,1.2032834E1,0E0,1.9694237E1,1.3565427E1,0E0,0E0,0E0,0E0,0E0,0E0,0E0,0E0,0E0,0E0,0E0,0E0,0E0,0E0,0E0,0E0,0E0,0E0,0E0,0E0,0E0,0E0,0E0,0E0,0E0,0E0,0E0,0E0,0E0,0E0],"parents":[2147483647,0,0,1,1,2,2,3,3,4,4,5,5,6,6,7,7,8,8,9,9,10,10,11,11,12,12,13,13,14,14,15,15,16,16,17,17,18,18,19,19,20,20,21,21,22,22,23,23,24,24,25,25,26,26,27,27,29,29,30,30],"right_children":[2,4,6,8,10,12,14,16,18,20,22,24,26,28,30,32,34,36,38,40,42,44,46,48,50,52,54,56,-1,58,60,-1,-1,-1,-1,-1,-1,-1,-1,-1,-1,-1,-1,-1,-1,-1,-1,-1,-1,-1,-1,-1,-1,-1,-1,-1,-1,-1,-1,-1,-1],"split_conditions":[8.248E-1,-1.66702E1,1.069E-1,-2.383E-1,3E0,2E0,8.45E0,-1.58E-1,5.341E-1,-8.26E-2,1.46E-2,1.26E-2,9.4E-3,3E0,4.15E2,9.6E0,1.55167E1,-1.58E-1,-3.34743E1,2.66E-2,6.48E-2,-6.1547E0,1.24667E1,1E0,2.0153E0,1.8502E0,5.705E0,1.4313E0,8.30736E-2,2E0,2.22203E1,-6.761236E-2,-1.4704279E-2,8.130069E-3,4.991372E-2,-1.7679607E-2,-4.030763E-2,-5.949193E-2,3.6405157E-2,3.489672E-3,-2.7324427E-2,-3.4071994E-3,2.1691374E-3,1.8764529E-3,-6.351325E-3,1.5030627E-2,2.4144005E-4,1.2857871E-2,6.329302E-5,-1.2838277E-2,-2.011567E-5,3.4264445E-3,-5.640645E-3,8.806672E-3,3.676417E-3,1.4464852E-2,-4.3537345E-2,-4.6313997E-2,-1.167967E-2,-1.6778937E-2,4.9543288E-2],"split_indices":[8,8,3,1,15,15,14,3,1,1,3,3,3,15,16,14,14,3,8,3,1,8,14,15,8,8,8,1,0,15,8,0,0,0,0,0,0,0,0,0,0,0,0,0,0,0,0,0,0,0,0,0,0,0,0,0,0,0,0,0,0],"split_type":[0,0,0,0,0,0,0,0,0,0,0,0,0,0,0,0,0,0,0,0,0,0,0,0,0,0,0,0,0,0,0,0,0,0,0,0,0,0,0,0,0,0,0,0,0,0,0,0,0,0,0,0,0,0,0,0,0,0,0,0,0],"sum_hessian":[6.4254207E4,3.5628766E4,2.8625441E4,7.383725E2,3.489039E4,2.8377418E4,2.4802313E2,1.23564285E2,6.148082E2,2.043946E4,1.4450932E4,1.1475477E4,1.6901941E4,5.183532E1,1.961878E2,4.1576138E1,8.1988144E1,5.8216644E2,3.2641804E1,4.800301E3,1.563916E4,1.3764248E4,6.866836E2,4.5292676E3,6.9462085E3,5.467417E3,1.1434525E4,4.5350834E1,6.484487E0,1.6499045E2,3.119737E1,1.4765347E1,2.6810791E1,6.370893E1,1.8279217E1,1.9567984E2,3.864866E2,8.852486E0,2.378932E1,4.7488413E3,5.1459644E1,1.0953239E4,4.6859204E3,2.1688232E3,1.1595425E4,3.642169E2,3.224667E2,2.077709E3,2.4515586E3,9.0157904E2,6.0446294E3,2.5532083E3,2.9142087E3,7.2996855E3,4.13484E3,3.438562E1,1.0965213E1,8.209788E1,8.289256E1,1.9970045E1,1.1227326E1],"tree_param":{"num_deleted":"0","num_feature":"17","num_nodes":"61","size_leaf_vector":"1"}},{"base_weights":[-1.8288767E-3,-6.767543E-2,3.8422517E-2,8.284693E-3,-1.146689E-1,-3.966919E-3,6.726403E-2,-6.010528E-1,1.6802946E-2,3.6682848E-2,-1.3148649E-1,6.704716E-2,-7.329085E-2,6.660581E-4,1.5359731E-1,-3.9196053E-1,-1.3125815E0,1.209636E-1,-2.540489E-2,3.8611528E-1,-8.295748E-2,-4.83536E-1,-1.1962644E-1,1.3436154E-1,7.8066015E-3,-2.2208802E-1,-3.6368117E-2,2.1529516E-2,-5.5236675E-2,1.6691709E-1,-2.572374E-3,-5.11279E-2,-7.6077096E-3,-7.165922E-2,-3.160071E-2,3.3366155E-2,5.7418155E-3,-8.956624E-3,7.3879615E-5,2.206684E-3,2.2157317E-2,-2.1543931E-2,-1.0488143E-3,-3.0312702E-2,2.3092864E-2,-6.903803E-4,-6.7982944E-3,1.6081927E-2,4.585967E-3,-1.2055965E-2,3.8891516E-3,-1.2221244E-2,1.0202852E-3,-1.389692E-3,-3.108239E-2,-4.136994E-3,2.1601918E-3,7.386926E-3,-8.009803E-3,5.7642753E-3,1.0280157E-2,8.160883E-3,-1.8059092E-2],"categories":[],"categories_nodes":[],"categories_segments":[],"categories_sizes":[],"default_left":[0,0,0,0,0,0,0,0,0,0,0,0,0,0,0,0,0,0,0,0,0,0,0,0,0,0,0,0,0,0,0,0,0,0,0,0,0,0,0,0,0,0,0,0,0,0,0,0,0,0,0,0,0,0,0,0,0,0,0,0,0,0,0],"id":9,"left_children":[1,3,5,7,9,11,13,15,17,19,21,23,25,27,29,31,33,35,37,39,41,43,45,47,49,51,53,55,57,59,61,-1,-1,-1,-1,-1,-1,-1,-1,-1,-1,-1,-1,-1,-1,-1,-1,-1,-1,-1,-1,-1,-1,-1,-1,-1,-1,-1,-1,-1,-1,-1,-1],"loss_changes":[1.7014119E2,8.693553E1,4.8707954E1,4.8329067E1,3.8302002E1,7.942386E1,1.3631723E2,1.858384E1,4.0369728E1,6.2968052E1,5.6481903E1,3.177938E1,4.484369E1,1.5612729E1,2.1477234E1,1.5063396E1,1.4523087E0,8.787724E0,2.7006138E1,7.4726562E0,2.4192387E1,5.1442757E1,2.2650696E1,2.976181E1,7.3875854E1,8.795158E0,3.281248E1,2.2034052E1,7.753058E1,1.8978363E1,4.835787E1,0E0,0E0,0E0,0E0,0E0,0E0,0E0,0E0,0E0,0E0,0E0,0E0,0E0,0E0,0E0,0E0,0E0,0E0,0E0,0E0,0E0,0E0,0E0,0E0,0E0,0E0,0E0,0E0,0E0,0E0,0E0,0E0],"parents":[2147483647,0,0,1,1,2,2,3,3,4,4,5,5,6,6,7,7,8,8,9,9,10,10,11,11,12,12,13,13,14,14,15,15,16,16,17,17,18,18,19,19,20,20,21,21,22,22,23,23,24,24,25,25,26,26,27,27,28,28,29,29,30,30],"right_children":[2,4,6,8,10,12,14,16,18,20,22,24,26,28,30,32,34,36,38,40,42,44,46,48,50,52,54,56,58,60,62,-1,-1,-1,-1,-1,-1,-1,-1,-1,-1,-1,-1,-1,-1,-1,-1,-1,-1,-1,-1,-1,-1,-1,-1,-1,-1,-1,-1,-1,-1,-1,-1],"split_conditions":[-4.9E-3,2E0,2E0,-1.58E-1,-3.53E-1,1.23E-2,1.43E-2,7.965E-1,-8E-2,-4.71E-2,-8.37E-2,1E0,7E0,7.78E-1,5.1625E0,5.1E1,2.608E-1,-1.04234E1,-4.2E-2,2.82344E1,-1.3694E0,1.507E-1,-4.07E-2,-6.422E-1,-6.242E-1,3.671E-1,1.069E-1,-2.1E-3,3E0,1.27E2,4E0,-5.11279E-2,-7.6077096E-3,-7.165922E-2,-3.160071E-2,3.3366155E-2,5.7418155E-3,-8.956624E-3,7.3879615E-5,2.206684E-3,2.2157317E-2,-2.1543931E-2,-1.0488143E-3,-3.0312702E-2,2.3092864E-2,-6.903803E-4,-6.7982944E-3,1.6081927E-2,4.585967E-3,-1.2055965E-2,3.8891516E-3,-1.2221244E-2,1.0202852E-3,-1.389692E-3,-3.108239E-2,-4.136994E-3,2.1601918E-3,7.386926E-3,-8.009803E-3,5.7642753E-3,1.0280157E-2,8.160883E-3,-1.8059092E-2],"split_indices":[3,15,15,3,1,3,3,7,1,3,3,15,16,7,7,16,5,7,3,0,1,1,3,7,7,5,3,3,15,16,15,0,0,0,0,0,0,0,0,0,0,0,0,0,0,0,0,0,0,0,0,0,0,0,0,0,0,0,0,0,0,0,0],"split_type":[0,0,0,0,0,0,0,0,0,0,0,0,0,0,0,0,0,0,0,0,0,0,0,0,0,0,0,0,0,0,0,0,0,0,0,0,0,0,0,0,0,0,0,0,0,0,0,0,0,0,0,0,0,0,0,0,0,0,0,0,0,0,0],"sum_hessian":[6.4192176E4,2.4352943E4,3.983923E4,9.308131E3,1.50448125E4,1.6131309E4,2.3707924E4,1.27370316E2,9.180761E3,1.5044229E3,1.3540391E4,7.9685327E3,8.162776E3,1.3384249E4,1.0323675E4,9.964049E1,2.7729832E1,2.64689E3,6.533871E3,3.8314557E2,1.1212772E3,4.399943E2,1.31003955E4,3.7294885E3,4.2390444E3,1.6218339E3,6.540942E3,9.747136E3,3.6371133E3,9.512299E3,8.1137634E2,2.6552813E1,7.308767E1,2.2616167E1,5.113664E0,2.8158293E1,2.6187317E3,9.7167566E2,5.5621953E3,5.501673E1,3.2812885E2,1.6864796E2,9.526293E2,3.8975974E2,5.0234566E1,1.7525083E3,1.1347888E4,6.9048E2,3.0390085E3,9.296327E2,3.3094116E3,1.4850345E3,1.3679924E2,6.4475337E3,9.340813E1,1.6769513E3,8.070184E3,1.2395697E3,2.3975435E3,4.0761404E3,5.436158E3,5.552305E2,2.5614575E2],"tree_param":{"num_deleted":"0","num_feature":"17","num_nodes":"63","size_leaf_vector":"1"}},{"base_weights":[2.6850305E-3,-4.2601123E-2,5.9873533E-2,-4.4127744E-1,-3.425326E-2,6.3074134E-2,-2.9548278E-1,-3.280894E-1,-9.450638E-1,-4.1457484E-3,-7.697016E-2,-9.2030935E-2,6.771943E-2,-4.8910207E-1,1.7789726E-1,-4.353824E-1,1.3449887E0,-6.86783E-1,-1.2310632E0,-2.5776776E-3,-1.0952768E0,1.0564367E-1,-1.0082695E-1,9.5908076E-2,-1.3306615E-1,6.032442E-2,1.84853E-1,6.2078696E-2,-6.208285E-1,6.7337406E-1,-3.3313754E-1,-2.5774313E-2,8.517678E-3,8.450938E-2,1.4741174E-2,2.0139994E-2,-4.1907158E-2,-6.745749E-2,-2.8105212E-2,3.4553779E-3,-1.2104544E-3,-6.922127E-2,7.0475424E-3,9.834553E-3,-1.304692E-3,-7.3986426E-3,-2.4518053E-4,2.317055E-2,-7.2167637E-3,-1.6390258E-2,-4.4136844E-3,-2.4406955E-2,3.087336E-3,1.5908875E-2,-5.4463535E-3,-2.5665307E-2,4.0096913E-2,-4.5141917E-2,1.3023815E-3,-2.5721481E-2,4.3901857E-2,-7.347864E-2,-3.3843794E-3],"categories":[],"categories_nodes":[],"categories_segments":[],"categories_sizes":[],"default_left":[0,0,0,0,0,0,0,0,0,0,0,0,0,0,0,0,0,0,0,0,0,0,0,0,0,0,0,0,0,0,0,0,0,0,0,0,0,0,0,0,0,0,0,0,0,0,0,0,0,0,0,0,0,0,0,0,0,0,0,0,0,0,0],"id":10,"left_children":[1,3,5,7,9,11,13,15,17,19,21,23,25,27,29,31,33,35,37,39,41,43,45,47,49,51,53,55,57,59,61,-1,-1,-1,-1,-1,-1,-1,-1,-1,-1,-1,-1,-1,-1,-1,-1,-1,-1,-1,-1,-1,-1,-1,-1,-1,-1,-1,-1,-1,-1,-1,-1],"loss_changes":[1.6601076E2,1.1904067E2,3.223722E1,4.152179E1,4.5065056E1,2.0234978E1,2.3279367E1,1.0838989E2,9.056732E0,3.5165863E1,6.3122383E1,6.312177E0,2.3601418E1,1.309671E1,1.9008732E1,2.7508095E1,1.2710419E1,1.232748E1,4.167038E0,3.1830858E1,1.0738117E1,2.0087818E1,5.7945557E1,1.3042544E1,5.822814E0,2.0033272E1,6.3420906E1,1.5567078E1,2.6521027E1,9.68886E0,1.111915E1,0E0,0E0,0E0,0E0,0E0,0E0,0E0,0E0,0E0,0E0,0E0,0E0,0E0,0E0,0E0,0E0,0E0,0E0,0E0,0E0,0E0,0E0,0E0,0E0,0E0,0E0,0E0,0E0,0E0,0E0,0E0,0E0],"parents":[2147483647,0,0,1,1,2,2,3,3,4,4,5,5,6,6,7,7,8,8,9,9,10,10,11,11,12,12,13,13,14,14,15,15,16,16,17,17,18,18,19,19,20,20,21,21,22,22,23,23,24,24,25,25,26,26,27,27,28,28,29,29,30,30],"right_children":[2,4,6,8,10,12,14,16,18,20,22,24,26,28,30,32,34,36,38,40,42,44,46,48,50,52,54,56,58,60,62,-1,-1,-1,-1,-1,-1,-1,-1,-1,-1,-1,-1,-1,-1,-1,-1,-1,-1,-1,-1,-1,-1,-1,-1,-1,-1,-1,-1,-1,-1,-1,-1],"split_conditions":[8.618E-1,-1.66702E1,2.22203E1,1.1711E0,3E0,-8.801E-1,3E0,-4.52E-2,-8.37E-2,6.04E-2,-3.0152E0,1E0,1.16412E1,1E0,3.6716E0,1.102E-1,-5.168E-1,-9.927E-1,1.52167E1,-4.5293E0,1.69333E1,-3.94E-2,-2.1E-3,1.05E-2,-1.1373E0,-1.7524E0,7.53E-2,4.62E-2,9.8802E0,3.461E-1,6.64E-2,-2.5774313E-2,8.517678E-3,8.450938E-2,1.4741174E-2,2.0139994E-2,-4.1907158E-2,-6.745749E-2,-2.8105212E-2,3.4553779E-3,-1.2104544E-3,-6.922127E-2,7.0475424E-3,9.834553E-3,-1.304692E-3,-7.3986426E-3,-2.4518053E-4,2.317055E-2,-7.2167637E-3,-1.6390258E-2,-4.4136844E-3,-2.4406955E-2,3.087336E-3,1.5908875E-2,-5.4463535E-3,-2.5665307E-2,4.0096913E-2,-4.5141917E-2,1.3023815E-3,-2.5721481E-2,4.3901857E-2,-7.347864E-2,-3.3843794E-3],"split_indices":[8,8,8,7,15,6,15,3,3,3,7,15,8,15,7,1,7,6,14,8,14,3,3,3,1,1,3,1,7,4,3,0,0,0,0,0,0,0,0,0,0,0,0,0,0,0,0,0,0,0,0,0,0,0,0,0,0,0,0,0,0,0,0],"split_type":[0,0,0,0,0,0,0,0,0,0,0,0,0,0,0,0,0,0,0,0,0,0,0,0,0,0,0,0,0,0,0,0,0,0,0,0,0,0,0,0,0,0,0,0,0,0,0,0,0,0,0,0,0,0,0,0,0,0,0,0,0,0,0],"sum_hessian":[6.409861E4,3.577195E4,2.832666E4,7.3260126E2,3.5039348E4,2.8074623E4,2.5203835E2,5.99549E2,1.3305225E2,2.0553812E4,1.4485536E4,8.158202E2,2.7258803E4,1.7885205E2,7.3186295E1,5.6411273E2,3.543628E1,7.170139E1,6.1350857E1,2.0525316E4,2.849469E1,1.673345E3,1.281219E4,1.4596613E2,6.69854E2,2.5641488E4,1.6173138E3,3.4600883E1,1.4425117E2,3.699749E1,3.6188805E1,4.9835782E2,6.575493E1,2.621103E1,9.22525E0,8.542934E0,6.3158455E1,5.1281677E1,1.006918E1,4.7573945E3,1.5767923E4,2.2996113E1,5.4985757E0,9.8919336E2,6.8415155E2,8.589799E3,4.2223916E3,5.7333508E1,8.863262E1,1.24081406E2,5.4577264E2,6.543738E1,2.557605E4,1.1123977E3,5.0491608E2,1.9636158E1,1.49647255E1,1.0018095E2,4.4070225E1,5.2153864E0,3.1782104E1,5.993496E0,3.0195307E1],"tree_param":{"num_deleted":"0","num_feature":"17","num_nodes":"63","size_leaf_vector":"1"}},{"base_weights":[-1.8322978E-3,-4.4543482E-2,5.9492122E-2,-4.5049036E-1,-3.6453806E-2,6.5519616E-2,-1.4467633E-1,5.1292256E-2,-5.543183E-1,-1.07507715E-2,-7.314348E-2,5.6529E-2,2.9068446E-1,5.756729E-2,-2.834198E-1,-4.987295E-1,3.045793E-1,-6.170198E-1,2.2425519E-1,-4.9934066E-3,-3.182513E-1,-8.371166E-2,1.7653354E-1,5.709948E-1,5.4883335E-2,-7.682163E-2,3.0853507E-1,-1.2409863E-1,2.0773862E-1,-5.490695E-1,-2.5624152E-2,-3.9132852E-2,3.2018293E-2,4.290768E-2,1.9387383E-3,-1.3291289E-2,-4.0169787E-2,3.4139205E-2,-1.5073925E-2,3.3689246E-3,-1.3398516E-3,-3.778234E-2,-1.0560112E-2,2.0557565E-3,-5.0345412E-3,1.4023662E-2,-4.217891E-3,-2.8856713E-2,3.371818E-2,-1.12364E-2,2.9046715E-3,-7.4498244E-3,1.7486168E-2,6.6927643E-3,-1.3433563E-2,1.5764799E-2,-3.909394E-3,-9.27888E-3,-4.234528E-2,9.971951E-3,-4.084613E-2],"categories":[],"categories_nodes":[],"categories_segments":[],"categories_sizes":[],"default_left":[0,0,0,0,0,0,0,0,0,0,0,0,0,0,0,0,0,0,0,0,0,0,0,0,0,0,0,0,0,0,0,0,0,0,0,0,0,0,0,0,0,0,0,0,0,0,0,0,0,0,0,0,0,0,0,0,0,0,0,0,0],"id":11,"left_children":[1,3,5,7,9,11,13,15,17,19,21,23,25,27,29,31,33,35,37,39,41,43,45,47,49,-1,51,53,55,57,59,-1,-1,-1,-1,-1,-1,-1,-1,-1,-1,-1,-1,-1,-1,-1,-1,-1,-1,-1,-1,-1,-1,-1,-1,-1,-1,-1,-1,-1,-1],"loss_changes":[1.6765988E2,1.2389337E2,3.234942E1,3.8432373E1,3.4887268E1,5.16585E1,2.1170359E1,1.7885372E1,2.9958237E1,3.8515335E1,4.022838E1,2.0751572E1,3.2432625E1,8.41683E0,3.0619087E1,1.3604537E1,1.2882464E1,3.6806015E1,1.1357549E1,3.370299E1,1.8562042E1,3.0995033E1,1.6814728E1,9.665951E0,2.1977165E1,0E0,1.8354721E1,5.250248E0,5.214588E0,2.368724E1,4.0778427E1,0E0,0E0,0E0,0E0,0E0,0E0,0E0,0E0,0E0,0E0,0E0,0E0,0E0,0E0,0E0,0E0,0E0,0E0,0E0,0E0,0E0,0E0,0E0,0E0,0E0,0E0,0E0,0E0,0E0,0E0],"parents":[2147483647,0,0,1,1,2,2,3,3,4,4,5,5,6,6,7,7,8,8,9,9,10,10,11,11,12,12,13,13,14,14,15,15,16,16,17,17,18,18,19,19,20,20,21,21,22,22,23,23,24,24,26,26,27,27,28,28,29,29,30,30],"right_children":[2,4,6,8,10,12,14,16,18,20,22,24,26,28,30,32,34,36,38,40,42,44,46,48,50,-1,52,54,56,58,60,-1,-1,-1,-1,-1,-1,-1,-1,-1,-1,-1,-1,-1,-1,-1,-1,-1,-1,-1,-1,-1,-1,-1,-1,-1,-1,-1,-1,-1,-1],"split_conditions":[1.1523E0,-1.66702E1,8.14E-2,-2.108E-1,3E0,1.29508E1,1.47734E1,1E0,-2.9E-2,2.61E-2,1.72E-2,-3.5E-2,-2.83E-2,5.75E-2,2E0,3.8E2,-1.3694E0,-1.58E-1,3.5E-3,-8.26E-2,4E0,-3.94E-2,2.81E2,-5.92E-2,-1.1373E0,-7.682163E-2,-8.801E-1,9.9127E0,8.557E-1,1E0,4E0,-3.9132852E-2,3.2018293E-2,4.290768E-2,1.9387383E-3,-1.3291289E-2,-4.0169787E-2,3.4139205E-2,-1.5073925E-2,3.3689246E-3,-1.3398516E-3,-3.778234E-2,-1.0560112E-2,2.0557565E-3,-5.0345412E-3,1.4023662E-2,-4.217891E-3,-2.8856713E-2,3.371818E-2,-1.12364E-2,2.9046715E-3,-7.4498244E-3,1.7486168E-2,6.6927643E-3,-1.3433563E-2,1.5764799E-2,-3.909394E-3,-9.27888E-3,-4.234528E-2,9.971951E-3,-4.084613E-2],"split_indices":[8,8,3,1,15,8,8,15,3,3,3,3,3,1,15,16,1,3,3,1,16,3,16,3,1,0,6,8,2,15,15,0,0,0,0,0,0,0,0,0,0,0,0,0,0,0,0,0,0,0,0,0,0,0,0,0,0,0,0,0,0],"split_type":[0,0,0,0,0,0,0,0,0,0,0,0,0,0,0,0,0,0,0,0,0,0,0,0,0,0,0,0,0,0,0,0,0,0,0,0,0,0,0,0,0,0,0,0,0,0,0,0,0,0,0,0,0,0,0,0,0,0,0,0,0],"sum_hessian":[6.400891E4,3.77306E4,2.6278309E4,7.361331E2,3.699447E4,2.5525422E4,7.5288654E2,1.2629195E2,6.098412E2,2.1755148E4,1.5239322E4,2.4546553E4,9.7886926E2,3.0657834E2,4.4630817E2,3.9514904E1,8.677705E1,5.645808E2,4.526033E1,2.1356307E4,3.9884018E2,1.4621113E4,6.182088E2,7.716566E1,2.4469387E4,8.647755E0,9.702215E2,1.388191E2,1.6775923E2,2.1924928E2,2.2705888E2,3.1881203E1,7.6337004E0,2.7427338E1,5.9349705E1,1.9658182E2,3.6799902E2,2.4015776E1,2.1244553E1,4.943953E3,1.6412355E4,7.722893E1,3.2161124E2,1.7504916E3,1.2870622E4,4.420286E2,1.7618024E2,5.995018E0,7.117064E1,2.7695047E2,2.4192436E4,7.991251E1,8.9030896E2,4.988531E1,8.89338E1,1.2182824E2,4.5931004E1,9.94722E1,1.1977708E2,1.7736128E2,4.9697598E1],"tree_param":{"num_deleted":"0","num_feature":"17","num_nodes":"61","size_leaf_vector":"1"}},{"base_weights":[7.5080805E-4,-2.7310565E-2,2.371685E-2,4.9517855E-2,-4.410337E-2,-3.9405294E-2,3.2385346E-2,6.567112E-2,-1.2492184E-1,-6.0070496E-2,5.588291E-3,1.4987369E-2,-1.1950015E-1,4.6336805E-3,5.093951E-2,-2.3760872E-1,7.295206E-2,-1.9621438E-1,2.3301178E-1,-1.7215632E-2,-9.186621E-2,8.089721E-2,-6.0524747E-2,1.2121433E-1,-1.4509786E-2,-1.3033009E-1,5.677776E-1,8.638628E-3,-2.3789838E-1,1.0468211E-1,2.178249E-2,-1.963277E-2,7.164586E-2,3.0617549E-3,1.3217859E-2,-5.936781E-3,-3.1348642E-2,2.0963656E-2,-1.7692944E-2,-2.8106796E-3,2.1580516E-3,-1.9788375E-2,-4.177879E-3,1.3677393E-2,2.6238046E-3,1.6783484E-3,-5.162399E-3,-9.143671E-4,1.1605284E-2,1.5188492E-3,-4.112222E-3,2.0259125E-3,-7.4952208E-3,7.2252214E-2,-6.341943E-3,-1.2824309E-4,3.2770117E-3,-1.5516176E-2,4.0988784E-2,2.0859488E-3,9.557912E-3,1.5016727E-3,-6.723343E-3],"categories":[],"categories_nodes":[],"categories_segments":[],"categories_sizes":[],"default_left":[0,0,0,0,0,0,0,0,0,0,0,0,0,0,0,0,0,0,0,0,0,0,0,0,0,0,0,0,0,0,0,0,0,0,0,0,0,0,0,0,0,0,0,0,0,0,0,0,0,0,0,0,0,0,0,0,0,0,0,0,0,0,0],"id":12,"left_children":[1,3,5,7,9,11,13,15,17,19,21,23,25,27,29,31,33,35,37,39,41,43,45,47,49,51,53,55,57,59,61,-1,-1,-1,-1,-1,-1,-1,-1,-1,-1,-1,-1,-1,-1,-1,-1,-1,-1,-1,-1,-1,-1,-1,-1,-1,-1,-1,-1,-1,-1,-1,-1],"loss_changes":[4.1346497E1,3.725607E1,1.9306473E1,1.4603756E1,1.8801891E1,1.85634E1,1.5973293E1,1.0487268E1,1.1257013E1,2.4435272E1,2.8700817E1,7.955294E0,1.2900715E1,1.2076874E1,2.9130592E1,2.9415323E1,1.0369865E1,1.2171293E1,8.175197E0,1.7990837E1,2.5962273E1,1.4740585E1,1.234339E1,8.539758E0,6.045428E0,5.6824665E0,1.6587662E1,7.796922E0,1.5726371E1,3.5594254E1,1.5544214E1,0E0,0E0,0E0,0E0,0E0,0E0,0E0,0E0,0E0,0E0,0E0,0E0,0E0,0E0,0E0,0E0,0E0,0E0,0E0,0E0,0E0,0E0,0E0,0E0,0E0,0E0,0E0,0E0,0E0,0E0,0E0,0E0],"parents":[2147483647,0,0,1,1,2,2,3,3,4,4,5,5,6,6,7,7,8,8,9,9,10,10,11,11,12,12,13,13,14,14,15,15,16,16,17,17,18,18,19,19,20,20,21,21,22,22,23,23,24,24,25,25,26,26,27,27,28,28,29,29,30,30],"right_children":[2,4,6,8,10,12,14,16,18,20,22,24,26,28,30,32,34,36,38,40,42,44,46,48,50,52,54,56,58,60,62,-1,-1,-1,-1,-1,-1,-1,-1,-1,-1,-1,-1,-1,-1,-1,-1,-1,-1,-1,-1,-1,-1,-1,-1,-1,-1,-1,-1,-1,-1,-1,-1],"split_conditions":[-1.22E-1,1E0,8.0667E0,-2.757E-1,4E0,1.0791E0,2E0,-8.1272E0,7.74E-2,-3.09E-2,-1.3124E0,3.761E-1,9.8802E0,7.8772E0,3E0,1.59833E1,2.888E-1,3.39E-2,6.56783E1,1.32E1,-6.3243E0,9.0833E0,5.983E-1,2.315E-1,3E0,2.576E-1,4.47E-2,2.9424E0,1.73667E1,1.2441E0,5.1625E0,-1.963277E-2,7.164586E-2,3.0617549E-3,1.3217859E-2,-5.936781E-3,-3.1348642E-2,2.0963656E-2,-1.7692944E-2,-2.8106796E-3,2.1580516E-3,-1.9788375E-2,-4.177879E-3,1.3677393E-2,2.6238046E-3,1.6783484E-3,-5.162399E-3,-9.143671E-4,1.1605284E-2,1.5188492E-3,-4.112222E-3,2.0259125E-3,-7.4952208E-3,7.2252214E-2,-6.341943E-3,-1.2824309E-4,3.2770117E-3,-1.5516176E-2,4.0988784E-2,2.0859488E-3,9.557912E-3,1.5016727E-3,-6.723343E-3],"split_indices":[7,15,14,7,15,7,15,7,1,1,7,4,7,7,15,14,1,1,0,14,7,14,4,4,15,4,1,7,14,7,7,0,0,0,0,0,0,0,0,0,0,0,0,0,0,0,0,0,0,0,0,0,0,0,0,0,0,0,0,0,0,0,0],"split_type":[0,0,0,0,0,0,0,0,0,0,0,0,0,0,0,0,0,0,0,0,0,0,0,0,0,0,0,0,0,0,0,0,0,0,0,0,0,0,0,0,0,0,0,0,0,0,0,0,0,0,0,0,0,0,0,0,0,0,0,0,0,0,0],"sum_hessian":[6.415494E4,2.8874297E4,3.5280645E4,5.178822E3,2.3695475E4,4.259599E3,3.1021047E4,4.7404736E3,4.3834845E2,1.793297E4,5.762505E3,2.5373142E3,1.7222849E3,1.2430245E4,1.85908E4,1.1039625E2,4.630077E3,3.659175E2,7.243094E1,7.6387964E3,1.0294174E4,2.6937961E3,3.0687087E3,5.5076306E2,1.986551E3,1.6963644E3,2.592049E1,1.2229267E4,2.0097827E2,6.5377476E3,1.2053053E4,1.0172023E2,8.676016E0,4.3642383E3,2.658391E2,3.11216E2,5.4701508E1,5.5197807E1,1.7233131E1,4.6411167E3,2.99768E3,2.727108E2,1.0021463E4,3.452072E2,2.3485889E3,9.5833307E2,2.1103757E3,2.4428583E2,3.0647726E2,1.1951163E3,7.914347E2,1.742663E2,1.5220981E3,1.0976879E1,1.4943611E1,1.0218314E4,2.0109528E3,1.8875941E2,1.2218863E1,3.784061E3,2.7536868E3,1.1449267E4,6.037866E2],"tree_param":{"num_deleted":"0","num_feature":"17","num_nodes":"63","size_leaf_vector":"1"}},{"base_weights":[-3.5369704E-3,-4.848453E-2,5.2572355E-2,-4.1104123E-1,-4.0953588E-2,5.5462293E-2,-2.7814502E-1,1.5075844E-2,-4.9848923E-1,1.9982552E-2,-5.9238985E-2,4.8484746E-2,1.4736784E-1,-4.5273495E-1,2.0889816E-1,-6.08282E-1,3.1698033E-1,-5.875588E-1,-9.854311E-4,1.3327336E-1,-5.3954963E-2,-1.5340047E-1,-2.7330812E-2,4.5454517E-2,2.7205697E-1,2.2533675E-1,-1.386495E-1,7.354652E-2,-5.7310474E-1,7.4179165E-2,6.0016062E-2,-4.1945115E-2,2.259007E-3,6.73097E-3,4.504217E-2,-3.3946827E-2,3.7855513E-3,1.3715515E-2,-2.9330358E-2,2.7915968E-3,1.6721636E-2,1.0209201E-2,-4.6405788E-3,3.7066854E-4,-9.14968E-3,6.286455E-5,-3.9013901E-3,3.1179509E-3,-7.1943615E-4,-5.561571E-3,2.1112628E-2,2.2524316E-2,9.14128E-3,2.7127418E-4,-5.0883044E-2,-2.769351E-2,4.7171373E-2,-4.1621264E-2,-1.4630278E-2,-4.4438783E-2,1.6020931E-2],"categories":[],"categories_nodes":[],"categories_segments":[],"categories_sizes":[],"default_left":[0,0,0,0,0,0,0,0,0,0,0,0,0,0,0,0,0,0,0,0,0,0,0,0,0,0,0,0,0,0,0,0,0,0,0,0,0,0,0,0,0,0,0,0,0,0,0,0,0,0,0,0,0,0,0,0,0,0,0,0,0],"id":13,"left_children":[1,3,5,7,9,11,13,15,17,19,21,23,25,27,29,31,33,35,37,39,41,43,45,47,49,51,53,55,57,-1,59,-1,-1,-1,-1,-1,-1,-1,-1,-1,-1,-1,-1,-1,-1,-1,-1,-1,-1,-1,-1,-1,-1,-1,-1,-1,-1,-1,-1,-1,-1],"loss_changes":[1.6153276E2,9.708186E1,2.724279E1,2.69691E1,3.8820923E1,1.8103706E1,2.1093271E1,2.3561602E1,2.660344E1,6.737221E1,8.0512184E1,1.7771751E1,4.4461823E1,1.1577881E1,1.2407499E1,6.1954603E0,8.855995E0,3.0913422E1,1.5019951E1,4.9460354E1,4.883694E1,3.2278946E1,2.9011292E1,2.6202602E1,2.0243855E1,1.4906029E1,5.413294E1,1.9506285E1,1.054488E1,0E0,1.5109774E1,0E0,0E0,0E0,0E0,0E0,0E0,0E0,0E0,0E0,0E0,0E0,0E0,0E0,0E0,0E0,0E0,0E0,0E0,0E0,0E0,0E0,0E0,0E0,0E0,0E0,0E0,0E0,0E0,0E0,0E0],"parents":[2147483647,0,0,1,1,2,2,3,3,4,4,5,5,6,6,7,7,8,8,9,9,10,10,11,11,12,12,13,13,14,14,15,15,16,16,17,17,18,18,19,19,20,20,21,21,22,22,23,23,24,24,25,25,26,26,27,27,28,28,30,30],"right_children":[2,4,6,8,10,12,14,16,18,20,22,24,26,28,30,32,34,36,38,40,42,44,46,48,50,52,54,56,58,-1,60,-1,-1,-1,-1,-1,-1,-1,-1,-1,-1,-1,-1,-1,-1,-1,-1,-1,-1,-1,-1,-1,-1,-1,-1,-1,-1,-1,-1,-1,-1],"split_conditions":[8.248E-1,-1.66702E1,2.22203E1,-2.108E-1,-4.6311E0,1.1126E1,3E0,-1.58E-1,1.102E-1,2E0,-2.5565E0,7.04E-2,8.14E-2,1E0,3.04E-2,-3.53E-1,3.62E2,-5.12E-2,6.25679E1,-5.8257E0,-3.53E-1,-1.735E-1,-2.507E-1,5.447E0,1.5E1,3.26E-2,4E0,4.62E-2,2E0,7.4179165E-2,6.64E-2,-4.1945115E-2,2.259007E-3,6.73097E-3,4.504217E-2,-3.3946827E-2,3.7855513E-3,1.3715515E-2,-2.9330358E-2,2.7915968E-3,1.6721636E-2,1.0209201E-2,-4.6405788E-3,3.7066854E-4,-9.14968E-3,6.286455E-5,-3.9013901E-3,3.1179509E-3,-7.1943615E-4,-5.561571E-3,2.1112628E-2,2.2524316E-2,9.14128E-3,2.7127418E-4,-5.0883044E-2,-2.769351E-2,4.7171373E-2,-4.1621264E-2,-1.4630278E-2,-4.4438783E-2,1.6020931E-2],"split_indices":[8,8,8,1,8,8,15,3,1,15,8,3,3,15,3,1,16,3,0,8,1,1,8,8,16,3,15,1,15,0,3,0,0,0,0,0,0,0,0,0,0,0,0,0,0,0,0,0,0,0,0,0,0,0,0,0,0,0,0,0,0],"split_type":[0,0,0,0,0,0,0,0,0,0,0,0,0,0,0,0,0,0,0,0,0,0,0,0,0,0,0,0,0,0,0,0,0,0,0,0,0,0,0,0,0,0,0,0,0,0,0,0,0,0,0,0,0,0,0,0,0,0,0,0,0],"sum_hessian":[6.4048035E4,3.5561156E4,2.848688E4,7.2254663E2,3.483861E4,2.8240932E4,2.4594807E2,1.2317358E2,5.9937305E2,8.0411997E3,2.679741E4,2.624957E4,1.9913619E3,1.8109982E2,6.484825E1,3.9859264E1,8.331431E1,5.0820633E2,9.116671E1,3.175198E3,4.866002E3,6.781449E3,2.001596E4,2.5899736E4,3.4983386E2,1.5649622E3,4.2639972E2,3.3782925E1,1.4731691E2,5.8445024E0,5.9003754E1,2.9251888E1,1.0607377E1,6.442323E1,1.8891073E1,4.466486E2,6.1557728E1,6.2375916E1,2.879079E1,2.2935247E3,8.816733E2,6.3607336E2,4.2299287E3,1.054092E3,5.727357E3,1.2799359E4,7.2166016E3,2.0195014E4,5.704723E3,9.8564285E1,2.5126956E2,2.4703041E2,1.3179318E3,3.6720633E2,5.9193386E1,1.9837828E1,1.3945096E1,7.5525856E1,7.1791046E1,1.2186921E1,4.6816833E1],"tree_param":{"num_deleted":"0","num_feature":"17","num_nodes":"61","size_leaf_vector":"1"}},{"base_weights":[3.1907953E-4,-4.1089907E-2,5.1958762E-2,-3.691968E-1,-3.4230914E-2,5.6840274E-2,-1.3295336E-1,-2.689727E-1,-8.173246E-1,7.267838E-2,-4.3188542E-2,4.96945E-2,2.5627485E-1,-5.1497775E-1,-4.528241E-2,-3.6282006E-1,1.2292616E0,-5.828564E-1,-1.0778764E0,3.137924E-1,-8.941026E-3,-4.199246E-2,-6.480397E-1,-5.9107663E-3,6.262021E-2,-1.1825364E0,2.8514415E-1,-7.879993E-1,7.80257E-2,3.4310922E-2,-5.753707E-1,-2.1905271E-2,1.0465632E-2,2.1622594E-2,7.571906E-2,-4.608735E-2,-1.0904856E-2,-2.6746875E-2,-6.1181515E-2,3.8199555E-2,1.3727295E-2,4.096153E-3,-6.370023E-3,-3.2300812E-3,-4.8002374E-4,1.4501388E-2,-3.755025E-2,1.144149E-2,-2.6928226E-3,4.020353E-3,3.8501713E-4,-2.6637698E-2,-7.06866E-2,3.39431E-2,1.1020288E-2,-1.5276241E-4,-4.537486E-2,-4.556484E-2,1.2103514E-2,-9.126767E-3,1.6111573E-2,3.6703736E-2,-4.230107E-2],"categories":[],"categories_nodes":[],"categories_segments":[],"categories_sizes":[],"default_left":[0,0,0,0,0,0,0,0,0,0,0,0,0,0,0,0,0,0,0,0,0,0,0,0,0,0,0,0,0,0,0,0,0,0,0,0,0,0,0,0,0,0,0,0,0,0,0,0,0,0,0,0,0,0,0,0,0,0,0,0,0,0,0],"id":14,"left_children":[1,3,5,7,9,11,13,15,17,19,21,23,25,27,29,31,33,35,37,39,41,43,45,47,49,51,53,55,57,59,61,-1,-1,-1,-1,-1,-1,-1,-1,-1,-1,-1,-1,-1,-1,-1,-1,-1,-1,-1,-1,-1,-1,-1,-1,-1,-1,-1,-1,-1,-1,-1,-1],"loss_changes":[1.3721819E2,8.0133545E1,2.5784866E1,3.2527794E1,3.341063E1,3.9639E1,2.4586842E1,8.4437485E1,7.483139E0,5.308451E1,2.3259567E1,1.9307343E1,4.0304436E1,2.2251411E1,2.528149E1,2.433831E1,7.396538E0,8.706959E0,4.2290497E0,1.1843414E1,2.1711393E1,2.352703E1,6.3470306E0,5.7045483E1,2.1290733E1,2.119276E0,2.3913628E1,8.808617E0,7.3806906E0,3.261959E1,2.834282E1,0E0,0E0,0E0,0E0,0E0,0E0,0E0,0E0,0E0,0E0,0E0,0E0,0E0,0E0,0E0,0E0,0E0,0E0,0E0,0E0,0E0,0E0,0E0,0E0,0E0,0E0,0E0,0E0,0E0,0E0,0E0,0E0],"parents":[2147483647,0,0,1,1,2,2,3,3,4,4,5,5,6,6,7,7,8,8,9,9,10,10,11,11,12,12,13,13,14,14,15,15,16,16,17,17,18,18,19,19,20,20,21,21,22,22,23,23,24,24,25,25,26,26,27,27,28,28,29,29,30,30],"right_children":[2,4,6,8,10,12,14,16,18,20,22,24,26,28,30,32,34,36,38,40,42,44,46,48,50,52,54,56,58,60,62,-1,-1,-1,-1,-1,-1,-1,-1,-1,-1,-1,-1,-1,-1,-1,-1,-1,-1,-1,-1,-1,-1,-1,-1,-1,-1,-1,-1,-1,-1,-1,-1],"split_conditions":[8.248E-1,-1.66702E1,8.14E-2,1.1711E0,-3.344E-1,1.29508E1,3.0268E0,-4.52E-2,-8.37E-2,-4.35E-2,4.97E-2,-6.422E-1,-7.0719E0,3E0,4E0,1.071E-1,2E0,2E0,1E0,-9.32E-2,3E0,-5.6E-3,8.45E0,1E0,5.447E0,1.02333E1,3.26E-2,1.516E-1,3.539E-1,2E0,1.02862E1,-2.1905271E-2,1.0465632E-2,2.1622594E-2,7.571906E-2,-4.608735E-2,-1.0904856E-2,-2.6746875E-2,-6.1181515E-2,3.8199555E-2,1.3727295E-2,4.096153E-3,-6.370023E-3,-3.2300812E-3,-4.8002374E-4,1.4501388E-2,-3.755025E-2,1.144149E-2,-2.6928226E-3,4.020353E-3,3.8501713E-4,-2.6637698E-2,-7.06866E-2,3.39431E-2,1.1020288E-2,-1.5276241E-4,-4.537486E-2,-4.556484E-2,1.2103514E-2,-9.126767E-3,1.6111573E-2,3.6703736E-2,-4.230107E-2],"split_indices":[8,8,3,7,1,8,7,3,3,3,3,7,7,15,15,1,15,15,15,3,15,3,14,15,8,14,3,2,4,15,8,0,0,0,0,0,0,0,0,0,0,0,0,0,0,0,0,0,0,0,0,0,0,0,0,0,0,0,0,0,0,0,0],"split_type":[0,0,0,0,0,0,0,0,0,0,0,0,0,0,0,0,0,0,0,0,0,0,0,0,0,0,0,0,0,0,0,0,0,0,0,0,0,0,0,0,0,0,0,0,0,0,0,0,0,0,0,0,0,0,0,0,0,0,0,0,0,0,0],"sum_hessian":[6.416822E4,3.5611867E4,2.855635E4,7.281317E2,3.4883734E4,2.7822553E4,7.337975E2,5.963564E2,1.317753E2,2.6962983E3,3.2187438E4,2.6861355E4,9.611975E2,1.3605717E2,5.977403E2,5.6191656E2,3.4439846E1,7.10632E1,6.07121E1,6.811754E2,2.0151229E3,3.212498E4,6.245713E1,5.066454E3,2.1794902E4,1.8120716E1,9.430768E2,9.2938866E1,4.3118313E1,5.2051904E2,7.722122E1,4.9678082E2,6.513575E1,9.739124E0,2.4700722E1,3.60463E1,3.50169E1,1.3837396E1,4.6874706E1,5.3139782E1,6.2803564E2,1.1405638E3,8.7455896E2,1.891887E4,1.320611E4,5.997747E0,5.6459385E1,8.5866833E2,4.2077856E3,1.6462684E4,5.332218E3,5.6225915E0,1.2498125E1,1.3183186E2,8.1124493E2,1.2414901E1,8.0523964E1,5.484874E0,3.763344E1,2.9711447E2,2.234046E2,1.2933739E1,6.428748E1],"tree_param":{"num_deleted":"0","num_feature":"17","num_nodes":"63","size_leaf_vector":"1"}},{"base_weights":[2.359896E-3,-3.4781016E-2,5.188529E-2,-3.076027E-1,-2.723981E-2,5.728956E-2,-1.4348403E-1,-2.9560419E-2,-4.0207127E-1,2.4623312E-1,-3.1018175E-2,4.819186E-2,1.9466324E-1,-8.882626E-2,-5.061064E-1,4.4829357E-1,-1.03812054E-1,-4.4181672E-1,1.358895E-1,1.882174E-1,1.278293E0,-5.785481E-3,-6.673697E-2,-8.78489E-3,5.8361184E-2,-2.3338108E-1,2.3242246E-1,-2.7732268E-1,1.4806926E-1,8.072789E-1,-7.088621E-1,-2.2549456E-2,5.3948123E-2,1.5731273E-2,-1.0266808E-2,-2.8084476E-2,-1.5998594E-2,1.6513167E-2,-5.306957E-2,2.222654E-2,-4.4236276E-5,7.611618E-2,4.2931654E-2,-3.1662803E-5,-1.6657516E-2,-4.908969E-3,1.7235296E-4,9.745552E-3,-2.4918125E-3,1.1572051E-3,4.1443645E-3,-3.0550954E-3,-2.3598064E-2,2.6660014E-2,8.891947E-3,-1.9035168E-3,-2.3723947E-2,4.3996647E-2,4.4336813E-3,6.385251E-2,1.3081441E-2,-4.3600045E-2,2.9827118E-2],"categories":[],"categories_nodes":[],"categories_segments":[],"categories_sizes":[],"default_left":[0,0,0,0,0,0,0,0,0,0,0,0,0,0,0,0,0,0,0,0,0,0,0,0,0,0,0,0,0,0,0,0,0,0,0,0,0,0,0,0,0,0,0,0,0,0,0,0,0,0,0,0,0,0,0,0,0,0,0,0,0,0,0],"id":15,"left_children":[1,3,5,7,9,11,13,15,17,19,21,23,25,27,29,31,33,35,37,39,41,43,45,47,49,51,53,55,57,59,61,-1,-1,-1,-1,-1,-1,-1,-1,-1,-1,-1,-1,-1,-1,-1,-1,-1,-1,-1,-1,-1,-1,-1,-1,-1,-1,-1,-1,-1,-1,-1,-1],"loss_changes":[1.1793134E2,7.5369965E1,2.9017982E1,2.5870384E1,3.6847397E1,3.3406067E1,1.461914E1,8.95137E0,1.578421E1,2.885849E1,3.1696068E1,1.4530853E1,2.689016E1,2.8805387E1,2.6322607E1,1.9736069E1,9.32688E0,9.826019E0,1.2303047E1,2.2359283E1,1.3240623E0,3.4762424E1,3.2128136E1,3.1776018E1,1.8378166E1,5.523798E0,2.4962868E1,1.6919453E1,1.2358053E1,3.1004944E0,1.8472672E1,0E0,0E0,0E0,0E0,0E0,0E0,0E0,0E0,0E0,0E0,0E0,0E0,0E0,0E0,0E0,0E0,0E0,0E0,0E0,0E0,0E0,0E0,0E0,0E0,0E0,0E0,0E0,0E0,0E0,0E0,0E0,0E0],"parents":[2147483647,0,0,1,1,2,2,3,3,4,4,5,5,6,6,7,7,8,8,9,9,10,10,11,11,12,12,13,13,14,14,15,15,16,16,17,17,18,18,19,19,20,20,21,21,22,22,23,23,24,24,25,25,26,26,27,27,28,28,29,29,30,30],"right_children":[2,4,6,8,10,12,14,16,18,20,22,24,26,28,30,32,34,36,38,40,42,44,46,48,50,52,54,56,58,60,62,-1,-1,-1,-1,-1,-1,-1,-1,-1,-1,-1,-1,-1,-1,-1,-1,-1,-1,-1,-1,-1,-1,-1,-1,-1,-1,-1,-1,-1,-1,-1,-1],"split_conditions":[9.712E-1,-1.47854E1,8.14E-2,-7.924E-1,-7.68E-2,1.1126E1,4E0,2E0,-2.9E-2,4.36E2,3E0,2.3E-3,-8.341E-1,2E0,9.2684E0,1E0,-3.34743E1,-2.03528E1,3.76E2,2E0,-9.24E-2,2.72E-2,-2.1E-3,1E0,2E0,1.47734E1,3.26E-2,1.6118E1,7.4532E0,7.4532E0,6.143E-1,-2.2549456E-2,5.3948123E-2,1.5731273E-2,-1.0266808E-2,-2.8084476E-2,-1.5998594E-2,1.6513167E-2,-5.306957E-2,2.222654E-2,-4.4236276E-5,7.611618E-2,4.2931654E-2,-3.1662803E-5,-1.6657516E-2,-4.908969E-3,1.7235296E-4,9.745552E-3,-2.4918125E-3,1.1572051E-3,4.1443645E-3,-3.0550954E-3,-2.3598064E-2,2.6660014E-2,8.891947E-3,-1.9035168E-3,-2.3723947E-2,4.3996647E-2,4.4336813E-3,6.385251E-2,1.3081441E-2,-4.3600045E-2,2.9827118E-2],"split_indices":[8,8,3,6,3,8,15,16,3,16,15,3,6,15,8,15,8,8,16,15,6,3,3,15,15,8,3,8,8,8,5,0,0,0,0,0,0,0,0,0,0,0,0,0,0,0,0,0,0,0,0,0,0,0,0,0,0,0,0,0,0,0,0],"split_type":[0,0,0,0,0,0,0,0,0,0,0,0,0,0,0,0,0,0,0,0,0,0,0,0,0,0,0,0,0,0,0,0,0,0,0,0,0,0,0,0,0,0,0,0,0,0,0,0,0,0,0,0,0,0,0,0,0,0,0,0,0,0,0],"sum_hessian":[6.411141E4,3.6636586E4,2.7474826E4,9.843813E2,3.5652203E4,2.6735967E4,7.3885876E2,2.4997157E2,7.344097E2,4.8499164E2,3.516721E4,2.5076598E4,1.65937E3,6.431607E2,9.5698105E1,3.294072E1,2.1703085E2,6.840497E2,5.036002E1,4.6029898E2,2.4692657E1,2.0609373E4,1.455784E4,3.7978906E3,2.1278707E4,1.3409276E2,1.5252772E3,3.580732E2,2.8508746E2,1.2399123E1,8.329899E1,1.3696098E1,1.924462E1,4.19661E1,1.7506474E2,3.4299554E2,3.4105417E2,4.3949196E1,6.4108243E0,1.9484749E2,2.654515E2,1.3952065E1,1.0740591E1,2.0291025E4,3.1834796E2,1.0053484E4,4.5043555E3,6.3638995E2,3.1615005E3,8.736251E3,1.2542456E4,7.859516E1,5.54976E1,2.3293587E2,1.2923413E3,1.6230571E2,1.9576752E2,2.0363E1,2.6472446E2,5.9425397E0,6.456583E0,7.434052E1,8.958461E0],"tree_param":{"num_deleted":"0","num_feature":"17","num_nodes":"63","size_leaf_vector":"1"}},{"base_weights":[-1.6591066E-5,-3.357859E-2,4.9021732E-2,-3.0952516E-1,-2.6297143E-2,5.2015703E-2,-2.6205504E-1,-9.61444E-2,-4.962566E-1,5.135611E-1,-2.8448187E-2,-1.4840429E-2,6.288039E-2,-4.229591E-1,1.3657095E-1,-3.1869423E-1,1.2921064E-1,-5.725239E-1,4.8544932E-2,8.196836E-1,2.6242507E-1,2.1481225E-2,-3.888421E-2,1.7529461E-1,-5.2808646E-2,2.0973807E-2,9.208143E-2,1.70075E-1,-5.622583E-1,7.232235E-2,-1.4393588E-2,9.416924E-3,-2.9596625E-2,2.8162615E-3,7.38229E-2,3.7311386E-2,-3.0289477E-2,7.550995E-2,-4.0029567E-2,5.3483065E-2,1.6164638E-2,-1.9446932E-3,4.173554E-2,8.942E-3,-8.412811E-4,-5.290587E-3,-7.5381063E-4,7.056422E-3,6.691028E-2,-7.0209145E-3,1.8628966E-3,1.0588044E-2,-4.915518E-4,3.942446E-3,1.2345167E-2,-2.219355E-2,3.4185674E-2,-4.3011595E-2,8.895112E-3,-5.2712705E-2,1.2746572E-2],"categories":[],"categories_nodes":[],"categories_segments":[],"categories_sizes":[],"default_left":[0,0,0,0,0,0,0,0,0,0,0,0,0,0,0,0,0,0,0,0,0,0,0,0,0,0,0,0,0,0,0,0,0,0,0,0,0,0,0,0,0,0,0,0,0,0,0,0,0,0,0,0,0,0,0,0,0,0,0,0,0],"id":16,"left_children":[1,3,5,7,9,11,13,15,17,19,21,23,25,27,29,31,33,35,37,39,41,43,45,47,49,51,53,55,57,-1,59,-1,-1,-1,-1,-1,-1,-1,-1,-1,-1,-1,-1,-1,-1,-1,-1,-1,-1,-1,-1,-1,-1,-1,-1,-1,-1,-1,-1,-1,-1],"loss_changes":[1.0532602E2,7.633128E1,2.4231365E1,3.8867462E1,4.300156E1,1.8709091E1,1.5967432E1,2.2963398E1,2.165976E1,1.1083107E1,1.9213314E1,2.6006796E1,2.7110008E1,1.4713982E1,1.42754345E1,3.2009632E1,2.2286016E1,2.0489899E1,8.1701935E1,7.814064E0,1.4207518E1,3.8431194E1,4.859354E1,2.363703E1,2.3697533E1,5.348217E1,2.6729752E1,1.1160048E1,3.1808453E1,0E0,1.8648188E1,0E0,0E0,0E0,0E0,0E0,0E0,0E0,0E0,0E0,0E0,0E0,0E0,0E0,0E0,0E0,0E0,0E0,0E0,0E0,0E0,0E0,0E0,0E0,0E0,0E0,0E0,0E0,0E0,0E0,0E0],"parents":[2147483647,0,0,1,1,2,2,3,3,4,4,5,5,6,6,7,7,8,8,9,9,10,10,11,11,12,12,13,13,14,14,15,15,16,16,17,17,18,18,19,19,20,20,21,21,22,22,23,23,24,24,25,25,26,26,27,27,28,28,30,30],"right_children":[2,4,6,8,10,12,14,16,18,20,22,24,26,28,30,32,34,36,38,40,42,44,46,48,50,52,54,56,58,-1,60,-1,-1,-1,-1,-1,-1,-1,-1,-1,-1,-1,-1,-1,-1,-1,-1,-1,-1,-1,-1,-1,-1,-1,-1,-1,-1,-1,-1,-1,-1],"split_conditions":[1.1873E0,-1.47854E1,2.22203E1,-4.3468E0,-9.32E-2,2.9E-3,3E0,-8.1272E0,-3.5E-2,2E0,-5.2285E0,1E0,2E0,1E0,3.04E-2,-3.34743E1,6.977E-1,-1.7524E0,-2.6E-1,2.28E2,4E0,1E0,-2.5565E0,1.02862E1,1.87E2,8.8E-3,1.16412E1,1.38E-2,9.8802E0,7.232235E-2,6.64E-2,9.416924E-3,-2.9596625E-2,2.8162615E-3,7.38229E-2,3.7311386E-2,-3.0289477E-2,7.550995E-2,-4.0029567E-2,5.3483065E-2,1.6164638E-2,-1.9446932E-3,4.173554E-2,8.942E-3,-8.412811E-4,-5.290587E-3,-7.5381063E-4,7.056422E-3,6.691028E-2,-7.0209145E-3,1.8628966E-3,1.0588044E-2,-4.915518E-4,3.942446E-3,1.2345167E-2,-2.219355E-2,3.4185674E-2,-4.3011595E-2,8.895112E-3,-5.2712705E-2,1.2746572E-2],"split_indices":[8,8,8,7,3,3,15,7,3,15,8,15,15,15,3,8,1,1,7,16,15,15,8,8,16,3,8,1,7,0,3,0,0,0,0,0,0,0,0,0,0,0,0,0,0,0,0,0,0,0,0,0,0,0,0,0,0,0,0,0,0],"split_type":[0,0,0,0,0,0,0,0,0,0,0,0,0,0,0,0,0,0,0,0,0,0,0,0,0,0,0,0,0,0,0,0,0,0,0,0,0,0,0,0,0,0,0,0,0,0,0,0,0,0,0,0,0,0,0,0,0,0,0,0,0],"sum_hessian":[6.3993914E4,3.7992223E4,2.6001693E4,9.756666E2,3.7016555E4,2.575465E4,2.470439E2,4.560483E2,5.196183E2,1.4596208E2,3.6870594E4,3.6002217E3,2.2154428E4,1.75958E2,7.108591E1,2.2924387E2,2.2680446E2,4.557645E2,6.385381E1,6.4759514E1,8.120256E1,6.3740347E3,3.0496559E4,5.986617E2,3.00156E3,9.098638E3,1.305579E4,3.3427452E1,1.4253055E2,6.4592733E0,6.462663E1,8.0386284E1,1.4885757E2,2.1615253E2,1.0651935E1,1.06865E1,4.45078E2,2.317801E1,4.0675797E1,4.2301838E1,2.245768E1,5.3805183E1,2.7397379E1,1.2471719E3,5.126863E3,8.0010557E3,2.2495502E4,5.826644E2,1.5997247E1,1.5212498E3,1.4803104E3,1.2640405E3,7.8345977E3,1.2029175E4,1.0266152E3,1.5288781E1,1.813867E1,1.0150462E2,4.102592E1,1.2695404E1,5.1931232E1],"tree_param":{"num_deleted":"0","num_feature":"17","num_nodes":"61","size_leaf_vector":"1"}},{"base_weights":[3.9839483E-4,-5.0224256E-2,2.9572396E-2,-3.4081423E-1,-4.1261695E-2,-6.903054E-3,5.4303408E-2,-1.2878108E-1,-4.9717462E-1,2.8787866E-2,-8.409403E-2,5.9772387E-2,-7.6135665E-2,-3.1585444E-3,1.1835122E-1,-3.6775905E-1,1.21873185E-1,-5.381589E-1,6.578462E-1,1.325125E-1,-2.7158013E-2,3.8200926E-2,-1.09965414E-1,1.3155034E-1,-3.7902715E-3,-2.7282706E-1,-1.926203E-2,2.510375E-2,-8.426334E-2,1.6264611E-1,4.62756E-2,1.3001311E-2,-4.5077827E-2,7.127716E-4,3.9489847E-2,-1.6830813E-2,-3.0603886E-2,7.803888E-2,-1.1398491E-2,3.1711701E-3,1.4304116E-2,-1.5502569E-3,5.1791478E-2,-8.058994E-3,6.939648E-3,-1.522654E-2,-5.0558834E-3,1.637612E-2,4.512929E-3,-1.1597856E-2,3.0697535E-3,-2.0126473E-2,-8.072368E-3,-1.3956356E-4,-1.7175281E-2,3.241065E-2,9.0141565E-4,4.886625E-3,-8.875471E-3,6.6302954E-3,1.52909905E-2,-7.0633664E-4,9.6551785E-3],"categories":[],"categories_nodes":[],"categories_segments":[],"categories_sizes":[],"default_left":[0,0,0,0,0,0,0,0,0,0,0,0,0,0,0,0,0,0,0,0,0,0,0,0,0,0,0,0,0,0,0,0,0,0,0,0,0,0,0,0,0,0,0,0,0,0,0,0,0,0,0,0,0,0,0,0,0,0,0,0,0,0,0],"id":17,"left_children":[1,3,5,7,9,11,13,15,17,19,21,23,25,27,29,31,33,35,37,39,41,43,45,47,49,51,53,55,57,59,61,-1,-1,-1,-1,-1,-1,-1,-1,-1,-1,-1,-1,-1,-1,-1,-1,-1,-1,-1,-1,-1,-1,-1,-1,-1,-1,-1,-1,-1,-1,-1,-1],"loss_changes":[9.4519516E1,6.092626E1,3.6625854E1,2.3141762E1,6.811049E1,7.57376E1,8.904973E1,1.7921291E1,1.9408066E1,4.9990524E1,4.4573784E1,3.813312E1,9.0037674E1,2.9238682E1,3.652321E1,5.151448E1,1.0512751E1,5.593239E0,1.1747921E1,3.2006893E1,2.2919312E1,4.9369106E1,1.9985184E1,3.173465E1,6.595654E1,2.6015198E1,3.3350063E1,4.169302E1,5.5956432E1,3.043866E1,3.8642E1,0E0,0E0,0E0,0E0,0E0,0E0,0E0,0E0,0E0,0E0,0E0,0E0,0E0,0E0,0E0,0E0,0E0,0E0,0E0,0E0,0E0,0E0,0E0,0E0,0E0,0E0,0E0,0E0,0E0,0E0,0E0,0E0],"parents":[2147483647,0,0,1,1,2,2,3,3,4,4,5,5,6,6,7,7,8,8,9,9,10,10,11,11,12,12,13,13,14,14,15,15,16,16,17,17,18,18,19,19,20,20,21,21,22,22,23,23,24,24,25,25,26,26,27,27,28,28,29,29,30,30],"right_children":[2,4,6,8,10,12,14,16,18,20,22,24,26,28,30,32,34,36,38,40,42,44,46,48,50,52,54,56,58,60,62,-1,-1,-1,-1,-1,-1,-1,-1,-1,-1,-1,-1,-1,-1,-1,-1,-1,-1,-1,-1,-1,-1,-1,-1,-1,-1,-1,-1,-1,-1,-1,-1],"split_conditions":[-5.6E-3,-1.66702E1,2E0,-5.4341E0,2E0,1.26E-2,1.23E-2,-1.04234E1,-2.7E-2,-4.5293E0,-3.94E-2,1E0,1.9732E0,7.601E-1,5.447E0,-3.34743E1,3.96E2,-1.58E-1,-6.242E-1,-5.9865E0,9.9127E0,-1.0086E1,-3.9911E0,-7E-1,-6.242E-1,1E0,1.6118E1,-4.3342E0,3E0,4.3075E0,1.1126E1,1.3001311E-2,-4.5077827E-2,7.127716E-4,3.9489847E-2,-1.6830813E-2,-3.0603886E-2,7.803888E-2,-1.1398491E-2,3.1711701E-3,1.4304116E-2,-1.5502569E-3,5.1791478E-2,-8.058994E-3,6.939648E-3,-1.522654E-2,-5.0558834E-3,1.637612E-2,4.512929E-3,-1.1597856E-2,3.0697535E-3,-2.0126473E-2,-8.072368E-3,-1.3956356E-4,-1.7175281E-2,3.241065E-2,9.0141565E-4,4.886625E-3,-8.875471E-3,6.6302954E-3,1.52909905E-2,-7.0633664E-4,9.6551785E-3],"split_indices":[3,8,15,7,15,3,3,7,3,8,3,15,8,7,8,8,16,3,7,8,8,8,7,7,7,15,8,8,15,8,8,0,0,0,0,0,0,0,0,0,0,0,0,0,0,0,0,0,0,0,0,0,0,0,0,0,0,0,0,0,0,0,0],"split_type":[0,0,0,0,0,0,0,0,0,0,0,0,0,0,0,0,0,0,0,0,0,0,0,0,0,0,0,0,0,0,0,0,0,0,0,0,0,0,0,0,0,0,0,0,0,0,0,0,0,0,0,0,0,0,0,0,0,0,0,0,0,0,0],"sum_hessian":[6.399809E4,2.3397715E4,4.0600375E4,6.989479E2,2.2698766E4,1.640523E4,2.4195143E4,2.9743436E2,4.015135E2,8.613031E3,1.4085735E4,8.357021E3,8.04821E3,1.2753764E4,1.1441379E4,1.5202449E2,1.4540988E2,3.8827036E2,1.3243145E1,3.0173826E3,5.5956484E3,2.4594321E3,1.1626303E4,3.9243687E3,4.4326523E3,1.8043302E3,6.24388E3,9.458489E3,3.295275E3,7.085591E3,4.355788E3,7.009751E1,8.192698E1,1.2611175E2,1.9298136E1,1.0568094E2,2.8258942E2,6.1808777E0,7.0622673E0,2.08209E3,9.352926E2,5.576437E3,1.9211203E1,8.24537E2,1.6348953E3,5.0424875E2,1.1122055E4,6.81764E2,3.2426047E3,9.844044E2,3.448248E3,8.323912E2,9.71939E2,5.942999E3,3.008808E2,1.0517835E2,9.353311E3,1.1163523E3,2.1789226E3,5.85834E3,1.2272507E3,3.0868276E3,1.2689606E3],"tree_param":{"num_deleted":"0","num_feature":"17","num_nodes":"63","size_leaf_vector":"1"}},{"base_weights":[-1.051362E-3,-2.9944783E-1,3.5662437E-3,-2.0984653E-1,-7.892687E-1,-2.2564977E-2,4.262784E-2,-2.6996666E-1,1.1800251E0,-1.0911273E0,-5.810233E-1,2.4714749E-1,-2.6108926E-2,-1.7223429E-2,5.459366E-2,-1.0364679E-1,-4.7198865E-1,7.4469246E-2,-6.8114786E-3,-1.2898786E0,-7.717336E-1,-3.372539E-1,-1.057296E0,3.781894E-1,-2.9216912E-1,-3.59811E-2,3.4213316E-2,-2.199674E-1,1.1948296E-2,5.845927E-2,-3.7105086E-1,-9.680946E-3,1.491382E-2,1.2450348E-2,-2.7351245E-2,-2.3743985E-2,-7.218894E-2,-2.0238804E-2,-4.663558E-2,-9.113163E-3,-5.6925874E-2,-1.4712127E-2,-6.0555737E-2,1.585336E-2,6.675591E-2,3.6540445E-2,-2.9517287E-2,-3.2819752E-3,-6.933911E-4,2.580142E-2,1.1179902E-3,6.8346784E-3,-2.1256082E-2,5.950857E-3,-3.079864E-3,1.5375854E-3,3.9853873E-3,-2.6073748E-2,1.7291382E-2],"categories":[],"categories_nodes":[],"categories_segments":[],"categories_sizes":[],"default_left":[0,0,0,0,0,0,0,0,0,0,0,0,0,0,0,0,0,0,0,0,0,0,0,0,0,0,0,0,0,0,0,0,0,0,0,0,0,0,0,0,0,0,0,0,0,0,0,0,0,0,0,0,0,0,0,0,0,0,0],"id":18,"left_children":[1,3,5,7,9,11,13,15,17,19,21,23,25,27,29,31,33,-1,-1,35,37,39,41,43,45,47,49,51,53,55,57,-1,-1,-1,-1,-1,-1,-1,-1,-1,-1,-1,-1,-1,-1,-1,-1,-1,-1,-1,-1,-1,-1,-1,-1,-1,-1,-1,-1],"loss_changes":[8.821118E1,4.2651604E1,6.435195E1,6.9345825E1,8.826698E0,3.6113495E1,1.80988E1,2.6584324E1,1.4225815E1,2.8325272E0,1.0231808E1,3.474103E1,2.2205408E1,2.4909225E1,3.4673576E1,1.582508E1,1.9484222E1,0E0,0E0,3.7899055E0,1.1359015E0,7.4664273E0,3.212597E0,2.2660118E1,2.9821358E1,2.101397E1,2.9940372E1,3.882087E1,2.9004374E1,1.22855E1,2.063448E1,0E0,0E0,0E0,0E0,0E0,0E0,0E0,0E0,0E0,0E0,0E0,0E0,0E0,0E0,0E0,0E0,0E0,0E0,0E0,0E0,0E0,0E0,0E0,0E0,0E0,0E0,0E0,0E0],"parents":[2147483647,0,0,1,1,2,2,3,3,4,4,5,5,6,6,7,7,8,8,9,9,10,10,11,11,12,12,13,13,14,14,15,15,16,16,19,19,20,20,21,21,22,22,23,23,24,24,25,25,26,26,27,27,28,28,29,29,30,30],"right_children":[2,4,6,8,10,12,14,16,18,20,22,24,26,28,30,32,34,-1,-1,36,38,40,42,44,46,48,50,52,54,56,58,-1,-1,-1,-1,-1,-1,-1,-1,-1,-1,-1,-1,-1,-1,-1,-1,-1,-1,-1,-1,-1,-1,-1,-1,-1,-1,-1,-1],"split_conditions":[-1.47854E1,1.1711E0,1.3012E0,-3.5E-2,3.2185E0,-7.68E-2,9.15E0,-4.5662E0,-2.445E-1,9.98E-2,7.8772E0,-3.2173E0,1.3457E0,2.9E-3,1.069E-1,4E0,8.95E0,7.4469246E-2,-6.8114786E-3,-5.144E-1,1.08333E1,4E0,1.11E1,1.64833E1,9.6833E0,-2.1648E0,-1.1157E1,-1.0213E0,1.69E-2,1.55E-2,1.59833E1,-9.680946E-3,1.491382E-2,1.2450348E-2,-2.7351245E-2,-2.3743985E-2,-7.218894E-2,-2.0238804E-2,-4.663558E-2,-9.113163E-3,-5.6925874E-2,-1.4712127E-2,-6.0555737E-2,1.585336E-2,6.675591E-2,3.6540445E-2,-2.9517287E-2,-3.2819752E-3,-6.933911E-4,2.580142E-2,1.1179902E-3,6.8346784E-3,-2.1256082E-2,5.950857E-3,-3.079864E-3,1.5375854E-3,3.9853873E-3,-2.6073748E-2,1.7291382E-2],"split_indices":[8,7,8,3,7,3,14,7,7,5,7,7,7,3,3,15,14,0,0,5,14,15,14,14,14,8,8,7,3,3,14,0,0,0,0,0,0,0,0,0,0,0,0,0,0,0,0,0,0,0,0,0,0,0,0,0,0,0,0],"split_type":[0,0,0,0,0,0,0,0,0,0,0,0,0,0,0,0,0,0,0,0,0,0,0,0,0,0,0,0,0,0,0,0,0,0,0,0,0,0,0,0,0,0,0,0,0,0,0,0,0,0,0,0,0,0,0,0,0,0,0],"sum_hessian":[6.4017844E4,9.745895E2,6.3043254E4,8.250874E2,1.4950209E2,3.77739E4,2.5269357E4,7.9164966E2,3.3437744E1,5.9302094E1,9.019999E1,4.8901028E2,3.7284887E4,4.2101855E3,2.1059172E4,4.3502063E2,3.5662903E2,2.6967932E1,6.469813E0,3.468186E1,2.4620232E1,6.079273E1,2.9407263E1,3.9365875E2,9.535155E1,3.204147E4,5.2434155E3,5.2875934E2,3.6814263E3,2.0870494E4,1.8867853E2,3.5587488E2,7.914576E1,3.3398323E1,3.232307E2,6.1578445E0,2.8524017E1,8.57883E0,1.6041403E1,5.1967903E1,8.824825E0,5.4221816E0,2.398508E1,3.7127548E2,2.2383255E1,2.11928E1,7.4158745E1,1.3685056E4,1.8356416E4,1.2487876E2,5.1185366E3,1.932053E2,3.3555402E2,1.4988124E3,2.182614E3,9.059518E3,1.1810976E4,1.5617961E2,3.2498913E1],"tree_param":{"num_deleted":"0","num_feature":"17","num_nodes":"59","size_leaf_vector":"1"}},{"base_weights":[6.439686E-4,-3.2332164E-1,4.330296E-3,-2.4493845E-1,-6.769486E-1,-2.145463E-2,4.317522E-2,-3.4545484E-1,8.909737E-1,-1.0752603E0,-4.260369E-1,3.3907462E-2,-3.392712E-2,4.8056062E-2,-1.1938905E-1,-3.6249053E-2,-4.8463893E-1,8.979414E-3,1.0629721E0,-1.1688064E0,-1.6662778E-2,-1.0400633E-1,-7.600859E-1,1.22494765E-1,-1.30684E-2,-1.0071952E-1,-1.4890738E-2,3.734692E-2,1.9696592E-1,-3.8854364E-1,2.7518308E-2,8.774937E-3,-4.1230213E-2,1.988102E-2,-3.0502781E-2,7.612226E-2,2.4146637E-2,-2.1863272E-2,-6.2829636E-2,1.995555E-2,-1.8322956E-2,-5.6616407E-2,-1.4932853E-2,-1.7479921E-3,1.0605249E-2,-1.2675541E-2,1.5106926E-3,9.852351E-3,-5.708705E-3,-1.2364452E-3,3.915773E-3,2.4243472E-3,-1.6037257E-3,-4.6906795E-2,1.054768E-2,-1.2818691E-2,-4.3572437E-2,2.58881E-2,-1.0605963E-3],"categories":[],"categories_nodes":[],"categories_segments":[],"categories_sizes":[],"default_left":[0,0,0,0,0,0,0,0,0,0,0,0,0,0,0,0,0,0,0,0,0,0,0,0,0,0,0,0,0,0,0,0,0,0,0,0,0,0,0,0,0,0,0,0,0,0,0,0,0,0,0,0,0,0,0,0,0,0,0],"id":19,"left_children":[1,3,5,7,9,11,13,15,17,19,21,23,25,27,29,31,33,-1,35,37,-1,39,41,43,45,47,49,51,53,55,57,-1,-1,-1,-1,-1,-1,-1,-1,-1,-1,-1,-1,-1,-1,-1,-1,-1,-1,-1,-1,-1,-1,-1,-1,-1,-1,-1,-1],"loss_changes":[7.635861E1,1.9773712E1,6.3322304E1,6.7719246E1,1.2529488E1,2.623878E1,2.0018562E1,2.3356888E1,5.716137E0,3.051075E0,8.675826E0,2.9077847E1,3.9429585E1,3.9043633E1,2.9092794E1,2.8468693E1,4.1676292E1,0E0,9.571873E0,2.251751E0,0E0,5.770869E0,6.4960117E0,3.4170357E1,4.7533382E1,2.757837E1,2.2132948E1,1.7669895E1,2.6280003E1,1.6356049E1,1.1400002E1,0E0,0E0,0E0,0E0,0E0,0E0,0E0,0E0,0E0,0E0,0E0,0E0,0E0,0E0,0E0,0E0,0E0,0E0,0E0,0E0,0E0,0E0,0E0,0E0,0E0,0E0,0E0,0E0],"parents":[2147483647,0,0,1,1,2,2,3,3,4,4,5,5,6,6,7,7,8,8,9,9,10,10,11,11,12,12,13,13,14,14,15,15,16,16,18,18,19,19,21,21,22,22,23,23,24,24,25,25,26,26,27,27,28,28,29,29,30,30],"right_children":[2,4,6,8,10,12,14,16,18,20,22,24,26,28,30,32,34,-1,36,38,-1,40,42,44,46,48,50,52,54,56,58,-1,-1,-1,-1,-1,-1,-1,-1,-1,-1,-1,-1,-1,-1,-1,-1,-1,-1,-1,-1,-1,-1,-1,-1,-1,-1,-1,-1],"split_conditions":[-1.66702E1,1.1242E0,1.3012E0,-5.92E-2,3.2185E0,-5.102E0,8.14E-2,-3.34743E1,-3.34743E1,8.962E-1,-8.37E-2,-2.6862E0,-1.62E-2,1.1126E1,4.6687E0,-1.58E-1,9.2167E0,8.979414E-3,-2.03528E1,-8.341E-1,-1.6662778E-2,-2.012E-1,-2.03528E1,-5.0984E0,-4.91E-2,-4.91E-2,2.031E0,7.2474E0,-7.0719E0,1.45667E1,7.6822E0,8.774937E-3,-4.1230213E-2,1.988102E-2,-3.0502781E-2,7.612226E-2,2.4146637E-2,-2.1863272E-2,-6.2829636E-2,1.995555E-2,-1.8322956E-2,-5.6616407E-2,-1.4932853E-2,-1.7479921E-3,1.0605249E-2,-1.2675541E-2,1.5106926E-3,9.852351E-3,-5.708705E-3,-1.2364452E-3,3.915773E-3,2.4243472E-3,-1.6037257E-3,-4.6906795E-2,1.054768E-2,-1.2818691E-2,-4.3572437E-2,2.58881E-2,-1.0605963E-3],"split_indices":[8,7,8,3,7,8,3,8,8,2,3,7,3,8,7,3,14,0,8,6,0,6,8,7,3,3,7,8,7,14,8,0,0,0,0,0,0,0,0,0,0,0,0,0,0,0,0,0,0,0,0,0,0,0,0,0,0,0,0],"split_type":[0,0,0,0,0,0,0,0,0,0,0,0,0,0,0,0,0,0,0,0,0,0,0,0,0,0,0,0,0,0,0,0,0,0,0,0,0,0,0,0,0,0,0,0,0,0,0,0,0,0,0,0,0,0,0,0,0,0,0],"sum_hessian":[6.393673E4,7.1836017E2,6.3218367E4,5.8940765E2,1.2895253E2,3.799684E4,2.5221527E4,5.421306E2,4.727704E1,4.85678E1,8.0384735E1,6.9860215E3,3.101082E4,2.4487031E4,7.344962E2,1.6867326E2,3.7345734E2,9.603027E0,3.767401E1,4.2619465E1,5.948332E0,4.1596317E1,3.878842E1,2.4202656E3,4.565756E3,6.877089E3,2.413373E4,2.2845316E4,1.6417145E3,2.5876257E2,4.7573364E2,1.3357355E2,3.5099724E1,4.6210873E1,3.2724646E2,2.01152E1,1.7558811E1,5.2072673E0,3.7412197E1,1.4081546E1,2.751477E1,2.0664257E1,1.8124163E1,8.7804956E2,1.542216E3,6.95766E2,3.86999E3,2.9671762E2,6.580371E3,2.1830227E4,2.3035042E3,1.9686531E4,3.158786E3,1.9180075E1,1.6225344E3,2.0436053E2,5.440204E1,4.214226E1,4.3359137E2],"tree_param":{"num_deleted":"0","num_feature":"17","num_nodes":"59","size_leaf_vector":"1"}},{"base_weights":[9.953651E-4,-2.669253E-2,4.352077E-2,-3.0519575E-1,-2.1450594E-2,4.6270877E-2,-2.3159593E-1,1.4104355E-2,-3.7427998E-1,1.5220807E-1,-2.4370693E-2,-1.0010662E0,4.682355E-2,2.8219184E-1,-3.900948E-1,4.2268556E-1,-1.5020001E-1,-4.2720005E-1,9.89366E-2,1.10754505E-1,8.4922796E-1,-2.340653E-2,-4.5908317E-1,-2.2709526E-2,-6.664086E-2,-4.6114237E-3,5.7121098E-2,4.218215E-1,-1.9304989E-2,-5.2915174E-1,2.6459253E-1,-2.1919861E-2,3.5574E-2,3.6101867E-2,-1.5597224E-2,-2.489963E-2,1.0170975E-3,1.7653132E-2,-2.3332609E-2,1.3058309E-2,-3.354268E-4,1.0369044E-2,6.0497344E-2,-8.446505E-3,-1.0271523E-3,1.1651633E-2,-3.5635363E-2,1.3617155E-3,-8.047828E-3,2.4986702E-3,7.3062493E-3,1.2613869E-2,5.875323E-2,2.943007E-2,-2.8652752E-2,-1.2127618E-2,5.140694E-2],"categories":[],"categories_nodes":[],"categories_segments":[],"categories_sizes":[],"default_left":[0,0,0,0,0,0,0,0,0,0,0,0,0,0,0,0,0,0,0,0,0,0,0,0,0,0,0,0,0,0,0,0,0,0,0,0,0,0,0,0,0,0,0,0,0,0,0,0,0,0,0,0,0,0,0,0,0],"id":20,"left_children":[1,3,5,7,9,11,13,15,17,19,21,23,25,27,29,31,33,35,37,39,41,43,45,-1,-1,47,49,51,-1,53,55,-1,-1,-1,-1,-1,-1,-1,-1,-1,-1,-1,-1,-1,-1,-1,-1,-1,-1,-1,-1,-1,-1,-1,-1,-1,-1],"loss_changes":[7.5436676E1,5.6642876E1,1.9126003E1,1.5816635E1,1.9318117E1,1.4526669E1,2.0486422E1,8.687429E0,1.48005295E1,1.8109192E1,1.5689539E1,1.7964077E0,1.3243362E1,5.721684E0,1.7587156E1,9.539174E0,1.3254995E1,1.6809456E1,8.801211E0,1.0528006E1,7.902193E0,1.5571737E1,1.470825E1,0E0,0E0,2.0774965E1,1.3245811E1,6.0575314E0,0E0,8.110664E0,1.3508541E1,0E0,0E0,0E0,0E0,0E0,0E0,0E0,0E0,0E0,0E0,0E0,0E0,0E0,0E0,0E0,0E0,0E0,0E0,0E0,0E0,0E0,0E0,0E0,0E0,0E0,0E0],"parents":[2147483647,0,0,1,1,2,2,3,3,4,4,5,5,6,6,7,7,8,8,9,9,10,10,11,11,12,12,13,13,14,14,15,15,16,16,17,17,18,18,19,19,20,20,21,21,22,22,25,25,26,26,27,27,29,29,30,30],"right_children":[2,4,6,8,10,12,14,16,18,20,22,24,26,28,30,32,34,36,38,40,42,44,46,-1,-1,48,50,52,-1,54,56,-1,-1,-1,-1,-1,-1,-1,-1,-1,-1,-1,-1,-1,-1,-1,-1,-1,-1,-1,-1,-1,-1,-1,-1,-1,-1],"split_conditions":[1.3012E0,-1.66702E1,1.069E-1,-1.1523E0,-7.68E-2,-5.92E-2,8.8E0,-3.34743E1,-4.52E-2,1.65667E1,4.97E-2,-7.209E-1,9.15E0,1.2752E0,1.595E1,1.00167E1,9.5667E0,3.69E2,6.924E-1,1.12833E1,-9.32E-2,-6.27E-2,1.03833E1,-2.2709526E-2,-6.664086E-2,4E-2,1.16412E1,9.388E-1,-1.9304989E-2,8.9723E0,2.22203E1,-2.1919861E-2,3.5574E-2,3.6101867E-2,-1.5597224E-2,-2.489963E-2,1.0170975E-3,1.7653132E-2,-2.3332609E-2,1.3058309E-2,-3.354268E-4,1.0369044E-2,6.0497344E-2,-8.446505E-3,-1.0271523E-3,1.1651633E-2,-3.5635363E-2,1.3617155E-3,-8.047828E-3,2.4986702E-3,7.3062493E-3,1.2613869E-2,5.875323E-2,2.943007E-2,-2.8652752E-2,-1.2127618E-2,5.140694E-2],"split_indices":[8,8,3,6,3,3,14,8,3,14,3,6,14,6,14,14,14,16,6,14,3,3,14,0,0,3,8,2,0,8,8,0,0,0,0,0,0,0,0,0,0,0,0,0,0,0,0,0,0,0,0,0,0,0,0,0,0],"split_type":[0,0,0,0,0,0,0,0,0,0,0,0,0,0,0,0,0,0,0,0,0,0,0,0,0,0,0,0,0,0,0,0,0,0,0,0,0,0,0,0,0,0,0,0,0,0,0,0,0,0,0,0,0,0,0,0,0],"sum_hessian":[6.406645E4,3.8802727E4,2.526372E4,7.1578845E2,3.8086938E4,2.5014506E4,2.492167E2,1.2746309E2,5.883253E2,6.290017E2,3.7457938E4,1.2238195E1,2.5002268E4,5.857155E1,1.9064516E2,3.610557E1,9.135752E1,5.292377E2,5.9087696E1,5.9478705E2,3.4214622E1,3.7376094E4,8.1843735E1,5.5153975E0,6.722798E0,4.1706997E3,2.0831566E4,4.875394E1,9.817608E0,1.5740398E2,3.3241184E1,8.937899E0,2.7167673E1,1.37490635E1,7.760845E1,4.5685867E2,7.237898E1,4.1028736E1,1.805896E1,2.6027762E2,3.3450946E2,1.287692E1,2.1337702E1,7.2014264E2,3.665595E4,2.1970243E1,5.987349E1,3.4656182E3,7.0508136E2,1.928444E4,1.5471273E3,4.088601E1,7.867929E0,5.479976E0,1.51924E2,2.038432E1,1.2856864E1],"tree_param":{"num_deleted":"0","num_feature":"17","num_nodes":"57","size_leaf_vector":"1"}},{"base_weights":[-4.8601786E-3,1.9122703E-2,-1.4781686E-2,-3.1225158E-2,3.9637715E-2,-4.373796E-2,1.6415214E-2,-4.3360323E-2,7.104201E-2,9.837017E-2,2.6941149E-2,-4.1382074E-2,-3.6563742E-1,-7.062195E-2,2.6340341E-2,-2.759006E-2,-9.4800845E-2,-2.4019541E-1,1.1341419E-1,1.2892927E-1,-1.1923754E-3,2.1721927E-2,1.4281417E-1,-1.2793069E-1,-3.2428727E-2,-9.823109E-2,-5.4448307E-1,3.434371E-2,-9.865898E-2,2.3274893E-2,2.8673607E-1,-9.0216304E-4,-7.2030514E-3,-5.45032E-3,2.7819647E-2,1.2335293E-2,-2.0903565E-2,1.3358285E-2,1.7840591E-3,6.057624E-3,2.7957762E-2,-2.2682275E-3,1.420763E-2,1.4030089E-3,-2.4621051E-3,9.517628E-3,-9.7049875E-3,-5.477446E-3,-2.399009E-2,9.912899E-4,-2.162382E-3,1.5393074E-2,-1.9508515E-2,-3.460971E-2,-1.0411797E-2,6.0304618E-3,-5.6111976E-3,-7.0070582E-3,-1.3556493E-3,1.1981418E-2,1.0748791E-3,1.0359379E-2,2.630939E-2],"categories":[],"categories_nodes":[],"categories_segments":[],"categories_sizes":[],"default_left":[0,0,0,0,0,0,0,0,0,0,0,0,0,0,0,0,0,0,0,0,0,0,0,0,0,0,0,0,0,0,0,0,0,0,0,0,0,0,0,0,0,0,0,0,0,0,0,0,0,0,0,0,0,0,0,0,0,0,0,0,0,0,0],"id":21,"left_children":[1,3,5,7,9,11,13,15,17,19,21,23,25,27,29,31,33,35,37,39,41,43,45,47,49,51,53,55,57,59,61,-1,-1,-1,-1,-1,-1,-1,-1,-1,-1,-1,-1,-1,-1,-1,-1,-1,-1,-1,-1,-1,-1,-1,-1,-1,-1,-1,-1,-1,-1,-1,-1],"loss_changes":[1.5240937E1,1.9361408E1,4.092956E1,6.7380567E0,9.928452E0,1.7804848E1,1.884333E1,3.9333887E0,7.6239157E0,7.201473E0,6.620269E0,1.8073135E1,8.105293E0,6.574506E0,1.5621917E1,4.1280456E0,1.0588093E1,6.109052E0,6.058178E0,5.991539E0,7.0316253E0,4.715641E0,7.594454E0,1.4091175E1,1.1953676E1,8.370472E0,4.922285E0,5.974148E0,5.2268715E0,7.436363E0,4.228594E0,0E0,0E0,0E0,0E0,0E0,0E0,0E0,0E0,0E0,0E0,0E0,0E0,0E0,0E0,0E0,0E0,0E0,0E0,0E0,0E0,0E0,0E0,0E0,0E0,0E0,0E0,0E0,0E0,0E0,0E0,0E0,0E0],"parents":[2147483647,0,0,1,1,2,2,3,3,4,4,5,5,6,6,7,7,8,8,9,9,10,10,11,11,12,12,13,13,14,14,15,15,16,16,17,17,18,18,19,19,20,20,21,21,22,22,23,23,24,24,25,25,26,26,27,27,28,28,29,29,30,30],"right_children":[2,4,6,8,10,12,14,16,18,20,22,24,26,28,30,32,34,36,38,40,42,44,46,48,50,52,54,56,58,60,62,-1,-1,-1,-1,-1,-1,-1,-1,-1,-1,-1,-1,-1,-1,-1,-1,-1,-1,-1,-1,-1,-1,-1,-1,-1,-1,-1,-1,-1,-1,-1,-1],"split_conditions":[-4.3E-2,1.005E1,3.27E-2,2.527E-1,1E0,1.2752E0,7.2167E0,9.4333E0,4.18077E1,1.55167E1,5.44E2,-3.319E-1,1.03E1,3.761E-1,4.2524E0,5.3063E1,5.55787E1,2.861E-1,-3.955E-1,1.54E1,5.78E2,1.318E-1,1.8934E0,5.104E-1,9.9E0,6.59673E1,1.42167E1,7.209E-1,1.1444E0,3.66568E1,2.694E-1,-9.0216304E-4,-7.2030514E-3,-5.45032E-3,2.7819647E-2,1.2335293E-2,-2.0903565E-2,1.3358285E-2,1.7840591E-3,6.057624E-3,2.7957762E-2,-2.2682275E-3,1.420763E-2,1.4030089E-3,-2.4621051E-3,9.517628E-3,-9.7049875E-3,-5.477446E-3,-2.399009E-2,9.912899E-4,-2.162382E-3,1.5393074E-2,-1.9508515E-2,-3.460971E-2,-1.0411797E-2,6.0304618E-3,-5.6111976E-3,-7.0070582E-3,-1.3556493E-3,1.1981418E-2,1.0748791E-3,1.0359379E-2,2.630939E-2],"split_indices":[1,14,1,5,15,6,14,14,0,14,16,6,14,4,4,0,0,2,1,14,16,6,4,2,14,0,14,2,4,0,5,0,0,0,0,0,0,0,0,0,0,0,0,0,0,0,0,0,0,0,0,0,0,0,0,0,0,0,0,0,0,0,0],"split_type":[0,0,0,0,0,0,0,0,0,0,0,0,0,0,0,0,0,0,0,0,0,0,0,0,0,0,0,0,0,0,0,0,0,0,0,0,0,0,0,0,0,0,0,0,0,0,0,0,0,0,0,0,0,0,0,0,0,0,0,0,0,0,0],"sum_hessian":[6.4049805E4,1.8742748E4,4.5307055E4,5.42593E3,1.3316818E4,2.3497135E4,2.1809922E4,4.8508926E3,5.750376E2,2.3658757E3,1.0950942E4,2.3327535E4,1.695984E2,2.2318525E3,1.9578068E4,3.7138604E3,1.137032E3,6.8345924E1,5.0669168E2,1.8100236E3,5.558521E2,1.048008E4,4.7086234E2,2.1857207E3,2.1141814E4,6.8591324E1,1.0100707E2,4.704281E2,1.7614243E3,1.935135E4,2.2671986E2,3.4335747E3,2.8028558E2,1.1135725E3,2.345958E1,1.8183931E1,5.016199E1,1.6932985E2,3.3736185E2,1.7791451E3,3.0878344E1,4.8206772E2,7.378436E1,9.621342E3,8.587386E2,4.130204E2,5.7841946E1,2.0784536E3,1.07267204E2,3.626288E3,1.7515527E4,2.8664276E1,3.992705E1,6.9442764E1,3.1564314E1,2.9624432E2,1.7418379E2,1.1143617E3,6.470627E2,1.5658284E2,1.9194766E4,1.7158328E2,5.513658E1],"tree_param":{"num_deleted":"0","num_feature":"17","num_nodes":"63","size_leaf_vector":"1"}},{"base_weights":[2.4700938E-3,-3.5287734E-2,2.4938198E-2,2.5960518E-2,-7.34473E-2,-1.0080005E-2,4.875729E-2,-5.8065783E-2,4.2836495E-2,-1.0769744E-2,-8.920021E-2,5.1364783E-2,-7.1493946E-2,-2.0027605E-3,1.1651519E-1,-8.8604085E-2,3.0572537E-1,1.9400866E-1,2.0484352E-2,-1.20896235E-1,8.822507E-2,-1.5257455E-1,-7.556908E-2,1.0928509E-1,4.064321E-4,-1.9738507E-1,-4.492511E-2,2.6108172E-2,-3.5728015E-2,1.3508002E-1,4.3707777E-2,6.7770593E-3,-7.2522084E-3,2.7807243E-3,3.286046E-2,1.1524382E-2,-1.4065966E-3,-1.2653958E-3,3.0115729E-3,1.1827108E-2,-9.159106E-3,1.5337399E-2,3.2316034E-3,-5.927815E-3,-1.3916181E-2,-2.0402612E-3,-4.7189267E-3,2.7023284E-3,7.923684E-3,7.7404208E-3,-2.202442E-3,-1.0282782E-2,2.6533825E-2,-1.8671366E-3,-2.888285E-2,-8.349254E-4,2.6894247E-3,1.2705328E-2,-1.9730516E-3,-5.6878095E-3,7.0397793E-3,6.034476E-3,-7.507E-3],"categories":[],"categories_nodes":[],"categories_segments":[],"categories_sizes":[],"default_left":[0,0,0,0,0,0,0,0,0,0,0,0,0,0,0,0,0,0,0,0,0,0,0,0,0,0,0,0,0,0,0,0,0,0,0,0,0,0,0,0,0,0,0,0,0,0,0,0,0,0,0,0,0,0,0,0,0,0,0,0,0,0,0],"id":22,"left_children":[1,3,5,7,9,11,13,15,17,19,21,23,25,27,29,31,33,35,37,39,41,43,45,47,49,51,53,55,57,59,61,-1,-1,-1,-1,-1,-1,-1,-1,-1,-1,-1,-1,-1,-1,-1,-1,-1,-1,-1,-1,-1,-1,-1,-1,-1,-1,-1,-1,-1,-1,-1,-1],"loss_changes":[5.4335896E1,5.5848137E1,3.349358E1,1.3010136E1,1.4535233E1,6.1349182E1,8.2198456E1,1.7076122E1,2.5809868E1,3.226032E1,1.0152023E1,2.3986576E1,2.7186806E1,1.2955352E1,1.38293E1,1.7940182E1,1.0431041E1,7.9797974E0,1.2117092E1,3.1229115E1,8.014616E0,8.871769E0,6.3287888E0,1.0326221E1,2.9688457E1,8.639389E0,2.71034E1,8.832029E0,6.731425E0,1.1615219E1,3.1074661E1,0E0,0E0,0E0,0E0,0E0,0E0,0E0,0E0,0E0,0E0,0E0,0E0,0E0,0E0,0E0,0E0,0E0,0E0,0E0,0E0,0E0,0E0,0E0,0E0,0E0,0E0,0E0,0E0,0E0,0E0,0E0,0E0],"parents":[2147483647,0,0,1,1,2,2,3,3,4,4,5,5,6,6,7,7,8,8,9,9,10,10,11,11,12,12,13,13,14,14,15,15,16,16,17,17,18,18,19,19,20,20,21,21,22,22,23,23,24,24,25,25,26,26,27,27,28,28,29,29,30,30],"right_children":[2,4,6,8,10,12,14,16,18,20,22,24,26,28,30,32,34,36,38,40,42,44,46,48,50,52,54,56,58,60,62,-1,-1,-1,-1,-1,-1,-1,-1,-1,-1,-1,-1,-1,-1,-1,-1,-1,-1,-1,-1,-1,-1,-1,-1,-1,-1,-1,-1,-1,-1,-1,-1],"split_conditions":[-5.2E-3,2E0,2E0,-4.52E-2,-3.82E-2,1.23E-2,1.43E-2,3.93E2,-3.31E-2,-5.63E-2,-2.64E-2,1E0,9.3E0,2.9E-2,4.64E-2,7E0,1E0,2.375E-1,1E0,9.3E0,-5.36E-2,1.54333E1,-1.243E-1,1.61E2,9.75E0,2.558E0,1.069E-1,-1.616E-1,-3.368E-1,-9.316E-1,4E0,6.7770593E-3,-7.2522084E-3,2.7807243E-3,3.286046E-2,1.1524382E-2,-1.4065966E-3,-1.2653958E-3,3.0115729E-3,1.1827108E-2,-9.159106E-3,1.5337399E-2,3.2316034E-3,-5.927815E-3,-1.3916181E-2,-2.0402612E-3,-4.7189267E-3,2.7023284E-3,7.923684E-3,7.7404208E-3,-2.202442E-3,-1.0282782E-2,2.6533825E-2,-1.8671366E-3,-2.888285E-2,-8.349254E-4,2.6894247E-3,1.2705328E-2,-1.9730516E-3,-5.6878095E-3,7.0397793E-3,6.034476E-3,-7.507E-3],"split_indices":[3,15,15,3,3,3,3,16,3,3,3,15,14,6,3,16,15,5,15,14,3,14,6,16,14,6,3,6,5,6,15,0,0,0,0,0,0,0,0,0,0,0,0,0,0,0,0,0,0,0,0,0,0,0,0,0,0,0,0,0,0,0,0],"split_type":[0,0,0,0,0,0,0,0,0,0,0,0,0,0,0,0,0,0,0,0,0,0,0,0,0,0,0,0,0,0,0,0,0,0,0,0,0,0,0,0,0,0,0,0,0,0,0,0,0,0,0,0,0,0,0,0,0,0,0,0,0,0,0],"sum_hessian":[6.4047117E4,2.3893436E4,4.015368E4,9.172068E3,1.4721368E4,1.625564E4,2.389804E4,1.5336268E3,7.638442E3,2.9571543E3,1.1764214E4,8.125861E3,8.1297793E3,1.3663303E4,1.0234736E4,1.415555E3,1.18071754E2,9.8293945E2,6.6555024E3,1.3997667E3,1.5573877E3,2.08064E3,9.683573E3,3.8026016E3,4.3232593E3,1.4156368E3,6.714142E3,7.452044E3,6.211259E3,8.154581E3,2.0801553E3,2.844587E2,1.1310963E3,6.966054E1,4.8411217E1,8.44261E2,1.3867845E2,3.0927441E3,3.562758E3,2.0730621E2,1.1924604E3,1.5059023E2,1.4067974E3,1.6391515E3,4.4148843E2,3.4009905E3,6.282583E3,1.7921387E3,2.0104629E3,9.6592554E2,3.3573337E3,1.4004458E3,1.5191119E1,6.620976E3,9.3166306E1,2.9265818E3,4.5254624E3,7.812974E1,6.1331294E3,1.826743E2,7.9719067E3,1.4891531E3,5.9100214E2],"tree_param":{"num_deleted":"0","num_feature":"17","num_nodes":"63","size_leaf_vector":"1"}},{"base_weights":[-4.1395836E-3,-3.1047273E-1,-6.9400197E-4,-3.5658276E-1,8.725466E-2,-1.8648209E-2,3.55135E-2,-4.0578714E-1,3.9378215E-2,-5.721446E-1,3.0242428E-1,-1.743746E-2,-4.5201516E-1,1.1554401E-2,7.517048E-2,-1.9439697E-1,-5.313943E-1,-5.488578E-1,3.338533E-1,-5.6527494E-3,-4.6735805E-2,4.4123593E-1,-3.7611466E-2,4.6236906E-2,-2.50132E-2,-6.729809E-1,-7.6666255E-3,1.9006643E-2,-2.776778E-1,-3.723859E-2,1.0475546E-1,-4.7408547E-2,-6.655839E-4,7.510739E-3,-3.238332E-2,2.7106185E-2,-4.752134E-2,-2.149787E-2,3.2228034E-2,4.4761524E-2,5.1437686E-3,1.0454568E-2,4.461215E-4,-3.8884499E-3,-4.5795753E-4,-2.2462457E-2,-5.5016935E-2,-1.9685065E-2,3.9329793E-2,4.6565942E-4,1.0473461E-2,1.2121352E-2,-2.1030799E-2,-7.474731E-3,4.757701E-3,6.7854407E-3,8.9553784E-4],"categories":[],"categories_nodes":[],"categories_segments":[],"categories_sizes":[],"default_left":[0,0,0,0,0,0,0,0,0,0,0,0,0,0,0,0,0,0,0,0,0,0,0,0,0,0,0,0,0,0,0,0,0,0,0,0,0,0,0,0,0,0,0,0,0,0,0,0,0,0,0,0,0,0,0,0,0],"id":23,"left_children":[1,3,5,7,9,11,13,15,17,19,21,23,25,27,29,31,33,35,37,-1,-1,39,-1,41,43,45,47,49,51,53,55,-1,-1,-1,-1,-1,-1,-1,-1,-1,-1,-1,-1,-1,-1,-1,-1,-1,-1,-1,-1,-1,-1,-1,-1,-1,-1],"loss_changes":[6.759647E1,1.3094597E1,4.1170853E1,1.2456253E1,1.0786778E1,2.2206842E1,1.9946663E1,1.4979149E1,1.2566351E1,3.0153813E0,8.684822E0,2.0367813E1,1.1572449E1,2.8216675E1,2.6298435E1,2.910174E1,2.8290054E1,1.1129043E1,1.1730459E1,0E0,0E0,7.749922E0,0E0,2.728041E1,3.1558563E1,7.034416E0,1.2627493E1,2.3557384E1,2.4547915E1,2.4508339E1,1.6824043E1,0E0,0E0,0E0,0E0,0E0,0E0,0E0,0E0,0E0,0E0,0E0,0E0,0E0,0E0,0E0,0E0,0E0,0E0,0E0,0E0,0E0,0E0,0E0,0E0,0E0,0E0],"parents":[2147483647,0,0,1,1,2,2,3,3,4,4,5,5,6,6,7,7,8,8,9,9,10,10,11,11,12,12,13,13,14,14,15,15,16,16,17,17,18,18,21,21,23,23,24,24,25,25,26,26,27,27,28,28,29,29,30,30],"right_children":[2,4,6,8,10,12,14,16,18,20,22,24,26,28,30,32,34,36,38,-1,-1,40,-1,42,44,46,48,50,52,54,56,-1,-1,-1,-1,-1,-1,-1,-1,-1,-1,-1,-1,-1,-1,-1,-1,-1,-1,-1,-1,-1,-1,-1,-1,-1,-1],"split_conditions":[-1.66702E1,-5.12E-2,1.9732E0,3.8E2,-3.34743E1,4.97E-2,3E0,-1.58E-1,-3.34743E1,5.15938E1,1.52E-2,-3.71E-2,3E0,1.8099E1,9.2E-3,1.8E1,2E0,3.9E2,3.96E2,-5.6527494E-3,-4.6735805E-2,4.70921E1,-3.7611466E-2,6E0,-1.59E-2,6.64E-2,6.04E-2,1.29508E1,6.64E-2,2.02E2,4.11E-2,-4.7408547E-2,-6.655839E-4,7.510739E-3,-3.238332E-2,2.7106185E-2,-4.752134E-2,-2.149787E-2,3.2228034E-2,4.4761524E-2,5.1437686E-3,1.0454568E-2,4.461215E-4,-3.8884499E-3,-4.5795753E-4,-2.2462457E-2,-5.5016935E-2,-1.9685065E-2,3.9329793E-2,4.6565942E-4,1.0473461E-2,1.2121352E-2,-2.1030799E-2,-7.474731E-3,4.757701E-3,6.7854407E-3,8.9553784E-4],"split_indices":[8,3,8,16,8,3,15,3,8,0,3,3,15,8,3,16,16,16,16,0,0,0,0,16,3,3,3,8,3,16,3,0,0,0,0,0,0,0,0,0,0,0,0,0,0,0,0,0,0,0,0,0,0,0,0,0,0],"split_type":[0,0,0,0,0,0,0,0,0,0,0,0,0,0,0,0,0,0,0,0,0,0,0,0,0,0,0,0,0,0,0,0,0,0,0,0,0,0,0,0,0,0,0,0,0,0,0,0,0,0,0,0,0,0,0,0,0],"sum_hessian":[6.4041582E4,7.113254E2,6.3330258E4,6.375189E2,7.3806496E1,4.233707E4,2.0993188E4,5.670315E2,7.048742E1,1.7750393E1,5.6056103E1,4.2220152E4,1.1691525E2,1.3087534E4,7.905654E3,2.1229613E2,3.5473535E2,2.3226633E1,4.7260788E1,8.411511E0,9.338881E0,5.0050213E1,6.0058913E0,4.488558E3,3.7731594E4,7.774143E1,3.9173813E1,1.2759706E4,3.2782724E2,1.6471182E3,6.2585356E3,4.0301918E1,1.719942E2,5.165163E1,3.0308374E2,6.154928E0,1.7071705E1,1.3554935E1,3.3705853E1,2.0670214E1,2.938E1,8.3587604E2,3.652682E3,8.717941E3,2.9013654E4,5.237377E1,2.5367662E1,2.6700777E1,1.2473037E1,1.2142759E4,6.16948E2,7.052263E1,2.573046E2,8.912748E2,7.558433E2,4.613589E3,1.6449467E3],"tree_param":{"num_deleted":"0","num_feature":"17","num_nodes":"57","size_leaf_vector":"1"}},{"base_weights":[1.449498E-3,-2.5479399E-2,4.093808E-2,-2.5948757E-1,-1.9436616E-2,4.5280695E-2,-1.07399315E-1,7.136415E-2,-3.5253057E-1,4.7831528E-2,-3.3820257E-2,3.787937E-2,1.9440244E-1,-4.267571E-1,-2.3628077E-3,-3.9003927E-1,2.646281E-1,-2.6980752E-1,-7.214723E-1,2.2487955E-1,4.2639403E-3,-8.11127E-2,-1.1523436E-2,4.020645E-2,-2.662346E-1,-1.0537752E0,2.1522179E-1,-6.186592E-1,1.7055362E-2,7.387075E-2,-5.2663654E-1,-4.0385984E-2,2.4415695E-3,4.398918E-2,5.440281E-3,-1.6532568E-2,5.1341522E-2,-3.087515E-2,-6.484281E-2,1.2070478E-2,-6.79998E-2,1.2778597E-2,-1.1921147E-3,-1.0707048E-3,-6.1389883E-3,-9.60489E-4,3.4868026E-3,1.9993015E-2,1.918274E-3,-1.8026654E-2,2.0740882E-2,-1.964969E-2,-7.0229106E-2,2.8308554E-2,7.991569E-3,-1.6673755E-2,-5.1250655E-2,-1.4275913E-2,4.0162865E-2,-5.8822767E-3,1.6125053E-2,-4.3275148E-2,9.010464E-3],"categories":[],"categories_nodes":[],"categories_segments":[],"categories_sizes":[],"default_left":[0,0,0,0,0,0,0,0,0,0,0,0,0,0,0,0,0,0,0,0,0,0,0,0,0,0,0,0,0,0,0,0,0,0,0,0,0,0,0,0,0,0,0,0,0,0,0,0,0,0,0,0,0,0,0,0,0,0,0,0,0,0,0],"id":24,"left_children":[1,3,5,7,9,11,13,15,17,19,21,23,25,27,29,31,33,35,37,39,41,43,45,47,49,51,53,55,57,59,61,-1,-1,-1,-1,-1,-1,-1,-1,-1,-1,-1,-1,-1,-1,-1,-1,-1,-1,-1,-1,-1,-1,-1,-1,-1,-1,-1,-1,-1,-1,-1,-1],"loss_changes":[6.81311E1,5.3860733E1,1.6738625E1,2.9541245E1,3.593213E1,2.7848873E1,2.479335E1,1.8944555E1,2.265075E1,5.0461735E1,3.2259624E1,1.7028564E1,3.1233704E1,1.5590702E1,2.2309492E1,1.1547347E1,1.42357E1,4.87038E1,7.364853E0,3.4174118E1,3.7096695E1,2.4380402E1,1.2988222E1,1.5785999E1,1.1885511E1,4.0251465E0,2.274009E1,1.4461224E1,1.3597213E1,2.324442E1,1.712915E1,0E0,0E0,0E0,0E0,0E0,0E0,0E0,0E0,0E0,0E0,0E0,0E0,0E0,0E0,0E0,0E0,0E0,0E0,0E0,0E0,0E0,0E0,0E0,0E0,0E0,0E0,0E0,0E0,0E0,0E0,0E0,0E0],"parents":[2147483647,0,0,1,1,2,2,3,3,4,4,5,5,6,6,7,7,8,8,9,9,10,10,11,11,12,12,13,13,14,14,15,15,16,16,17,17,18,18,19,19,20,20,21,21,22,22,23,23,24,24,25,25,26,26,27,27,28,28,29,29,30,30],"right_children":[2,4,6,8,10,12,14,16,18,20,22,24,26,28,30,32,34,36,38,40,42,44,46,48,50,52,54,56,58,60,62,-1,-1,-1,-1,-1,-1,-1,-1,-1,-1,-1,-1,-1,-1,-1,-1,-1,-1,-1,-1,-1,-1,-1,-1,-1,-1,-1,-1,-1,-1,-1,-1],"split_conditions":[1.1873E0,-1.47854E1,8.14E-2,-1.67E-1,-5.2285E0,1.22373E1,3.6716E0,1E0,1.1473E0,1E0,-1.2E-2,1.8606E0,-7.0719E0,3E0,4E0,-5.666E-1,-1.7524E0,-3.14E-2,4E0,1.57E-2,-4.86E-1,-3.86E-2,2.2726E0,-2.98E-2,7.73793E1,1.065E1,3.26E-2,1.8099E1,2.22203E1,2E0,3.186E-1,-4.0385984E-2,2.4415695E-3,4.398918E-2,5.440281E-3,-1.6532568E-2,5.1341522E-2,-3.087515E-2,-6.484281E-2,1.2070478E-2,-6.79998E-2,1.2778597E-2,-1.1921147E-3,-1.0707048E-3,-6.1389883E-3,-9.60489E-4,3.4868026E-3,1.9993015E-2,1.918274E-3,-1.8026654E-2,2.0740882E-2,-1.964969E-2,-7.0229106E-2,2.8308554E-2,7.991569E-3,-1.6673755E-2,-5.1250655E-2,-1.4275913E-2,4.0162865E-2,-5.8822767E-3,1.6125053E-2,-4.3275148E-2,9.010464E-3],"split_indices":[8,8,3,1,8,8,7,15,7,15,3,1,7,15,15,1,1,3,15,3,1,1,7,3,0,14,3,8,8,15,1,0,0,0,0,0,0,0,0,0,0,0,0,0,0,0,0,0,0,0,0,0,0,0,0,0,0,0,0,0,0,0,0],"split_type":[0,0,0,0,0,0,0,0,0,0,0,0,0,0,0,0,0,0,0,0,0,0,0,0,0,0,0,0,0,0,0,0,0,0,0,0,0,0,0,0,0,0,0,0,0,0,0,0,0,0,0,0,0,0,0,0,0,0,0,0,0,0,0],"sum_hessian":[6.4068117E4,3.8091977E4,2.597614E4,9.578302E2,3.7134145E4,2.5237986E4,7.381542E2,2.1029056E2,7.475397E2,6.541079E3,3.0593066E4,2.4045781E4,1.1922047E3,1.819332E2,5.5622095E2,6.1779175E1,1.4851138E2,6.1204095E2,1.3549873E2,1.2909227E3,5.2501562E3,9.801359E3,2.0791707E4,2.3864041E4,1.8173996E2,1.8745495E1,1.1734592E3,1.267383E2,5.519491E1,4.8635953E2,6.9861435E1,3.1223146E1,3.055603E1,2.9076641E1,1.19434746E2,5.853202E2,2.6720745E1,1.165177E2,1.8981033E1,1.2784365E3,1.248622E1,5.2729834E2,4.722858E3,4.0295396E3,5.77182E3,1.899567E4,1.7960388E3,1.2043053E2,2.3743611E4,1.6005006E2,2.1689896E1,7.2359986E0,1.1509497E1,1.5870369E2,1.0147555E3,7.554239E1,5.1195908E1,4.0315956E1,1.4878952E1,2.750327E2,2.1132684E2,4.707089E1,2.2790545E1],"tree_param":{"num_deleted":"0","num_feature":"17","num_nodes":"63","size_leaf_vector":"1"}},{"base_weights":[3.2438359E-3,-2.0860296E-2,4.022876E-2,-2.2873262E-1,-1.5649581E-2,4.2747106E-2,-2.2096804E-1,-4.8205968E-2,-4.0091267E-1,3.5327937E-2,-2.6226038E-2,-7.429067E-2,4.7275458E-2,-5.8647223E-2,-1.8275367E-1,-2.8182018E-1,1.6928837E-1,-4.695677E-1,8.2302906E-2,1.3363455E-1,-1.5161812E-2,-8.284399E-2,-6.715172E-3,2.741073E-1,-1.0729482E-1,4.1544028E-2,1.636284E-1,1.1961141E0,-2.5261492E-1,7.7918223E-3,-2.5343958E-2,3.831309E-2,5.260779E-3,-9.114995E-3,-2.7325237E-2,6.7574E-2,-2.8446311E-2,-1.6203942E-3,1.115239E-2,-1.4407764E-2,1.1872925E-3,-4.966698E-3,4.7655855E-3,1.2674051E-3,-1.9077307E-3,5.2627306E-3,2.8705647E-2,1.0132076E-2,-6.67908E-3,-9.719228E-4,2.5504024E-3,1.6347123E-2,-5.6383517E-3,3.851227E-2,7.145618E-2,-4.9617183E-3,-2.4580566E-2],"categories":[],"categories_nodes":[],"categories_segments":[],"categories_sizes":[],"default_left":[0,0,0,0,0,0,0,0,0,0,0,0,0,0,0,0,0,0,0,0,0,0,0,0,0,0,0,0,0,0,0,0,0,0,0,0,0,0,0,0,0,0,0,0,0,0,0,0,0,0,0,0,0,0,0,0,0],"id":25,"left_children":[1,3,5,7,9,11,13,15,17,19,21,23,25,-1,27,29,31,33,35,37,39,41,43,45,47,49,51,53,55,-1,-1,-1,-1,-1,-1,-1,-1,-1,-1,-1,-1,-1,-1,-1,-1,-1,-1,-1,-1,-1,-1,-1,-1,-1,-1,-1,-1],"loss_changes":[5.7115986E1,4.201078E1,1.6637909E1,2.9461716E1,2.0403397E1,1.3273872E1,8.573709E0,2.363075E1,1.6139061E1,3.2276733E1,3.4619286E1,1.0758657E1,1.6069324E1,0E0,2.278837E1,2.2157867E1,9.137167E0,9.295486E0,5.137382E1,3.2766056E1,4.564678E1,2.360537E1,2.3497429E1,4.0440536E0,6.9772053E0,1.3261627E1,5.110708E1,3.3533096E-2,