{"learner":{"attributes":{"best_iteration":"0","best_score":"2.3864482414956543"},"feature_names":["rsi_14","macd_signal","bb_position","vwap_deviation","volume_ratio","price_change_5","price_change_20","sentiment_avg_1h","sentiment_count_1h","sentiment_deviation","sentiment_momentum","has_breaking_event","hour_of_day","day_of_week","minutes_since_open"],"feature_types":[],"gradient_booster":{"model":{"cats":{"enc":[],"feature_segments":[],"sorted_idx":[]},"gbtree_model_param":{"num_parallel_tree":"1","num_trees":"21"},"iteration_indptr":[0,1,2,3,4,5,6,7,8,9,10,11,12,13,14,15,16,17,18,19,20,21],"tree_info":[0,0,0,0,0,0,0,0,0,0,0,0,0,0,0,0,0,0,0,0,0],"trees":[{"base_weights":[3.2790657E-3,6.372127E-3,-7.811321E-1,8.840545E-3,-2.0345668E-1,-2.3174157E0,-3.800968E-1,6.619479E-4,4.9851935E-2,-8.953302E-2,-8.323442E-1,-3.5796075E0,-1.3722502E0,-1.4870867E0,-1.9000773E-1,8.0456826E-5,-1.954631E-2,4.2582978E-2,1.9356994E-3,-6.1986274E-3,6.187992E-2,-7.450284E-2,2.5331462E-2,-1.0048574E-1,-2.540331E-1,2.1398311E-2,-1.469072E-1,-3.8893234E-2,-9.795269E-2,-1.8814735E-2,3.693269E-2],"categories":[],"categories_nodes":[],"categories_segments":[],"categories_sizes":[],"default_left":[0,0,0,0,0,0,0,0,0,0,0,0,0,0,0,0,0,0,0,0,0,0,0,0,0,0,0,0,0,0,0],"id":0,"left_children":[1,3,5,7,9,11,13,15,17,19,21,23,25,27,29,-1,-1,-1,-1,-1,-1,-1,-1,-1,-1,-1,-1,-1,-1,-1,-1],"loss_changes":[7.227406E2,1.536839E2,7.199608E2,9.836598E1,2.4710124E2,2.8378906E2,1.9520384E2,9.0690186E1,4.3541782E2,1.3370572E2,4.6662393E2,2.325083E2,3.959101E2,4.399933E1,1.37638E2,0E0,0E0,0E0,0E0,0E0,0E0,0E0,0E0,0E0,0E0,0E0,0E0,0E0,0E0,0E0,0E0],"parents":[2147483647,0,0,1,1,2,2,3,3,4,4,5,5,6,6,7,7,8,8,9,9,10,10,11,11,12,12,13,13,14,14],"right_children":[2,4,6,8,10,12,14,16,18,20,22,24,26,28,30,-1,-1,-1,-1,-1,-1,-1,-1,-1,-1,-1,-1,-1,-1,-1,-1],"split_conditions":[3.08E-2,1.78E-2,3.55E-2,3.89E2,2.8E2,6.564E-1,-3E0,2.5504E0,-1.37E-2,2.55E2,4.43E2,5.34287E1,6.95323E1,5.466E-1,3.89E2,8.0456826E-5,-1.954631E-2,4.2582978E-2,1.9356994E-3,-6.1986274E-3,6.187992E-2,-7.450284E-2,2.5331462E-2,-1.0048574E-1,-2.540331E-1,2.1398311E-2,-1.469072E-1,-3.8893234E-2,-9.795269E-2,-1.8814735E-2,3.693269E-2],"split_indices":[3,3,1,14,14,2,14,1,3,14,14,0,0,4,14,0,0,0,0,0,0,0,0,0,0,0,0,0,0,0,0],"split_type":[0,0,0,0,0,0,0,0,0,0,0,0,0,0,0,0,0,0,0,0,0,0,0,0,0,0,0,0,0,0,0],"sum_hessian":[2.97883E5,2.96714E5,1.169E3,2.93265E5,3.449E3,2.41E2,9.28E2,2.44506E5,4.8759E4,2.921E3,5.28E2,1.02E2,1.39E2,1.35E2,7.93E2,2.43917E5,5.89E2,6.67E2,4.8092E4,2.848E3,7.3E1,3.54E2,1.74E2,5.1E1,5.1E1,6.5E1,7.4E1,5.5E1,8E1,6.61E2,1.32E2],"tree_param":{"num_deleted":"0","num_feature":"15","num_nodes":"31","size_leaf_vector":"1"}},{"base_weights":[1.278341E-3,4.5878575E-3,-8.4786516E-1,6.4666346E-2,-3.493295E-2,-2.615825E0,-4.2808402E-1,4.199376E-2,1.7423257E-1,-3.114798E-2,-6.2720674E-1,-3.9265242E0,-9.67954E-3,-9.7694045E-1,-2.3449749E-1,3.9945794E-3,3.9321996E-4,4.6965152E-2,7.288132E-3,-1.6025625E-2,-1.4495954E-3,-4.2906487E-3,-9.8772295E-2,-2.6090935E-1,-1.0156132E-1,-9.732043E-2,-1.5080208E-2,-1.8545317E-2,1.9776713E-2],"categories":[],"categories_nodes":[],"categories_segments":[],"categories_sizes":[],"default_left":[0,0,0,0,0,0,0,0,0,0,0,0,0,0,0,0,0,0,0,0,0,0,0,0,0,0,0,0,0],"id":1,"left_children":[1,3,5,7,9,11,13,15,17,19,21,23,-1,25,27,-1,-1,-1,-1,-1,-1,-1,-1,-1,-1,-1,-1,-1,-1],"loss_changes":[8.3822406E2,7.054574E2,8.582972E2,2.928615E2,4.0174707E2,7.040499E2,9.932829E1,1.2634537E2,4.401325E2,1.1109558E2,8.304889E2,3.4192505E2,0E0,1.5916394E2,5.9790375E1,0E0,0E0,0E0,0E0,0E0,0E0,0E0,0E0,0E0,0E0,0E0,0E0,0E0,0E0],"parents":[2147483647,0,0,1,1,2,2,3,3,4,4,5,5,6,6,7,7,8,8,9,9,10,10,11,11,13,13,14,14],"right_children":[2,4,6,8,10,12,14,16,18,20,22,24,-1,26,28,-1,-1,-1,-1,-1,-1,-1,-1,-1,-1,-1,-1,-1,-1],"split_conditions":[3.08E-2,2E0,2.55E-2,1.59833E1,1.7013E0,3E0,9.45E0,1E0,-7.2E-3,-1.6245E0,4E0,4.422E-1,-9.67954E-3,5.812E-1,1.635E1,3.9945794E-3,3.9321996E-4,4.6965152E-2,7.288132E-3,-1.6025625E-2,-1.4495954E-3,-4.2906487E-3,-9.8772295E-2,-2.6090935E-1,-1.0156132E-1,-9.732043E-2,-1.5080208E-2,-1.8545317E-2,1.9776713E-2],"split_indices":[3,13,1,12,1,13,12,13,3,1,13,5,0,1,12,0,0,0,0,0,0,0,0,0,0,0,0,0,0],"split_type":[0,0,0,0,0,0,0,0,0,0,0,0,0,0,0,0,0,0,0,0,0,0,0,0,0,0,0,0,0],"sum_hessian":[2.98271E5,2.97114E5,1.157E3,1.17894E5,1.7922E5,2.21E2,9.36E2,9.7682E4,2.0212E4,1.78083E5,1.137E3,1.43E2,7.8E1,2.43E2,6.93E2,4.6285E4,5.1397E4,7.24E2,1.9488E4,1.316E3,1.76767E5,8.12E2,3.25E2,8.4E1,5.9E1,9.9E1,1.44E2,5.7E2,1.23E2],"tree_param":{"num_deleted":"0","num_feature":"15","num_nodes":"29","size_leaf_vector":"1"}},{"base_weights":[-1.6988853E-3,1.67913E-3,-8.658356E-1,6.2229753E-2,-3.822386E-2,-3.0321698E0,-4.0957612E-1,5.3968363E-2,3.4358668E-1,-3.4738343E-2,-5.849497E-1,-2.5738966E-1,-1.9440621E0,-1.5581068E0,-2.1835396E-1,2.935385E-3,-2.3005126E-2,3.13886E-2,1.8644372E-3,-1.7299566E-2,-1.6232381E-3,-4.8827296E-5,-9.809743E-2,-1.7896396E-1,-4.048644E-2,-3.288927E-2,-1.2726331E-1,-4.8710722E-2,-5.578187E-3],"categories":[],"categories_nodes":[],"categories_segments":[],"categories_sizes":[],"default_left":[0,0,0,0,0,0,0,0,0,0,0,0,0,0,0,0,0,0,0,0,0,0,0,0,0,0,0,0,0],"id":2,"left_children":[1,3,5,7,9,11,13,15,17,19,21,-1,23,25,27,-1,-1,-1,-1,-1,-1,-1,-1,-1,-1,-1,-1,-1,-1],"loss_changes":[8.7109485E2,7.1821295E2,1.1472911E3,2.7444196E2,3.4142343E2,4.550017E2,2.1071892E2,2.7950388E2,2.9314532E2,1.2598248E2,9.1268604E2,0E0,2.4751071E2,1.20086E2,6.6484085E1,0E0,0E0,0E0,0E0,0E0,0E0,0E0,0E0,0E0,0E0,0E0,0E0,0E0,0E0],"parents":[2147483647,0,0,1,1,2,2,3,3,4,4,5,5,6,6,7,7,8,8,9,9,10,10,12,12,13,13,14,14],"right_children":[2,4,6,8,10,12,14,16,18,20,22,-1,24,26,28,-1,-1,-1,-1,-1,-1,-1,-1,-1,-1,-1,-1,-1,-1],"split_conditions":[3.08E-2,2E0,2.35E-2,7.111E-1,1.7013E0,1E0,-3E0,1.78E-2,1E0,-1.6245E0,4E0,-2.5738966E-1,9.094E-1,2E0,7.61E-2,2.935385E-3,-2.3005126E-2,3.13886E-2,1.8644372E-3,-1.7299566E-2,-1.6232381E-3,-4.8827296E-5,-9.809743E-2,-1.7896396E-1,-4.048644E-2,-3.288927E-2,-1.2726331E-1,-4.8710722E-2,-5.578187E-3],"split_indices":[3,13,1,1,1,13,14,3,13,1,13,0,6,13,1,0,0,0,0,0,0,0,0,0,0,0,0,0,0],"split_type":[0,0,0,0,0,0,0,0,0,0,0,0,0,0,0,0,0,0,0,0,0,0,0,0,0,0,0,0,0],"sum_hessian":[2.98414E5,2.97253E5,1.161E3,1.18077E5,1.79176E5,2.01E2,9.6E2,1.1471E5,3.367E3,1.78042E5,1.134E3,6.7E1,1.34E2,1.36E2,8.24E2,1.13663E5,1.047E3,1.746E3,1.621E3,1.29E3,1.76752E5,7.97E2,3.37E2,5.4E1,8E1,7.2E1,6.4E1,1.01E2,7.23E2],"tree_param":{"num_deleted":"0","num_feature":"15","num_nodes":"29","size_leaf_vector":"1"}},{"base_weights":[3.2511086E-4,3.02217E-3,-6.6455173E-1,5.346646E-3,-1.9262488E-1,-1.9098958E0,-2.88617E-1,-3.2042046E-3,4.9480934E-2,-6.114841E-2,-9.206875E-1,-3.4890609E0,-7.812797E-1,-1.3993335E0,-1.1192999E-1,-8.397517E-5,-1.3560466E-2,3.8820308E-2,1.9536112E-3,-1.7840585E-2,8.294977E-3,-7.222506E-2,1.4391354E-2,-9.5036015E-2,-2.7380738E-1,-1.0575396E-1,1.5596702E-2,-1.0291536E-1,-2.8994698E-2,-1.2606128E-2,3.2356337E-2],"categories":[],"categories_nodes":[],"categories_segments":[],"categories_sizes":[],"default_left":[0,0,0,0,0,0,0,0,0,0,0,0,0,0,0,0,0,0,0,0,0,0,0,0,0,0,0,0,0,0,0],"id":3,"left_children":[1,3,5,7,9,11,13,15,17,19,21,23,25,27,29,-1,-1,-1,-1,-1,-1,-1,-1,-1,-1,-1,-1,-1,-1,-1,-1],"loss_changes":[5.3440076E2,1.3498291E2,5.6312305E2,1.1069682E2,3.335387E2,4.9452777E2,1.8157013E2,1.0040713E2,3.6018106E2,1.9829332E2,3.378242E2,3.5570715E2,2.3979276E2,6.7384995E1,8.529443E1,0E0,0E0,0E0,0E0,0E0,0E0,0E0,0E0,0E0,0E0,0E0,0E0,0E0,0E0,0E0,0E0],"parents":[2147483647,0,0,1,1,2,2,3,3,4,4,5,5,6,6,7,7,8,8,9,9,10,10,11,11,12,12,13,13,14,14],"right_children":[2,4,6,8,10,12,14,16,18,20,22,24,26,28,30,-1,-1,-1,-1,-1,-1,-1,-1,-1,-1,-1,-1,-1,-1,-1,-1],"split_conditions":[3.08E-2,1.78E-2,5.24E-2,3.92E2,1.41667E1,6.564E-1,-3.6E1,1.7013E0,-1.37E-2,2.798E-1,1.6966667E1,5.43692E1,5.69E-1,6.62757E1,1.6283333E1,-8.397517E-5,-1.3560466E-2,3.8820308E-2,1.9536112E-3,-1.7840585E-2,8.294977E-3,-7.222506E-2,1.4391354E-2,-9.5036015E-2,-2.7380738E-1,-1.0575396E-1,1.5596702E-2,-1.0291536E-1,-2.8994698E-2,-1.2606128E-2,3.2356337E-2],"split_indices":[3,3,1,14,12,2,14,1,3,1,12,0,5,0,12,0,0,0,0,0,0,0,0,0,0,0,0,0,0,0,0],"split_type":[0,0,0,0,0,0,0,0,0,0,0,0,0,0,0,0,0,0,0,0,0,0,0,0,0,0,0,0,0,0,0],"sum_hessian":[2.98011E5,2.96808E5,1.203E3,2.93324E5,3.484E3,2.78E2,9.25E2,2.45718E5,4.7606E4,2.952E3,5.32E2,1.15E2,1.63E2,1.26E2,7.99E2,2.44329E5,1.389E3,6.71E2,4.6935E4,1.282E3,1.67E3,3.71E2,1.61E2,6.5E1,5E1,7.3E1,9E1,6.9E1,5.7E1,6.75E2,1.24E2],"tree_param":{"num_deleted":"0","num_feature":"15","num_nodes":"31","size_leaf_vector":"1"}},{"base_weights":[-2.59681E-3,2.2551017E-3,-4.1153815E-1,-1.6901152E-1,3.6016724E-3,-1.446439E0,-2.3805407E-1,-2.6081672E-1,1.12800114E-1,-2.1397287E-1,4.951744E-3,-8.060767E-1,-2.5679219E0,-1.0288882E0,-1.5745904E-1,1.1893405E-3,-5.3489156E-2,-1.8678874E-3,-4.3349177E-2,5.9680026E-3,1.2328452E-4,5.2914687E-2,-6.2823E-2,-1.9698848E-1,-8.476899E-2,-3.076976E-2,-7.9454444E-2,-2.3426494E-2,-5.7501125E-5],"categories":[],"categories_nodes":[],"categories_segments":[],"categories_sizes":[],"default_left":[0,0,0,0,0,0,0,0,0,0,0,0,0,0,0,0,0,0,0,0,0,0,0,0,0,0,0,0,0],"id":4,"left_children":[1,3,5,7,9,11,13,15,-1,17,19,21,23,25,27,-1,-1,-1,-1,-1,-1,-1,-1,-1,-1,-1,-1,-1,-1],"loss_changes":[5.9192163E2,6.7994606E1,6.2768243E2,5.1263477E2,8.592886E1,3.584442E2,1.9085872E2,5.1045572E2,0E0,2.0802576E2,8.268949E1,2.7086734E2,2.111737E2,6.3186066E1,1.3230313E2,0E0,0E0,0E0,0E0,0E0,0E0,0E0,0E0,0E0,0E0,0E0,0E0,0E0,0E0],"parents":[2147483647,0,0,1,1,2,2,3,3,4,4,5,5,6,6,7,7,9,9,10,10,11,11,12,12,13,13,14,14],"right_children":[2,4,6,8,10,12,14,16,-1,18,20,22,24,26,28,-1,-1,-1,-1,-1,-1,-1,-1,-1,-1,-1,-1,-1,-1],"split_conditions":[2.02E-2,-1.6245E0,1.76E-2,1.6966667E1,-1.769E0,3.08E-2,-5.1E1,1.91E2,1.12800114E-1,-3.51E-2,-9.034E-1,4.81064E1,3.646E-1,7.549E-1,2.798E-1,1.1893405E-3,-5.3489156E-2,-1.8678874E-3,-4.3349177E-2,5.9680026E-3,1.2328452E-4,5.2914687E-2,-6.2823E-2,-1.9698848E-1,-8.476899E-2,-3.076976E-2,-7.9454444E-2,-2.3426494E-2,-5.7501125E-5],"split_indices":[3,1,1,12,6,3,14,14,0,1,6,0,6,4,1,0,0,0,0,0,0,0,0,0,0,0,0,0,0],"split_type":[0,0,0,0,0,0,0,0,0,0,0,0,0,0,0,0,0,0,0,0,0,0,0,0,0,0,0,0,0],"sum_hessian":[2.98324E5,2.94827E5,3.497E3,2.299E3,2.92528E5,5.01E2,2.996E3,2.216E3,8.3E1,1.803E3,2.90725E5,3.2E2,1.81E2,2.76E2,2.72E3,1.64E3,5.76E2,1.42E3,3.83E2,6.182E3,2.84543E5,6.2E1,2.58E2,6.9E1,1.12E2,1.6E2,1.16E2,9.09E2,1.811E3],"tree_param":{"num_deleted":"0","num_feature":"15","num_nodes":"29","size_leaf_vector":"1"}},{"base_weights":[4.0644132E-5,5.5852044E-2,-3.6795825E-2,6.0159963E-2,-9.182568E-1,-3.367962E-2,-4.857441E-1,3.4741852E-2,1.4942859E-1,-3.5239067E0,-1.147238E-1,-4.55438E-1,-3.0522998E-2,-2.0478527E-1,-2.8221193E-1,3.6970319E-3,-3.832636E-5,2.6124422E-2,5.408061E-3,-8.882728E-2,-2.8991112E-1,-2.5247429E-2,5.3840883E-2,7.96433E-3,-9.838937E-2,-1.388373E-3,-1.6904492E-2,3.2678372E-4,-4.9483143E-2],"categories":[],"categories_nodes":[],"categories_segments":[],"categories_sizes":[],"default_left":[0,0,0,0,0,0,0,0,0,0,0,0,0,0,0,0,0,0,0,0,0,0,0,0,0,0,0,0,0],"id":5,"left_children":[1,3,5,7,9,11,13,15,17,19,21,23,25,-1,27,-1,-1,-1,-1,-1,-1,-1,-1,-1,-1,-1,-1,-1,-1],"loss_changes":[6.12963E2,4.975067E2,2.5125528E2,2.677914E2,1.0925206E3,2.3745413E2,9.084563E2,1.27867004E2,4.0263568E2,4.7850745E2,1.8653134E2,1.2321375E3,1.5003847E2,0E0,2.3962074E2,0E0,0E0,0E0,0E0,0E0,0E0,0E0,0E0,0E0,0E0,0E0,0E0,0E0,0E0],"parents":[2147483647,0,0,1,1,2,2,3,3,4,4,5,5,6,6,7,7,8,8,9,9,10,10,11,11,12,12,14,14],"right_children":[2,4,6,8,10,12,14,16,18,20,22,24,26,-1,28,-1,-1,-1,-1,-1,-1,-1,-1,-1,-1,-1,-1,-1,-1],"split_conditions":[2E0,3.08E-2,1.7013E0,1.5466666E1,3.2E-2,-1.6245E0,2.353E-1,1E0,-3.7E-3,1.32E-2,1.2183333E1,4E0,2.02E-2,-2.0478527E-1,4E0,3.6970319E-3,-3.832636E-5,2.6124422E-2,5.408061E-3,-8.882728E-2,-2.8991112E-1,-2.5247429E-2,5.3840883E-2,7.96433E-3,-9.838937E-2,-1.388373E-3,-1.6904492E-2,3.2678372E-4,-4.9483143E-2],"split_indices":[13,3,1,12,1,1,2,13,3,1,12,13,3,0,13,0,0,0,0,0,0,0,0,0,0,0,0,0,0],"split_type":[0,0,0,0,0,0,0,0,0,0,0,0,0,0,0,0,0,0,0,0,0,0,0,0,0,0,0,0,0],"sum_hessian":[2.98147E5,1.18542E5,1.79605E5,1.18021E5,5.21E2,1.78368E5,1.237E3,9.1865E4,2.6156E4,1.22E2,3.99E2,1.324E3,1.77044E5,6.5E1,1.172E3,4.3663E4,4.8202E4,2.604E3,2.3552E4,7E1,5.2E1,3.01E2,9.8E1,9.42E2,3.82E2,1.75473E5,1.571E3,8.33E2,3.39E2],"tree_param":{"num_deleted":"0","num_feature":"15","num_nodes":"29","size_leaf_vector":"1"}},{"base_weights":[-1.0062775E-3,9.0867035E-2,-2.2278693E-2,9.6058615E-2,-9.389593E-1,-1.727565E-2,-3.625178E-1,8.258773E-2,5.212528E-1,-2.3568408E-1,3.3565795E-1,-1.4837474E-2,-5.175761E-1,-2.1099104E-1,-8.452686E-1,4.3724515E-3,-1.9813653E-2,9.154479E-3,3.5069093E-2,6.716041E-2,-1.3876073E-2,1.2337524E-3,-1.4227456E-3,5.564857E-4,-1.1432981E-1,7.5489886E-2,-1.2254479E-2,-5.2592453E-2,-9.1025345E-3],"categories":[],"categories_nodes":[],"categories_segments":[],"categories_sizes":[],"default_left":[0,0,0,0,0,0,0,0,0,0,0,0,0,0,0,0,0,0,0,0,0,0,0,0,0,0,0,0,0],"id":6,"left_children":[1,3,5,7,9,11,13,15,17,-1,19,21,23,25,27,-1,-1,-1,-1,-1,-1,-1,-1,-1,-1,-1,-1,-1,-1],"loss_changes":[5.821553E2,2.9950598E2,4.11714E2,3.1912408E2,1.353565E3,2.907573E2,2.5621124E2,1.25770874E2,1.0409378E2,0E0,1.3073048E2,1.2763484E2,1.081222E3,1.5697736E2,1.1448407E2,0E0,0E0,0E0,0E0,0E0,0E0,0E0,0E0,0E0,0E0,0E0,0E0,0E0,0E0],"parents":[2147483647,0,0,1,1,2,2,3,3,4,4,5,5,6,6,7,7,8,8,10,10,11,11,12,12,13,13,14,14],"right_children":[2,4,6,8,10,12,14,16,18,-1,20,22,24,26,28,-1,-1,-1,-1,-1,-1,-1,-1,-1,-1,-1,-1,-1,-1],"split_conditions":[1E0,3.08E-2,1.78E-2,7.111E-1,3.2E-2,1.7013E0,1.295E1,1.78E-2,8.1E-3,-2.3568408E-1,4.032E-1,2E0,4E0,4.34645E1,1.68E1,4.3724515E-3,-1.9813653E-2,9.154479E-3,3.5069093E-2,6.716041E-2,-1.3876073E-2,1.2337524E-3,-1.4227456E-3,5.564857E-4,-1.1432981E-1,7.5489886E-2,-1.2254479E-2,-5.2592453E-2,-9.1025345E-3],"split_indices":[13,3,3,1,1,1,12,3,3,0,1,13,13,0,12,0,0,0,0,0,0,0,0,0,0,0,0,0,0],"split_type":[0,0,0,0,0,0,0,0,0,0,0,0,0,0,0,0,0,0,0,0,0,0,0,0,0,0,0,0,0],"sum_hessian":[2.97872E5,5.6002E4,2.4187E5,5.5722E4,2.8E2,2.38366E5,3.504E3,5.4012E4,1.71E3,7E1,2.1E2,2.37211E5,1.155E3,2.668E3,8.36E2,5.347E4,5.42E2,5.95E2,1.115E3,7.9E1,1.31E2,6.0798E4,1.76413E5,8.9E2,2.65E2,5.1E1,2.617E3,6.37E2,1.99E2],"tree_param":{"num_deleted":"0","num_feature":"15","num_nodes":"29","size_leaf_vector":"1"}},{"base_weights":[-1.6682835E-3,9.358205E-4,-6.57596E-1,5.2974124E-2,-3.3229765E-2,-1.2793045E0,-3.9325145E-1,2.9891731E-2,1.3396578E-1,-2.9492334E-2,-2.4106477E-1,-2.1509984E0,-5.120859E-1,-6.784972E-2,-2.7093986E-1,3.0509962E-3,9.179507E-5,3.7618067E-2,5.666589E-3,-3.6544804E-3,-5.271515E-4,-1.341679E-3,-4.3598577E-2,-4.9912456E-2,-1.736313E-1,2.3796152E-2,-6.1626602E-2,5.32972E-3,-3.0491387E-2],"categories":[],"categories_nodes":[],"categories_segments":[],"categories_sizes":[],"default_left":[0,0,0,0,0,0,0,0,0,0,0,0,0,0,0,0,0,0,0,0,0,0,0,0,0,0,0,0,0],"id":7,"left_children":[1,3,5,7,9,11,13,15,17,19,21,23,25,-1,27,-1,-1,-1,-1,-1,-1,-1,-1,-1,-1,-1,-1,-1,-1],"loss_changes":[5.0883627E2,5.275423E2,1.9309564E2,2.1984705E2,1.3912694E2,2.3364026E2,9.7234436E1,7.992592E1,3.3272046E2,1.4536317E2,4.2762262E2,2.463883E2,1.3440636E2,0E0,9.423017E1,0E0,0E0,0E0,0E0,0E0,0E0,0E0,0E0,0E0,0E0,0E0,0E0,0E0,0E0],"parents":[2147483647,0,0,1,1,2,2,3,3,4,4,5,5,6,6,7,7,8,8,9,9,10,10,11,11,12,12,14,14],"right_children":[2,4,6,8,10,12,14,16,18,20,22,24,26,-1,28,-1,-1,-1,-1,-1,-1,-1,-1,-1,-1,-1,-1,-1,-1],"split_conditions":[3.08E-2,2E0,6.564E-1,1.5466666E1,1.47E-2,2E0,-5.1E1,1E0,-8.4E-3,-1.5E-3,1.96E2,1.1183333E1,4.487E-1,-6.784972E-2,1.07667E1,3.0509962E-3,9.179507E-5,3.7618067E-2,5.666589E-3,-3.6544804E-3,-5.271515E-4,-1.341679E-3,-4.3598577E-2,-4.9912456E-2,-1.736313E-1,2.3796152E-2,-6.1626602E-2,5.32972E-3,-3.0491387E-2],"split_indices":[3,13,2,12,3,13,14,13,3,3,14,12,2,0,12,0,0,0,0,0,0,0,0,0,0,0,0,0,0],"split_type":[0,0,0,0,0,0,0,0,0,0,0,0,0,0,0,0,0,0,0,0,0,0,0,0,0,0,0,0,0],"sum_hessian":[2.97894E5,2.96717E5,1.177E3,1.17599E5,1.79118E5,3.5E2,8.27E2,9.1518E4,2.6081E4,1.75955E5,3.163E3,1.63E2,1.87E2,9.2E1,7.35E2,4.3383E4,4.8135E4,8.41E2,2.524E4,5.3307E4,1.22648E5,2.362E3,8.01E2,8.8E1,7.5E1,7.9E1,1.08E2,3.48E2,3.87E2],"tree_param":{"num_deleted":"0","num_feature":"15","num_nodes":"29","size_leaf_vector":"1"}},{"base_weights":[2.183082E-3,4.939307E-2,-2.8940614E-2,2.4353465E-2,1.3920236E-1,6.402014E-2,-3.7720565E-2,2.6937913E-2,-4.896924E-1,7.875251E-1,1.2578717E-1,7.9433626E-1,5.5546053E-2,-2.1649712E-1,-3.3137858E-2,2.936984E-3,-9.852042E-5,3.3836444E-3,-1.3720612E-1,-2.866444E-3,5.220331E-2,1.6993776E-2,5.3925137E-3,7.617236E-3,7.8063E-2,2.97215E-3,-4.23837E-2,-1.3728515E-3,-2.891006E-2,-1.3829734E-3,-7.6221162E-3],"categories":[],"categories_nodes":[],"categories_segments":[],"categories_sizes":[],"default_left":[0,0,0,0,0,0,0,0,0,0,0,0,0,0,0,0,0,0,0,0,0,0,0,0,0,0,0,0,0,0,0],"id":8,"left_children":[1,3,5,7,9,11,13,15,17,19,21,23,25,27,29,-1,-1,-1,-1,-1,-1,-1,-1,-1,-1,-1,-1,-1,-1,-1,-1],"loss_changes":[4.3859485E2,2.667007E2,1.468327E2,1.23224594E2,2.2478885E2,9.603641E1,1.3466035E2,8.483641E1,5.832207E2,1.1363153E2,9.7247894E1,8.7402E1,5.407223E1,2.8087506E2,1.047451E2,0E0,0E0,0E0,0E0,0E0,0E0,0E0,0E0,0E0,0E0,0E0,0E0,0E0,0E0,0E0,0E0],"parents":[2147483647,0,0,1,1,2,2,3,3,4,4,5,5,6,6,7,7,8,8,9,9,10,10,11,11,12,12,13,13,14,14],"right_children":[2,4,6,8,10,12,14,16,18,20,22,24,26,28,30,-1,-1,-1,-1,-1,-1,-1,-1,-1,-1,-1,-1,-1,-1,-1,-1],"split_conditions":[2E0,1.55E1,6.34E-2,2.3833E0,-7.115E-1,-2.3434E0,-3.662E-1,1E0,1.065E1,-1.4794E0,-1.31E-1,1E1,9.79E-2,1.19833E1,3.874E-1,2.936984E-3,-9.852042E-5,3.3836444E-3,-1.3720612E-1,-2.866444E-3,5.220331E-2,1.6993776E-2,5.3925137E-3,7.617236E-3,7.8063E-2,2.97215E-3,-4.23837E-2,-1.3728515E-3,-2.891006E-2,-1.3829734E-3,-7.6221162E-3],"split_indices":[13,12,2,6,6,6,5,13,12,6,5,12,6,12,5,0,0,0,0,0,0,0,0,0,0,0,0,0,0,0,0],"split_type":[0,0,0,0,0,0,0,0,0,0,0,0,0,0,0,0,0,0,0,0,0,0,0,0,0,0,0,0,0,0,0],"sum_hessian":[2.98494E5,1.18598E5,1.79896E5,9.2742E4,2.5856E4,1.5524E4,1.64372E5,9.2279E4,4.63E2,5.23E2,2.5333E4,1.77E2,1.5347E4,4.107E3,1.60265E5,4.394E4,4.8339E4,3.72E2,9.1E1,1.22E2,4.01E2,1.957E3,2.3376E4,9.7E1,8E1,1.5282E4,6.5E1,2.698E3,1.409E3,1.5323E5,7.035E3],"tree_param":{"num_deleted":"0","num_feature":"15","num_nodes":"31","size_leaf_vector":"1"}},{"base_weights":[5.2612037E-3,4.8990767E-2,-2.3495322E-2,2.88489E-2,1.461407E-1,-2.0377781E-2,-4.652971E-1,3.1453595E-2,-4.8862636E-1,9.1148096E-1,1.289615E-1,-2.9264092E-1,-1.8354798E-2,5.4058846E-2,-1.8226228E0,1.2332695E-3,1.2118994E-2,-1.3934843E-1,7.1895234E-3,7.787651E-2,3.0071978E-2,5.7662963E-3,4.5726877E-2,5.09142E-3,-6.1406326E-2,-2.2812505E-4,-2.8020313E-3,-2.6491124E-2,1.1193443E-2,-2.3501998E-2,-3.009028E-1],"categories":[],"categories_nodes":[],"categories_segments":[],"categories_sizes":[],"default_left":[0,0,0,0,0,0,0,0,0,0,0,0,0,0,0,0,0,0,0,0,0,0,0,0,0,0,0,0,0,0,0],"id":9,"left_children":[1,3,5,7,9,11,13,15,17,19,21,23,25,27,29,-1,-1,-1,-1,-1,-1,-1,-1,-1,-1,-1,-1,-1,-1,-1,-1],"loss_changes":[3.7513788E2,2.315769E2,2.478694E2,1.321412E2,2.6708777E2,9.842525E1,8.890218E2,1.3964714E2,7.140743E2,8.839795E1,2.1282336E2,4.864939E2,9.220403E1,9.064155E1,1.9776315E3,0E0,0E0,0E0,0E0,0E0,0E0,0E0,0E0,0E0,0E0,0E0,0E0,0E0,0E0,0E0,0E0],"parents":[2147483647,0,0,1,1,2,2,3,3,4,4,5,5,6,6,7,7,8,8,9,9,10,10,11,11,12,12,13,13,14,14],"right_children":[2,4,6,8,10,12,14,16,18,20,22,24,26,28,30,-1,-1,-1,-1,-1,-1,-1,-1,-1,-1,-1,-1,-1,-1,-1,-1],"split_conditions":[2E0,1.59833E1,1.7013E0,2.3833E0,-4.917E-1,-1.6245E0,4E0,7.111E-1,5.24E-2,-1.379E-1,6.777E-1,4E0,1.4883333E1,8.95E0,1.2316667E1,1.2332695E-3,1.2118994E-2,-1.3934843E-1,7.1895234E-3,7.787651E-2,3.0071978E-2,5.7662963E-3,4.5726877E-2,5.09142E-3,-6.1406326E-2,-2.2812505E-4,-2.8020313E-3,-2.6491124E-2,1.1193443E-2,-2.3501998E-2,-3.009028E-1],"split_indices":[13,12,1,6,1,1,13,1,1,5,6,13,12,12,12,0,0,0,0,0,0,0,0,0,0,0,0,0,0,0,0],"split_type":[0,0,0,0,0,0,0,0,0,0,0,0,0,0,0,0,0,0,0,0,0,0,0,0,0,0,0,0,0,0,0],"sum_hessian":[2.98316E5,1.18347E5,1.79969E5,9.8025E4,2.0322E4,1.78709E5,1.26E3,9.7535E4,4.9E2,4.45E2,1.9877E4,1.317E3,1.77392E5,9.12E2,3.48E2,9.4495E4,3.04E3,1.05E2,3.85E2,1.43E2,3.02E2,1.9539E4,3.38E2,9.27E2,3.9E2,1.29865E5,4.7527E4,2.05E2,7.07E2,2.64E2,8.4E1],"tree_param":{"num_deleted":"0","num_feature":"15","num_nodes":"31","size_leaf_vector":"1"}},{"base_weights":[2.462866E-4,2.546894E-3,-5.774711E-1,4.8146294E-3,-1.846869E-1,-1.7187124E0,-3.117687E-1,-5.838786E-4,4.3099172E-2,-8.335026E-2,-7.55994E-1,-6.306847E-3,-2.3450007E0,-8.914232E-1,-1.3000278E-1,-9.32752E-3,5.2406944E-5,9.996275E-2,1.9168447E-3,6.279265E-2,-5.7787765E-3,-5.942089E-2,5.8021095E-2,-1.7501917E-1,-7.3749475E-2,-2.1003995E-2,-7.642542E-2,-5.884359E-2,-2.3277586E-3],"categories":[],"categories_nodes":[],"categories_segments":[],"categories_sizes":[],"default_left":[0,0,0,0,0,0,0,0,0,0,0,0,0,0,0,0,0,0,0,0,0,0,0,0,0,0,0,0,0],"id":10,"left_children":[1,3,5,7,9,11,13,15,17,19,21,-1,23,25,27,-1,-1,-1,-1,-1,-1,-1,-1,-1,-1,-1,-1,-1,-1],"loss_changes":[3.960722E2,1.26028824E2,3.578827E2,6.061227E1,2.055777E2,2.2212695E2,1.010311E2,7.800744E1,3.3755414E2,1.303905E2,4.4473553E2,0E0,1.5566827E2,6.812335E1,6.3891792E1,0E0,0E0,0E0,0E0,0E0,0E0,0E0,0E0,0E0,0E0,0E0,0E0,0E0,0E0],"parents":[2147483647,0,0,1,1,2,2,3,3,4,4,5,5,6,6,7,7,8,8,9,9,10,10,12,12,13,13,14,14],"right_children":[2,4,6,8,10,12,14,16,18,20,22,-1,24,26,28,-1,-1,-1,-1,-1,-1,-1,-1,-1,-1,-1,-1,-1,-1],"split_conditions":[3.08E-2,1.78E-2,2.35E-2,4.33E2,1.41667E1,1.09E1,8.9E0,-1.6245E0,-3.14E-2,4.34645E1,4.87E2,-6.306847E-3,1.2433333E1,8.788E-1,2.219E-1,-9.32752E-3,5.2406944E-5,9.996275E-2,1.9168447E-3,6.279265E-2,-5.7787765E-3,-5.942089E-2,5.8021095E-2,-1.7501917E-1,-7.3749475E-2,-2.1003995E-2,-7.642542E-2,-5.884359E-2,-2.3277586E-3],"split_indices":[3,3,1,14,12,12,12,1,3,0,14,0,12,4,4,0,0,0,0,0,0,0,0,0,0,0,0,0,0],"split_type":[0,0,0,0,0,0,0,0,0,0,0,0,0,0,0,0,0,0,0,0,0,0,0,0,0,0,0,0,0],"sum_hessian":[2.97998E5,2.96817E5,1.181E3,2.93266E5,3.551E3,2.22E2,9.59E2,2.57024E5,3.6242E4,3.017E3,5.34E2,6.3E1,1.59E2,2.28E2,7.31E2,2.235E3,2.54789E5,8.7E1,3.6155E4,7E1,2.947E3,4.36E2,9.8E1,6.7E1,9.2E1,1.32E2,9.6E1,5.3E1,6.78E2],"tree_param":{"num_deleted":"0","num_feature":"15","num_nodes":"29","size_leaf_vector":"1"}},{"base_weights":[-3.5345554E-3,-1.0044348E-3,-6.428051E-1,4.8329502E-2,-3.3441626E-2,-2.2504532E0,-2.9431516E-1,4.1342042E-2,2.8516147E-1,-4.64134E-1,-3.0209366E-2,-2.1653639E-1,-1.2164861E0,-4.322985E-1,5.094214E-1,8.155039E-4,4.7834697E-3,2.7077591E-2,3.4428257E-4,-3.916686E-3,-1.0634567E-1,-1.3631452E-3,-2.5151914E-2,-1.3736035E-1,-1.5927652E-2,-1.4715402E-2,-1.1609739E-1,5.6851096E-2,-2.9933805E-2],"categories":[],"categories_nodes":[],"categories_segments":[],"categories_sizes":[],"default_left":[0,0,0,0,0,0,0,0,0,0,0,0,0,0,0,0,0,0,0,0,0,0,0,0,0,0,0,0,0],"id":11,"left_children":[1,3,5,7,9,11,13,15,17,19,21,-1,23,25,27,-1,-1,-1,-1,-1,-1,-1,-1,-1,-1,-1,-1,-1,-1],"loss_changes":[4.816737E2,4.7468347E2,6.5707025E2,1.9471155E2,2.4912074E2,4.4427722E2,1.0735182E2,1.5543326E2,2.405792E2,8.5495386E2,2.4745554E2,0E0,1.9292725E2,2.1443831E2,9.9433556E1,0E0,0E0,0E0,0E0,0E0,0E0,0E0,0E0,0E0,0E0,0E0,0E0,0E0,0E0],"parents":[2147483647,0,0,1,1,2,2,3,3,4,4,5,5,6,6,7,7,8,8,9,9,10,10,12,12,13,13,14,14],"right_children":[2,4,6,8,10,12,14,16,18,20,22,-1,24,26,28,-1,-1,-1,-1,-1,-1,-1,-1,-1,-1,-1,-1,-1,-1],"split_conditions":[3.08E-2,2E0,2.35E-2,7.111E-1,-1.6245E0,1E0,1.59833E1,1.45E1,1E0,4.60125E1,1.7013E0,-2.1653639E-1,4.396E-1,1.35833E1,1.7516666E1,8.155039E-4,4.7834697E-3,2.7077591E-2,3.4428257E-4,-3.916686E-3,-1.0634567E-1,-1.3631452E-3,-2.5151914E-2,-1.3736035E-1,-1.5927652E-2,-1.4715402E-2,-1.1609739E-1,5.6851096E-2,-2.9933805E-2],"split_indices":[3,13,1,1,1,13,12,12,13,0,1,0,6,12,12,0,0,0,0,0,0,0,0,0,0,0,0,0,0],"split_type":[0,0,0,0,0,0,0,0,0,0,0,0,0,0,0,0,0,0,0,0,0,0,0,0,0,0,0,0,0],"sum_hessian":[2.97801E5,2.96628E5,1.173E3,1.17667E5,1.78961E5,2.08E2,9.65E2,1.14296E5,3.371E3,1.332E3,1.77629E5,6.8E1,1.4E2,8.24E2,1.41E2,7.8245E4,3.6051E4,1.754E3,1.617E3,1.082E3,2.5E2,1.7653E5,1.099E3,5.1E1,8.9E1,7.69E2,5.5E1,9E1,5.1E1],"tree_param":{"num_deleted":"0","num_feature":"15","num_nodes":"29","size_leaf_vector":"1"}},{"base_weights":[-7.2299875E-4,7.290911E-2,-1.7785966E-2,5.986523E-2,5.233601E-1,-1.4453478E-2,-2.4067095E-1,6.929823E-2,-6.176024E-1,-2.5797872E-2,5.8357257E-1,7.1521406E-3,-3.70703E-2,7.491803E-2,-2.7186018E-1,3.2227736E-2,3.172605E-3,-1.2915659E-1,6.891808E-3,1.8241145E-2,4.8901718E-2,-1.8550871E-3,1.1674255E-3,-1.6949909E-3,-3.743171E-2,-9.1466E-3,-3.5590604E-2],"categories":[],"categories_nodes":[],"categories_segments":[],"categories_sizes":[],"default_left":[0,0,0,0,0,0,0,0,0,0,0,0,0,0,0,0,0,0,0,0,0,0,0,0,0,0,0],"id":12,"left_children":[1,3,5,7,9,11,13,15,17,-1,19,21,23,-1,25,-1,-1,-1,-1,-1,-1,-1,-1,-1,-1,-1,-1],"loss_changes":[3.7471982E2,3.2966196E2,1.7984958E2,3.4854523E2,9.911478E1,1.1658006E2,1.9387817E2,1.8084274E2,1.1124988E3,0E0,1.2847174E2,8.74561E1,2.6293414E2,0E0,1.3699985E2,0E0,0E0,0E0,0E0,0E0,0E0,0E0,0E0,0E0,0E0,0E0,0E0],"parents":[2147483647,0,0,1,1,2,2,3,3,4,4,5,5,6,6,7,7,8,8,10,10,11,11,12,12,14,14],"right_children":[2,4,6,8,10,12,14,16,18,-1,20,22,24,-1,26,-1,-1,-1,-1,-1,-1,-1,-1,-1,-1,-1,-1],"split_conditions":[1E0,8.012E-1,1.78E-2,1.78E-2,8E-4,3E0,-1.1589E0,-2.43E-2,3.2E-2,-2.5797872E-2,1.185E1,1E1,1.7013E0,7.491803E-2,1.41667E1,3.2227736E-2,3.172605E-3,-1.2915659E-1,6.891808E-3,1.8241145E-2,4.8901718E-2,-1.8550871E-3,1.1674255E-3,-1.6949909E-3,-3.743171E-2,-9.1466E-3,-3.5590604E-2],"split_indices":[13,1,3,3,3,13,6,3,1,0,12,12,1,0,12,0,0,0,0,0,0,0,0,0,0,0,0],"split_type":[0,0,0,0,0,0,0,0,0,0,0,0,0,0,0,0,0,0,0,0,0,0,0,0,0,0,0],"sum_hessian":[2.98251E5,5.6111E4,2.4214E5,5.4533E4,1.578E3,2.38574E5,3.566E3,5.3785E4,7.48E2,8.6E1,1.492E3,1.22015E5,1.16559E5,6.2E1,3.504E3,5.4E2,5.3245E4,2.07E2,5.41E2,9.61E2,5.31E2,3.2691E4,8.9324E4,1.16043E5,5.16E2,2.916E3,5.88E2],"tree_param":{"num_deleted":"0","num_feature":"15","num_nodes":"27","size_leaf_vector":"1"}},{"base_weights":[-1.2951475E-3,2.914065E-3,-2.6494625E-1,4.247438E-2,-2.3053257E-2,-9.8920983E-1,-1.2975667E-1,-5.212879E-1,4.495508E-2,-2.126925E-2,-3.948823E-1,-2.6337447E0,-4.3626028E-1,2.502228E-1,-2.5053513E-1,-6.3236053E-3,-1.24461725E-1,1.7622668E-2,1.8075717E-3,-2.6884289E-3,-3.3217357E-4,-1.9300191E-1,-6.017422E-3,3.0594433E-2,-2.4015065E-1,2.6942903E-2,-4.108793E-2,1.8527228E-3,6.2239397E-2,-6.756616E-3,-3.1532865E-2],"categories":[],"categories_nodes":[],"categories_segments":[],"categories_sizes":[],"default_left":[0,0,0,0,0,0,0,0,0,0,0,0,0,0,0,0,0,0,0,0,0,0,0,0,0,0,0,0,0,0,0],"id":13,"left_children":[1,3,5,7,9,11,13,15,17,19,21,23,25,27,29,-1,-1,-1,-1,-1,-1,-1,-1,-1,-1,-1,-1,-1,-1,-1,-1],"loss_changes":[3.3050943E2,3.011365E2,4.5810406E2,1.6248438E2,1.1738706E2,6.681288E2,1.8111191E2,3.951662E2,3.130857E2,8.371963E1,8.033861E2,1.3054589E3,2.0794315E2,2.017872E2,1.3125311E2,0E0,0E0,0E0,0E0,0E0,0E0,0E0,0E0,0E0,0E0,0E0,0E0,0E0,0E0,0E0,0E0],"parents":[2147483647,0,0,1,1,2,2,3,3,4,4,5,5,6,6,7,7,8,8,9,9,10,10,11,11,12,12,13,13,14,14],"right_children":[2,4,6,8,10,12,14,16,18,20,22,24,26,28,30,-1,-1,-1,-1,-1,-1,-1,-1,-1,-1,-1,-1,-1,-1,-1,-1],"split_conditions":[1.78E-2,2E0,2.55E-2,-2.3434E0,1.7013E0,1E0,1E0,-4.6E-2,-9.034E-1,-1.4E-3,2.353E-1,1.115E1,4.751E-1,1.2866667E1,1.24E1,-6.3236053E-3,-1.24461725E-1,1.7622668E-2,1.8075717E-3,-2.6884289E-3,-3.3217357E-4,-1.9300191E-1,-6.017422E-3,3.0594433E-2,-2.4015065E-1,2.6942903E-2,-4.108793E-2,1.8527228E-3,6.2239397E-2,-6.756616E-3,-3.1532865E-2],"split_indices":[3,13,1,6,1,13,13,1,6,3,2,12,2,12,12,0,0,0,0,0,0,0,0,0,0,0,0,0,0,0,0],"split_type":[0,0,0,0,0,0,0,0,0,0,0,0,0,0,0,0,0,0,0,0,0,0,0,0,0,0,0,0,0,0,0],"sum_hessian":[2.97818E5,2.93139E5,4.679E3,1.16165E5,1.76974E5,7.35E2,3.944E3,5.08E2,1.15657E5,1.7613E5,8.44E2,1.84E2,5.51E2,9.51E2,2.993E3,4.24E2,8.4E1,3.218E3,1.12439E5,5.4663E4,1.21467E5,6.1E1,7.83E2,7.4E1,1.1E2,1.56E2,3.95E2,7.84E2,1.67E2,2.297E3,6.96E2],"tree_param":{"num_deleted":"0","num_feature":"15","num_nodes":"31","size_leaf_vector":"1"}},{"base_weights":[1.0823446E-3,3.1494072E-3,-5.2248234E-1,6.984715E-2,-1.2343981E-2,-1.7716475E0,-2.7796328E-1,5.7805173E-2,4.5273986E-1,-1.10615855E-2,-4.39058E-1,-1.7998591E-1,-8.7210834E-1,-6.20835E-1,1.16422065E-1,3.1763283E-3,-2.5566587E-2,1.5414466E-2,4.408397E-2,8.970999E-4,-1.0550807E-3,-8.448195E-5,-9.475982E-2,-8.86418E-2,-8.325967E-3,-4.3199986E-2,4.3805845E-2,3.3372466E-2,-1.5476554E-2],"categories":[],"categories_nodes":[],"categories_segments":[],"categories_sizes":[],"default_left":[0,0,0,0,0,0,0,0,0,0,0,0,0,0,0,0,0,0,0,0,0,0,0,0,0,0,0,0,0],"id":14,"left_children":[1,3,5,7,9,11,13,15,17,19,21,-1,23,25,27,-1,-1,-1,-1,-1,-1,-1,-1,-1,-1,-1,-1,-1,-1],"loss_changes":[3.2308737E2,3.07286E2,3.5809958E2,2.5842688E2,1.3204285E2,3.1258948E2,1.3299707E2,1.7699698E2,1.05618744E2,7.005824E1,4.6045303E2,0E0,8.2325455E1,1.9222403E2,1.0770458E2,0E0,0E0,0E0,0E0,0E0,0E0,0E0,0E0,0E0,0E0,0E0,0E0,0E0,0E0],"parents":[2147483647,0,0,1,1,2,2,3,3,4,4,5,5,6,6,7,7,8,8,9,9,10,10,12,12,13,13,14,14],"right_children":[2,4,6,8,10,12,14,16,18,20,22,-1,24,26,28,-1,-1,-1,-1,-1,-1,-1,-1,-1,-1,-1,-1,-1,-1],"split_conditions":[3.08E-2,1E0,1.86E-2,7.111E-1,2.5504E0,1E0,8.137E-1,1.78E-2,8.386E-1,2E0,8.386E-1,-1.7998591E-1,6.529E-1,1.6283333E1,4.032E-1,3.1763283E-3,-2.5566587E-2,1.5414466E-2,4.408397E-2,8.970999E-4,-1.0550807E-3,-8.448195E-5,-9.475982E-2,-8.86418E-2,-8.325967E-3,-4.3199986E-2,4.3805845E-2,3.3372466E-2,-1.5476554E-2],"split_indices":[3,13,1,1,1,13,2,3,2,13,2,0,2,12,1,0,0,0,0,0,0,0,0,0,0,0,0,0,0],"split_type":[0,0,0,0,0,0,0,0,0,0,0,0,0,0,0,0,0,0,0,0,0,0,0,0,0,0,0,0,0],"sum_hessian":[2.98533E5,2.9736E5,1.173E3,5.6053E4,2.41307E5,1.91E2,9.82E2,5.4345E4,1.708E3,2.40585E5,7.22E2,6.2E1,1.29E2,5.25E2,4.57E2,5.3805E4,5.4E2,1.279E3,4.29E2,6.1866E4,1.78719E5,5.56E2,1.66E2,5.6E1,7.3E1,4.52E2,7.3E1,1.99E2,2.58E2],"tree_param":{"num_deleted":"0","num_feature":"15","num_nodes":"29","size_leaf_vector":"1"}},{"base_weights":[7.484713E-4,3.1789734E-3,-5.902862E-1,6.937345E-2,-1.223208E-2,-1.8318361E0,-2.9719073E-1,5.7790477E-2,4.9218696E-1,-9.832042E-3,-3.808365E-1,-1.8108205E-1,-1.0250596E0,2.7385816E-1,-4.542877E-1,7.4070217E-3,1.6274244E-3,1.9467643E-2,6.925584E-2,-1.5903898E-3,1.9347356E-4,-2.836473E-3,-8.453583E-2,3.688352E-3,-9.8658584E-2,-1.025113E-2,5.160761E-2,-5.6424845E-2,-1.2364776E-2],"categories":[],"categories_nodes":[],"categories_segments":[],"categories_sizes":[],"default_left":[0,0,0,0,0,0,0,0,0,0,0,0,0,0,0,0,0,0,0,0,0,0,0,0,0,0,0,0,0],"id":15,"left_children":[1,3,5,7,9,11,13,15,17,19,21,-1,23,25,27,-1,-1,-1,-1,-1,-1,-1,-1,-1,-1,-1,-1,-1,-1],"loss_changes":[4.2827606E2,3.0289175E2,4.4376855E2,2.7458066E2,2.1306241E2,3.3273334E2,8.884767E1,1.24466446E2,1.3673706E2,7.20497E1,6.613394E2,0E0,1.689189E2,7.792195E1,1.0801642E2,0E0,0E0,0E0,0E0,0E0,0E0,0E0,0E0,0E0,0E0,0E0,0E0,0E0,0E0],"parents":[2147483647,0,0,1,1,2,2,3,3,4,4,5,5,6,6,7,7,8,8,9,9,10,10,12,12,13,13,14,14],"right_children":[2,4,6,8,10,12,14,16,18,20,22,-1,24,26,28,-1,-1,-1,-1,-1,-1,-1,-1,-1,-1,-1,-1,-1,-1],"split_conditions":[3.08E-2,1E0,2.55E-2,8.012E-1,1.7013E0,1E0,1E0,-8.55E-2,9.555E-1,1.1183333E1,4E0,-1.8108205E-1,2.551E-1,8.35E-1,9.45E0,7.4070217E-3,1.6274244E-3,1.9467643E-2,6.925584E-2,-1.5903898E-3,1.9347356E-4,-2.836473E-3,-8.453583E-2,3.688352E-3,-9.8658584E-2,-1.025113E-2,5.160761E-2,-5.6424845E-2,-1.2364776E-2],"split_indices":[3,13,1,1,1,13,13,1,2,12,13,0,5,2,12,0,0,0,0,0,0,0,0,0,0,0,0,0,0],"split_type":[0,0,0,0,0,0,0,0,0,0,0,0,0,0,0,0,0,0,0,0,0,0,0,0,0,0,0,0,0],"sum_hessian":[2.98134E5,2.96914E5,1.22E3,5.6071E4,2.40843E5,2.32E2,9.88E2,5.4577E4,1.494E3,2.39286E5,1.557E3,7.1E1,1.61E2,2.13E2,7.75E2,1.1917E4,4.266E4,1.341E3,1.53E2,9.1895E4,1.47391E5,1.249E3,3.08E2,7.5E1,8.6E1,1.31E2,8.2E1,1.81E2,5.94E2],"tree_param":{"num_deleted":"0","num_feature":"15","num_nodes":"29","size_leaf_vector":"1"}},{"base_weights":[1.2263809E-3,4.3816627E-3,-2.6151013E-1,4.158504E-2,-2.006378E-2,-1.24758534E-1,-2.2022568E-1,1.9208405E-2,9.768923E-2,-9.584008E-3,-7.481716E-2,-8.2988405E-1,-1.06803134E-1,6.6627644E-4,1.0816277E-2,3.08682E-2,3.811892E-3,-7.166954E-3,-2.699834E-4,-3.4601137E-3,-5.5756785E-2,-1.1585037E-1,-1.5688382E-2,-3.2813635E-2,-3.247381E-3],"categories":[],"categories_nodes":[],"categories_segments":[],"categories_sizes":[],"default_left":[0,0,0,0,0,0,0,0,0,0,0,0,0,0,0,0,0,0,0,0,0,0,0,0,0],"id":16,"left_children":[1,3,5,7,9,-1,11,13,15,17,19,21,23,-1,-1,-1,-1,-1,-1,-1,-1,-1,-1,-1,-1],"loss_changes":[2.4674368E2,2.674755E2,3.2515552E2,1.464068E2,1.0184069E2,0E0,2.3978928E2,9.667544E1,3.7062677E2,8.337594E1,1.6647472E2,4.1680856E2,6.72505E1,0E0,0E0,0E0,0E0,0E0,0E0,0E0,0E0,0E0,0E0,0E0,0E0],"parents":[2147483647,0,0,1,1,2,2,3,3,4,4,6,6,7,7,8,8,9,9,10,10,11,11,12,12],"right_children":[2,4,6,8,10,-1,12,14,16,18,20,22,24,-1,-1,-1,-1,-1,-1,-1,-1,-1,-1,-1,-1],"split_conditions":[2.02E-2,2E0,-1.1497E0,3.18E2,1.279E-1,-1.24758534E-1,2.35E-2,7.111E-1,-7.7E-3,-5.747E-1,2.5504E0,1E0,-1.46E2,6.6627644E-4,1.0816277E-2,3.08682E-2,3.811892E-3,-7.166954E-3,-2.699834E-4,-3.4601137E-3,-5.5756785E-2,-1.1585037E-1,-1.5688382E-2,-3.2813635E-2,-3.247381E-3],"split_indices":[3,13,5,14,5,0,1,1,3,1,1,13,14,0,0,0,0,0,0,0,0,0,0,0,0],"split_type":[0,0,0,0,0,0,0,0,0,0,0,0,0,0,0,0,0,0,0,0,0,0,0,0,0],"sum_hessian":[2.97635E5,2.94104E5,3.531E3,1.1662E5,1.77484E5,6.3E1,3.468E3,8.337E4,3.325E4,1.48972E5,2.8512E4,5.43E2,2.925E3,8.0955E4,2.415E3,1.317E3,3.1933E4,4.518E3,1.44454E5,2.836E4,1.52E2,1.39E2,4.04E2,2.06E2,2.719E3],"tree_param":{"num_deleted":"0","num_feature":"15","num_nodes":"25","size_leaf_vector":"1"}},{"base_weights":[2.1341853E-3,5.35584E-3,-2.6749584E-1,3.7682618E-3,1.5451476E-1,-9.2886347E-1,-1.769897E-1,4.94998E-3,-1.21690124E-1,1.7759686E0,9.873757E-2,-3.5556683E-1,-2.1626482E0,6.375827E-1,-2.4571253E-1,3.6066144E-3,1.507782E-4,1.0168598E-2,-1.35022765E-2,5.303024E-2,1.2154143E-1,7.2472068E-3,-2.7759362E-2,-4.5052147E-3,-7.7046745E-2,-1.7659287E-1,6.746251E-3,-1.8292604E-2,5.7392906E-2,-1.09049775E-1,-1.0450943E-2],"categories":[],"categories_nodes":[],"categories_segments":[],"categories_sizes":[],"default_left":[0,0,0,0,0,0,0,0,0,0,0,0,0,0,0,0,0,0,0,0,0,0,0,0,0,0,0,0,0,0,0],"id":17,"left_children":[1,3,5,7,9,11,13,15,17,19,21,23,25,27,29,-1,-1,-1,-1,-1,-1,-1,-1,-1,-1,-1,-1,-1,-1,-1,-1],"loss_changes":[2.586686E2,6.968157E1,2.1029575E2,4.3167843E1,2.8009866E2,2.9842938E2,1.7335793E2,3.7486324E1,1.3108148E2,4.5673553E1,9.063667E1,9.111569E1,4.220216E2,1.23818726E2,2.0221425E2,0E0,0E0,0E0,0E0,0E0,0E0,0E0,0E0,0E0,0E0,0E0,0E0,0E0,0E0,0E0,0E0],"parents":[2147483647,0,0,1,1,2,2,3,3,4,4,5,5,6,6,7,7,8,8,9,9,10,10,11,11,12,12,13,13,14,14],"right_children":[2,4,6,8,10,12,14,16,18,20,22,24,26,28,30,-1,-1,-1,-1,-1,-1,-1,-1,-1,-1,-1,-1,-1,-1,-1,-1],"split_conditions":[2.02E-2,1.3072E0,-1.219E-1,1.47E-2,-1.28E-2,1.74E2,4.6E-1,2.76085E1,6.1E1,6.653E-1,3.75E2,6.247E-1,4.11E2,5.09223E1,-8.671E-1,3.6066144E-3,1.507782E-4,1.0168598E-2,-1.35022765E-2,5.303024E-2,1.2154143E-1,7.2472068E-3,-2.7759362E-2,-4.5052147E-3,-7.7046745E-2,-1.7659287E-1,6.746251E-3,-1.8292604E-2,5.7392906E-2,-1.09049775E-1,-1.0450943E-2],"split_indices":[3,6,6,3,3,14,2,0,14,4,14,2,14,0,5,0,0,0,0,0,0,0,0,0,0,0,0,0,0,0,0],"split_type":[0,0,0,0,0,0,0,0,0,0,0,0,0,0,0,0,0,0,0,0,0,0,0,0,0,0,0,0,0,0,0],"sum_hessian":[2.97778E5,2.94263E5,3.515E3,2.91165E5,3.098E3,4.22E2,3.093E3,2.88449E5,2.716E3,1.02E2,2.996E3,2.89E2,1.33E2,2.4E2,2.853E3,8.072E3,2.80377E5,8.51E2,1.865E3,5E1,5.2E1,2.799E3,1.97E2,2.37E2,5.2E1,8.3E1,5E1,8.1E1,1.59E2,5.2E1,2.801E3],"tree_param":{"num_deleted":"0","num_feature":"15","num_nodes":"31","size_leaf_vector":"1"}},{"base_weights":[-2.0826245E-3,2.0396092E-3,-2.6104906E-1,5.883772E-2,-1.1030965E-2,-9.4913054E-1,-1.344973E-1,4.788982E-2,4.1542578E-1,-9.074399E-3,-4.2038336E-1,5.6265812E-2,-1.2449187E0,1.484598E-1,-2.2645834E-1,2.1343164E-2,2.0438328E-3,1.843533E-2,8.507606E-2,3.5419402E-4,-1.3010326E-3,3.8171483E-3,-1.1210137E-1,-2.2594145E-2,-9.467522E-2,-4.4848514E-3,4.865467E-2,-4.990676E-3,-3.466956E-2],"categories":[],"categories_nodes":[],"categories_segments":[],"categories_sizes":[],"default_left":[0,0,0,0,0,0,0,0,0,0,0,0,0,0,0,0,0,0,0,0,0,0,0,0,0,0,0,0,0],"id":18,"left_children":[1,3,5,7,9,11,13,15,17,19,21,-1,23,25,27,-1,-1,-1,-1,-1,-1,-1,-1,-1,-1,-1,-1,-1,-1],"loss_changes":[3.1803613E2,2.1770694E2,4.0635208E2,2.1414746E2,1.9093181E2,4.4625867E2,1.0266055E2,1.4144955E2,9.755203E1,6.496754E1,1.0262808E3,0E0,3.2575763E2,1.9019487E2,1.759746E2,0E0,0E0,0E0,0E0,0E0,0E0,0E0,0E0,0E0,0E0,0E0,0E0,0E0,0E0],"parents":[2147483647,0,0,1,1,2,2,3,3,4,4,5,5,6,6,7,7,8,8,9,9,10,10,12,12,13,13,14,14],"right_children":[2,4,6,8,10,12,14,16,18,20,22,-1,24,26,28,-1,-1,-1,-1,-1,-1,-1,-1,-1,-1,-1,-1,-1,-1],"split_conditions":[1.78E-2,1E0,2.55E-2,6.391E-1,1.7013E0,4.49028E1,1E0,-5.61E-1,1.7516666E1,3E0,4E0,5.6265812E-2,1.18E2,1.2183333E1,1.29E1,2.1343164E-2,2.0438328E-3,1.843533E-2,8.507606E-2,3.5419402E-4,-1.3010326E-3,3.8171483E-3,-1.1210137E-1,-2.2594145E-2,-9.467522E-2,-4.4848514E-3,4.865467E-2,-4.990676E-3,-3.466956E-2],"split_indices":[3,13,1,1,1,0,13,5,12,13,13,0,14,12,12,0,0,0,0,0,0,0,0,0,0,0,0,0,0],"split_type":[0,0,0,0,0,0,0,0,0,0,0,0,0,0,0,0,0,0,0,0,0,0,0,0,0,0,0,0,0],"sum_hessian":[2.97919E5,2.93252E5,4.667E3,5.4859E4,2.38393E5,7.24E2,3.943E3,5.3226E4,1.633E3,2.3726E5,1.133E3,9E1,6.34E2,9.67E2,2.976E3,9.66E2,5.226E4,1.577E3,5.6E1,1.21454E5,1.15806E5,8.91E2,2.42E2,2.86E2,3.48E2,7.51E2,2.16E2,2.342E3,6.34E2],"tree_param":{"num_deleted":"0","num_feature":"15","num_nodes":"29","size_leaf_vector":"1"}},{"base_weights":[-1.7301772E-3,9.201767E-5,-4.548239E-1,-4.210628E-3,4.8320036E-2,-1.3609104E0,-1.659756E-1,-2.1787037E-3,-1.7512932E-1,2.7638984E-1,2.7306303E-2,-1.8438152E0,2.9292343E-2,-8.504473E-1,7.814153E-2,-1.7740113E-4,1.1160189E-2,-3.5375424E-3,-3.7511807E-2,3.4491144E-2,1.00139445E-2,-2.3925396E-2,2.003235E-3,-5.6375224E-2,-2.0854214E-1,-8.45445E-2,-1.2502983E-2,-2.8898478E-2,1.3875419E-2],"categories":[],"categories_nodes":[],"categories_segments":[],"categories_sizes":[],"default_left":[0,0,0,0,0,0,0,0,0,0,0,0,0,0,0,0,0,0,0,0,0,0,0,0,0,0,0,0,0],"id":19,"left_children":[1,3,5,7,9,11,13,15,17,19,21,23,-1,25,27,-1,-1,-1,-1,-1,-1,-1,-1,-1,-1,-1,-1,-1,-1],"loss_changes":[2.4569452E2,6.1504566E1,3.1174622E2,9.4504906E1,1.1634236E2,2.718285E2,1.5128406E2,8.299596E1,1.9185892E2,6.430582E1,1.4347775E2,3.803454E2,0E0,1.1966991E2,8.753934E1,0E0,0E0,0E0,0E0,0E0,0E0,0E0,0E0,0E0,0E0,0E0,0E0,0E0,0E0],"parents":[2147483647,0,0,1,1,2,2,3,3,4,4,5,5,6,6,7,7,8,8,9,9,10,10,11,11,13,13,14,14],"right_children":[2,4,6,8,10,12,14,16,18,20,22,24,-1,26,28,-1,-1,-1,-1,-1,-1,-1,-1,-1,-1,-1,-1,-1,-1],"split_conditions":[3.08E-2,2.0333E0,5.39E-2,1.78E-2,-2.289E-1,9.241E-1,9.383333E0,1.5028E0,1.41333E1,-1.294E0,-1.13E-2,6.65799E1,2.9292343E-2,5.812E-1,6.04338E1,-1.7740113E-4,1.1160189E-2,-3.5375424E-3,-3.7511807E-2,3.4491144E-2,1.00139445E-2,-2.3925396E-2,2.003235E-3,-5.6375224E-2,-2.0854214E-1,-8.45445E-2,-1.2502983E-2,-2.8898478E-2,1.3875419E-2],"split_indices":[3,4,1,3,1,2,12,6,12,6,3,0,0,1,0,0,0,0,0,0,0,0,0,0,0,0,0,0,0],"split_type":[0,0,0,0,0,0,0,0,0,0,0,0,0,0,0,0,0,0,0,0,0,0,0,0,0,0,0,0,0],"sum_hessian":[2.97585E5,2.96394E5,1.191E3,2.72118E5,2.4276E4,2.87E2,9.04E2,2.68922E5,3.196E3,2.047E3,2.2229E4,2.3E2,5.7E1,2.37E2,6.67E2,2.67299E5,1.623E3,2.706E3,4.9E2,3.17E2,1.73E3,5.46E2,2.1683E4,1.77E2,5.3E1,9.8E1,1.39E2,1.55E2,5.12E2],"tree_param":{"num_deleted":"0","num_feature":"15","num_nodes":"29","size_leaf_vector":"1"}},{"base_weights":[-3.0977197E-5,1.7086524E-3,-4.351611E-1,2.670554E-3,-2.9795384E-1,-1.3681554E0,-2.1671993E-1,8.5856766E-4,2.2145171E-1,-6.484285E-2,-1.0232437E0,-7.497379E-1,-1.2735325E-1,-9.120881E-1,-1.02243125E-1,1.3843008E-4,-6.295374E-3,9.947506E-2,9.098477E-3,9.111914E-2,-1.6695825E-2,-1.2345131E-1,-2.3318939E-2,-8.68072E-2,2.585238E-2,-1.5236271E-2,-7.574848E-2,2.353955E-2,-1.4639151E-2],"categories":[],"categories_nodes":[],"categories_segments":[],"categories_sizes":[],"default_left":[0,0,0,0,0,0,0,0,0,0,0,0,0,0,0,0,0,0,0,0,0,0,0,0,0,0,0,0,0],"id":20,"left_children":[1,3,5,7,9,11,13,15,17,19,21,23,-1,25,27,-1,-1,-1,-1,-1,-1,-1,-1,-1,-1,-1,-1,-1,-1],"loss_changes":[2.25643E2,8.558156E1,2.4161926E2,1.17324E2,1.6055304E2,1.6212842E2,7.656495E1,7.107033E1,1.693374E2,3.6622644E2,1.8482785E2,1.8708282E2,0E0,4.933715E1,9.054375E1,0E0,0E0,0E0,0E0,0E0,0E0,0E0,0E0,0E0,0E0,0E0,0E0,0E0,0E0],"parents":[2147483647,0,0,1,1,2,2,3,3,4,4,5,5,6,6,7,7,8,8,9,9,10,10,11,11,13,13,14,14],"right_children":[2,4,6,8,10,12,14,16,18,20,22,24,-1,26,28,-1,-1,-1,-1,-1,-1,-1,-1,-1,-1,-1,-1,-1,-1],"split_conditions":[3.08E-2,1.214E0,3.09E-2,1.5028E0,1.09E1,2.3833E0,-3.6E1,1.47E-2,-1.63E-2,-5.1E-3,8.647E-1,5.24E-1,-1.2735325E-1,9.797E-1,-3.13E-2,1.3843008E-4,-6.295374E-3,9.947506E-2,9.098477E-3,9.111914E-2,-1.6695825E-2,-1.2345131E-1,-2.3318939E-2,-8.68072E-2,2.585238E-2,-1.5236271E-2,-7.574848E-2,2.353955E-2,-1.4639151E-2],"split_indices":[3,5,1,6,12,6,14,3,3,3,2,6,0,6,5,0,0,0,0,0,0,0,0,0,0,0,0,0,0],"split_type":[0,0,0,0,0,0,0,0,0,0,0,0,0,0,0,0,0,0,0,0,0,0,0,0,0,0,0,0,0],"sum_hessian":[2.98087E5,2.96901E5,1.186E3,2.95952E5,9.49E2,2.24E2,9.62E2,2.93522E5,2.43E3,7.19E2,2.3E2,1.48E2,7.6E1,1.35E2,8.27E2,2.89166E5,4.356E3,5.2E1,2.378E3,8.9E1,6.3E2,6.3E1,1.67E2,8.3E1,6.5E1,6.8E1,6.7E1,2.06E2,6.21E2],"tree_param":{"num_deleted":"0","num_feature":"15","num_nodes":"29","size_leaf_vector":"1"}}]},"name":"gbtree"},"learner_model_param":{"base_score":"[1.6700814E-2]","boost_from_average":"1","num_class":"0","num_feature":"15","num_target":"1"},"objective":{"name":"reg:squarederror","reg_loss_param":{"scale_pos_weight":"1"}}},"version":[3,2,0]}