{"learner":{"attributes":{"best_iteration":"15","best_score":"1.1823037885821255"},"feature_names":["rsi_14","macd_signal","bb_position","vwap_deviation","volume_ratio","price_change_5","price_change_20","sentiment_avg_1h","sentiment_count_1h","sentiment_deviation","sentiment_momentum","has_breaking_event","hour_of_day","day_of_week","minutes_since_open"],"feature_types":[],"gradient_booster":{"model":{"cats":{"enc":[],"feature_segments":[],"sorted_idx":[]},"gbtree_model_param":{"num_parallel_tree":"1","num_trees":"36"},"iteration_indptr":[0,1,2,3,4,5,6,7,8,9,10,11,12,13,14,15,16,17,18,19,20,21,22,23,24,25,26,27,28,29,30,31,32,33,34,35,36],"tree_info":[0,0,0,0,0,0,0,0,0,0,0,0,0,0,0,0,0,0,0,0,0,0,0,0,0,0,0,0,0,0,0,0,0,0,0,0],"trees":[{"base_weights":[2.513795E-3,-1.0209898E-3,9.74777E-2,6.4514385E-4,-1.3683096E-1,8.310195E-2,8.3565944E-1,2.2232907E-1,-2.559296E-4,-5.3573346E-1,-8.307041E-2,7.4220586E-1,6.6661336E-2,9.068027E-2,4.5337176E-1,-1.0242987E-2,2.826703E-2,2.8575591E-3,-8.993953E-5,-1.2317142E-2,-7.443797E-2,-5.8088484E-3,1.2741146E-2,5.1990766E-2,2.4318023E-2,2.8759365E-3,2.164162E-2,-1.0358666E-2,4.4067916E-2],"categories":[],"categories_nodes":[],"categories_segments":[],"categories_sizes":[],"default_left":[0,0,0,0,0,0,0,0,0,0,0,0,0,0,0,0,0,0,0,0,0,0,0,0,0,0,0,0,0],"id":0,"left_children":[1,3,5,7,9,11,13,15,17,19,21,23,25,-1,27,-1,-1,-1,-1,-1,-1,-1,-1,-1,-1,-1,-1,-1,-1],"loss_changes":[9.9945564E1,6.49551E1,1.1331883E2,5.6646355E1,7.4563385E1,1.1353423E2,7.5444534E1,1.6833304E2,2.501562E1,1.13537315E2,3.433854E1,1.8910477E1,3.421599E1,0E0,4.2022846E1,0E0,0E0,0E0,0E0,0E0,0E0,0E0,0E0,0E0,0E0,0E0,0E0,0E0,0E0],"parents":[2147483647,0,0,1,1,2,2,3,3,4,4,5,5,6,6,7,7,8,8,9,9,10,10,11,11,12,12,14,14],"right_children":[2,4,6,8,10,12,14,16,18,20,22,24,26,-1,28,-1,-1,-1,-1,-1,-1,-1,-1,-1,-1,-1,-1,-1,-1],"split_conditions":[5.68E2,2.02E-2,2.288E-1,-3.14E-2,1.32E-2,-2.014E-1,7.768E-1,6.151E-1,-4.735E-1,2.88E2,3.84E2,3.26684E1,2.684E-1,9.068027E-2,6.35037E1,-1.0242987E-2,2.826703E-2,2.8575591E-3,-8.993953E-5,-1.2317142E-2,-7.443797E-2,-5.8088484E-3,1.2741146E-2,5.1990766E-2,2.4318023E-2,2.8759365E-3,2.164162E-2,-1.0358666E-2,4.4067916E-2],"split_indices":[14,3,5,3,1,5,2,4,5,14,14,0,1,0,0,0,0,0,0,0,0,0,0,0,0,0,0,0,0],"split_type":[0,0,0,0,0,0,0,0,0,0,0,0,0,0,0,0,0,0,0,0,0,0,0,0,0,0,0,0,0],"sum_hessian":[2.97742E5,2.87058E5,1.0684E4,2.8358E5,3.478E3,1.0481E4,2.03E2,1.147E3,2.82433E5,4.12E2,3.066E3,2.54E2,1.0227E4,5.6E1,1.47E2,5.11E2,6.36E2,7.391E3,2.75042E5,3.17E2,9.5E1,2.793E3,2.73E2,1.16E2,1.38E2,9.979E3,2.48E2,5.8E1,8.9E1],"tree_param":{"num_deleted":"0","num_feature":"15","num_nodes":"29","size_leaf_vector":"1"}},{"base_weights":[-1.5808214E-3,5.1327434E-4,-1.7817065E-1,3.4520295E-2,-7.3598027E-3,-6.4528173E-1,-1.0320623E-1,2.498767E-2,1.6791867E-1,-9.608521E-3,5.3569037E-2,-2.862892E-1,-1.7915684E0,-1.4602105E-1,3.7879297E-1,9.528579E-3,8.914998E-4,7.0757517E-3,6.871724E-2,8.239368E-3,-5.1437854E-4,5.8075327E-2,2.1793593E-3,-6.562104E-2,-5.5015814E-3,-1.5676896E-1,-2.9612824E-2,-3.9278127E-2,-6.2975595E-3,6.1901476E-2,6.5342314E-3],"categories":[],"categories_nodes":[],"categories_segments":[],"categories_sizes":[],"default_left":[0,0,0,0,0,0,0,0,0,0,0,0,0,0,0,0,0,0,0,0,0,0,0,0,0,0,0,0,0,0,0],"id":1,"left_children":[1,3,5,7,9,11,13,15,17,19,21,23,25,27,29,-1,-1,-1,-1,-1,-1,-1,-1,-1,-1,-1,-1,-1,-1,-1,-1],"loss_changes":[1.10248856E2,7.8887405E1,1.2228179E2,7.043176E1,3.278087E1,1.9824567E2,6.2213074E1,6.1267662E1,1.1747435E2,2.7326347E1,9.41301E1,6.659421E1,1.8348257E2,3.5416904E1,5.228141E1,0E0,0E0,0E0,0E0,0E0,0E0,0E0,0E0,0E0,0E0,0E0,0E0,0E0,0E0,0E0,0E0],"parents":[2147483647,0,0,1,1,2,2,3,3,4,4,5,5,6,6,7,7,8,8,9,9,10,10,11,11,12,12,13,13,14,14],"right_children":[2,4,6,8,10,12,14,16,18,20,22,24,26,28,30,-1,-1,-1,-1,-1,-1,-1,-1,-1,-1,-1,-1,-1,-1,-1,-1],"split_conditions":[2.02E-2,1E0,1.68E-2,1.8266666E1,1.8966667E1,1.4083333E1,1.64333E1,-1.2E-2,2.368E-1,-2.3434E0,-7.975E-1,2.22E-1,2E0,-8.668E-1,1E0,9.528579E-3,8.914998E-4,7.0757517E-3,6.871724E-2,8.239368E-3,-5.1437854E-4,5.8075327E-2,2.1793593E-3,-6.562104E-2,-5.5015814E-3,-1.5676896E-1,-2.9612824E-2,-3.9278127E-2,-6.2975595E-3,6.1901476E-2,6.5342314E-3],"split_indices":[3,13,1,12,12,12,12,3,5,6,6,4,13,5,13,0,0,0,0,0,0,0,0,0,0,0,0,0,0,0,0],"split_type":[0,0,0,0,0,0,0,0,0,0,0,0,0,0,0,0,0,0,0,0,0,0,0,0,0,0,0,0,0,0,0],"sum_hessian":[2.98133E5,2.9464E5,3.493E3,5.5389E4,2.39251E5,4.82E2,3.011E3,5.1696E4,3.693E3,2.30736E5,8.515E3,3.68E2,1.14E2,2.766E3,2.45E2,2.141E3,4.9555E4,3.615E3,7.8E1,8.94E2,2.29842E5,7.5E1,8.44E3,5.3E1,3.15E2,5.3E1,6.1E1,8.3E1,2.683E3,5.4E1,1.91E2],"tree_param":{"num_deleted":"0","num_feature":"15","num_nodes":"31","size_leaf_vector":"1"}},{"base_weights":[7.599563E-5,-3.4359752E-3,9.409453E-2,-1.4096526E-3,-1.6764632E-1,5.9076604E-2,8.6131826E-2,7.994929E-3,-1.5520901E-2,-5.7187307E-1,-1.1538784E-1,7.871051E-2,5.4616418E-2,4.2103953E-3,1.8704338E-4,-3.576542E-3,-5.9705443E-4,-1.4750565E-2,-6.956569E-2,1.9390725E-2,-6.552686E-3,8.2354015E-3,3.8251825E-4],"categories":[],"categories_nodes":[],"categories_segments":[],"categories_sizes":[],"default_left":[0,0,0,0,0,0,0,0,0,0,0,0,0,0,0,0,0,0,0,0,0,0,0],"id":2,"left_children":[1,3,5,7,9,-1,11,13,15,17,19,21,-1,-1,-1,-1,-1,-1,-1,-1,-1,-1,-1],"loss_changes":[9.849148E1,9.567871E1,9.290386E1,3.769545E1,7.397458E1,0E0,7.954532E1,5.526111E1,2.2775724E1,9.056514E1,2.452787E1,6.469585E1,0E0,0E0,0E0,0E0,0E0,0E0,0E0,0E0,0E0,0E0,0E0],"parents":[2147483647,0,0,1,1,2,2,3,3,4,4,6,6,7,7,8,8,9,9,10,10,11,11],"right_children":[2,4,6,8,10,-1,12,14,16,18,20,22,-1,-1,-1,-1,-1,-1,-1,-1,-1,-1,-1],"split_conditions":[1.8966667E1,2.02E-2,-7.975E-1,3E0,1.24E-2,5.9076604E-2,9.149E-1,-9.6E-3,-8.8E-3,1.4216666E1,1.336E-1,2E0,5.4616418E-2,4.2103953E-3,1.8704338E-4,-3.576542E-3,-5.9705443E-4,-1.4750565E-2,-6.956569E-2,1.9390725E-2,-6.552686E-3,8.2354015E-3,3.8251825E-4],"split_indices":[12,3,6,13,1,0,1,3,3,12,4,13,0,0,0,0,0,0,0,0,0,0,0],"split_type":[0,0,0,0,0,0,0,0,0,0,0,0,0,0,0,0,0,0,0,0,0,0,0],"sum_hessian":[2.98285E5,2.87545E5,1.074E4,2.84041E5,3.504E3,7.7E1,1.0663E4,1.70446E5,1.13595E5,4E2,3.104E3,1.0586E4,7.7E1,9.01E3,1.61436E5,6.823E3,1.06772E5,3E2,1E2,9.3E1,3.011E3,4.789E3,5.797E3],"tree_param":{"num_deleted":"0","num_feature":"15","num_nodes":"23","size_leaf_vector":"1"}},{"base_weights":[5.5350317E-4,2.6451258E-3,-1.3087413E-1,-2.7745566E-4,7.996876E-2,-1.5770914E-1,2.629951E-1,-1.3462707E-3,1.6178416E-1,5.233683E-2,7.330705E-2,-1.1107466E-1,-6.6593826E-1,1.4689092E-1,3.7044674E-2,7.0671993E-3,-9.630802E-5,5.6321513E-2,5.620992E-3,3.335838E-3,3.507673E-2,-4.3574166E-2,-5.0325543E-3,-6.343442E-2,-1.4430458E-2,1.9359995E-2,-9.790835E-3],"categories":[],"categories_nodes":[],"categories_segments":[],"categories_sizes":[],"default_left":[0,0,0,0,0,0,0,0,0,0,0,0,0,0,0,0,0,0,0,0,0,0,0,0,0,0,0],"id":3,"left_children":[1,3,5,7,9,11,13,15,17,-1,19,21,23,25,-1,-1,-1,-1,-1,-1,-1,-1,-1,-1,-1,-1,-1],"loss_changes":[8.187953E1,6.625623E1,4.9358673E1,4.8935223E1,6.8693E1,1.0347569E2,1.6425999E1,2.3223534E1,8.801633E1,0E0,4.386421E1,3.1640785E1,8.3102585E1,1.9923546E1,0E0,0E0,0E0,0E0,0E0,0E0,0E0,0E0,0E0,0E0,0E0,0E0,0E0],"parents":[2147483647,0,0,1,1,2,2,3,3,4,4,5,5,6,6,7,7,8,8,10,10,11,11,12,12,13,13],"right_children":[2,4,6,8,10,12,14,16,18,-1,20,22,24,26,-1,-1,-1,-1,-1,-1,-1,-1,-1,-1,-1,-1,-1],"split_conditions":[1.78E-2,1.8966667E1,1.665E1,1.5026E0,-7.975E-1,1.4583333E1,1.8483334E1,-3.14E-2,-1.37E-2,5.233683E-2,5.813E-1,-1.1494E0,1.24E-1,7.532E-1,3.7044674E-2,7.0671993E-3,-9.630802E-5,5.6321513E-2,5.620992E-3,3.335838E-3,3.507673E-2,-4.3574166E-2,-5.0325543E-3,-6.343442E-2,-1.4430458E-2,1.9359995E-2,-9.790835E-3],"split_indices":[3,12,12,6,6,12,12,3,3,0,1,5,1,2,0,0,0,0,0,0,0,0,0,0,0,0,0],"split_type":[0,0,0,0,0,0,0,0,0,0,0,0,0,0,0,0,0,0,0,0,0,0,0,0,0,0,0],"sum_hessian":[2.97853E5,2.93188E5,4.665E3,2.82511E5,1.0677E4,4.368E3,2.97E2,2.80661E5,1.85E3,7.2E1,1.0605E4,4.002E3,3.66E2,2.4E2,5.7E1,1.135E3,2.79526E5,8.9E1,1.761E3,1.0496E4,1.09E2,5.3E1,3.949E3,1.4E2,2.26E2,1.41E2,9.9E1],"tree_param":{"num_deleted":"0","num_feature":"15","num_nodes":"27","size_leaf_vector":"1"}},{"base_weights":[-1.8228606E-3,-5.216425E-3,8.975736E-2,-3.691898E-3,-1.2922418E-1,6.243668E-2,8.142353E-2,-4.5844493E-3,1.1783605E-1,-4.658917E-1,-8.416211E-2,7.4608244E-2,7.168431E-2,-1.9943721E-4,-4.7027143E-3,4.4137046E-2,3.1173583E-3,-9.7458E-2,-1.2311376E-2,2.2189185E-2,-5.3318706E-3,3.787337E-2,3.5245325E-3],"categories":[],"categories_nodes":[],"categories_segments":[],"categories_sizes":[],"default_left":[0,0,0,0,0,0,0,0,0,0,0,0,0,0,0,0,0,0,0,0,0,0,0],"id":4,"left_children":[1,3,5,7,9,-1,11,13,15,17,19,21,-1,-1,-1,-1,-1,-1,-1,-1,-1,-1,-1],"loss_changes":[9.2674194E1,5.4359863E1,1.0281193E2,3.081131E1,5.2937695E1,0E0,9.7398926E1,1.5028428E1,8.7845894E1,1.337583E2,3.6605682E1,2.9548569E1,0E0,0E0,0E0,0E0,0E0,0E0,0E0,0E0,0E0,0E0,0E0],"parents":[2147483647,0,0,1,1,2,2,3,3,4,4,6,6,7,7,8,8,9,9,10,10,11,11],"right_children":[2,4,6,8,10,-1,12,14,16,18,20,22,-1,-1,-1,-1,-1,-1,-1,-1,-1,-1,-1],"split_conditions":[1.8966667E1,2.02E-2,-7.975E-1,1.5026E0,1.32E-2,6.243668E-2,1.075E0,1.6E-2,-1.59E-2,2.036E-1,1.55E-1,-3.305E-1,7.168431E-2,-1.9943721E-4,-4.7027143E-3,4.4137046E-2,3.1173583E-3,-9.7458E-2,-1.2311376E-2,2.2189185E-2,-5.3318706E-3,3.787337E-2,3.5245325E-3],"split_indices":[12,3,6,6,1,0,1,3,1,4,4,5,0,0,0,0,0,0,0,0,0,0,0],"split_type":[0,0,0,0,0,0,0,0,0,0,0,0,0,0,0,0,0,0,0,0,0,0,0],"sum_hessian":[2.98193E5,2.87539E5,1.0654E4,2.84048E5,3.491E3,7.5E1,1.0579E4,2.81978E5,2.07E3,4.11E2,3.08E3,1.0527E4,5.2E1,2.80114E5,1.864E3,1.39E2,1.931E3,5.2E1,3.59E2,1.25E2,2.955E3,6.2E1,1.0465E4],"tree_param":{"num_deleted":"0","num_feature":"15","num_nodes":"23","size_leaf_vector":"1"}},{"base_weights":[1.2807786E-3,-1.4721445E-3,7.447151E-2,2.0285924E-4,-1.3875912E-1,6.2068988E-2,7.185514E-1,-4.540943E-4,2.4876201E-1,-4.420869E-1,-9.820381E-2,1.4473581E-1,-6.369895E-3,6.3914284E-2,1.7862783E-1,1.0613021E-3,-2.7192658E-4,6.566255E-3,7.4036635E-2,-5.249658E-3,-5.3640243E-2,2.7584836E-2,-5.8720005E-3,3.4415342E-2,5.8304453E-3,-3.997943E-3,2.6370578E-3,4.271333E-2,-2.3764757E-2],"categories":[],"categories_nodes":[],"categories_segments":[],"categories_sizes":[],"default_left":[0,0,0,0,0,0,0,0,0,0,0,0,0,0,0,0,0,0,0,0,0,0,0,0,0,0,0,0,0],"id":5,"left_children":[1,3,5,7,9,11,13,15,17,19,21,23,25,-1,27,-1,-1,-1,-1,-1,-1,-1,-1,-1,-1,-1,-1,-1,-1],"loss_changes":[6.00471E1,6.6046906E1,8.625209E1,4.633482E1,4.2544563E1,5.9971756E1,6.1423264E1,3.0582779E1,1.0802532E2,8.663268E1,3.8257236E1,7.33221E1,2.5233757E1,0E0,4.679668E1,0E0,0E0,0E0,0E0,0E0,0E0,0E0,0E0,0E0,0E0,0E0,0E0,0E0,0E0],"parents":[2147483647,0,0,1,1,2,2,3,3,4,4,5,5,6,6,7,7,8,8,9,9,10,10,11,11,12,12,14,14],"right_children":[2,4,6,8,10,12,14,16,18,20,22,24,26,-1,28,-1,-1,-1,-1,-1,-1,-1,-1,-1,-1,-1,-1,-1,-1],"split_conditions":[1.8966667E1,2.02E-2,2.288E-1,1.2127E0,1.32E-2,2E0,2E0,1E0,3.3E2,3.08E-2,1.336E-1,-1.416E-1,3E0,6.3914284E-2,2E-3,1.0613021E-3,-2.7192658E-4,6.566255E-3,7.4036635E-2,-5.249658E-3,-5.3640243E-2,2.7584836E-2,-5.8720005E-3,3.4415342E-2,5.8304453E-3,-3.997943E-3,2.6370578E-3,4.271333E-2,-2.3764757E-2],"split_indices":[12,3,5,5,1,13,13,13,14,3,4,5,13,0,3,0,0,0,0,0,0,0,0,0,0,0,0,0,0],"split_type":[0,0,0,0,0,0,0,0,0,0,0,0,0,0,0,0,0,0,0,0,0,0,0,0,0,0,0,0,0],"sum_hessian":[2.98016E5,2.87214E5,1.0802E4,2.83753E5,3.461E3,1.0599E4,2.03E2,2.83006E5,7.47E2,4.07E2,3.054E3,4.8E3,5.799E3,9.9E1,1.04E2,5.2902E4,2.30104E5,6.83E2,6.4E1,2.66E2,1.41E2,8.7E1,2.967E3,2.35E2,4.565E3,2.583E3,3.216E3,5.1E1,5.3E1],"tree_param":{"num_deleted":"0","num_feature":"15","num_nodes":"29","size_leaf_vector":"1"}},{"base_weights":[7.958557E-4,-1.8728372E-3,7.175502E-2,-2.8297913E-4,-1.322517E-1,1.6680951E-1,-6.8230634E-3,2.3668753E-2,-5.787913E-3,-4.4119745E-1,-8.337204E-2,1.3652238E-1,1.0267986E0,1.646324E-2,-3.1918368E-1,8.192687E-3,8.926942E-4,7.639332E-3,-3.2067936E-4,-9.241137E-3,-5.83566E-2,-5.8847736E-3,1.2771124E-2,4.652473E-2,5.8773826E-3,3.720142E-2,6.315413E-2,1.7772816E-2,2.1333025E-4,-7.565111E-2,-7.458498E-3],"categories":[],"categories_nodes":[],"categories_segments":[],"categories_sizes":[],"default_left":[0,0,0,0,0,0,0,0,0,0,0,0,0,0,0,0,0,0,0,0,0,0,0,0,0,0,0,0,0,0,0],"id":6,"left_children":[1,3,5,7,9,11,13,15,17,19,21,23,25,27,29,-1,-1,-1,-1,-1,-1,-1,-1,-1,-1,-1,-1,-1,-1,-1,-1],"loss_changes":[5.6383575E1,5.94809E1,8.060874E1,3.7380116E1,5.2167934E1,1.2707144E2,4.298569E1,4.3184933E1,2.2872028E1,8.762882E1,3.4753025E1,7.098427E1,1.0151367E1,2.2738646E1,8.299158E1,0E0,0E0,0E0,0E0,0E0,0E0,0E0,0E0,0E0,0E0,0E0,0E0,0E0,0E0,0E0,0E0],"parents":[2147483647,0,0,1,1,2,2,3,3,4,4,5,5,6,6,7,7,8,8,9,9,10,10,11,11,12,12,13,13,14,14],"right_children":[2,4,6,8,10,12,14,16,18,20,22,24,26,28,30,-1,-1,-1,-1,-1,-1,-1,-1,-1,-1,-1,-1,-1,-1,-1,-1],"split_conditions":[1.8966667E1,2.02E-2,2E0,1E0,1.68E-2,6.7E-3,3.3E-3,-1.2E-2,-2.3295E0,1.405E1,1.59E1,-6.9E-3,1.07E-2,-3.244E-1,6.7E-3,8.192687E-3,8.926942E-4,7.639332E-3,-3.2067936E-4,-9.241137E-3,-5.83566E-2,-5.8847736E-3,1.2771124E-2,4.652473E-2,5.8773826E-3,3.720142E-2,6.315413E-2,1.7772816E-2,2.1333025E-4,-7.565111E-2,-7.458498E-3],"split_indices":[12,3,13,13,1,3,3,3,1,12,12,3,3,1,1,0,0,0,0,0,0,0,0,0,0,0,0,0,0,0,0],"split_type":[0,0,0,0,0,0,0,0,0,0,0,0,0,0,0,0,0,0,0,0,0,0,0,0,0,0,0,0,0,0,0],"sum_hessian":[2.97744E5,2.86953E5,1.0791E4,2.83497E5,3.456E3,4.883E3,5.908E3,5.298E4,2.30517E5,4.71E2,2.985E3,4.718E3,1.65E2,5.499E3,4.09E2,2.109E3,5.0871E4,9.05E2,2.29612E5,3.49E2,1.22E2,2.711E3,2.74E2,1.09E2,4.609E3,7.7E1,8.8E1,1.9E2,5.309E3,5E1,3.59E2],"tree_param":{"num_deleted":"0","num_feature":"15","num_nodes":"31","size_leaf_vector":"1"}},{"base_weights":[-3.8136877E-4,-2.9486492E-3,6.790766E-2,-1.6074592E-3,-1.1182041E-1,1.5729618E-1,-6.3137677E-3,2.354022E-2,-7.384412E-3,3.198402E-2,-1.2314451E-1,1.3177003E-1,1.2264473E0,-9.1887705E-2,6.2550694E-2,8.749372E-3,8.6119346E-4,6.294096E-5,-8.145538E-4,-4.2142425E-2,-5.3865756E-3,4.366738E-2,5.1618894E-3,5.2449144E-2,6.791847E-2,-2.749515E-3,-2.7481223E-2,4.343496E-2,2.2700245E-3],"categories":[],"categories_nodes":[],"categories_segments":[],"categories_sizes":[],"default_left":[0,0,0,0,0,0,0,0,0,0,0,0,0,0,0,0,0,0,0,0,0,0,0,0,0,0,0,0,0],"id":7,"left_children":[1,3,5,7,9,11,13,15,17,-1,19,21,23,25,27,-1,-1,-1,-1,-1,-1,-1,-1,-1,-1,-1,-1,-1,-1],"loss_changes":[5.2199986E1,4.1900776E1,7.157445E1,4.11814E1,2.9795929E1,1.3340207E2,3.4745E1,5.065245E1,1.7745533E1,0E0,3.807953E1,1.0107042E2,1.2440033E0,4.4371735E1,4.5128826E1,0E0,0E0,0E0,0E0,0E0,0E0,0E0,0E0,0E0,0E0,0E0,0E0,0E0,0E0],"parents":[2147483647,0,0,1,1,2,2,3,3,4,4,5,5,6,6,7,7,8,8,10,10,11,11,12,12,13,13,14,14],"right_children":[2,4,6,8,10,12,14,16,18,-1,20,22,24,26,28,-1,-1,-1,-1,-1,-1,-1,-1,-1,-1,-1,-1,-1,-1],"split_conditions":[1.8966667E1,2.02E-2,2E0,1E0,-1.4794E0,4.398E-1,3E0,-1.2E-2,3E0,3.198402E-2,-8.475E-1,-3.227E-1,7.5E-3,3.3E-3,-4.681E-1,8.749372E-3,8.6119346E-4,6.294096E-5,-8.145538E-4,-4.2142425E-2,-5.3865756E-3,4.366738E-2,5.1618894E-3,5.2449144E-2,6.791847E-2,-2.749515E-3,-2.7481223E-2,4.343496E-2,2.2700245E-3],"split_indices":[12,3,13,13,6,6,13,3,13,0,6,6,3,3,6,0,0,0,0,0,0,0,0,0,0,0,0,0,0],"split_type":[0,0,0,0,0,0,0,0,0,0,0,0,0,0,0,0,0,0,0,0,0,0,0,0,0,0,0,0,0],"sum_hessian":[2.97744E5,2.86957E5,1.0787E4,2.83466E5,3.491E3,4.893E3,5.894E3,5.2953E4,2.30513E5,5.1E1,3.44E3,4.78E3,1.13E2,2.628E3,3.266E3,2.119E3,5.0834E4,1.16987E5,1.13526E5,7.1E1,3.369E3,1.76E2,4.604E3,5.2E1,6.1E1,2.433E3,1.95E2,6.7E1,3.199E3],"tree_param":{"num_deleted":"0","num_feature":"15","num_nodes":"29","size_leaf_vector":"1"}},{"base_weights":[6.484726E-4,-2.035314E-3,5.8710195E-2,1.697322E-2,-6.4344164E-3,7.402798E-1,4.985481E-2,-3.7498617E-1,1.8890958E-2,-5.714496E-3,-2.00936E-1,2.7801773E-1,8.875115E-2,4.506374E-2,5.6907512E-2,5.8479183E-3,-1.2014667E-1,7.225317E-3,8.002163E-4,1.0271112E-3,-4.1097388E-4,-2.785143E-2,-2.4630874E-3,-1.7032823E-2,5.2159827E-2,5.814935E-3,-6.53527E-4],"categories":[],"categories_nodes":[],"categories_segments":[],"categories_sizes":[],"default_left":[0,0,0,0,0,0,0,0,0,0,0,0,0,0,0,0,0,0,0,0,0,0,0,0,0,0,0],"id":8,"left_children":[1,3,5,7,9,11,13,15,17,19,21,23,-1,25,-1,-1,-1,-1,-1,-1,-1,-1,-1,-1,-1,-1,-1],"loss_changes":[4.6492767E1,2.3847252E1,7.952385E1,4.029386E1,3.24271E1,8.0343025E1,6.780501E1,2.6066446E2,1.933761E1,1.517621E1,4.6097168E1,5.621615E1,0E0,5.36631E1,0E0,0E0,0E0,0E0,0E0,0E0,0E0,0E0,0E0,0E0,0E0,0E0,0E0],"parents":[2147483647,0,0,1,1,2,2,3,3,4,4,5,5,6,6,7,7,8,8,9,9,10,10,11,11,13,13],"right_children":[2,4,6,8,10,12,14,16,18,20,22,24,-1,26,-1,-1,-1,-1,-1,-1,-1,-1,-1,-1,-1,-1,-1],"split_conditions":[5.53E2,1E0,-5.652E-1,-1.1494E0,2.3799E0,-1.065E-1,4.755E-1,1.14667E1,-4.735E-1,6.34E-2,2E0,1.945E1,8.875115E-2,2E0,5.6907512E-2,5.8479183E-3,-1.2014667E-1,7.225317E-3,8.002163E-4,1.0271112E-3,-4.1097388E-4,-2.785143E-2,-2.4630874E-3,-1.7032823E-2,5.2159827E-2,5.814935E-3,-6.53527E-4],"split_indices":[14,13,6,5,6,5,5,12,5,2,13,12,0,13,0,0,0,0,0,0,0,0,0,0,0,0,0],"split_type":[0,0,0,0,0,0,0,0,0,0,0,0,0,0,0,0,0,0,0,0,0,0,0,0,0,0,0],"sum_hessian":[2.98363E5,2.85182E5,1.3181E4,5.3595E4,2.31587E5,1.68E2,1.3013E4,2.6E2,5.3335E4,2.30734E5,8.53E2,1.17E2,5.1E1,1.2957E4,5.6E1,2.1E2,5E1,1.197E3,5.2138E4,2.0095E4,2.10639E5,2.54E2,5.99E2,6.5E1,5.2E1,5.822E3,7.135E3],"tree_param":{"num_deleted":"0","num_feature":"15","num_nodes":"27","size_leaf_vector":"1"}},{"base_weights":[-9.542476E-4,2.3214782E-2,-6.5686484E-3,1.2381801E-2,1.14403605E-1,-7.6679406E-3,4.786214E-2,2.8458193E-2,-4.556713E-2,9.459741E-2,8.018358E-1,-2.6507047E-4,-1.5380161E-2,1.1351289E0,2.3963602E-2,1.076745E-2,1.110299E-3,-1.3219236E-1,-1.3911158E-3,1.9096008E-2,3.311944E-3,6.1390784E-2,2.6599223E-2,2.2672597E-4,-1.8033771E-3,-5.317812E-4,-3.17571E-3,2.9936433E-2,8.3515346E-2,2.075152E-2,7.238204E-4],"categories":[],"categories_nodes":[],"categories_segments":[],"categories_sizes":[],"default_left":[0,0,0,0,0,0,0,0,0,0,0,0,0,0,0,0,0,0,0,0,0,0,0,0,0,0,0,0,0,0,0],"id":9,"left_children":[1,3,5,7,9,11,13,15,17,19,21,23,25,27,29,-1,-1,-1,-1,-1,-1,-1,-1,-1,-1,-1,-1,-1,-1,-1,-1],"loss_changes":[4.045913E1,5.5521507E1,1.4477943E1,4.680444E1,8.118097E1,1.3540527E1,1.2443657E2,4.595041E1,5.029889E2,4.7249683E1,1.8543686E1,2.0794523E1,2.6526539E1,2.85681E1,1.7387062E1,0E0,0E0,0E0,0E0,0E0,0E0,0E0,0E0,0E0,0E0,0E0,0E0,0E0,0E0,0E0,0E0],"parents":[2147483647,0,0,1,1,2,2,3,3,4,4,5,5,6,6,7,7,8,8,9,9,10,10,11,11,12,12,13,13,14,14],"right_children":[2,4,6,8,10,12,14,16,18,20,22,24,26,28,30,-1,-1,-1,-1,-1,-1,-1,-1,-1,-1,-1,-1,-1,-1,-1,-1],"split_conditions":[1E0,4.64E2,1.945E1,1.4583333E1,4.116E-1,3E0,-4.681E-1,-6.995E-1,-1.4794E0,-8.01E-2,5.819E-1,3.645E-1,1.68E1,1.632E-1,-3.244E-1,1.076745E-2,1.110299E-3,-1.3219236E-1,-1.3911158E-3,1.9096008E-2,3.311944E-3,6.1390784E-2,2.6599223E-2,2.2672597E-4,-1.8033771E-3,-5.317812E-4,-3.17571E-3,2.9936433E-2,8.3515346E-2,2.075152E-2,7.238204E-4],"split_indices":[13,14,12,12,6,13,6,1,6,5,4,6,12,2,1,0,0,0,0,0,0,0,0,0,0,0,0,0,0,0,0],"split_type":[0,0,0,0,0,0,0,0,0,0,0,0,0,0,0,0,0,0,0,0,0,0,0,0,0,0,0,0,0,0,0],"sum_hessian":[2.98161E5,5.6205E4,2.41956E5,5.0238E4,5.967E3,2.37167E5,4.789E3,3.9328E4,1.091E4,5.801E3,1.66E2,1.21011E5,1.16156E5,1.02E2,4.687E3,1.272E3,3.8056E4,7.3E1,1.0837E4,5.2E2,5.281E3,6.3E1,1.03E2,1.06707E5,1.4304E4,1.05735E5,1.0421E4,5.2E1,5E1,1.1E2,4.577E3],"tree_param":{"num_deleted":"0","num_feature":"15","num_nodes":"31","size_leaf_vector":"1"}},{"base_weights":[1.6397453E-4,2.0027237E-3,-1.5408036E-1,2.1979909E-1,1.1611591E-3,-5.9075135E-1,-8.6683854E-2,3.0353653E-1,-4.8305893E-1,-1.4028538E-3,5.583119E-2,-3.2272226E-1,-1.5400323E0,-1.20881595E-1,3.0758014E-1,1.1325722E-2,5.1018E-2,-7.573977E-2,3.1340666E-2,-5.1479754E-3,-4.940871E-5,2.5930102E-3,4.9966674E-2,-6.8955116E-2,-7.0011998E-3,-2.868558E-2,-1.22041546E-1,-2.8611287E-2,-5.249282E-3,3.362536E-2,5.5279457E-3],"categories":[],"categories_nodes":[],"categories_segments":[],"categories_sizes":[],"default_left":[0,0,0,0,0,0,0,0,0,0,0,0,0,0,0,0,0,0,0,0,0,0,0,0,0,0,0,0,0,0,0],"id":10,"left_children":[1,3,5,7,9,11,13,15,17,19,21,23,25,27,29,-1,-1,-1,-1,-1,-1,-1,-1,-1,-1,-1,-1,-1,-1,-1,-1],"loss_changes":[8.4478935E1,5.395181E1,1.0321901E2,6.682994E1,4.1102375E1,1.1883298E2,4.103879E1,5.569786E1,1.3950607E2,1.1795331E1,4.916398E1,7.063745E1,8.8257065E1,2.0021484E1,1.7396954E1,0E0,0E0,0E0,0E0,0E0,0E0,0E0,0E0,0E0,0E0,0E0,0E0,0E0,0E0,0E0,0E0],"parents":[2147483647,0,0,1,1,2,2,3,3,4,4,5,5,6,6,7,7,8,8,9,9,10,10,11,11,12,12,13,13,14,14],"right_children":[2,4,6,8,10,12,14,16,18,20,22,24,26,28,30,-1,-1,-1,-1,-1,-1,-1,-1,-1,-1,-1,-1,-1,-1,-1,-1],"split_conditions":[2.02E-2,-3.14E-2,1.68E-2,3.86E2,5.53E2,1.455E1,1.635E1,4.755E-1,3.80577E1,-2.43E-2,4.755E-1,2.31E-1,5.58358E1,-8.668E-1,5.351E-1,1.1325722E-2,5.1018E-2,-7.573977E-2,3.1340666E-2,-5.1479754E-3,-4.940871E-5,2.5930102E-3,4.9966674E-2,-6.8955116E-2,-7.0011998E-3,-2.868558E-2,-1.22041546E-1,-2.8611287E-2,-5.249282E-3,3.362536E-2,5.5279457E-3],"split_indices":[3,3,1,14,14,12,12,5,0,3,5,4,0,5,1,0,0,0,0,0,0,0,0,0,0,0,0,0,0,0,0],"split_type":[0,0,0,0,0,0,0,0,0,0,0,0,0,0,0,0,0,0,0,0,0,0,0,0,0,0,0,0,0,0,0],"sum_hessian":[2.97861E5,2.94353E5,3.508E3,1.132E3,2.93221E5,4.68E2,3.04E3,1.012E3,1.2E2,2.80086E5,1.3135E4,3.66E2,1.02E2,2.798E3,2.42E2,9.15E2,9.7E1,6.2E1,5.8E1,1.138E3,2.78948E5,1.3081E4,5.4E1,5.3E1,3.13E2,5E1,5.2E1,9.4E1,2.704E3,8.4E1,1.58E2],"tree_param":{"num_deleted":"0","num_feature":"15","num_nodes":"31","size_leaf_vector":"1"}},{"base_weights":[-1.2360401E-4,1.4365284E-3,-1.3113105E-1,2.1499677E-1,5.8150117E-4,-5.4125947E-1,-6.661577E-2,4.083554E-1,-9.657356E-2,1.48986345E-2,-8.810957E-3,-2.459296E-1,-1.2411857E0,-1.0734036E-1,3.1533566E-1,1.3798021E-2,6.019512E-2,5.5836597E-3,-3.383765E-2,4.5530032E-4,5.7767066E-3,-4.7071962E-4,1.1717469E-2,-2.5418175E-2,3.7929077E-2,-1.27636045E-2,-1.4124374E-1,-4.365597E-3,-4.520924E-2,-5.7225314E-4,3.3510394E-2],"categories":[],"categories_nodes":[],"categories_segments":[],"categories_sizes":[],"default_left":[0,0,0,0,0,0,0,0,0,0,0,0,0,0,0,0,0,0,0,0,0,0,0,0,0,0,0,0,0,0,0],"id":11,"left_children":[1,3,5,7,9,11,13,15,17,19,21,23,25,27,29,-1,-1,-1,-1,-1,-1,-1,-1,-1,-1,-1,-1,-1,-1,-1,-1],"loss_changes":[6.083779E1,5.371235E1,9.265175E1,7.0706604E1,3.939832E1,9.808829E1,4.7133827E1,7.592412E1,5.444479E1,6.765776E1,2.5961794E1,8.8961205E1,2.1943349E2,4.3602303E1,3.3869564E1,0E0,0E0,0E0,0E0,0E0,0E0,0E0,0E0,0E0,0E0,0E0,0E0,0E0,0E0,0E0,0E0],"parents":[2147483647,0,0,1,1,2,2,3,3,4,4,5,5,6,6,7,7,8,8,9,9,10,10,11,11,12,12,13,13,14,14],"right_children":[2,4,6,8,10,12,14,16,18,20,22,24,26,28,30,-1,-1,-1,-1,-1,-1,-1,-1,-1,-1,-1,-1,-1,-1,-1,-1],"split_conditions":[2.02E-2,-3.14E-2,1.68E-2,3E0,2E0,1.3783334E1,1.595E1,-9.9E-3,-2.82E-2,1.86E1,1.2127E0,1.25167E1,3.08E-2,1.5333333E1,3.08E-2,1.3798021E-2,6.019512E-2,5.5836597E-3,-3.383765E-2,4.5530032E-4,5.7767066E-3,-4.7071962E-4,1.1717469E-2,-2.5418175E-2,3.7929077E-2,-1.27636045E-2,-1.4124374E-1,-4.365597E-3,-4.520924E-2,-5.7225314E-4,3.3510394E-2],"split_indices":[3,3,1,13,13,12,12,1,1,12,5,12,3,12,3,0,0,0,0,0,0,0,0,0,0,0,0,0,0,0,0],"split_type":[0,0,0,0,0,0,0,0,0,0,0,0,0,0,0,0,0,0,0,0,0,0,0,0,0,0,0,0,0,0,0],"sum_hessian":[2.97655E5,2.94153E5,3.502E3,1.172E3,2.92981E5,4.75E2,3.027E3,7.23E2,4.49E2,1.16063E5,1.76918E5,3.35E2,1.4E2,2.736E3,2.91E2,6.21E2,1.02E2,3.31E2,1.18E2,1.09747E5,6.316E3,1.76481E5,4.37E2,2.66E2,6.9E1,8.7E1,5.3E1,2.67E3,6.6E1,1.52E2,1.39E2],"tree_param":{"num_deleted":"0","num_feature":"15","num_nodes":"31","size_leaf_vector":"1"}},{"base_weights":[2.799681E-4,-2.0943342E-3,6.387385E-2,5.885185E-3,-1.4116209E-2,5.7369534E-2,4.7003884E-2,2.7765068E-1,4.7667027E-3,-8.367415E-3,-6.162147E-2,5.923488E-1,4.608296E-2,2.0865243E-2,-1.6184181E-2,3.151301E-4,-4.046568E-3,-8.399859E-4,8.324454E-4,-6.187593E-2,-2.0562839E-3,1.6244676E-2,6.420802E-2,2.0132966E-3,2.6468445E-2],"categories":[],"categories_nodes":[],"categories_segments":[],"categories_sizes":[],"default_left":[0,0,0,0,0,0,0,0,0,0,0,0,0,0,0,0,0,0,0,0,0,0,0,0,0],"id":12,"left_children":[1,3,5,7,9,11,-1,13,15,17,19,21,23,-1,-1,-1,-1,-1,-1,-1,-1,-1,-1,-1,-1],"loss_changes":[4.5014202E1,2.7569534E1,6.1097477E1,5.2505577E1,3.1311804E1,6.429036E1,0E0,5.9592083E1,2.264411E1,2.1575756E1,2.982465E2,4.0289085E1,2.930884E1,0E0,0E0,0E0,0E0,0E0,0E0,0E0,0E0,0E0,0E0,0E0,0E0],"parents":[2147483647,0,0,1,1,2,2,3,3,4,4,5,5,7,7,8,8,9,9,10,10,11,11,12,12],"right_children":[2,4,6,8,10,12,-1,14,16,18,20,22,24,-1,-1,-1,-1,-1,-1,-1,-1,-1,-1,-1,-1],"split_conditions":[1.8966667E1,3E0,9.149E-1,-3.14E-2,1.6283333E1,-4.681E-1,4.7003884E-2,1.4E1,1.78E-2,1.3916667E1,-4.57E-1,3.71751E1,5.052E-1,2.0865243E-2,-1.6184181E-2,3.151301E-4,-4.046568E-3,-8.399859E-4,8.324454E-4,-6.187593E-2,-2.0562839E-3,1.6244676E-2,6.420802E-2,2.0132966E-3,2.6468445E-2],"split_indices":[12,13,1,3,12,6,0,12,3,12,1,0,6,0,0,0,0,0,0,0,0,0,0,0,0],"split_type":[0,0,0,0,0,0,0,0,0,0,0,0,0,0,0,0,0,0,0,0,0,0,0,0,0],"sum_hessian":[2.98123E5,2.87394E5,1.0729E4,1.72739E5,1.14655E5,1.0651E4,7.8E1,7.07E2,1.72032E5,1.02279E5,1.2376E4,2.19E2,1.0432E4,5.74E2,1.33E2,1.69004E5,3.028E3,7.6495E4,2.5784E4,2.11E2,1.2165E4,1.59E2,6E1,1.0309E4,1.23E2],"tree_param":{"num_deleted":"0","num_feature":"15","num_nodes":"25","size_leaf_vector":"1"}},{"base_weights":[-1.7532251E-3,8.614823E-5,-1.1764404E-1,1.9422677E-1,-6.847423E-4,-1.4714718E-1,2.271478E-1,-2.1637876E-1,4.952927E-1,1.3011002E-2,-9.676592E-3,-7.8635044E-2,-1.1458929E0,4.0701163E-1,-8.134892E-2,4.9190796E-3,-6.802701E-2,4.305924E-2,1.8396286E-2,2.5044745E-4,4.2176046E-3,-5.1471515E-4,1.3658578E-2,-5.087317E-3,1.13667855E-2,-3.4749776E-2,-1.4484064E-1,9.732914E-3,4.8678406E-2,-2.1413622E-2,1.5781589E-2],"categories":[],"categories_nodes":[],"categories_segments":[],"categories_sizes":[],"default_left":[0,0,0,0,0,0,0,0,0,0,0,0,0,0,0,0,0,0,0,0,0,0,0,0,0,0,0,0,0,0,0],"id":13,"left_children":[1,3,5,7,9,11,13,15,17,19,21,23,25,27,29,-1,-1,-1,-1,-1,-1,-1,-1,-1,-1,-1,-1,-1,-1,-1,-1],"loss_changes":[6.3457542E1,4.3856846E1,4.734545E1,1.4338197E2,3.5945415E1,2.9311618E2,2.0396986E1,1.7696097E2,3.086026E1,6.6040115E1,3.0788174E1,2.8386433E1,2.150951E2,2.7722443E1,1.8865358E1,0E0,0E0,0E0,0E0,0E0,0E0,0E0,0E0,0E0,0E0,0E0,0E0,0E0,0E0,0E0,0E0],"parents":[2147483647,0,0,1,1,2,2,3,3,4,4,5,5,6,6,7,7,8,8,9,9,10,10,11,11,12,12,13,13,14,14],"right_children":[2,4,6,8,10,12,14,16,18,20,22,24,26,28,30,-1,-1,-1,-1,-1,-1,-1,-1,-1,-1,-1,-1,-1,-1,-1,-1],"split_conditions":[1.78E-2,-3.14E-2,1.6033333E1,6.009E-1,2E0,1.4583333E1,1.1713E0,1.3366667E1,1E0,1.7416666E1,1.2127E0,1.33167E1,3.08E-2,3.08E-2,5.694E-1,4.9190796E-3,-6.802701E-2,4.305924E-2,1.8396286E-2,2.5044745E-4,4.2176046E-3,-5.1471515E-4,1.3658578E-2,-5.087317E-3,1.13667855E-2,-3.4749776E-2,-1.4484064E-1,9.732914E-3,4.8678406E-2,-2.1413622E-2,1.5781589E-2],"split_indices":[3,3,12,4,13,12,6,12,13,12,5,12,3,3,5,0,0,0,0,0,0,0,0,0,0,0,0,0,0,0,0],"split_type":[0,0,0,0,0,0,0,0,0,0,0,0,0,0,0,0,0,0,0,0,0,0,0,0,0,0,0,0,0,0,0],"sum_hessian":[2.97689E5,2.93039E5,4.65E3,1.158E3,2.91881E5,4.284E3,3.66E2,4.9E2,6.68E2,1.15682E5,1.76199E5,4.01E3,2.74E2,2.31E2,1.35E2,3.85E2,1.05E2,1.71E2,4.97E2,1.04016E5,1.1666E4,1.75816E5,3.83E2,3.729E3,2.81E2,2.19E2,5.5E1,1.69E2,6.2E1,7.2E1,6.3E1],"tree_param":{"num_deleted":"0","num_feature":"15","num_nodes":"31","size_leaf_vector":"1"}},{"base_weights":[4.9119745E-4,-1.7726469E-3,6.080588E-2,6.1831992E-2,-3.6123586E-3,5.440524E-2,4.8141643E-2,6.9578014E-2,-4.6628657E-1,8.6069474E-4,-2.2079313E-2,1.1659975E-1,2.3558305E-3,3.1911086E-3,4.5602668E-2,-5.282235E-2,1.9473517E-3,-6.231464E-5,2.3578773E-3,-4.0173143E-4,-9.333859E-3,5.09807E-3,6.559956E-2,-4.0091816E-3,3.3858926E-3],"categories":[],"categories_nodes":[],"categories_segments":[],"categories_sizes":[],"default_left":[0,0,0,0,0,0,0,0,0,0,0,0,0,0,0,0,0,0,0,0,0,0,0,0,0],"id":14,"left_children":[1,3,5,7,9,11,-1,13,15,17,19,21,23,-1,-1,-1,-1,-1,-1,-1,-1,-1,-1,-1,-1],"loss_changes":[4.074469E1,3.3654327E1,6.2273098E1,3.310671E1,2.3089645E1,3.4702377E1,0E0,3.858471E1,3.4926907E1,2.1950058E1,1.2599675E2,8.532921E1,3.1495728E1,0E0,0E0,0E0,0E0,0E0,0E0,0E0,0E0,0E0,0E0,0E0,0E0],"parents":[2147483647,0,0,1,1,2,2,3,3,4,4,5,5,7,7,8,8,9,9,10,10,11,11,12,12],"right_children":[2,4,6,8,10,12,-1,14,16,18,20,22,24,-1,-1,-1,-1,-1,-1,-1,-1,-1,-1,-1,-1],"split_conditions":[1.8966667E1,-4.735E-1,9.149E-1,5.96142E1,4E0,2E0,4.8141643E-2,6.459E-1,8.018E-1,4.93E-1,1.65667E1,2.551E-1,3E0,3.1911086E-3,4.5602668E-2,-5.282235E-2,1.9473517E-3,-6.231464E-5,2.3578773E-3,-4.0173143E-4,-9.333859E-3,5.09807E-3,6.559956E-2,-4.0091816E-3,3.3858926E-3],"split_indices":[12,5,1,0,13,13,0,2,1,1,12,5,13,0,0,0,0,0,0,0,0,0,0,0,0],"split_type":[0,0,0,0,0,0,0,0,0,0,0,0,0,0,0,0,0,0,0,0,0,0,0,0,0],"sum_hessian":[2.984E5,2.87606E5,1.0794E4,8.084E3,2.79522E5,1.0719E4,7.5E1,7.968E3,1.16E2,2.25019E5,5.4503E4,4.883E3,5.836E3,7.915E3,5.3E1,5.3E1,6.3E1,2.15225E5,9.794E3,5.0219E4,4.284E3,4.825E3,5.8E1,2.579E3,3.257E3],"tree_param":{"num_deleted":"0","num_feature":"15","num_nodes":"25","size_leaf_vector":"1"}},{"base_weights":[1.6232538E-4,-1.7655737E-3,5.1502343E-2,6.864137E-5,-6.520965E-2,4.9657907E-2,4.4106476E-2,7.0246644E-3,-1.0369257E-2,-5.2399762E-2,-5.573508E-2,3.896903E-2,4.931222E-2,3.5036975E-3,1.7374834E-4,-2.297317E-3,-2.6881872E-4,2.5202284E-2,-3.1014818E-3,1.5149892E-3,2.317082E-2],"categories":[],"categories_nodes":[],"categories_segments":[],"categories_sizes":[],"default_left":[0,0,0,0,0,0,0,0,0,0,0,0,0,0,0,0,0,0,0,0,0],"id":15,"left_children":[1,3,5,7,9,-1,11,13,15,-1,17,19,-1,-1,-1,-1,-1,-1,-1,-1,-1],"loss_changes":[2.9494556E1,3.3422073E1,7.506685E1,2.0267094E1,7.5085144E1,0E0,5.176119E1,3.748881E1,1.9828835E1,0E0,2.819869E1,3.915572E1,0E0,0E0,0E0,0E0,0E0,0E0,0E0,0E0,0E0],"parents":[2147483647,0,0,1,1,2,2,3,3,4,4,6,6,7,7,8,8,10,10,11,11],"right_children":[2,4,6,8,10,-1,12,14,16,-1,18,20,-1,-1,-1,-1,-1,-1,-1,-1,-1],"split_conditions":[1.8966667E1,1.37E-2,-7.975E-1,3E0,-1.1494E0,4.9657907E-2,1.6E-2,-9.6E-3,-2.046E-1,-5.2399762E-2,-1.2942E0,3.382E-1,4.931222E-2,3.5036975E-3,1.7374834E-4,-2.297317E-3,-2.6881872E-4,2.5202284E-2,-3.1014818E-3,1.5149892E-3,2.317082E-2],"split_indices":[12,3,6,13,5,0,3,3,1,0,6,1,0,0,0,0,0,0,0,0,0],"split_type":[0,0,0,0,0,0,0,0,0,0,0,0,0,0,0,0,0,0,0,0,0],"sum_hessian":[2.97988E5,2.87204E5,1.0784E4,2.79135E5,8.069E3,8.3E1,1.0701E4,1.67506E5,1.11629E5,7.6E1,7.993E3,1.0644E4,5.7E1,8.927E3,1.58579E5,1.3737E4,9.7892E4,8.8E1,7.905E3,1.0432E4,2.12E2],"tree_param":{"num_deleted":"0","num_feature":"15","num_nodes":"21","size_leaf_vector":"1"}},{"base_weights":[-1.0188669E-3,2.4476278E-4,-8.049244E-2,-4.4333347E-4,1.08473614E-1,-5.0351765E-2,-2.675106E-1,4.0304544E-3,-1.93558E-2,3.959061E-2,7.3488414E-2,-8.50841E-2,2.3463261E-1,-8.366216E-1,8.0001086E-2,3.28508E-3,1.303347E-4,-2.2103508E-4,-6.9233715E-3,-2.7731936E-3,7.579607E-3,-1.899762E-2,-3.125983E-3,-8.524968E-3,2.7411625E-2,-1.03139274E-1,-8.616484E-3,-1.625463E-3,3.1172847E-2],"categories":[],"categories_nodes":[],"categories_segments":[],"categories_sizes":[],"default_left":[0,0,0,0,0,0,0,0,0,0,0,0,0,0,0,0,0,0,0,0,0,0,0,0,0,0,0,0,0],"id":16,"left_children":[1,3,5,7,9,11,13,15,17,-1,19,21,23,25,27,-1,-1,-1,-1,-1,-1,-1,-1,-1,-1,-1,-1,-1,-1],"loss_changes":[2.9875101E1,2.180772E1,2.6231716E1,2.4620173E1,4.4169273E1,3.972154E1,1.2782811E2,2.0661915E1,9.902429E1,0E0,1.774459E1,2.3769297E1,5.5486984E1,1.9920451E2,2.4600319E1,0E0,0E0,0E0,0E0,0E0,0E0,0E0,0E0,0E0,0E0,0E0,0E0,0E0,0E0],"parents":[2147483647,0,0,1,1,2,2,3,3,4,4,5,5,6,6,7,7,8,8,10,10,11,11,12,12,13,13,14,14],"right_children":[2,4,6,8,10,12,14,16,18,-1,20,22,24,26,28,-1,-1,-1,-1,-1,-1,-1,-1,-1,-1,-1,-1,-1,-1],"split_conditions":[1.78E-2,1.5026E0,3.1E2,4E0,-1.37E-2,1.99E2,3.84E2,-5.132E-1,4.03E2,3.959061E-2,9.2E-3,9.9E-3,2E0,7.595E-1,2.5446E0,3.28508E-3,1.303347E-4,-2.2103508E-4,-6.9233715E-3,-2.7731936E-3,7.579607E-3,-1.899762E-2,-3.125983E-3,-8.524968E-3,2.7411625E-2,-1.03139274E-1,-8.616484E-3,-1.625463E-3,3.1172847E-2],"split_indices":[3,6,14,13,3,14,14,5,14,0,3,1,13,4,1,0,0,0,0,0,0,0,0,0,0,0,0,0,0],"split_type":[0,0,0,0,0,0,0,0,0,0,0,0,0,0,0,0,0,0,0,0,0,0,0,0,0,0,0,0,0],"sum_hessian":[2.97485E5,2.9283E5,4.655E3,2.90981E5,1.849E3,4.01E3,6.45E2,2.35317E5,5.5664E4,8.9E1,1.76E3,3.575E3,4.35E2,2.44E2,4.01E2,5.309E3,2.30008E5,4.9463E4,6.201E3,6.64E2,1.096E3,2.53E2,3.322E3,1.9E2,2.45E2,8.5E1,1.59E2,3.33E2,6.8E1],"tree_param":{"num_deleted":"0","num_feature":"15","num_nodes":"29","size_leaf_vector":"1"}},{"base_weights":[-9.879145E-4,1.640715E-4,-7.257213E-2,-5.905099E-4,1.1953918E-1,1.8886546E-2,-1.7222829E-1,-2.6555324E-3,3.659153E-2,3.776152E-2,8.717841E-2,-2.5584592E-2,3.6091757E-1,-1.06756225E-1,-5.3582084E-1,-4.9357116E-3,-9.29488E-5,5.7768E-2,1.4618515E-3,3.0632406E-3,2.9120347E-2,4.429554E-4,-2.2560969E-2,9.010939E-3,4.3913364E-2,-1.9517094E-2,-3.3692743E-3,-5.3422045E-2,-2.2304475E-3],"categories":[],"categories_nodes":[],"categories_segments":[],"categories_sizes":[],"default_left":[0,0,0,0,0,0,0,0,0,0,0,0,0,0,0,0,0,0,0,0,0,0,0,0,0,0,0,0,0],"id":17,"left_children":[1,3,5,7,9,11,13,15,17,-1,19,21,23,25,27,-1,-1,-1,-1,-1,-1,-1,-1,-1,-1,-1,-1,-1,-1],"loss_changes":[2.4544682E1,2.6386509E1,4.2968636E1,2.235042E1,3.7785637E1,3.7411877E1,5.3647224E1,2.110099E1,1.2598601E2,0E0,2.244801E1,3.1919771E1,2.6297825E1,2.1332296E1,8.9952835E1,0E0,0E0,0E0,0E0,0E0,0E0,0E0,0E0,0E0,0E0,0E0,0E0,0E0,0E0],"parents":[2147483647,0,0,1,1,2,2,3,3,4,4,5,5,6,6,7,7,8,8,10,10,11,11,12,12,13,13,14,14],"right_children":[2,4,6,8,10,12,14,16,18,-1,20,22,24,26,28,-1,-1,-1,-1,-1,-1,-1,-1,-1,-1,-1,-1,-1,-1],"split_conditions":[1.78E-2,1.5026E0,7.868E-1,5.39E2,-1.37E-2,3.661E-1,2.85E2,-1.7684E0,-7.975E-1,3.776152E-2,2.8802E0,2.551E-1,2.3799E0,8.173E-1,3.82E2,-4.9357116E-3,-9.29488E-5,5.7768E-2,1.4618515E-3,3.0632406E-3,2.9120347E-2,4.429554E-4,-2.2560969E-2,9.010939E-3,4.3913364E-2,-1.9517094E-2,-3.3692743E-3,-5.3422045E-2,-2.2304475E-3],"split_indices":[3,6,2,14,3,5,14,6,6,0,4,5,6,2,14,0,0,0,0,0,0,0,0,0,0,0,0,0,0],"split_type":[0,0,0,0,0,0,0,0,0,0,0,0,0,0,0,0,0,0,0,0,0,0,0,0,0,0,0,0,0],"sum_hessian":[2.9764E5,2.92927E5,4.713E3,2.91088E5,1.839E3,2.458E3,2.255E3,2.75773E5,1.5315E4,8.8E1,1.751E3,2.176E3,2.82E2,1.912E3,3.43E2,2.267E3,2.73506E5,9.9E1,1.5216E4,1.665E3,8.6E1,2.014E3,1.62E2,2.1E2,7.2E1,2.32E2,1.68E3,1.64E2,1.79E2],"tree_param":{"num_deleted":"0","num_feature":"15","num_nodes":"29","size_leaf_vector":"1"}},{"base_weights":[-1.3144405E-4,-2.2522337E-3,5.6512024E-2,-1.0548582E-3,-9.987349E-2,6.074519E-1,4.461963E-2,1.5926428E-1,-1.7168048E-3,-5.5555105E-2,-8.360088E-2,7.262753E-2,3.0201516E-1,3.896327E-2,5.411626E-2,-6.155318E-3,1.8759E-2,1.5871035E-4,-1.0900965E-3,-2.0412473E-2,-2.0686097E-3,4.172204E-2,-1.07674645E-2,4.5318124E-3,-1.7449063E-4],"categories":[],"categories_nodes":[],"categories_segments":[],"categories_sizes":[],"default_left":[0,0,0,0,0,0,0,0,0,0,0,0,0,0,0,0,0,0,0,0,0,0,0,0,0],"id":18,"left_children":[1,3,5,7,9,11,13,15,17,-1,19,-1,21,23,-1,-1,-1,-1,-1,-1,-1,-1,-1,-1,-1],"loss_changes":[3.5772587E1,3.3551567E1,7.038717E1,3.0092533E1,5.7138775E1,5.8155495E1,6.171231E1,7.113517E1,2.7741688E1,0E0,4.692437E1,0E0,4.6456654E1,2.2957148E1,0E0,0E0,0E0,0E0,0E0,0E0,0E0,0E0,0E0,0E0,0E0],"parents":[2147483647,0,0,1,1,2,2,3,3,4,4,5,5,6,6,7,7,8,8,10,10,12,12,13,13],"right_children":[2,4,6,8,10,12,14,16,18,-1,20,-1,22,24,-1,-1,-1,-1,-1,-1,-1,-1,-1,-1,-1],"split_conditions":[1.8966667E1,2.02E-2,-4.681E-1,-3.14E-2,-1.1494E0,5.364E-1,1.075E0,6.151E-1,4E0,-5.5555105E-2,1.32E-2,7.262753E-2,-3.589E-1,2E0,5.411626E-2,-6.155318E-3,1.8759E-2,1.5871035E-4,-1.0900965E-3,-2.0412473E-2,-2.0686097E-3,4.172204E-2,-1.07674645E-2,4.5318124E-3,-1.7449063E-4],"split_indices":[12,3,6,3,5,4,1,4,13,0,1,0,1,13,0,0,0,0,0,0,0,0,0,0,0],"split_type":[0,0,0,0,0,0,0,0,0,0,0,0,0,0,0,0,0,0,0,0,0,0,0,0,0],"sum_hessian":[2.97783E5,2.87037E5,1.0746E4,2.8356E5,3.477E3,2.26E2,1.052E4,1.165E3,2.82395E5,5.4E1,3.423E3,5.9E1,1.67E2,1.0464E4,5.6E1,5.05E2,6.6E2,2.27095E5,5.53E4,3.93E2,3.03E3,8.2E1,8.5E1,4.719E3,5.745E3],"tree_param":{"num_deleted":"0","num_feature":"15","num_nodes":"25","size_leaf_vector":"1"}},{"base_weights":[-2.0151083E-4,1.3641187E-3,-7.75407E-2,6.529901E-4,1.3063885E-1,3.5011265E-2,-8.69961E-2,-6.384839E-4,4.9230833E-2,5.046556E-1,6.304216E-2,-5.293114E-2,-2.8965807E-1,1.0652572E-4,-9.6261053E-4,2.032159E-3,2.1922296E-2,1.49562275E-2,5.8684696E-2,-1.9738091E-2,4.626415E-3,-3.7642192E-2,-2.2277182E-3,-4.0685806E-2,2.5851594E-3],"categories":[],"categories_nodes":[],"categories_segments":[],"categories_sizes":[],"default_left":[0,0,0,0,0,0,0,0,0,0,0,0,0,0,0,0,0,0,0,0,0,0,0,0,0],"id":19,"left_children":[1,3,5,7,9,-1,11,13,15,17,19,21,23,-1,-1,-1,-1,-1,-1,-1,-1,-1,-1,-1,-1],"loss_changes":[3.601658E1,2.6802197E1,4.3464706E1,1.8190882E1,4.0293446E1,0E0,4.0246883E1,1.4557696E1,2.5080591E1,3.320091E1,1.8286999E1,2.9246346E1,1.5013339E2,0E0,0E0,0E0,0E0,0E0,0E0,0E0,0E0,0E0,0E0,0E0,0E0],"parents":[2147483647,0,0,1,1,2,2,3,3,4,4,6,6,7,7,8,8,9,9,10,10,11,11,12,12],"right_children":[2,4,6,8,10,-1,12,14,16,18,20,22,24,-1,-1,-1,-1,-1,-1,-1,-1,-1,-1,-1,-1],"split_conditions":[1.6E-2,1.5026E0,4.01237E1,5.813E-1,9.9E-3,3.5011265E-2,1.4633333E1,2.704E-1,1.83667E1,1.35833E1,3.33E-2,9.31E-2,1.59E1,1.0652572E-4,-9.6261053E-4,2.032159E-3,2.1922296E-2,1.49562275E-2,5.8684696E-2,-1.9738091E-2,4.626415E-3,-3.7642192E-2,-2.2277182E-3,-4.0685806E-2,2.5851594E-3],"split_indices":[3,6,0,1,1,0,12,6,12,12,1,2,12,0,0,0,0,0,0,0,0,0,0,0,0],"split_type":[0,0,0,0,0,0,0,0,0,0,0,0,0,0,0,0,0,0,0,0,0,0,0,0,0],"sum_hessian":[2.97448E5,2.91547E5,5.901E3,2.89953E5,1.594E3,7E1,5.831E3,2.82445E5,7.508E3,2.43E2,1.351E3,4.993E3,8.38E2,2.4587E5,3.6575E4,7.347E3,1.61E2,1.87E2,5.6E1,8.1E1,1.27E3,5.8E1,4.935E3,3.3E2,5.08E2],"tree_param":{"num_deleted":"0","num_feature":"15","num_nodes":"25","size_leaf_vector":"1"}},{"base_weights":[1.2304912E-3,-8.654756E-4,4.6820715E-2,2.7904095E-4,-4.003053E-2,3.345054E-2,7.067674E-1,4.5651194E-2,-1.0120905E-3,2.7495775E-2,-4.6141636E-2,2.7319133E-2,3.3228633E-1,7.5987615E-2,4.223511E-1,2.903673E-3,-6.950134E-3,7.6513337E-3,-6.930964E-5,-3.9993595E-2,-1.9744167E-3,1.2151769E-3,3.083385E-2,4.1436195E-2,1.0448307E-2,1.8339508E-4,6.36372E-2],"categories":[],"categories_nodes":[],"categories_segments":[],"categories_sizes":[],"default_left":[0,0,0,0,0,0,0,0,0,0,0,0,0,0,0,0,0,0,0,0,0,0,0,0,0,0,0],"id":20,"left_children":[1,3,5,7,9,11,13,15,17,-1,19,21,23,-1,25,-1,-1,-1,-1,-1,-1,-1,-1,-1,-1,-1,-1],"loss_changes":[2.8471022E1,1.2768743E1,1.1553026E2,1.6213623E1,2.9184402E1,2.3511948E1,5.947693E1,1.7574139E1,1.5508188E1,0E0,4.011686E1,2.2343012E1,1.5621784E1,0E0,6.90681E1,0E0,0E0,0E0,0E0,0E0,0E0,0E0,0E0,0E0,0E0,0E0,0E0],"parents":[2147483647,0,0,1,1,2,2,3,3,4,4,5,5,6,6,7,7,8,8,10,10,11,11,12,12,14,14],"right_children":[2,4,6,8,10,12,14,16,18,-1,20,22,24,-1,26,-1,-1,-1,-1,-1,-1,-1,-1,-1,-1,-1,-1],"split_conditions":[1.8733334E1,1.37E-2,2.288E-1,-4.735E-1,1.44E-2,3.382E-1,7.634E-1,1.57E1,-3.14E-2,2.7495775E-2,-1.1494E0,1.01E-2,5.28469E1,7.5987615E-2,4.128E-1,2.903673E-3,-6.950134E-3,7.6513337E-3,-6.930964E-5,-3.9993595E-2,-1.9744167E-3,1.2151769E-3,3.083385E-2,4.1436195E-2,1.0448307E-2,1.8339508E-4,6.36372E-2],"split_indices":[12,3,5,5,2,1,2,12,3,0,5,3,0,0,5,0,0,0,0,0,0,0,0,0,0,0,0],"split_type":[0,0,0,0,0,0,0,0,0,0,0,0,0,0,0,0,0,0,0,0,0,0,0,0,0,0,0],"sum_hessian":[2.97951E5,2.84856E5,1.3095E4,2.76769E5,8.087E3,1.2836E4,2.59E2,7.657E3,2.69112E5,8.2E1,8.005E3,1.2579E4,2.57E2,6.6E1,1.93E2,7.175E3,4.82E2,6.51E2,2.68461E5,6.9E1,7.936E3,1.2516E4,6.3E1,5E1,2.07E2,1.3E2,6.3E1],"tree_param":{"num_deleted":"0","num_feature":"15","num_nodes":"27","size_leaf_vector":"1"}},{"base_weights":[-4.852627E-4,6.398029E-4,-7.168879E-2,1.2345746E-2,-7.0426683E-3,4.2373966E-2,-8.2512856E-2,1.1258612E-1,8.549039E-3,-2.899848E-3,-3.5854973E-2,-4.6475533E-2,-6.743678E-2,-6.153728E-3,8.009707E-3,1.0104594E-4,2.7967063E-3,-1.101468E-4,-6.00312E-3,-6.370553E-4,-5.828563E-3,2.8176813E-3,-5.1524644E-3],"categories":[],"categories_nodes":[],"categories_segments":[],"categories_sizes":[],"default_left":[0,0,0,0,0,0,0,0,0,0,0,0,0,0,0,0,0,0,0,0,0,0,0],"id":21,"left_children":[1,3,5,7,9,-1,11,13,15,17,19,-1,21,-1,-1,-1,-1,-1,-1,-1,-1,-1,-1],"loss_changes":[2.3855036E1,2.6363415E1,4.6154316E1,4.4207222E1,2.1126644E1,0E0,5.840841E1,4.757848E1,3.4621025E1,1.2634968E1,4.1509567E1,0E0,1.9843998E1,0E0,0E0,0E0,0E0,0E0,0E0,0E0,0E0,0E0,0E0],"parents":[2147483647,0,0,1,1,2,2,3,3,4,4,6,6,7,7,8,8,9,9,10,10,12,12],"right_children":[2,4,6,8,10,-1,12,14,16,18,20,-1,22,-1,-1,-1,-1,-1,-1,-1,-1,-1,-1],"split_conditions":[1.78E-2,2E0,-1.4794E0,-1.2E-2,1.65667E1,4.2373966E-2,-8.475E-1,2.58716E1,1.6966667E1,8.903E-1,4E0,-4.6475533E-2,5.922E-1,-6.153728E-3,8.009707E-3,1.0104594E-4,2.7967063E-3,-1.101468E-4,-6.00312E-3,-6.370553E-4,-5.828563E-3,2.8176813E-3,-5.1524644E-3],"split_indices":[3,13,6,3,12,0,6,0,12,5,13,0,2,0,0,0,0,0,0,0,0,0,0],"split_type":[0,0,0,0,0,0,0,0,0,0,0,0,0,0,0,0,0,0,0,0,0,0,0],"sum_hessian":[2.97782E5,2.93151E5,4.631E3,1.16158E5,1.76993E5,5.3E1,4.578E3,4.238E3,1.1192E5,1.54744E5,2.2249E4,7.9E1,4.499E3,7.12E2,3.526E3,9.8369E4,1.3551E4,1.5383E5,9.14E2,1.7297E4,4.952E3,1.005E3,3.494E3],"tree_param":{"num_deleted":"0","num_feature":"15","num_nodes":"23","size_leaf_vector":"1"}},{"base_weights":[7.8789063E-4,2.0998947E-3,-6.414299E-2,8.2190224E-4,4.5734394E-2,-2.95271E-2,-2.6030546E-1,1.14289775E-1,3.6173983E-4,3.946294E-2,3.578895E-2,-4.263798E-2,2.0480537E-1,-8.9996296E-1,2.4991125E-2,1.4465331E-2,-2.7380211E-2,6.0687576E-5,-2.7940306E-3,-3.818993E-3,3.5324711E-3,-2.6476874E-3,1.3931192E-2,4.2457815E-2,2.2133046E-3,-1.9037908E-2,-1.2613045E-1,-5.6714127E-3,2.4245668E-2],"categories":[],"categories_nodes":[],"categories_segments":[],"categories_sizes":[],"default_left":[0,0,0,0,0,0,0,0,0,0,0,0,0,0,0,0,0,0,0,0,0,0,0,0,0,0,0,0,0],"id":22,"left_children":[1,3,5,7,9,11,13,15,17,19,-1,21,23,25,27,-1,-1,-1,-1,-1,-1,-1,-1,-1,-1,-1,-1,-1,-1],"loss_changes":[2.5381432E1,1.6285387E1,4.0062103E1,1.4814538E1,3.4891655E1,1.5422489E1,1.6152798E2,1.3291402E2,1.3541297E1,2.9752613E1,0E0,1.576318E1,2.7478418E1,2.2903809E2,3.90799E1,0E0,0E0,0E0,0E0,0E0,0E0,0E0,0E0,0E0,0E0,0E0,0E0,0E0,0E0],"parents":[2147483647,0,0,1,1,2,2,3,3,4,4,5,5,6,6,7,7,8,8,9,9,11,11,12,12,13,13,14,14],"right_children":[2,4,6,8,10,12,14,16,18,20,-1,22,24,26,28,-1,-1,-1,-1,-1,-1,-1,-1,-1,-1,-1,-1,-1,-1],"split_conditions":[1.6E-2,5.813E-1,1.455E1,-3.14E-2,1.9216667E1,8.24449E1,1.275E-1,1.3416667E1,4.295E-1,8.9E0,3.578895E-2,3.0232E0,3.156E-1,3.08E-2,3.08E-2,1.4465331E-2,-2.7380211E-2,6.0687576E-5,-2.7940306E-3,-3.818993E-3,3.5324711E-3,-2.6476874E-3,1.3931192E-2,4.2457815E-2,2.2133046E-3,-1.9037908E-2,-1.2613045E-1,-5.6714127E-3,2.4245668E-2],"split_indices":[3,1,12,3,12,0,1,12,1,12,0,4,4,3,3,0,0,0,0,0,0,0,0,0,0,0,0,0,0],"split_type":[0,0,0,0,0,0,0,0,0,0,0,0,0,0,0,0,0,0,0,0,0,0,0,0,0,0,0,0,0],"sum_hessian":[2.97938E5,2.92038E5,5.9E3,2.83729E5,8.309E3,5.016E3,8.84E2,1.145E3,2.82584E5,8.233E3,7.6E1,4.751E3,2.65E2,2.72E2,6.12E2,9.06E2,2.39E2,2.78368E5,4.216E3,1.746E3,6.487E3,4.604E3,1.47E2,5.2E1,2.13E2,2.07E2,6.5E1,4.71E2,1.41E2],"tree_param":{"num_deleted":"0","num_feature":"15","num_nodes":"29","size_leaf_vector":"1"}},{"base_weights":[4.3727184E-4,2.193939E-2,-4.5471643E-3,-3.8470906E-1,2.3774715E-2,1.05930716E-1,-5.4166727E-3,2.0407058E-1,-1.2996303E-1,2.5600788E-1,2.0192107E-2,1.874331E-1,-2.0781161E-1,-4.761443E-3,-6.638171E-2,3.6303803E-2,-3.5170955E-3,2.5620466E-2,6.9611478E-3,5.952446E-4,4.459418E-3,5.793164E-3,3.169627E-2,-3.753082E-2,-5.1459903E-3,-2.7108326E-4,4.616046E-3,-1.4345804E-2,1.1492599E-3],"categories":[],"categories_nodes":[],"categories_segments":[],"categories_sizes":[],"default_left":[0,0,0,0,0,0,0,0,0,0,0,0,0,0,0,0,0,0,0,0,0,0,0,0,0,0,0,0,0],"id":23,"left_children":[1,3,5,7,9,11,13,15,-1,17,19,21,23,25,27,-1,-1,-1,-1,-1,-1,-1,-1,-1,-1,-1,-1,-1,-1],"loss_changes":[3.1935093E1,4.1859024E1,2.3237362E1,3.291089E2,4.6439598E1,4.8342094E1,9.587027E0,2.8700039E1,0E0,2.5321026E1,3.1433493E1,4.7859615E1,2.21277E1,1.5220459E1,5.030262E1,0E0,0E0,0E0,0E0,0E0,0E0,0E0,0E0,0E0,0E0,0E0,0E0,0E0,0E0],"parents":[2147483647,0,0,1,1,2,2,3,3,4,4,5,5,6,6,7,7,9,9,10,10,11,11,12,12,13,13,14,14],"right_children":[2,4,6,8,10,12,14,16,-1,18,20,22,24,26,28,-1,-1,-1,-1,-1,-1,-1,-1,-1,-1,-1,-1,-1,-1],"split_conditions":[1E0,-2.3434E0,-8.668E-1,1.09833E1,-1.81E-2,1.93E-1,2.02E-2,-1.1494E0,-1.2996303E-1,-1.1589E0,1.7233334E1,2.77E2,-1.0585E0,1.5026E0,2E0,3.6303803E-2,-3.5170955E-3,2.5620466E-2,6.9611478E-3,5.952446E-4,4.459418E-3,5.793164E-3,3.169627E-2,-3.753082E-2,-5.1459903E-3,-2.7108326E-4,4.616046E-3,-1.4345804E-2,1.1492599E-3],"split_indices":[13,6,5,12,3,2,3,5,0,6,12,14,6,6,13,0,0,0,0,0,0,0,0,0,0,0,0,0,0],"split_type":[0,0,0,0,0,0,0,0,0,0,0,0,0,0,0,0,0,0,0,0,0,0,0,0,0,0,0,0,0],"sum_hessian":[2.97967E5,5.6073E4,2.41894E5,2.51E2,5.5822E4,1.888E3,2.40006E5,1.99E2,5.2E1,8.47E2,5.4975E4,1.499E3,3.89E2,2.37455E5,2.551E3,6.8E1,1.31E2,2.64E2,5.83E2,4.9081E4,5.894E3,1.293E3,2.06E2,6.2E1,3.27E2,2.35852E5,1.603E3,7.35E2,1.816E3],"tree_param":{"num_deleted":"0","num_feature":"15","num_nodes":"29","size_leaf_vector":"1"}},{"base_weights":[7.442908E-5,1.7103605E-2,-3.8676085E-3,1.06840685E-1,9.507293E-3,7.315161E-2,-4.7774175E-3,-2.4546778E-1,1.2788509E-1,-3.3248118E-1,1.1168924E-2,5.5903014E-2,5.0562937E-2,-5.2321786E-3,1.2195717E-1,-1.03531994E-1,1.1414237E-2,2.4613535E-2,5.357909E-3,7.7728913E-3,-7.153893E-2,2.628438E-5,2.2444353E-3,6.6594905E-3,-1.5085036E-2,-2.2789299E-4,-1.0512386E-2,1.7970664E-3,2.865605E-2],"categories":[],"categories_nodes":[],"categories_segments":[],"categories_sizes":[],"default_left":[0,0,0,0,0,0,0,0,0,0,0,0,0,0,0,0,0,0,0,0,0,0,0,0,0,0,0,0,0],"id":24,"left_children":[1,3,5,7,9,11,13,15,17,19,21,23,-1,25,27,-1,-1,-1,-1,-1,-1,-1,-1,-1,-1,-1,-1,-1,-1],"loss_changes":[2.0024574E1,3.8221634E1,1.6973734E1,3.247558E1,2.9380985E1,4.5703426E1,1.3798086E1,2.1404865E2,3.1139427E1,1.3419795E2,1.8464027E1,7.681868E1,0E0,3.297662E1,3.3198395E1,0E0,0E0,0E0,0E0,0E0,0E0,0E0,0E0,0E0,0E0,0E0,0E0,0E0,0E0],"parents":[2147483647,0,0,1,1,2,2,3,3,4,4,5,5,6,6,7,7,8,8,9,9,10,10,11,11,13,13,14,14],"right_children":[2,4,6,8,10,12,14,16,18,20,22,24,-1,26,28,-1,-1,-1,-1,-1,-1,-1,-1,-1,-1,-1,-1,-1,-1],"split_conditions":[1E0,-7.1E-3,-1.4794E0,-2.3434E0,-1.1589E0,1.27E-2,8.24449E1,2.998E-1,-3.14E-2,-2.07E-2,9.82E-2,-5.4E-2,5.0562937E-2,2.3799E0,2.3799E0,-1.03531994E-1,1.1414237E-2,2.4613535E-2,5.357909E-3,7.7728913E-3,-7.153893E-2,2.628438E-5,2.2444353E-3,6.6594905E-3,-1.5085036E-2,-2.2789299E-4,-1.0512386E-2,1.7970664E-3,2.865605E-2],"split_indices":[13,3,6,6,6,3,0,4,3,1,1,1,0,6,6,0,0,0,0,0,0,0,0,0,0,0,0,0,0],"split_type":[0,0,0,0,0,0,0,0,0,0,0,0,0,0,0,0,0,0,0,0,0,0,0,0,0,0,0,0,0],"sum_hessian":[2.98295E5,5.6071E4,2.42224E5,4.375E3,5.1696E4,2.827E3,2.39397E5,2.46E2,4.129E3,2.49E2,5.1447E4,2.777E3,5E1,2.38542E5,8.55E2,5E1,1.96E2,2.21E2,3.908E3,1.73E2,7.6E1,3.9105E4,1.2342E4,2.284E3,4.93E2,2.37761E5,7.81E2,7.19E2,1.36E2],"tree_param":{"num_deleted":"0","num_feature":"15","num_nodes":"29","size_leaf_vector":"1"}},{"base_weights":[2.636601E-4,-1.3750031E-3,4.368829E-2,-1.109656E-2,4.026875E-3,3.840164E-2,4.6682023E-2,-1.5860699E-1,-9.395816E-3,3.385757E-1,2.9349516E-3,3.7474176E-1,2.7414246E-2,-2.9100716E-2,-1.8197157E-3,-3.8103134E-4,-5.390645E-3,4.261493E-2,8.138343E-3,1.7453995E-4,-9.0302965E-3,3.5129655E-2,2.2349476E-3,4.299976E-3,-1.0622801E-3],"categories":[],"categories_nodes":[],"categories_segments":[],"categories_sizes":[],"default_left":[0,0,0,0,0,0,0,0,0,0,0,0,0,0,0,0,0,0,0,0,0,0,0,0,0],"id":25,"left_children":[1,3,5,7,9,11,-1,13,15,17,19,21,23,-1,-1,-1,-1,-1,-1,-1,-1,-1,-1,-1,-1],"loss_changes":[2.1222109E1,1.5092392E1,5.098838E1,2.5751839E1,6.74852E1,3.9834633E1,0E0,6.052134E1,1.7729343E1,5.4141823E1,1.8786827E1,3.6866497E1,2.9769361E1,0E0,0E0,0E0,0E0,0E0,0E0,0E0,0E0,0E0,0E0,0E0,0E0],"parents":[2147483647,0,0,1,1,2,2,3,3,4,4,5,5,7,7,8,8,9,9,10,10,11,11,12,12],"right_children":[2,4,6,8,10,12,-1,14,16,18,20,22,24,-1,-1,-1,-1,-1,-1,-1,-1,-1,-1,-1,-1],"split_conditions":[1.8966667E1,6.473E-1,1.075E0,2.58716E1,-3.14E-2,-3.244E-1,4.6682023E-2,-1.81E-2,5.179E-1,1E0,1.885E1,7.965E-1,2E0,-2.9100716E-2,-1.8197157E-3,-3.8103134E-4,-5.390645E-3,4.261493E-2,8.138343E-3,1.7453995E-4,-9.0302965E-3,3.5129655E-2,2.2349476E-3,4.299976E-3,-1.0622801E-3],"split_indices":[12,4,1,0,3,1,0,3,5,13,12,4,13,0,0,0,0,0,0,0,0,0,0,0,0],"split_type":[0,0,0,0,0,0,0,0,0,0,0,0,0,0,0,0,0,0,0,0,0,0,0,0,0],"sum_hessian":[2.98236E5,2.87392E5,1.0844E4,1.02652E5,1.8474E5,1.0781E4,6.3E1,1.169E3,1.01483E5,6E2,1.8414E5,3.4E2,1.0441E4,2.61E2,9.08E2,9.9686E4,1.797E3,1.52E2,4.48E2,1.83585E5,5.55E2,1.7E2,1.7E2,4.737E3,5.704E3],"tree_param":{"num_deleted":"0","num_feature":"15","num_nodes":"25","size_leaf_vector":"1"}},{"base_weights":[9.1749063E-4,1.717749E-2,-2.8531614E-3,-4.0959242E-1,1.910191E-2,-4.4882847E-3,2.7842402E-2,5.8124354E-4,-9.748447E-2,1.777688E-1,1.3440344E-2,-3.5485069E-3,-9.216228E-2,2.2144156E-2,4.7201577E-1,2.2652524E-2,-1.0539774E-2,5.90893E-3,2.929525E-2,-4.7732327E-2,7.3758594E-4,7.1986946E-3,-2.0268625E-4,1.12282345E-2,-7.7419914E-3,6.2507675E-3,6.275011E-4,5.280198E-3,6.085689E-2],"categories":[],"categories_nodes":[],"categories_segments":[],"categories_sizes":[],"default_left":[0,0,0,0,0,0,0,0,0,0,0,0,0,0,0,0,0,0,0,0,0,0,0,0,0,0,0,0,0],"id":26,"left_children":[1,3,5,7,9,11,13,15,-1,17,19,21,23,25,27,-1,-1,-1,-1,-1,-1,-1,-1,-1,-1,-1,-1,-1,-1],"loss_changes":[1.828048E1,4.6104042E1,1.2148062E1,1.5919135E2,5.0191208E1,1.893334E1,3.0971638E1,1.9223795E1,0E0,4.674853E1,6.8507515E1,1.6945797E1,4.8413292E1,1.1927818E1,4.2189796E1,0E0,0E0,0E0,0E0,0E0,0E0,0E0,0E0,0E0,0E0,0E0,0E0,0E0,0E0],"parents":[2147483647,0,0,1,1,2,2,3,3,4,4,5,5,6,6,7,7,9,9,10,10,11,11,12,12,13,13,14,14],"right_children":[2,4,6,8,10,12,14,16,-1,18,20,22,24,26,28,-1,-1,-1,-1,-1,-1,-1,-1,-1,-1,-1,-1,-1,-1],"split_conditions":[1E0,-2.3434E0,2.5443E0,1.09833E1,-1.2E-2,7.332E-1,1.2127E0,5.094E-1,-9.748447E-2,1.44167E1,-1.7684E0,-2.3434E0,-7.07E-2,-5.233E-1,1.02E1,2.2652524E-2,-1.0539774E-2,5.90893E-3,2.929525E-2,-4.7732327E-2,7.3758594E-4,7.1986946E-3,-2.0268625E-4,1.12282345E-2,-7.7419914E-3,6.2507675E-3,6.275011E-4,5.280198E-3,6.085689E-2],"split_indices":[13,6,4,12,3,5,5,4,0,12,6,6,6,6,12,0,0,0,0,0,0,0,0,0,0,0,0,0,0],"split_type":[0,0,0,0,0,0,0,0,0,0,0,0,0,0,0,0,0,0,0,0,0,0,0,0,0,0,0,0,0],"sum_hessian":[2.98159E5,5.6126E4,2.42033E5,2.51E2,5.5875E4,2.29793E5,1.224E4,1.99E2,5.2E1,1.924E3,5.3951E4,2.27357E5,2.436E3,1.2086E4,1.54E2,6.3E1,1.36E2,1.68E3,2.44E2,7.2E1,5.3879E4,7.75E2,2.26582E5,4.02E2,2.034E3,1.03E3,1.1056E4,1.04E2,5E1],"tree_param":{"num_deleted":"0","num_feature":"15","num_nodes":"29","size_leaf_vector":"1"}},{"base_weights":[-4.2313518E-4,7.206831E-4,-5.6780934E-2,3.689114E-4,1.686712E-1,4.182735E-2,-6.451558E-2,9.389851E-3,-5.53463E-3,2.7902247E-2,6.556073E-2,-2.734698E-2,-2.806906E-1,1.2028353E-4,3.0354364E-3,6.7667547E-3,-3.2847704E-4,-4.5738395E-2,7.540073E-3,-3.3582997E-2,-1.0234575E-3,-3.5707098E-2,9.6439477E-4],"categories":[],"categories_nodes":[],"categories_segments":[],"categories_sizes":[],"default_left":[0,0,0,0,0,0,0,0,0,0,0,0,0,0,0,0,0,0,0,0,0,0,0],"id":27,"left_children":[1,3,5,7,9,-1,11,13,15,17,-1,19,21,-1,-1,-1,-1,-1,-1,-1,-1,-1,-1],"loss_changes":[1.9226864E1,1.7270805E1,4.10485E1,1.5535689E1,9.8233376E1,0E0,4.726178E1,4.1359055E1,2.5707188E1,6.327806E1,0E0,2.2236687E1,1.1222631E2,0E0,0E0,0E0,0E0,0E0,0E0,0E0,0E0,0E0,0E0],"parents":[2147483647,0,0,1,1,2,2,3,3,4,4,6,6,7,7,8,8,9,9,11,11,12,12],"right_children":[2,4,6,8,10,-1,12,14,16,18,-1,20,22,-1,-1,-1,-1,-1,-1,-1,-1,-1,-1],"split_conditions":[1.6E-2,1.2127E0,1.44E-2,2E0,1.455E1,4.182735E-2,1.455E1,1.6966667E1,-8.668E-1,-1.1589E0,6.556073E-2,-1.1494E0,1.59E1,1.2028353E-4,3.0354364E-3,6.7667547E-3,-3.2847704E-4,-4.5738395E-2,7.540073E-3,-3.3582997E-2,-1.0234575E-3,-3.5707098E-2,9.6439477E-4],"split_indices":[3,5,2,13,12,0,12,12,5,6,0,5,12,0,0,0,0,0,0,0,0,0,0],"split_type":[0,0,0,0,0,0,0,0,0,0,0,0,0,0,0,0,0,0,0,0,0,0,0],"sum_hessian":[2.9826E5,2.92328E5,5.932E3,2.91718E5,6.1E2,5E1,5.882E3,1.15392E5,1.76326E5,5.44E2,6.6E1,5.02E3,8.62E2,1.0157E5,1.3822E4,1.285E3,1.75041E5,6.2E1,4.82E2,5.2E1,4.968E3,3.52E2,5.1E2],"tree_param":{"num_deleted":"0","num_feature":"15","num_nodes":"23","size_leaf_vector":"1"}},{"base_weights":[2.1019839E-3,5.6667022E-2,3.460143E-4,4.7789514E-2,7.7736485E-1,1.1816112E-3,-6.62694E-2,2.0327884E-1,1.5264181E-2,7.9648465E-2,5.2387216E-3,-7.3505624E-4,4.800901E-2,-3.5227904E-1,-2.7799405E-2,1.4725879E-2,-1.0567087E-2,4.7475574E-4,3.758919E-2,1.5130135E-5,-6.4928844E-3,-2.4034814E-3,3.6458045E-3,-7.117539E-2,-9.269887E-3,3.142993E-2,-2.4084346E-3],"categories":[],"categories_nodes":[],"categories_segments":[],"categories_sizes":[],"default_left":[0,0,0,0,0,0,0,0,0,0,0,0,0,0,0,0,0,0,0,0,0,0,0,0,0,0,0],"id":28,"left_children":[1,3,5,7,9,11,13,15,17,-1,-1,19,21,23,25,-1,-1,-1,-1,-1,-1,-1,-1,-1,-1,-1,-1],"loss_changes":[2.8555784E1,5.941307E1,1.6072449E1,4.64233E1,6.1821243E1,2.559432E1,3.9347183E1,6.013542E1,3.2255745E1,0E0,0E0,3.6705708E1,2.6836641E1,7.553374E1,4.2200394E1,0E0,0E0,0E0,0E0,0E0,0E0,0E0,0E0,0E0,0E0,0E0,0E0],"parents":[2147483647,0,0,1,1,2,2,3,3,4,4,5,5,6,6,7,7,8,8,11,11,12,12,13,13,14,14],"right_children":[2,4,6,8,10,12,14,16,18,-1,-1,20,22,24,26,-1,-1,-1,-1,-1,-1,-1,-1,-1,-1,-1,-1],"split_conditions":[-1.28E-2,1.3073E0,2.02E-2,8.9E0,-3.64E-2,4.93E-1,1.32E-2,-1.052E-1,1.423E-1,7.9648465E-2,5.2387216E-3,4.295E-1,8.9E0,2.036E-1,1.336E-1,1.4725879E-2,-1.0567087E-2,4.7475574E-4,3.758919E-2,1.5130135E-5,-6.4928844E-3,-2.4034814E-3,3.6458045E-3,-7.117539E-2,-9.269887E-3,3.142993E-2,-2.4084346E-3],"split_indices":[3,6,3,12,1,1,1,1,1,0,0,1,12,4,4,0,0,0,0,0,0,0,0,0,0,0,0],"split_type":[0,0,0,0,0,0,0,0,0,0,0,0,0,0,0,0,0,0,0,0,0,0,0,0,0,0,0],"sum_hessian":[2.98031E5,9.291E3,2.8874E5,9.179E3,1.12E2,2.85164E5,3.576E3,1.587E3,7.592E3,5E1,6.2E1,2.73952E5,1.1212E4,4.23E2,3.153E3,1.301E3,2.86E2,7.534E3,5.8E1,2.71769E5,2.183E3,2.308E3,8.904E3,5.6E1,3.67E2,9.4E1,3.059E3],"tree_param":{"num_deleted":"0","num_feature":"15","num_nodes":"27","size_leaf_vector":"1"}},{"base_weights":[-7.846124E-4,1.4591583E-2,-4.366859E-3,1.2508636E-2,2.4995615E-1,-1.2230133E-2,2.2349285E-3,9.302983E-3,1.1092292E-1,5.631038E-1,-2.9484179E-2,-1.1320984E-2,-8.301216E-2,1.6311563E-3,3.741311E-1,7.797833E-4,-2.5500474E-3,-7.2027952E-3,6.729021E-3,-7.1320604E-3,4.24406E-2,1.1262182E-2,-2.7670337E-2,-6.6512846E-4,6.8492367E-4,1.5915547E-2,-6.736442E-3,1.19688724E-4,-5.7870066E-3,3.546279E-2,-1.0749267E-2],"categories":[],"categories_nodes":[],"categories_segments":[],"categories_sizes":[],"default_left":[0,0,0,0,0,0,0,0,0,0,0,0,0,0,0,0,0,0,0,0,0,0,0,0,0,0,0,0,0,0,0],"id":29,"left_children":[1,3,5,7,9,11,13,15,17,19,21,23,25,27,29,-1,-1,-1,-1,-1,-1,-1,-1,-1,-1,-1,-1,-1,-1,-1,-1],"loss_changes":[1.6417767E1,2.760786E1,1.254936E1,1.7611385E1,4.3244614E1,7.0990124E0,2.9507168E1,2.051779E1,1.0642025E1,4.7102524E1,3.5090553E1,5.4008837E0,2.907926E1,1.1744099E1,4.220452E1,0E0,0E0,0E0,0E0,0E0,0E0,0E0,0E0,0E0,0E0,0E0,0E0,0E0,0E0,0E0,0E0],"parents":[2147483647,0,0,1,1,2,2,3,3,4,4,5,5,6,6,7,7,8,8,9,9,10,10,11,11,12,12,13,13,14,14],"right_children":[2,4,6,8,10,12,14,16,18,20,22,24,26,28,30,-1,-1,-1,-1,-1,-1,-1,-1,-1,-1,-1,-1,-1,-1,-1,-1],"split_conditions":[1E0,8.903E-1,1.1933333E1,7.12E-1,6.82791E1,8.903E-1,1.2127E0,1.946E-1,2.829E-1,5.52196E1,9.983334E0,2.879E-1,2.916E-1,6.381E-1,1.87E-1,7.797833E-4,-2.5500474E-3,-7.2027952E-3,6.729021E-3,-7.1320604E-3,4.24406E-2,1.1262182E-2,-2.7670337E-2,-6.6512846E-4,6.8492367E-4,1.5915547E-2,-6.736442E-3,1.19688724E-4,-5.7870066E-3,3.546279E-2,-1.0749267E-2],"split_indices":[13,5,12,1,0,5,5,5,4,0,12,5,4,5,1,0,0,0,0,0,0,0,0,0,0,0,0,0,0,0,0],"split_type":[0,0,0,0,0,0,0,0,0,0,0,0,0,0,0,0,0,0,0,0,0,0,0,0,0,0,0,0,0,0,0],"sum_hessian":[2.98062E5,5.6319E4,2.41743E5,5.5826E4,4.93E2,1.1033E5,1.31413E5,5.4066E4,1.76E3,2.32E2,2.61E2,1.08932E5,1.398E3,1.31201E5,2.12E2,4.8958E4,5.108E3,1.49E2,1.611E3,6.7E1,1.65E2,1.76E2,8.5E1,1.00938E5,7.994E3,1.59E2,1.239E3,1.30355E5,8.46E2,1.35E2,7.7E1],"tree_param":{"num_deleted":"0","num_feature":"15","num_nodes":"31","size_leaf_vector":"1"}},{"base_weights":[-1.8326196E-5,1.7827258E-1,-7.179795E-4,-2.5673705E-1,3.1814158E-1,-1.8726867E-3,4.5561157E-2,-9.3554825E-2,1.8403375E-1,4.9673706E-1,4.4692997E-3,-1.0315639E-3,-5.3526394E-2,4.7151957E-2,3.6778115E-2,4.1810416E-2,-2.7117988E-3,2.0060793E-2,6.302991E-2,4.1738357E-2,-1.6637271E-2,-1.11800575E-4,1.6662965E-3,1.5709765E-2,-3.7532975E-3,2.4122935E-2,1.1619098E-3],"categories":[],"categories_nodes":[],"categories_segments":[],"categories_sizes":[],"default_left":[0,0,0,0,0,0,0,0,0,0,0,0,0,0,0,0,0,0,0,0,0,0,0,0,0,0,0],"id":30,"left_children":[1,3,5,7,9,11,13,-1,15,17,19,21,23,-1,25,-1,-1,-1,-1,-1,-1,-1,-1,-1,-1,-1,-1],"loss_changes":[3.7177933E1,7.0965355E1,1.5864692E1,2.024281E2,4.940782E1,1.2584315E1,5.6932777E1,0E0,3.4853485E1,4.0500504E1,9.015411E1,1.1794217E1,3.678291E1,0E0,4.318359E1,0E0,0E0,0E0,0E0,0E0,0E0,0E0,0E0,0E0,0E0,0E0,0E0],"parents":[2147483647,0,0,1,1,2,2,3,3,4,4,5,5,6,6,8,8,9,9,10,10,11,11,12,12,14,14],"right_children":[2,4,6,8,10,12,14,-1,16,18,20,22,24,-1,26,-1,-1,-1,-1,-1,-1,-1,-1,-1,-1,-1,-1],"split_conditions":[-3.14E-2,3.544E-1,5.9E2,2.47653E1,3E0,1.78E-2,-3.305E-1,-9.3554825E-2,1E0,3.661E-1,-1.0452E0,5.351E-1,4.79916E1,4.7151957E-2,-3.244E-1,4.1810416E-2,-2.7117988E-3,2.0060793E-2,6.302991E-2,4.1738357E-2,-1.6637271E-2,-1.11800575E-4,1.6662965E-3,1.5709765E-2,-3.7532975E-3,2.4122935E-2,1.1619098E-3],"split_indices":[3,4,14,0,13,3,5,0,13,5,1,1,0,0,1,0,0,0,0,0,0,0,0,0,0,0,0],"split_type":[0,0,0,0,0,0,0,0,0,0,0,0,0,0,0,0,0,0,0,0,0,0,0,0,0,0,0],"sum_hessian":[2.98037E5,1.164E3,2.96873E5,2.83E2,8.81E2,2.89647E5,7.226E3,6E1,2.23E2,5.61E2,3.2E2,2.85007E5,4.64E3,6.9E1,7.157E3,5.9E1,1.64E2,5E2,6.1E1,9.2E1,2.28E2,2.75355E5,9.652E3,2.56E2,4.384E3,2.1E2,6.947E3],"tree_param":{"num_deleted":"0","num_feature":"15","num_nodes":"27","size_leaf_vector":"1"}},{"base_weights":[3.1500522E-4,4.00408E-2,-6.419525E-4,-6.1153425E-3,1.0867073E-1,-1.8600656E-3,3.0944306E-2,-1.4315566E-1,4.524868E-2,5.241894E-1,8.460068E-2,-1.2790667E-3,-7.664116E-2,2.55913E-2,5.5770226E-2,-2.017389E-3,-8.240524E-2,6.1268144E-4,2.3882048E-2,1.2046493E-2,4.4420406E-2,4.95558E-3,-3.15932E-2,-8.367817E-5,6.4156028E-3,-3.5989232E-2,-2.1698598E-3,2.2540716E-2,9.0693583E-4],"categories":[],"categories_nodes":[],"categories_segments":[],"categories_sizes":[],"default_left":[0,0,0,0,0,0,0,0,0,0,0,0,0,0,0,0,0,0,0,0,0,0,0,0,0,0,0,0,0],"id":31,"left_children":[1,3,5,7,9,11,13,15,17,19,21,23,25,27,-1,-1,-1,-1,-1,-1,-1,-1,-1,-1,-1,-1,-1,-1,-1],"loss_changes":[1.131793E1,2.2184017E1,1.1185426E1,2.9485567E1,2.8120037E1,1.216175E1,6.263774E1,1.7662448E2,4.3465096E1,1.5673897E1,2.7748676E1,1.4200315E1,4.6108173E1,3.4036507E1,0E0,0E0,0E0,0E0,0E0,0E0,0E0,0E0,0E0,0E0,0E0,0E0,0E0,0E0,0E0],"parents":[2147483647,0,0,1,1,2,2,3,3,4,4,5,5,6,6,7,7,8,8,9,9,10,10,11,11,12,12,13,13],"right_children":[2,4,6,8,10,12,14,16,18,20,22,24,26,28,-1,-1,-1,-1,-1,-1,-1,-1,-1,-1,-1,-1,-1,-1,-1],"split_conditions":[-5.132E-1,1.2085E0,5.68E2,-1.2942E0,1.2567E0,2.39E-2,1.075E0,3.7E2,3.67E2,4.07E-2,1.075E0,1.2127E0,3E-3,-4.681E-1,5.5770226E-2,-2.017389E-3,-8.240524E-2,6.1268144E-4,2.3882048E-2,1.2046493E-2,4.4420406E-2,4.95558E-3,-3.15932E-2,-8.367817E-5,6.4156028E-3,-3.5989232E-2,-2.1698598E-3,2.2540716E-2,9.0693583E-4],"split_indices":[5,4,14,6,4,3,1,14,14,2,1,5,1,6,0,0,0,0,0,0,0,0,0,0,0,0,0,0,0],"split_type":[0,0,0,0,0,0,0,0,0,0,0,0,0,0,0,0,0,0,0,0,0,0,0,0,0,0,0,0,0],"sum_hessian":[2.97714E5,7.002E3,2.90712E5,4.187E3,2.815E3,2.79918E5,1.0794E4,1.141E3,3.046E3,1.53E2,2.662E3,2.77761E5,2.157E3,1.0742E4,5.2E1,1.069E3,7.2E1,2.831E3,2.15E2,8.7E1,6.6E1,2.61E3,5.2E1,2.76919E5,8.42E2,1.05E2,2.052E3,1.84E2,1.0558E4],"tree_param":{"num_deleted":"0","num_feature":"15","num_nodes":"29","size_leaf_vector":"1"}},{"base_weights":[-6.933924E-4,1.5471447E-1,-1.306054E-3,2.6939958E-1,-5.391643E-1,1.1543622E-2,-4.2882897E-3,5.014429E-1,-9.053906E-2,-1.0367304E-1,2.8219676E-1,4.7274996E-2,-5.1382E-4,1.4247598E-1,-4.6566124E-3,1.9769186E-2,7.930688E-2,-2.7249549E-2,2.1029765E-2,3.055583E-2,-4.5051114E-3,2.0012807E-3,1.657821E-2,-2.6728963E-2,1.19068965E-4,2.001194E-3,5.8034044E-2,-6.6966377E-3,-2.137214E-4],"categories":[],"categories_nodes":[],"categories_segments":[],"categories_sizes":[],"default_left":[0,0,0,0,0,0,0,0,0,0,0,0,0,0,0,0,0,0,0,0,0,0,0,0,0,0,0,0,0],"id":32,"left_children":[1,3,5,7,9,11,13,15,17,-1,19,21,23,25,27,-1,-1,-1,-1,-1,-1,-1,-1,-1,-1,-1,-1,-1,-1],"loss_changes":[2.8320278E1,9.309184E1,1.1353494E1,8.3817314E1,2.0978018E2,2.4044157E1,1.2999451E1,6.954837E1,9.17499E1,0E0,1.3402825E1,2.9006548E1,6.4523735E1,6.2752514E1,1.1850523E1,0E0,0E0,0E0,0E0,0E0,0E0,0E0,0E0,0E0,0E0,0E0,0E0,0E0,0E0],"parents":[2147483647,0,0,1,1,2,2,3,3,4,4,5,5,6,6,7,7,8,8,10,10,11,11,12,12,13,13,14,14],"right_children":[2,4,6,8,10,12,14,16,18,-1,20,22,24,26,28,-1,-1,-1,-1,-1,-1,-1,-1,-1,-1,-1,-1,-1,-1],"split_conditions":[-3.14E-2,3.35E2,1E0,3E0,-2.3434E0,-1.8E-3,-2.3434E0,4.755E-1,4E0,-1.0367304E-1,6.43E-1,5.39E2,-9.034E-1,-9.1E-3,-2.43E-2,1.9769186E-2,7.930688E-2,-2.7249549E-2,2.1029765E-2,3.055583E-2,-4.5051114E-3,2.0012807E-3,1.657821E-2,-2.6728963E-2,1.19068965E-4,2.001194E-3,5.8034044E-2,-6.6966377E-3,-2.137214E-4],"split_indices":[3,14,13,13,6,3,6,5,13,0,4,14,6,1,3,0,0,0,0,0,0,0,0,0,0,0,0,0,0],"split_type":[0,0,0,0,0,0,0,0,0,0,0,0,0,0,0,0,0,0,0,0,0,0,0,0,0,0,0,0,0],"sum_hessian":[2.9744E5,1.167E3,2.96273E5,1.002E3,1.65E2,5.5808E4,2.40465E5,6.09E2,3.93E2,5.7E1,1.08E2,1.408E4,4.1728E4,6.01E2,2.39864E5,5.56E2,5.3E1,2.08E2,1.85E2,5.7E1,5.1E1,1.3731E4,3.49E2,2.24E2,4.1504E4,5.47E2,5.4E1,7.06E2,2.39158E5],"tree_param":{"num_deleted":"0","num_feature":"15","num_nodes":"29","size_leaf_vector":"1"}},{"base_weights":[-2.2968787E-3,-3.0021588E-3,5.7266194E-2,-1.0960663E-2,1.4725237E-3,4.296707E-2,4.1079905E-2,-2.1501166E-1,-9.931444E-3,1.9085924E-1,8.7401347E-4,6.5746725E-2,-2.3343357E-1,-2.621742E-2,1.16476035E-2,-4.052688E-4,-3.7023057E-3,1.6755668E-2,-1.0126228E-2,-2.67664E-3,1.1074429E-4,2.4096272E-3,3.044538E-2,-6.0757942E-2,5.3859496E-4],"categories":[],"categories_nodes":[],"categories_segments":[],"categories_sizes":[],"default_left":[0,0,0,0,0,0,0,0,0,0,0,0,0,0,0,0,0,0,0,0,0,0,0,0,0],"id":33,"left_children":[1,3,5,7,9,11,-1,13,15,17,19,21,23,-1,-1,-1,-1,-1,-1,-1,-1,-1,-1,-1,-1],"loss_changes":[1.2521105E1,1.0490143E1,3.8086025E1,2.2262398E1,2.137252E1,2.158021E1,0E0,7.3842255E1,1.2349233E1,3.3775734E1,1.3712433E1,3.0148119E1,6.258593E1,0E0,0E0,0E0,0E0,0E0,0E0,0E0,0E0,0E0,0E0,0E0,0E0],"parents":[2147483647,0,0,1,1,2,2,3,3,4,4,5,5,7,7,8,8,9,9,10,10,11,11,12,12],"right_children":[2,4,6,8,10,12,-1,14,16,18,20,22,24,-1,-1,-1,-1,-1,-1,-1,-1,-1,-1,-1,-1],"split_conditions":[1.5026E0,6.473E-1,4.4654E0,-3.14E-2,-3.14E-2,1.5583333E1,4.1079905E-2,3.64919E1,1.2E-2,3.76317E1,-7.863E-1,1.49333E1,8.43E-2,-2.621742E-2,1.16476035E-2,-4.052688E-4,-3.7023057E-3,1.6755668E-2,-1.0126228E-2,-2.67664E-3,1.1074429E-4,2.4096272E-3,3.044538E-2,-6.0757942E-2,5.3859496E-4],"split_indices":[6,4,4,3,3,12,0,0,3,0,1,12,1,0,0,0,0,0,0,0,0,0,0,0,0],"split_type":[0,0,0,0,0,0,0,0,0,0,0,0,0,0,0,0,0,0,0,0,0,0,0,0,0],"sum_hessian":[2.98055E5,2.94568E5,3.487E3,1.06014E5,1.88554E5,3.424E3,6.3E1,5.31E2,1.05483E5,5.93E2,1.87961E5,3.164E3,2.6E2,3.14E2,2.17E2,1.02563E5,2.92E3,4.34E2,1.59E2,4.52E3,1.83441E5,3.066E3,9.8E1,5.1E1,2.09E2],"tree_param":{"num_deleted":"0","num_feature":"15","num_nodes":"25","size_leaf_vector":"1"}},{"base_weights":[-1.1905108E-4,2.1178061E-2,-2.134947E-3,3.724583E-1,1.6833285E-2,-8.594601E-2,-1.3301835E-3,5.567806E-2,1.8276373E-1,1.7597506E-2,-1.6833369E-2,-6.758978E-2,-5.129299E-2,6.6578216E-3,-6.5743555E-3,-2.5025106E-4,1.391823E-2,5.546952E-4,2.7009423E-3,-1.4554516E-3,-1.3459961E-2,1.2392727E-5,2.7820931E-3,-3.5703368E-4,6.794799E-3],"categories":[],"categories_nodes":[],"categories_segments":[],"categories_sizes":[],"default_left":[0,0,0,0,0,0,0,0,0,0,0,0,0,0,0,0,0,0,0,0,0,0,0,0,0],"id":34,"left_children":[1,3,5,7,9,11,13,-1,15,17,-1,-1,19,21,23,-1,-1,-1,-1,-1,-1,-1,-1,-1,-1],"loss_changes":[1.2803239E1,3.935072E1,1.8374699E1,4.408019E1,6.887511E0,1.135862E2,1.1303728E1,0E0,4.525011E0,6.0203958E0,0E0,0E0,1.2188402E1,3.35786E1,1.3144073E1,0E0,0E0,0E0,0E0,0E0,0E0,0E0,0E0,0E0,0E0],"parents":[2147483647,0,0,1,1,2,2,3,3,4,4,5,5,6,6,8,8,9,9,12,12,13,13,14,14],"right_children":[2,4,6,8,10,12,14,-1,16,18,-1,-1,20,22,24,-1,-1,-1,-1,-1,-1,-1,-1,-1,-1],"split_conditions":[6.34E-2,-1.625E0,2.6812E1,-2.3434E0,1.453E-1,-1.1494E0,2E0,5.567806E-2,2.47653E1,4.16E-2,-1.6833369E-2,-6.758978E-2,-6.43E-2,1.705E1,2.3799E0,-2.5025106E-4,1.391823E-2,5.546952E-4,2.7009423E-3,-1.4554516E-3,-1.3459961E-2,1.2392727E-5,2.7820931E-3,-3.5703368E-4,6.794799E-3],"split_indices":[2,1,0,6,6,5,13,0,0,1,0,0,1,12,6,0,0,0,0,0,0,0,0,0,0],"split_type":[0,0,0,0,0,0,0,0,0,0,0,0,0,0,0,0,0,0,0,0,0,0,0,0,0],"sum_hessian":[2.98214E5,2.5786E4,2.72428E5,3.14E2,2.5472E4,2.59E3,2.69838E5,6.3E1,2.51E2,2.5418E4,5.4E1,6.8E1,2.522E3,1.06942E5,1.62896E5,8.5E1,1.66E2,2.1568E4,3.85E3,2.29E3,2.32E2,9.4568E4,1.2374E4,1.62252E5,6.44E2],"tree_param":{"num_deleted":"0","num_feature":"15","num_nodes":"25","size_leaf_vector":"1"}},{"base_weights":[-6.8642467E-4,-1.0647734E-3,9.510106E-2,-7.2055974E-4,-1.02475844E-1,1.4464207E-1,-2.6170495E-1,1.6938942E-2,-2.394063E-3,-8.9119667E-1,-1.0139361E-2,-1.9843563E-2,1.8341267E-1,-4.603441E-2,1.4190458E-2,1.2158624E-2,5.039551E-4,-4.7840974E-3,-8.277654E-5,-1.237341E-2,-7.472899E-2,-8.650518E-3,2.1111915E-2,1.7584063E-2,2.3688816E-3],"categories":[],"categories_nodes":[],"categories_segments":[],"categories_sizes":[],"default_left":[0,0,0,0,0,0,0,0,0,0,0,0,0,0,0,0,0,0,0,0,0,0,0,0,0],"id":35,"left_children":[1,3,5,7,9,11,13,15,17,19,21,-1,23,-1,-1,-1,-1,-1,-1,-1,-1,-1,-1,-1,-1],"loss_changes":[1.0777434E1,1.0339749E1,2.0719395E1,8.72442E0,7.2964325E1,2.1655443E1,5.1667603E1,3.965545E1,1.8578087E1,4.0413696E1,6.331181E1,0E0,2.1958149E1,0E0,0E0,0E0,0E0,0E0,0E0,0E0,0E0,0E0,0E0,0E0,0E0],"parents":[2147483647,0,0,1,1,2,2,3,3,4,4,5,5,6,6,7,7,8,8,9,9,10,10,12,12],"right_children":[2,4,6,8,10,12,14,16,18,20,22,-1,24,-1,-1,-1,-1,-1,-1,-1,-1,-1,-1,-1,-1],"split_conditions":[2.5446E0,3.08E-2,1.5112E0,6.34E-2,2.22E-1,5.08189E1,1.8087E0,-2.06E-2,2.58716E1,3.6E1,1.235E1,-1.9843563E-2,6.969E-1,-4.603441E-2,1.4190458E-2,1.2158624E-2,5.039551E-4,-4.7840974E-3,-8.277654E-5,-1.237341E-2,-7.472899E-2,-8.650518E-3,2.1111915E-2,1.7584063E-2,2.3688816E-3],"split_indices":[1,3,4,2,4,0,4,3,0,14,12,0,2,0,0,0,0,0,0,0,0,0,0,0,0],"split_type":[0,0,0,0,0,0,0,0,0,0,0,0,0,0,0,0,0,0,0,0,0,0,0,0,0],"sum_hessian":[2.97378E5,2.96209E5,1.169E3,2.95208E5,1.001E3,1.027E3,1.42E2,2.5553E4,2.69655E5,1.04E2,8.97E2,6.8E1,9.59E2,6.4E1,7.8E1,7.51E2,2.4802E4,2.117E3,2.67538E5,5.1E1,5.3E1,6.52E2,2.45E2,4.28E2,5.31E2],"tree_param":{"num_deleted":"0","num_feature":"15","num_nodes":"25","size_leaf_vector":"1"}}]},"name":"gbtree"},"learner_model_param":{"base_score":"[4.370225E-3]","boost_from_average":"1","num_class":"0","num_feature":"15","num_target":"1"},"objective":{"name":"reg:squarederror","reg_loss_param":{"scale_pos_weight":"1"}}},"version":[3,2,0]}