{"learner":{"attributes":{"best_iteration":"3","best_score":"1.8124524345999893"},"feature_names":["rsi_14","macd_signal","bb_position","vwap_deviation","volume_ratio","price_change_5","price_change_20","sentiment_avg_1h","sentiment_count_1h","sentiment_deviation","sentiment_momentum","has_breaking_event","hour_of_day","day_of_week","minutes_since_open"],"feature_types":[],"gradient_booster":{"model":{"cats":{"enc":[],"feature_segments":[],"sorted_idx":[]},"gbtree_model_param":{"num_parallel_tree":"1","num_trees":"24"},"iteration_indptr":[0,1,2,3,4,5,6,7,8,9,10,11,12,13,14,15,16,17,18,19,20,21,22,23,24],"tree_info":[0,0,0,0,0,0,0,0,0,0,0,0,0,0,0,0,0,0,0,0,0,0,0,0],"trees":[{"base_weights":[2.4054793E-3,5.424316E-1,-1.9618927E-3,1.3802832E0,3.5738644E-1,1.4758657E-1,-6.2978794E-3,1.0104252E0,1.3906159E-1,2.5662008E-1,1.1160482E0,2.3748045E-1,-1.1719092E-1,-4.921154E-3,-3.8917783E-1,3.5429846E-2,9.704926E-2,1.6510397E-2,-5.060908E-2,1.1013281E-1,-4.684894E-2,7.771702E-3,2.9387122E-2,-1.3871036E-2,2.5622586E-2,-2.5067232E-3,6.144973E-5,-2.9495249E-2,9.947916E-2],"categories":[],"categories_nodes":[],"categories_segments":[],"categories_sizes":[],"default_left":[0,0,0,0,0,0,0,0,0,0,0,0,0,0,0,0,0,0,0,0,0,0,0,0,0,0,0,0,0],"id":0,"left_children":[1,3,5,7,9,11,13,15,-1,17,19,21,23,25,27,-1,-1,-1,-1,-1,-1,-1,-1,-1,-1,-1,-1,-1,-1],"loss_changes":[4.7184866E2,2.4834647E2,1.2868971E2,1.4745386E2,1.0031865E2,1.3312793E2,1.0166278E2,6.3505432E1,0E0,1.0892171E2,3.4561255E2,1.1988869E2,1.4320065E2,5.343872E1,3.3111365E2,0E0,0E0,0E0,0E0,0E0,0E0,0E0,0E0,0E0,0E0,0E0,0E0,0E0,0E0],"parents":[2147483647,0,0,1,1,2,2,3,3,4,4,5,5,6,6,7,7,9,9,10,10,11,11,12,12,13,13,14,14],"right_children":[2,4,6,8,10,12,14,16,-1,18,20,22,24,26,28,-1,-1,-1,-1,-1,-1,-1,-1,-1,-1,-1,-1,-1,-1],"split_conditions":[-1.65E-2,-7.649E-1,-3.1E-1,1.901E-1,4.38E2,2.18E2,2.15E-2,3.5959E1,1.3906159E-1,3.5E2,-1.386E-1,3.116E-1,4.03E2,-1.234E-1,4.88E2,3.5429846E-2,9.704926E-2,1.6510397E-2,-5.060908E-2,1.1013281E-1,-4.684894E-2,7.771702E-3,2.9387122E-2,-1.3871036E-2,2.5622586E-2,-2.5067232E-3,6.144973E-5,-2.9495249E-2,9.947916E-2],"split_indices":[3,1,5,5,14,14,3,0,0,14,1,2,14,1,14,0,0,0,0,0,0,0,0,0,0,0,0,0,0],"split_type":[0,0,0,0,0,0,0,0,0,0,0,0,0,0,0,0,0,0,0,0,0,0,0,0,0,0,0,0,0],"sum_hessian":[2.00062E5,1.604E3,1.98458E5,2.89E2,1.315E3,5.591E3,1.92867E5,2.3E2,5.9E1,1.162E3,1.53E2,4.174E3,1.417E3,1.92177E5,6.9E2,1.75E2,5.5E1,1.099E3,6.3E1,1E2,5.3E1,3.383E3,7.91E2,1.13E3,2.87E2,2.301E4,1.69167E5,6.37E2,5.3E1],"tree_param":{"num_deleted":"0","num_feature":"15","num_nodes":"29","size_leaf_vector":"1"}},{"base_weights":[-8.959658E-4,1.749086E-1,-4.1733593E-2,1.2812384E0,1.6085143E-1,3.171296E-2,-6.7285396E-2,9.254798E-1,1.8632387E-1,1.535805E0,1.5248738E-1,-5.825267E-2,7.7275984E-2,-6.0984556E-2,-6.850892E-1,3.5811685E-2,7.897677E-2,3.5860945E-2,1.5709992E-1,6.247352E-3,1.7602768E-2,2.4769202E-2,-3.5264194E-3,3.1808924E-3,1.7277313E-2,-1.2250248E-3,-4.1996576E-3,-1.3402942E-2,-7.561883E-2],"categories":[],"categories_nodes":[],"categories_segments":[],"categories_sizes":[],"default_left":[0,0,0,0,0,0,0,0,0,0,0,0,0,0,0,0,0,0,0,0,0,0,0,0,0,0,0,0,0],"id":1,"left_children":[1,3,5,7,9,11,13,15,-1,17,19,21,23,25,27,-1,-1,-1,-1,-1,-1,-1,-1,-1,-1,-1,-1,-1,-1],"loss_changes":[1.4423427E3,5.887427E2,3.0595728E2,4.0976068E2,4.2982697E2,1.7249078E2,4.7078192E2,5.580188E1,0E0,2.9489307E2,2.0425409E2,9.618202E1,1.0232657E2,1.0050577E2,4.2084448E2,0E0,0E0,0E0,0E0,0E0,0E0,0E0,0E0,0E0,0E0,0E0,0E0,0E0,0E0],"parents":[2147483647,0,0,1,1,2,2,3,3,4,4,5,5,6,6,7,7,9,9,10,10,11,11,12,12,13,13,14,14],"right_children":[2,4,6,8,10,12,14,16,-1,18,20,22,24,26,28,-1,-1,-1,-1,-1,-1,-1,-1,-1,-1,-1,-1,-1,-1],"split_conditions":[1E0,-5.057E-1,2E0,8E-3,-1.2139E0,1.0583333E1,1.36E-2,4.01447E1,1.8632387E-1,3.6947E1,1.268E-1,-9.9E-3,6E-3,1.1066667E1,1.2083333E1,3.5811685E-2,7.897677E-2,3.5860945E-2,1.5709992E-1,6.247352E-3,1.7602768E-2,2.4769202E-2,-3.5264194E-3,3.1808924E-3,1.7277313E-2,-1.2250248E-3,-4.1996576E-3,-1.3402942E-2,-7.561883E-2],"split_indices":[13,5,13,3,6,12,3,0,0,0,5,3,3,12,12,0,0,0,0,0,0,0,0,0,0,0,0,0,0],"split_type":[0,0,0,0,0,0,0,0,0,0,0,0,0,0,0,0,0,0,0,0,0,0,0,0,0,0,0,0,0],"sum_hessian":[2.00897E5,3.7869E4,1.63028E5,4.74E2,3.7395E4,4.2078E4,1.2095E5,4.15E2,5.9E1,2.25E2,3.717E4,1.4146E4,2.7932E4,1.1973E5,1.22E3,3.16E2,9.9E1,1.5E2,7.5E1,3.2664E4,4.506E3,3.06E2,1.384E4,2.658E4,1.352E3,4.6306E4,7.3424E4,8.12E2,4.08E2],"tree_param":{"num_deleted":"0","num_feature":"15","num_nodes":"29","size_leaf_vector":"1"}},{"base_weights":[-7.468564E-4,1.7137957E-1,-4.0744346E-2,8.667817E-1,1.5076411E-1,2.3206554E-2,-6.289276E-2,7.7922887E-1,1.22067526E-1,1.20568134E-1,5.5301684E-1,-7.0257545E-2,6.250961E-2,-5.71816E-2,-6.380508E-1,5.0326895E-2,1.9401317E-2,5.3837504E-2,5.808015E-3,1.53271025E-2,6.0166597E-2,-2.0920571E-3,-1.5531445E-2,2.6653404E-3,2.4441779E-2,-7.035227E-3,-2.218607E-3,-1.3501189E-2,-6.758145E-2],"categories":[],"categories_nodes":[],"categories_segments":[],"categories_sizes":[],"default_left":[0,0,0,0,0,0,0,0,0,0,0,0,0,0,0,0,0,0,0,0,0,0,0,0,0,0,0,0,0],"id":2,"left_children":[1,3,5,7,9,11,13,15,-1,17,19,21,23,25,27,-1,-1,-1,-1,-1,-1,-1,-1,-1,-1,-1,-1,-1,-1],"loss_changes":[1.3838098E3,5.4320496E2,2.3101807E2,1.4850067E2,4.470428E2,1.5413028E2,3.9789944E2,9.164563E1,0E0,1.4419025E2,4.115669E2,8.482851E1,1.1585925E2,1.283306E2,3.1241074E2,0E0,0E0,0E0,0E0,0E0,0E0,0E0,0E0,0E0,0E0,0E0,0E0,0E0,0E0],"parents":[2147483647,0,0,1,1,2,2,3,3,4,4,5,5,6,6,7,7,9,9,10,10,11,11,12,12,13,13,14,14],"right_children":[2,4,6,8,10,12,14,16,-1,18,20,22,24,26,28,-1,-1,-1,-1,-1,-1,-1,-1,-1,-1,-1,-1,-1,-1],"split_conditions":[1E0,-9.9E-3,2E0,4.444E-1,6E-3,1.01E1,1.36E-2,-3.36E-1,1.22067526E-1,-1.021E0,1.2216666E1,5E-3,9.8E-3,-1.234E-1,1.2083333E1,5.0326895E-2,1.9401317E-2,5.3837504E-2,5.808015E-3,1.53271025E-2,6.0166597E-2,-2.0920571E-3,-1.5531445E-2,2.6653404E-3,2.4441779E-2,-7.035227E-3,-2.218607E-3,-1.3501189E-2,-6.758145E-2],"split_indices":[13,3,13,5,3,12,3,6,0,6,12,3,3,1,12,0,0,0,0,0,0,0,0,0,0,0,0,0,0],"split_type":[0,0,0,0,0,0,0,0,0,0,0,0,0,0,0,0,0,0,0,0,0,0,0,0,0,0,0,0,0],"sum_hessian":[2.00998E5,3.7899E4,1.63099E5,1.09E3,3.6809E4,4.1956E4,1.21143E5,1.034E3,5.6E1,3.424E4,2.569E3,1.242E4,2.9536E4,1.19953E5,1.19E3,6.53E2,3.81E2,1.56E2,3.4084E4,1.864E3,7.05E2,1.1108E4,1.312E3,2.8913E4,6.23E2,1.5949E4,1.04004E5,7.86E2,4.04E2],"tree_param":{"num_deleted":"0","num_feature":"15","num_nodes":"29","size_leaf_vector":"1"}},{"base_weights":[5.731622E-4,4.7778732E-1,-3.2407327E-3,1.2829659E0,2.9476237E-1,-1.5023195E-3,-4.4633728E-1,9.1678023E-1,1.12552635E-1,7.367621E-1,8.64578E-2,1.3242795E-1,-5.417404E-3,-6.354031E-1,6.791872E-2,5.557358E-3,6.827474E-2,8.626613E-3,5.7990085E-2,-1.0130908E-3,8.951283E-2,1.6831074E-2,3.4434584E-3,1.7622128E-2,-3.1580104E-4,-1.8923296E-2,-6.427639E-2],"categories":[],"categories_nodes":[],"categories_segments":[],"categories_sizes":[],"default_left":[0,0,0,0,0,0,0,0,0,0,0,0,0,0,0,0,0,0,0,0,0,0,0,0,0,0,0],"id":3,"left_children":[1,3,5,7,9,11,13,15,-1,17,19,21,23,25,-1,-1,-1,-1,-1,-1,-1,-1,-1,-1,-1,-1,-1],"loss_changes":[3.647603E2,2.3378918E2,1.5315047E2,1.0215918E2,1.19259766E2,1.0384686E2,2.659827E2,7.757059E1,0E0,9.885692E1,1.6040923E2,7.297969E1,6.1881695E1,1.1711044E2,0E0,0E0,0E0,0E0,0E0,0E0,0E0,0E0,0E0,0E0,0E0,0E0,0E0],"parents":[2147483647,0,0,1,1,2,2,3,3,4,4,5,5,6,6,7,7,9,9,10,10,11,11,12,12,13,13],"right_children":[2,4,6,8,10,12,14,16,-1,18,20,22,24,26,-1,-1,-1,-1,-1,-1,-1,-1,-1,-1,-1,-1,-1],"split_conditions":[-1.65E-2,-7.649E-1,2.15E-2,8.73E-2,1.249E-1,-3.1E-1,1.7266666E1,2.61069E1,1.12552635E-1,2.78474E1,2.87E-2,9.483334E0,-1.2139E0,1.16E1,6.791872E-2,5.557358E-3,6.827474E-2,8.626613E-3,5.7990085E-2,-1.0130908E-3,8.951283E-2,1.6831074E-2,3.4434584E-3,1.7622128E-2,-3.1580104E-4,-1.8923296E-2,-6.427639E-2],"split_indices":[3,1,3,5,2,5,12,0,0,0,1,12,6,12,0,0,0,0,0,0,0,0,0,0,0,0,0],"split_type":[0,0,0,0,0,0,0,0,0,0,0,0,0,0,0,0,0,0,0,0,0,0,0,0,0,0,0],"sum_hessian":[2.00411E5,1.588E3,1.98823E5,2.93E2,1.295E3,1.98047E5,7.76E2,2.14E2,7.9E1,4.14E2,8.81E2,5.624E3,1.92423E5,7.03E2,7.3E1,7.7E1,1.37E2,1.78E2,2.36E2,8.3E2,5.1E1,1.334E3,4.29E3,4.81E2,1.91942E5,5.05E2,1.98E2],"tree_param":{"num_deleted":"0","num_feature":"15","num_nodes":"27","size_leaf_vector":"1"}},{"base_weights":[3.395144E-3,3.5891482E-1,-7.35361E-4,3.00892E-1,1.0392838E-1,2.0539167E-3,-1.4008075E-1,8.526141E-1,2.0660824E-1,1.20148964E-1,-1.1371437E-3,-7.926593E-2,-9.784689E-1,3.1909194E-2,7.856571E-2,1.6437838E-2,-1.0162812E-2,5.1590675E-3,3.1577434E-2,-2.0440544E-4,5.2390983E-3,1.2027927E-3,-9.303807E-3,-2.9108424E-2,-1.16943054E-1],"categories":[],"categories_nodes":[],"categories_segments":[],"categories_sizes":[],"default_left":[0,0,0,0,0,0,0,0,0,0,0,0,0,0,0,0,0,0,0,0,0,0,0,0,0],"id":4,"left_children":[1,3,5,7,-1,9,11,13,15,17,19,21,23,-1,-1,-1,-1,-1,-1,-1,-1,-1,-1,-1,-1],"loss_changes":[2.9446783E2,2.2916583E2,7.704459E1,1.15772934E2,0E0,7.323498E1,1.9825964E2,4.9083298E1,9.54394E1,4.4301537E1,5.914466E1,4.0042435E1,1.40428E2,0E0,0E0,0E0,0E0,0E0,0E0,0E0,0E0,0E0,0E0,0E0,0E0],"parents":[2147483647,0,0,1,1,2,2,3,3,5,5,6,6,7,7,8,8,9,9,10,10,11,11,12,12],"right_children":[2,4,6,8,-1,10,12,14,16,18,20,22,24,-1,-1,-1,-1,-1,-1,-1,-1,-1,-1,-1,-1],"split_conditions":[-1.38E-2,6.21E-1,3.85E-1,-7.649E-1,1.0392838E-1,-3.1E-1,5.101E-1,8.93E-2,5.06E-2,5.856E-1,8E-3,1.0366667E1,8.17606E1,3.1909194E-2,7.856571E-2,1.6437838E-2,-1.0162812E-2,5.1590675E-3,3.1577434E-2,-2.0440544E-4,5.2390983E-3,1.2027927E-3,-9.303807E-3,-2.9108424E-2,-1.16943054E-1],"split_indices":[3,5,1,1,0,5,5,5,5,6,3,12,0,0,0,0,0,0,0,0,0,0,0,0,0],"split_type":[0,0,0,0,0,0,0,0,0,0,0,0,0,0,0,0,0,0,0,0,0,0,0,0,0],"sum_hessian":[2.00525E5,2.302E3,1.98223E5,2.228E3,7.4E1,1.94334E5,3.889E3,3.24E2,1.904E3,5.112E3,1.89222E5,3.627E3,2.62E2,2.51E2,7.3E1,1.467E3,4.37E2,4.949E3,1.63E2,1.84094E5,5.128E3,1.844E3,1.783E3,2.04E2,5.8E1],"tree_param":{"num_deleted":"0","num_feature":"15","num_nodes":"25","size_leaf_vector":"1"}},{"base_weights":[-3.214378E-3,1.5478685E-1,-3.9947975E-2,6.991903E-1,1.3390031E-1,-3.632049E-2,-5.210664E-1,5.825407E-1,1.8520224E0,1.23231776E-1,1.1681312E0,2.066433E-2,-5.604555E-2,-6.388183E-1,1.0929503E-1,2.4369061E-2,1.1165917E-1,1.3181022E-1,5.377121E-2,6.0483087E-2,5.904227E-3,3.1750068E-2,1.2588783E-1,-2.1826054E-3,3.6116035E-3,-2.6542237E-3,-1.7684592E-2,-1.1267592E-2,-7.983343E-2],"categories":[],"categories_nodes":[],"categories_segments":[],"categories_sizes":[],"default_left":[0,0,0,0,0,0,0,0,0,0,0,0,0,0,0,0,0,0,0,0,0,0,0,0,0,0,0,0,0],"id":5,"left_children":[1,3,5,7,9,11,13,15,17,19,21,23,25,27,-1,-1,-1,-1,-1,-1,-1,-1,-1,-1,-1,-1,-1,-1,-1],"loss_changes":[1.1643665E3,4.3020782E2,2.840608E2,1.869206E2,4.0199182E2,1.8159482E2,3.896346E2,1.9855304E2,7.511624E1,2.0159222E2,2.660647E2,1.3778688E2,1.0575607E2,4.6221378E2,0E0,0E0,0E0,0E0,0E0,0E0,0E0,0E0,0E0,0E0,0E0,0E0,0E0,0E0,0E0],"parents":[2147483647,0,0,1,1,2,2,3,3,4,4,5,5,6,6,7,7,8,8,9,9,10,10,11,11,12,12,13,13],"right_children":[2,4,6,8,10,12,14,16,18,20,22,24,26,28,-1,-1,-1,-1,-1,-1,-1,-1,-1,-1,-1,-1,-1,-1,-1],"split_conditions":[1E0,-5.843E-1,1.61E-2,4E-4,1.2308E0,2E0,1.8116667E1,1.5966666E1,8.07E-1,-5.057E-1,1.12E1,1.185E1,5.101E-1,1.195E1,1.0929503E-1,2.4369061E-2,1.1165917E-1,1.3181022E-1,5.377121E-2,6.0483087E-2,5.904227E-3,3.1750068E-2,1.2588783E-1,-2.1826054E-3,3.6116035E-3,-2.6542237E-3,-1.7684592E-2,-1.1267592E-2,-7.983343E-2],"split_indices":[13,6,3,3,6,13,12,12,4,5,12,12,5,12,0,0,0,0,0,0,0,0,0,0,0,0,0,0,0],"split_type":[0,0,0,0,0,0,0,0,0,0,0,0,0,0,0,0,0,0,0,0,0,0,0,0,0,0,0,0,0],"sum_hessian":[2.00614E5,3.7842E4,1.62772E5,1.397E3,3.6445E4,1.61555E5,1.217E3,1.27E3,1.27E2,3.6074E4,3.71E2,4.1542E4,1.20013E5,1.167E3,5E1,1.202E3,6.8E1,6.2E1,6.5E1,1.69E2,3.5905E4,2.67E2,1.04E2,1.8486E4,2.3056E4,1.18832E5,1.181E3,8.16E2,3.51E2],"tree_param":{"num_deleted":"0","num_feature":"15","num_nodes":"29","size_leaf_vector":"1"}},{"base_weights":[1.3452744E-3,1.5462558E-1,-3.4276284E-2,7.115331E-1,1.3345416E-1,2.3238555E-2,-5.4279175E-2,1.3698092E0,5.6235445E-1,1.0838329E-1,4.601356E-1,-3.4700178E-2,6.357438E-2,-4.980096E-2,-5.019653E-1,1.0009952E-1,3.533436E-2,1.8794721E-2,7.563904E-2,4.4247946E-3,9.058138E-3,1.1914291E-2,5.1988244E-2,3.4552783E-2,-2.0579377E-3,2.7811263E-2,2.5402799E-3,-6.346208E-3,-1.8955335E-3,-6.830606E-3,-6.0449827E-2],"categories":[],"categories_nodes":[],"categories_segments":[],"categories_sizes":[],"default_left":[0,0,0,0,0,0,0,0,0,0,0,0,0,0,0,0,0,0,0,0,0,0,0,0,0,0,0,0,0,0,0],"id":6,"left_children":[1,3,5,7,9,11,13,15,17,19,21,23,25,27,29,-1,-1,-1,-1,-1,-1,-1,-1,-1,-1,-1,-1,-1,-1,-1,-1],"loss_changes":[1.0943807E3,4.455396E2,1.8710909E2,1.3513953E2,2.981795E2,9.8081696E1,2.418984E2,1.0548459E2,1.9968607E2,4.893338E1,3.334449E2,8.077272E1,1.5561893E2,1.0955673E2,3.0852258E2,0E0,0E0,0E0,0E0,0E0,0E0,0E0,0E0,0E0,0E0,0E0,0E0,0E0,0E0,0E0,0E0],"parents":[2147483647,0,0,1,1,2,2,3,3,4,4,5,5,6,6,7,7,8,8,9,9,10,10,11,11,12,12,13,13,14,14],"right_children":[2,4,6,8,10,12,14,16,18,20,22,24,26,28,30,-1,-1,-1,-1,-1,-1,-1,-1,-1,-1,-1,-1,-1,-1,-1,-1],"split_conditions":[1E0,-8.6E-3,2E0,-2.18E-2,6E-3,1.1416667E1,1.36E-2,7.0333333E0,1.3666667E1,1.9E-3,1.2216666E1,-1.65E-2,-3.03E-1,-1.234E-1,1.2083333E1,1.0009952E-1,3.533436E-2,1.8794721E-2,7.563904E-2,4.4247946E-3,9.058138E-3,1.1914291E-2,5.1988244E-2,3.4552783E-2,-2.0579377E-3,2.7811263E-2,2.5402799E-3,-6.346208E-3,-1.8955335E-3,-6.830606E-3,-6.0449827E-2],"split_indices":[13,3,13,3,3,12,3,12,12,3,12,3,1,1,12,0,0,0,0,0,0,0,0,0,0,0,0,0,0,0,0],"split_type":[0,0,0,0,0,0,0,0,0,0,0,0,0,0,0,0,0,0,0,0,0,0,0,0,0,0,0,0,0,0,0],"sum_hessian":[2.00431E5,3.7795E4,1.62636E5,1.383E3,3.6412E4,4.1967E4,1.20669E5,2.54E2,1.129E3,3.3818E4,2.594E3,1.7225E4,2.4742E4,1.19475E5,1.194E3,1.29E2,1.25E2,9.45E2,1.84E2,2.6562E4,7.256E3,1.877E3,7.17E2,1.51E2,1.7074E4,6.24E2,2.4118E4,1.5958E4,1.03517E5,7.88E2,4.06E2],"tree_param":{"num_deleted":"0","num_feature":"15","num_nodes":"31","size_leaf_vector":"1"}},{"base_weights":[-1.4470486E-3,1.4130135E-1,-3.4457043E-2,6.671469E-1,1.2118084E-1,-3.2101806E-2,-6.919138E-1,5.653622E-1,1.1957337E-1,1.0111753E-1,5.4271704E-1,1.9655798E-2,-5.0059542E-2,-3.4145567E-1,-1.9940957E0,2.4421157E-2,1.0537168E-1,4.1687447E-3,1.2394751E-2,1.2585463E-2,6.665297E-2,-3.1279407E-3,2.5147942E-3,-2.3873916E-3,-1.8895451E-2,-2.6680304E-2,5.8637608E-2,-6.419378E-2,-1.3040394E-1],"categories":[],"categories_nodes":[],"categories_segments":[],"categories_sizes":[],"default_left":[0,0,0,0,0,0,0,0,0,0,0,0,0,0,0,0,0,0,0,0,0,0,0,0,0,0,0,0,0],"id":7,"left_children":[1,3,5,7,9,11,13,15,-1,17,19,21,23,25,27,-1,-1,-1,-1,-1,-1,-1,-1,-1,-1,-1,-1,-1,-1],"loss_changes":[9.444087E2,3.98182E2,2.5203545E2,2.4207965E2,3.0657703E2,1.507567E2,2.6446436E2,1.5451495E2,0E0,9.011136E1,3.7846747E2,1.052521E2,9.124661E1,1.3417441E2,5.0287292E1,0E0,0E0,0E0,0E0,0E0,0E0,0E0,0E0,0E0,0E0,0E0,0E0,0E0,0E0],"parents":[2147483647,0,0,1,1,2,2,3,3,4,4,5,5,6,6,7,7,9,9,10,10,11,11,12,12,13,13,14,14],"right_children":[2,4,6,8,10,12,14,16,-1,18,20,22,24,26,28,-1,-1,-1,-1,-1,-1,-1,-1,-1,-1,-1,-1,-1,-1],"split_conditions":[1E0,-5.843E-1,2.15E-2,3.2E-3,5.527E-1,2E0,4E0,1.605E1,1.1957337E-1,3.8E-3,1.195E1,9.833333E0,1.36E-2,1.745E1,7.316E-1,2.4421157E-2,1.0537168E-1,4.1687447E-3,1.2394751E-2,1.2585463E-2,6.665297E-2,-3.1279407E-3,2.5147942E-3,-2.3873916E-3,-1.8895451E-2,-2.6680304E-2,5.8637608E-2,-6.419378E-2,-1.3040394E-1],"split_indices":[13,6,3,3,6,13,13,12,0,3,12,12,3,12,2,0,0,0,0,0,0,0,0,0,0,0,0,0,0],"split_type":[0,0,0,0,0,0,0,0,0,0,0,0,0,0,0,0,0,0,0,0,0,0,0,0,0,0,0,0,0],"sum_hessian":[2.00419E5,3.7641E4,1.62778E5,1.386E3,3.6255E4,1.62198E5,5.8E2,1.31E3,7.6E1,3.4609E4,1.646E3,4.178E4,1.20418E5,4.58E2,1.22E2,1.249E3,6.1E1,3.0878E4,3.731E3,1.204E3,4.42E2,1.1343E4,3.0437E4,1.19576E5,8.42E2,4.07E2,5.1E1,5.8E1,6.4E1],"tree_param":{"num_deleted":"0","num_feature":"15","num_nodes":"29","size_leaf_vector":"1"}},{"base_weights":[-2.478881E-3,1.4161739E-1,-3.6049668E-2,1.2655094E0,1.2802866E-1,-3.2154713E-2,-3.7940437E-1,8.75049E-1,1.5239657E-1,1.21728234E-1,1.3704015E0,2.0985145E-2,-5.057199E-2,-1.1409759E-1,-1.1579254E0,3.0977188E-2,7.978334E-2,2.8409004E-2,5.4128286E-3,3.508219E-2,1.5366103E-1,-1.7334567E-3,3.5646742E-3,-7.980989E-4,-3.7222733E-3,-3.5041247E-2,2.0835304E-3,-4.2244922E-2,-1.2158535E-1],"categories":[],"categories_nodes":[],"categories_segments":[],"categories_sizes":[],"default_left":[0,0,0,0,0,0,0,0,0,0,0,0,0,0,0,0,0,0,0,0,0,0,0,0,0,0,0,0,0],"id":8,"left_children":[1,3,5,7,9,11,13,15,-1,17,19,21,23,25,27,-1,-1,-1,-1,-1,-1,-1,-1,-1,-1,-1,-1,-1,-1],"loss_changes":[9.710262E2,5.7909955E2,2.1771243E2,3.1260504E2,2.931834E2,1.5754889E2,3.7702252E2,6.768878E1,0E0,2.2421118E2,2.1307193E2,1.1600966E2,9.8774994E1,1.245985E2,1.829552E2,0E0,0E0,0E0,0E0,0E0,0E0,0E0,0E0,0E0,0E0,0E0,0E0,0E0,0E0],"parents":[2147483647,0,0,1,1,2,2,3,3,4,4,5,5,6,6,7,7,9,9,10,10,11,11,12,12,13,13,14,14],"right_children":[2,4,6,8,10,12,14,16,-1,18,20,22,24,26,28,-1,-1,-1,-1,-1,-1,-1,-1,-1,-1,-1,-1,-1,-1],"split_conditions":[1E0,-5.057E-1,5.101E-1,4.49434E1,8.523E-1,2E0,1.265E1,1.2033334E1,1.5239657E-1,-5.843E-1,1.1016666E1,1.2166667E1,1.1333333E1,6.067E-1,4E0,3.0977188E-2,7.978334E-2,2.8409004E-2,5.4128286E-3,3.508219E-2,1.5366103E-1,-1.7334567E-3,3.5646742E-3,-7.980989E-4,-3.7222733E-3,-3.5041247E-2,2.0835304E-3,-4.2244922E-2,-1.2158535E-1],"split_indices":[13,5,5,0,5,13,12,12,0,6,12,12,12,4,13,0,0,0,0,0,0,0,0,0,0,0,0,0,0],"split_type":[0,0,0,0,0,0,0,0,0,0,0,0,0,0,0,0,0,0,0,0,0,0,0,0,0,0,0,0,0],"sum_hessian":[2.0073E5,3.7928E4,1.62802E5,4.52E2,3.7476E4,1.60977E5,1.825E3,3.72E2,8E1,3.7288E4,1.88E2,4.1432E4,1.19545E5,1.362E3,4.63E2,2.76E2,9.6E1,1.091E3,3.6197E4,1.36E2,5.2E1,1.9671E4,2.1761E4,4.88E4,7.0745E4,2.85E2,1.077E3,3.73E2,9E1],"tree_param":{"num_deleted":"0","num_feature":"15","num_nodes":"29","size_leaf_vector":"1"}},{"base_weights":[4.390571E-4,1.3443828E-1,-3.0667365E-2,1.2579801E0,1.2524423E-1,-2.6941312E-2,-3.5432327E-1,7.8005886E-1,1.7933157E-1,1.1909035E-1,1.3944613E0,2.0780023E-2,-4.3529313E-2,-1.0833741E-1,-1.0607287E0,9.254594E-2,2.423132E-2,2.0909881E-2,4.8921406E-3,1.6213538E-1,3.222181E-2,-1.6960535E-3,3.7154206E-3,-5.711103E-3,-1.6395089E-3,4.7429483E-2,-7.818513E-3,-3.8515385E-2,-1.4023697E-1],"categories":[],"categories_nodes":[],"categories_segments":[],"categories_sizes":[],"default_left":[0,0,0,0,0,0,0,0,0,0,0,0,0,0,0,0,0,0,0,0,0,0,0,0,0,0,0,0,0],"id":9,"left_children":[1,3,5,7,9,11,13,15,-1,17,19,21,23,25,27,-1,-1,-1,-1,-1,-1,-1,-1,-1,-1,-1,-1,-1,-1],"loss_changes":[8.371068E2,3.9069482E2,1.9655333E2,3.388662E2,2.9297375E2,1.2755877E2,3.2222058E2,8.0092896E1,0E0,2.373357E2,2.4881802E2,1.21707375E2,9.0775085E1,7.005477E1,2.4045172E2,0E0,0E0,0E0,0E0,0E0,0E0,0E0,0E0,0E0,0E0,0E0,0E0,0E0,0E0],"parents":[2147483647,0,0,1,1,2,2,3,3,4,4,5,5,6,6,7,7,9,9,10,10,11,11,12,12,13,13,14,14],"right_children":[2,4,6,8,10,12,14,16,-1,18,20,22,24,26,28,-1,-1,-1,-1,-1,-1,-1,-1,-1,-1,-1,-1,-1,-1],"split_conditions":[1E0,-6.089E-1,5.101E-1,3.046E-1,8.523E-1,2E0,1.2483334E1,6.491E-1,1.7933157E-1,-3.725E-1,1.39E-2,1.2383333E1,-1.234E-1,-8.004E-1,3.85E-1,9.254594E-2,2.423132E-2,2.0909881E-2,4.8921406E-3,1.6213538E-1,3.222181E-2,-1.6960535E-3,3.7154206E-3,-5.711103E-3,-1.6395089E-3,4.7429483E-2,-7.818513E-3,-3.8515385E-2,-1.4023697E-1],"split_indices":[13,5,5,2,5,13,12,4,0,6,1,12,1,6,1,0,0,0,0,0,0,0,0,0,0,0,0,0,0],"split_type":[0,0,0,0,0,0,0,0,0,0,0,0,0,0,0,0,0,0,0,0,0,0,0,0,0,0,0,0,0],"sum_hessian":[2.00828E5,3.7836E4,1.62992E5,3.06E2,3.753E4,1.61138E5,1.854E3,2.55E2,5.1E1,3.735E4,1.8E2,4.1564E4,1.19574E5,1.376E3,4.78E2,5.4E1,2.01E2,2.476E3,3.4874E4,5.1E1,1.29E2,2.0557E4,2.1007E4,1.5768E4,1.03806E5,5.9E1,1.317E3,4.11E2,6.7E1],"tree_param":{"num_deleted":"0","num_feature":"15","num_nodes":"29","size_leaf_vector":"1"}},{"base_weights":[-9.6216414E-4,4.1441995E-1,-4.2635794E-3,1.1175905E0,2.5237417E-1,-3.196001E-3,-2.7320114E-1,7.500056E-1,1.0259374E-1,5.1064485E-1,2.6066957E-2,-5.677953E-3,7.2404794E-2,-9.419556E-1,8.984816E-2,5.349332E-2,1.4437096E-2,3.421408E-3,5.0200243E-2,-3.983713E-3,6.731422E-2,1.33811105E-2,-3.1872382E-4,2.4716489E-3,3.7597604E-2,-1.6629782E-2,-7.132463E-2,-4.5407638E-2,1.6895609E-2],"categories":[],"categories_nodes":[],"categories_segments":[],"categories_sizes":[],"default_left":[0,0,0,0,0,0,0,0,0,0,0,0,0,0,0,0,0,0,0,0,0,0,0,0,0,0,0,0,0],"id":10,"left_children":[1,3,5,7,9,11,13,15,-1,17,19,21,23,25,27,-1,-1,-1,-1,-1,-1,-1,-1,-1,-1,-1,-1,-1,-1],"loss_changes":[2.751314E2,1.7998026E2,5.714762E1,1.0011603E2,7.520992E1,3.7201427E1,1.9116106E2,3.1264694E1,0E0,1.310527E2,9.6013435E1,3.654303E1,9.833978E1,8.1311874E1,1.26814186E2,0E0,0E0,0E0,0E0,0E0,0E0,0E0,0E0,0E0,0E0,0E0,0E0,0E0,0E0],"parents":[2147483647,0,0,1,1,2,2,3,3,4,4,5,5,6,6,7,7,9,9,10,10,11,11,12,12,13,13,14,14],"right_children":[2,4,6,8,10,12,14,16,-1,18,20,22,24,26,28,-1,-1,-1,-1,-1,-1,-1,-1,-1,-1,-1,-1,-1,-1],"split_conditions":[-1.65E-2,-7.649E-1,2.15E-2,5.44E-2,3.64765E1,8E-3,8.85E0,1.045E1,1.0259374E-1,3.02931E1,3.15E-2,-7.649E-1,1.8333334E1,2.619E-1,1.491E-1,5.349332E-2,1.4437096E-2,3.421408E-3,5.0200243E-2,-3.983713E-3,6.731422E-2,1.33811105E-2,-3.1872382E-4,2.4716489E-3,3.7597604E-2,-1.6629782E-2,-7.132463E-2,-4.5407638E-2,1.6895609E-2],"split_indices":[3,1,3,5,0,3,12,12,0,0,1,1,12,1,1,0,0,0,0,0,0,0,0,0,0,0,0,0,0],"split_type":[0,0,0,0,0,0,0,0,0,0,0,0,0,0,0,0,0,0,0,0,0,0,0,0,0,0,0,0,0],"sum_hessian":[2.00626E5,1.581E3,1.99045E5,2.95E2,1.286E3,1.98259E5,7.86E2,2.13E2,8.2E1,6E2,6.86E2,1.91958E5,6.301E3,2.76E2,5.1E2,1.25E2,8.8E1,3.17E2,2.83E2,6.36E2,5E1,4.87E2,1.91471E5,6.096E3,2.05E2,1.23E2,1.53E2,1.01E2,4.09E2],"tree_param":{"num_deleted":"0","num_feature":"15","num_nodes":"29","size_leaf_vector":"1"}},{"base_weights":[-2.0870478E-3,1.1964991E-1,-3.0213987E-2,1.009723E0,1.08636804E-1,-2.735425E-2,-4.1190833E-1,7.550663E-1,1.5160857E-1,1.0246774E-1,1.4099706E0,4.0765482E-1,-2.8977461E-2,7.555005E-2,-1.0939196E0,9.9605046E-2,2.6834378E-2,2.2656113E-2,4.5825182E-3,1.10591196E-1,-2.5327287E-3,5.1511217E-2,6.0534584E-3,-1.3305169E-3,-1.4152526E-2,-6.242003E-2,1.257657E-2,-3.3721816E-2,-9.9579684E-2],"categories":[],"categories_nodes":[],"categories_segments":[],"categories_sizes":[],"default_left":[0,0,0,0,0,0,0,0,0,0,0,0,0,0,0,0,0,0,0,0,0,0,0,0,0,0,0,0,0],"id":11,"left_children":[1,3,5,7,9,11,13,15,-1,17,19,21,23,25,27,-1,-1,-1,-1,-1,-1,-1,-1,-1,-1,-1,-1,-1,-1],"loss_changes":[6.853348E2,3.6811993E2,1.7745876E2,2.3410928E2,2.9775095E2,1.1396261E2,4.0201724E2,1.0941901E2,0E0,1.400513E2,2.0507327E2,1.0692695E2,9.668855E1,1.6480537E2,1.8844269E2,0E0,0E0,0E0,0E0,0E0,0E0,0E0,0E0,0E0,0E0,0E0,0E0,0E0,0E0],"parents":[2147483647,0,0,1,1,2,2,3,3,4,4,5,5,6,6,7,7,9,9,10,10,11,11,12,12,13,13,14,14],"right_children":[2,4,6,8,10,12,14,16,-1,18,20,22,24,26,28,-1,-1,-1,-1,-1,-1,-1,-1,-1,-1,-1,-1,-1,-1],"split_conditions":[1E0,-5.057E-1,1.61E-2,8.5E-3,8.523E-1,-7.649E-1,3E0,-2.18E-2,1.5160857E-1,-5.843E-1,7.4408E1,-1.65E-2,5.101E-1,6.29E-2,1.19E1,9.9605046E-2,2.6834378E-2,2.2656113E-2,4.5825182E-3,1.10591196E-1,-2.5327287E-3,5.1511217E-2,6.0534584E-3,-1.3305169E-3,-1.4152526E-2,-6.242003E-2,1.257657E-2,-3.3721816E-2,-9.9579684E-2],"split_indices":[13,5,3,3,5,1,13,3,0,6,0,3,5,1,12,0,0,0,0,0,0,0,0,0,0,0,0,0,0],"split_type":[0,0,0,0,0,0,0,0,0,0,0,0,0,0,0,0,0,0,0,0,0,0,0,0,0,0,0,0,0],"sum_hessian":[2.00149E5,3.7564E4,1.62585E5,4.58E2,3.7106E4,1.61377E5,1.208E3,4.08E2,5E1,3.6932E4,1.74E2,5.99E2,1.60778E5,7.05E2,5.03E2,6E1,3.48E2,1.104E3,3.5828E4,1.12E2,6.2E1,1.88E2,4.11E2,1.59295E5,1.483E3,8.2E1,6.23E2,3.44E2,1.59E2],"tree_param":{"num_deleted":"0","num_feature":"15","num_nodes":"29","size_leaf_vector":"1"}},{"base_weights":[-1.277117E-4,1.097284E-1,-2.5678752E-2,1.0759647E0,9.998296E-2,-2.2935374E-2,-3.9295194E-1,5.020028E-1,2.085371E-1,7.256983E-2,2.4995947E-1,2.8348282E-1,-2.507568E-2,-4.9509758E-1,9.202332E-2,-6.5613748E-3,4.126054E-2,1.305798E-2,2.5824062E-3,6.710168E-3,2.2695884E-2,5.129209E-2,6.399295E-3,6.703876E-4,-1.9185726E-3,-4.967073E-3,-7.0627846E-2],"categories":[],"categories_nodes":[],"categories_segments":[],"categories_sizes":[],"default_left":[0,0,0,0,0,0,0,0,0,0,0,0,0,0,0,0,0,0,0,0,0,0,0,0,0,0,0],"id":12,"left_children":[1,3,5,7,9,11,13,15,-1,17,19,21,23,25,-1,-1,-1,-1,-1,-1,-1,-1,-1,-1,-1,-1,-1],"loss_changes":[5.6326825E2,3.5645398E2,1.6402725E2,6.693418E2,1.5411136E2,1.05987656E2,2.7626892E2,6.560111E1,0E0,1.2505081E2,1.367084E2,1.2927083E2,8.21118E1,4.192288E2,0E0,0E0,0E0,0E0,0E0,0E0,0E0,0E0,0E0,0E0,0E0,0E0,0E0],"parents":[2147483647,0,0,1,1,2,2,3,3,4,4,5,5,6,6,7,7,9,9,10,10,11,11,12,12,13,13],"right_children":[2,4,6,8,10,12,14,16,-1,18,20,22,24,26,-1,-1,-1,-1,-1,-1,-1,-1,-1,-1,-1,-1,-1],"split_conditions":[1E0,-1.2139E0,1.61E-2,3.97846E1,2.167E-1,-1.65E-2,1.8116667E1,2.35809E1,2.085371E-1,-3.049E-1,1.2483334E1,-7.649E-1,2E0,1.195E1,9.202332E-2,-6.5613748E-3,4.126054E-2,1.305798E-2,2.5824062E-3,6.710168E-3,2.2695884E-2,5.129209E-2,6.399295E-3,6.703876E-4,-1.9185726E-3,-4.967073E-3,-7.0627846E-2],"split_indices":[13,6,3,0,6,3,12,0,0,6,12,1,13,12,0,0,0,0,0,0,0,0,0,0,0,0,0],"split_type":[0,0,0,0,0,0,0,0,0,0,0,0,0,0,0,0,0,0,0,0,0,0,0,0,0,0,0],"sum_hessian":[2.00668E5,3.7865E4,1.62803E5,3.77E2,3.7488E4,1.61597E5,1.206E3,3.19E2,5.8E1,3.1696E4,5.792E3,1.12E3,1.60477E5,1.154E3,5.2E1,1.08E2,2.11E2,3.164E3,2.8532E4,3.696E3,2.096E3,1.93E2,9.27E2,4.1207E4,1.1927E5,8.07E2,3.47E2],"tree_param":{"num_deleted":"0","num_feature":"15","num_nodes":"27","size_leaf_vector":"1"}},{"base_weights":[-4.592849E-3,1.10401556E-1,-3.1396322E-2,9.547619E-1,9.962617E-2,1.7877256E-2,-4.85534E-2,6.9823295E-1,1.3630006E-1,9.4195314E-2,1.2343898E0,5.197012E-1,1.2973442E-2,-4.4677228E-2,-4.2872596E-1,1.6987788E-2,5.006383E-2,1.552662E-2,3.915535E-3,1.1102821E-1,-2.784647E-2,1.9021904E-2,7.302228E-2,-2.2179557E-3,2.259826E-3,1.8118626E-2,-2.3085105E-3,-3.6333625E-3,-5.456215E-2],"categories":[],"categories_nodes":[],"categories_segments":[],"categories_sizes":[],"default_left":[0,0,0,0,0,0,0,0,0,0,0,0,0,0,0,0,0,0,0,0,0,0,0,0,0,0,0,0,0],"id":13,"left_children":[1,3,5,7,9,11,13,15,-1,17,19,21,23,25,27,-1,-1,-1,-1,-1,-1,-1,-1,-1,-1,-1,-1,-1,-1],"loss_changes":[6.174089E2,3.4440338E2,1.3733206E2,2.1483307E2,2.3029611E2,1.03240746E2,1.7753964E2,4.506891E1,0E0,1.27848694E2,3.1568314E2,5.2634865E1,7.6764626E1,7.250351E1,2.8676898E2,0E0,0E0,0E0,0E0,0E0,0E0,0E0,0E0,0E0,0E0,0E0,0E0,0E0,0E0],"parents":[2147483647,0,0,1,1,2,2,3,3,4,4,5,5,6,6,7,7,9,9,10,10,11,11,12,12,13,13,14,14],"right_children":[2,4,6,8,10,12,14,16,-1,18,20,22,24,26,28,-1,-1,-1,-1,-1,-1,-1,-1,-1,-1,-1,-1,-1,-1],"split_conditions":[1E0,-5.057E-1,2E0,8.5E-3,8.523E-1,-1.38E-2,1.36E-2,3.07782E1,1.3630006E-1,-3.594E-1,7.4408E1,2.584E-1,1.085E1,-7.649E-1,1.195E1,1.6987788E-2,5.006383E-2,1.552662E-2,3.915535E-3,1.1102821E-1,-2.784647E-2,1.9021904E-2,7.302228E-2,-2.2179557E-3,2.259826E-3,1.8118626E-2,-2.3085105E-3,-3.6333625E-3,-5.456215E-2],"split_indices":[13,5,13,3,5,3,3,0,0,6,0,5,12,1,12,0,0,0,0,0,0,0,0,0,0,0,0,0,0],"split_type":[0,0,0,0,0,0,0,0,0,0,0,0,0,0,0,0,0,0,0,0,0,0,0,0,0,0,0,0,0],"sum_hessian":[2.00309E5,3.7863E4,1.62446E5,4.76E2,3.7387E4,4.1955E4,1.20491E5,4.17E2,5.9E1,3.721E4,1.77E2,4.05E2,4.155E4,1.19276E5,1.215E3,1.92E2,2.25E2,2.544E3,3.4666E4,1.14E2,6.3E1,3.54E2,5.1E1,1.495E4,2.66E4,4.35E2,1.18841E5,7.91E2,4.24E2],"tree_param":{"num_deleted":"0","num_feature":"15","num_nodes":"29","size_leaf_vector":"1"}},{"base_weights":[-2.3443901E-3,1.0294888E-1,-2.677964E-2,8.4389037E-1,9.395085E-2,-2.3975529E-2,-2.689191E-1,6.350319E-1,1.20606996E-1,8.019497E-2,5.357614E-1,1.6059905E-2,-3.7867572E-2,-2.8699728E-2,-1.007872E0,7.639006E-2,2.430609E-2,3.2393336E-3,1.40013425E-2,7.981821E-2,2.0106211E-2,-1.7175497E-3,3.1409075E-3,-1.7475424E-3,-2.0843944E-2,5.794339E-3,-2.2774689E-2,-3.0344218E-2,-1.2469753E-1],"categories":[],"categories_nodes":[],"categories_segments":[],"categories_sizes":[],"default_left":[0,0,0,0,0,0,0,0,0,0,0,0,0,0,0,0,0,0,0,0,0,0,0,0,0,0,0,0,0],"id":14,"left_children":[1,3,5,7,9,11,13,15,-1,17,19,21,23,25,27,-1,-1,-1,-1,-1,-1,-1,-1,-1,-1,-1,-1,-1,-1],"loss_changes":[5.169999E2,2.5226053E2,1.1073207E2,1.4717242E2,2.2723087E2,8.967142E1,3.3138373E2,5.2700104E1,0E0,1.11653595E2,1.5937799E2,9.7902985E1,1.3230478E2,8.7062E1,2.7140826E2,0E0,0E0,0E0,0E0,0E0,0E0,0E0,0E0,0E0,0E0,0E0,0E0,0E0,0E0],"parents":[2147483647,0,0,1,1,2,2,3,3,4,4,5,5,6,6,7,7,9,9,10,10,11,11,12,12,13,13,14,14],"right_children":[2,4,6,8,10,12,14,16,-1,18,20,22,24,26,28,-1,-1,-1,-1,-1,-1,-1,-1,-1,-1,-1,-1,-1,-1],"split_conditions":[1E0,-5.057E-1,5.101E-1,8E-3,3.325E-1,2E0,1.2733334E1,-2.18E-2,1.20606996E-1,5.2E-3,-2.455E-1,1.225E1,1.36E-2,4E0,2.619E-1,7.639006E-2,2.430609E-2,3.2393336E-3,1.40013425E-2,7.981821E-2,2.0106211E-2,-1.7175497E-3,3.1409075E-3,-1.7475424E-3,-2.0843944E-2,5.794339E-3,-2.2774689E-2,-3.0344218E-2,-1.2469753E-1],"split_indices":[13,5,5,3,5,13,12,3,0,3,1,12,3,13,1,0,0,0,0,0,0,0,0,0,0,0,0,0,0],"split_type":[0,0,0,0,0,0,0,0,0,0,0,0,0,0,0,0,0,0,0,0,0,0,0,0,0,0,0,0,0],"sum_hessian":[2.00941E5,3.7848E4,1.63093E5,4.53E2,3.7395E4,1.61227E5,1.866E3,4.01E2,5.2E1,3.6267E4,1.128E3,4.1533E4,1.19694E5,1.409E3,4.57E2,5.6E1,3.45E2,3.3672E4,2.595E3,1.25E2,1.003E3,1.9986E4,2.1547E4,1.18781E5,9.13E2,1.053E3,3.56E2,3.61E2,9.6E1],"tree_param":{"num_deleted":"0","num_feature":"15","num_nodes":"29","size_leaf_vector":"1"}},{"base_weights":[-4.1316912E-4,6.036144E-2,-4.0558882E-2,5.4294425E-1,5.1931463E-2,-3.7159085E-2,-5.7083E-1,4.7019663E-1,9.639313E-2,8.8400185E-1,4.9107984E-2,-1.0017618E-1,-2.5075564E-2,-1.49033E-1,-1.4832424E0,4.2552347E-3,3.031057E-2,1.9977732E-2,1.407126E-1,2.7613407E-2,2.255724E-3,4.2182664E-4,-1.0257987E-2,-5.3763386E-2,-1.192136E-3,1.5474248E-2,-4.1321162E-2,-4.1963495E-2,-1.8879938E-1],"categories":[],"categories_nodes":[],"categories_segments":[],"categories_sizes":[],"default_left":[0,0,0,0,0,0,0,0,0,0,0,0,0,0,0,0,0,0,0,0,0,0,0,0,0,0,0,0,0],"id":15,"left_children":[1,3,5,7,9,11,13,15,-1,17,19,21,23,25,27,-1,-1,-1,-1,-1,-1,-1,-1,-1,-1,-1,-1,-1,-1],"loss_changes":[4.8910745E2,3.243873E2,2.1761803E2,1.3701959E2,1.840904E2,9.1338684E1,2.9573077E2,6.8144806E1,0E0,2.4667816E2,1.569332E2,2.2007094E2,1.302948E2,1.6393964E2,3.5561188E2,0E0,0E0,0E0,0E0,0E0,0E0,0E0,0E0,0E0,0E0,0E0,0E0,0E0,0E0],"parents":[2147483647,0,0,1,1,2,2,3,3,4,4,5,5,6,6,7,7,9,9,10,10,11,11,12,12,13,13,14,14],"right_children":[2,4,6,8,10,12,14,16,-1,18,20,22,24,26,28,-1,-1,-1,-1,-1,-1,-1,-1,-1,-1,-1,-1,-1,-1],"split_conditions":[2E0,-1.21E-2,1.61E-2,5.101E-1,-1.2139E0,-1.023E-1,4E0,2.91699E1,9.639313E-2,3.046E-1,-5.057E-1,1.1333333E1,-1.2139E0,1.195E1,1.23E1,4.2552347E-3,3.031057E-2,1.9977732E-2,1.407126E-1,2.7613407E-2,2.255724E-3,4.2182664E-4,-1.0257987E-2,-5.3763386E-2,-1.192136E-3,1.5474248E-2,-4.1321162E-2,-4.1963495E-2,-1.8879938E-1],"split_indices":[13,3,3,5,6,1,13,0,0,2,5,12,6,12,12,0,0,0,0,0,0,0,0,0,0,0,0,0,0],"split_type":[0,0,0,0,0,0,0,0,0,0,0,0,0,0,0,0,0,0,0,0,0,0,0,0,0,0,0,0,0],"sum_hessian":[2.00465E5,7.9744E4,1.20721E5,1.368E3,7.8376E4,1.19953E5,7.68E2,1.301E3,6.7E1,2.64E2,7.8112E4,1.9299E4,1.00654E5,5.26E2,2.42E2,3.4E2,9.61E2,2.12E2,5.2E1,6.14E2,7.7498E4,9.486E3,9.813E3,1.17E2,1.00537E5,3.14E2,2.12E2,1.9E2,5.2E1],"tree_param":{"num_deleted":"0","num_feature":"15","num_nodes":"29","size_leaf_vector":"1"}},{"base_weights":[-2.9522083E-3,1.0060976E-1,-2.699683E-2,1.1123201E0,9.078017E-2,-2.510857E-2,-5.5509263E-1,5.306354E-1,1.8371156E-1,6.903103E-2,3.8913327E-1,-1.2188899E-2,-6.777951E-2,-2.9825297E-1,-1.65983E0,1.4642522E-2,6.5605775E-2,2.8621767E-2,3.0417014E-3,1.0765918E-1,1.6021615E-2,1.4157909E-2,-7.184608E-4,-9.566425E-3,-1.5216451E-3,-2.3305662E-2,5.4663267E-2,-1.05366424E-1,-6.224383E-2],"categories":[],"categories_nodes":[],"categories_segments":[],"categories_sizes":[],"default_left":[0,0,0,0,0,0,0,0,0,0,0,0,0,0,0,0,0,0,0,0,0,0,0,0,0,0,0,0,0],"id":16,"left_children":[1,3,5,7,9,11,13,15,-1,17,19,21,23,25,27,-1,-1,-1,-1,-1,-1,-1,-1,-1,-1,-1,-1,-1,-1],"loss_changes":[4.9866187E2,3.7515228E2,1.6205118E2,5.390018E2,2.4247711E2,8.9278564E1,1.6379063E2,5.4805527E1,0E0,1.4370444E2,3.0701654E2,8.005289E1,1.7365642E2,1.1052607E2,1.7616943E1,0E0,0E0,0E0,0E0,0E0,0E0,0E0,0E0,0E0,0E0,0E0,0E0,0E0,0E0],"parents":[2147483647,0,0,1,1,2,2,3,3,4,4,5,5,6,6,7,7,9,9,10,10,11,11,12,12,13,13,14,14],"right_children":[2,4,6,8,10,12,14,16,-1,18,20,22,24,26,28,-1,-1,-1,-1,-1,-1,-1,-1,-1,-1,-1,-1,-1,-1],"split_conditions":[1E0,-1.2139E0,2.15E-2,3.92473E1,6E-3,4E0,4E0,1.5314E0,1.8371156E-1,-1.21E-2,-3.601E-1,-6.089E-1,-6.46E-2,4.82E2,-3.9E1,1.4642522E-2,6.5605775E-2,2.8621767E-2,3.0417014E-3,1.0765918E-1,1.6021615E-2,1.4157909E-2,-7.184608E-4,-9.566425E-3,-1.5216451E-3,-2.3305662E-2,5.4663267E-2,-1.05366424E-1,-6.224383E-2],"split_indices":[13,6,3,0,3,13,13,4,0,3,5,5,1,14,14,0,0,0,0,0,0,0,0,0,0,0,0,0,0],"split_type":[0,0,0,0,0,0,0,0,0,0,0,0,0,0,0,0,0,0,0,0,0,0,0,0,0,0,0,0,0],"sum_hessian":[2.00255E5,3.7733E4,1.62522E5,3.62E2,3.7371E4,1.61944E5,5.78E2,2.96E2,6.6E1,3.4833E4,2.538E3,1.24308E5,3.7636E4,4.7E2,1.08E2,2.28E2,6.8E1,5.57E2,3.4276E4,9.4E1,2.444E3,9.1E2,1.23398E5,8.735E3,2.8901E4,4.2E2,5E1,5E1,5.8E1],"tree_param":{"num_deleted":"0","num_feature":"15","num_nodes":"29","size_leaf_vector":"1"}},{"base_weights":[-9.66306E-4,3.277759E-1,-3.5512E-3,1.857047E-1,7.7698344E-1,-1.7292772E-3,-1.612387E-1,7.763417E-1,1.4461971E-2,1.2766159E-1,1.1502163E0,-2.6731228E-3,4.47227E-1,-6.023892E-2,-8.342534E-1,2.1335835E-2,8.4121756E-2,2.7270904E-2,-1.3299207E-2,7.097297E-2,-3.349654E-2,7.507723E-2,-3.735418E-3,2.9014812E-3,-2.7942864E-4,5.9251203E-3,8.84349E-2,-2.509709E-2,1.7301986E-3,-1.1083227E-1,-1.1936916E-2],"categories":[],"categories_nodes":[],"categories_segments":[],"categories_sizes":[],"default_left":[0,0,0,0,0,0,0,0,0,0,0,0,0,0,0,0,0,0,0,0,0,0,0,0,0,0,0,0,0,0,0],"id":17,"left_children":[1,3,5,7,9,11,13,15,17,19,21,23,25,27,29,-1,-1,-1,-1,-1,-1,-1,-1,-1,-1,-1,-1,-1,-1,-1,-1],"loss_changes":[1.7013492E2,9.95417E1,5.707134E1,1.2014582E2,9.0733765E1,8.3218025E1,1.5418352E2,8.386578E1,1.374351E2,1.4313623E2,1.02535645E2,3.4682804E1,1.7876321E2,8.271293E1,2.4314839E2,0E0,0E0,0E0,0E0,0E0,0E0,0E0,0E0,0E0,0E0,0E0,0E0,0E0,0E0,0E0,0E0],"parents":[2147483647,0,0,1,1,2,2,3,3,4,4,5,5,6,6,7,7,8,8,9,9,10,10,11,11,12,12,13,13,14,14],"right_children":[2,4,6,8,10,12,14,16,18,20,22,24,26,28,30,-1,-1,-1,-1,-1,-1,-1,-1,-1,-1,-1,-1,-1,-1,-1,-1],"split_conditions":[-1.65E-2,2.37E2,5.101E-1,7.51E-2,-2.742E-1,1.6263E0,3.37E2,2.87E-2,-1.53E2,3.48E2,1.188E0,-4.734E-1,3.325E-1,5.622E-1,6.21E-1,2.1335835E-2,8.4121756E-2,2.7270904E-2,-1.3299207E-2,7.097297E-2,-3.349654E-2,7.507723E-2,-3.735418E-3,2.9014812E-3,-2.7942864E-4,5.9251203E-3,8.84349E-2,-2.509709E-2,1.7301986E-3,-1.1083227E-1,-1.1936916E-2],"split_indices":[3,14,5,2,5,6,14,2,14,14,4,6,5,4,5,0,0,0,0,0,0,0,0,0,0,0,0,0,0,0,0],"split_type":[0,0,0,0,0,0,0,0,0,0,0,0,0,0,0,0,0,0,0,0,0,0,0,0,0,0,0,0,0,0,0],"sum_hessian":[2.00212E5,1.561E3,1.98651E5,1.187E3,3.74E2,1.96383E5,2.268E3,2.66E2,9.21E2,1.37E2,2.37E2,1.95972E5,4.11E2,1.973E3,2.95E2,1.93E2,7.3E1,3.18E2,6.03E2,5.2E1,8.5E1,1.84E2,5.3E1,8.98E3,1.86992E5,3.3E2,8.1E1,3.48E2,1.625E3,8.8E1,2.07E2],"tree_param":{"num_deleted":"0","num_feature":"15","num_nodes":"31","size_leaf_vector":"1"}},{"base_weights":[3.0170628E-3,9.148784E-2,-1.7507192E-2,6.9806343E-1,8.142315E-2,-1.4884415E-2,-3.6757937E-1,1.3671589E-1,9.3315226E-1,1.3204168E0,7.592489E-2,3.4947893E-1,-1.6240677E-2,-4.6248215E-1,8.1689395E-2,4.425102E-2,-2.9848307E-2,6.944119E-2,3.283268E-2,-1.3553934E-2,1.7856102E-1,2.9806304E-3,1.4590599E-2,1.0609037E-2,6.603433E-2,8.894466E-4,-1.3991701E-3,-5.573744E-3,-6.0391705E-2],"categories":[],"categories_nodes":[],"categories_segments":[],"categories_sizes":[],"default_left":[0,0,0,0,0,0,0,0,0,0,0,0,0,0,0,0,0,0,0,0,0,0,0,0,0,0,0,0,0],"id":18,"left_children":[1,3,5,7,9,11,13,15,17,19,21,23,25,27,-1,-1,-1,-1,-1,-1,-1,-1,-1,-1,-1,-1,-1,-1,-1],"loss_changes":[3.640089E2,2.3040054E2,1.4939685E2,8.116379E1,2.528683E2,7.981941E1,2.3057732E2,1.0099854E2,5.37688E1,5.8843964E2,1.3018008E2,7.959347E1,6.4300995E1,3.0230267E2,0E0,0E0,0E0,0E0,0E0,0E0,0E0,0E0,0E0,0E0,0E0,0E0,0E0,0E0,0E0],"parents":[2147483647,0,0,1,1,2,2,3,3,4,4,5,5,6,6,7,7,8,8,9,9,10,10,11,11,12,12,13,13],"right_children":[2,4,6,8,10,12,14,16,18,20,22,24,26,28,-1,-1,-1,-1,-1,-1,-1,-1,-1,-1,-1,-1,-1,-1,-1],"split_conditions":[1E0,-1.38E-2,1.61E-2,4.692E-1,-1.2139E0,-7.649E-1,1.8033333E1,7.0333333E0,-2.18E-2,1.0533334E1,6E-3,3.325E-1,2E0,1.1733334E1,8.1689395E-2,4.425102E-2,-2.9848307E-2,6.944119E-2,3.283268E-2,-1.3553934E-2,1.7856102E-1,2.9806304E-3,1.4590599E-2,1.0609037E-2,6.603433E-2,8.894466E-4,-1.3991701E-3,-5.573744E-3,-6.0391705E-2],"split_indices":[13,3,3,4,6,1,12,12,3,12,3,5,13,12,0,0,0,0,0,0,0,0,0,0,0,0,0,0,0],"split_type":[0,0,0,0,0,0,0,0,0,0,0,0,0,0,0,0,0,0,0,0,0,0,0,0,0,0,0,0,0],"sum_hessian":[2.00466E5,3.7748E4,1.62718E5,6.15E2,3.7133E4,1.61509E5,1.209E3,1.82E2,4.33E2,1.63E2,3.697E4,5.98E2,1.60911E5,1.155E3,5.4E1,9E1,9.2E1,1.62E2,2.71E2,9.6E1,6.7E1,3.4374E4,2.596E3,5.25E2,7.3E1,4.1281E4,1.1963E5,7.86E2,3.69E2],"tree_param":{"num_deleted":"0","num_feature":"15","num_nodes":"29","size_leaf_vector":"1"}},{"base_weights":[1.8648089E-4,3.5972834E-1,-2.6078634E-3,2.6719204E-1,1.0867832E0,1.4270218E-1,-4.3667792E-3,8.043034E-1,1.389749E-1,8.2677685E-2,1.840101E-2,1.0547896E-1,8.5580215E-2,-5.805795E-2,1.4423495E-3,6.49996E-2,2.9472237E-2,1.21940505E-2,-1.9982703E-2,2.6205108E-2,1.1693265E-4,5.1317248E-3,-4.9330266E-3,1.0629795E-2,-2.3752243E-6],"categories":[],"categories_nodes":[],"categories_segments":[],"categories_sizes":[],"default_left":[0,0,0,0,0,0,0,0,0,0,0,0,0,0,0,0,0,0,0,0,0,0,0,0,0],"id":19,"left_children":[1,3,5,7,9,11,13,15,17,-1,-1,19,-1,21,23,-1,-1,-1,-1,-1,-1,-1,-1,-1,-1],"loss_changes":[2.0114467E2,1.035883E2,5.0776527E1,9.430471E1,7.027449E1,1.3857687E2,6.1222095E1,2.735051E1,6.2705517E1,0E0,0E0,1.002556E2,0E0,1.25046196E2,5.57214E1,0E0,0E0,0E0,0E0,0E0,0E0,0E0,0E0,0E0,0E0],"parents":[2147483647,0,0,1,1,2,2,3,3,4,4,5,5,6,6,7,7,8,8,11,11,13,13,14,14],"right_children":[2,4,6,8,10,12,14,16,18,-1,-1,20,-1,22,24,-1,-1,-1,-1,-1,-1,-1,-1,-1,-1],"split_conditions":[-1.65E-2,1.68E1,-8.902E-1,-7.649E-1,3.62E-1,1.36E-2,-1.427E-1,4.623E-1,-8.29E-2,8.2677685E-2,1.840101E-2,5.122E-1,8.5580215E-2,8.783334E0,-6.239E-1,6.49996E-2,2.9472237E-2,1.21940505E-2,-1.9982703E-2,2.6205108E-2,1.1693265E-4,5.1317248E-3,-4.9330266E-3,1.0629795E-2,-2.3752243E-6],"split_indices":[3,12,6,1,2,3,1,4,1,0,0,4,0,12,6,0,0,0,0,0,0,0,0,0,0],"split_type":[0,0,0,0,0,0,0,0,0,0,0,0,0,0,0,0,0,0,0,0,0,0,0,0,0],"sum_hessian":[2.00205E5,1.543E3,1.98662E5,1.37E3,1.73E2,2.375E3,1.96287E5,2.63E2,1.107E3,9.6E1,7.7E1,2.321E3,5.4E1,1.9163E4,1.77124E5,7.8E1,1.85E2,9.27E2,1.8E2,4.58E2,1.863E3,3.865E3,1.5298E4,1.24E3,1.75884E5],"tree_param":{"num_deleted":"0","num_feature":"15","num_nodes":"25","size_leaf_vector":"1"}},{"base_weights":[-1.3580882E-3,2.772288E-1,-4.568498E-3,2.3582345E-1,7.47081E-2,-2.1370691E-3,-2.172682E-1,7.4757576E-1,1.4178018E-1,-6.5077557E-3,4.6653245E-2,-9.940455E-2,-1.08094E0,2.4466923E-2,7.5091094E-2,1.38466535E-2,-1.6768081E-2,-1.2933215E-3,1.1201479E-5,7.089951E-4,7.7400426E-3,2.9056659E-2,-8.319025E-3,-1.16824664E-1,-1.9100433E-2],"categories":[],"categories_nodes":[],"categories_segments":[],"categories_sizes":[],"default_left":[0,0,0,0,0,0,0,0,0,0,0,0,0,0,0,0,0,0,0,0,0,0,0,0,0],"id":20,"left_children":[1,3,5,7,-1,9,11,13,15,17,19,21,23,-1,-1,-1,-1,-1,-1,-1,-1,-1,-1,-1,-1],"loss_changes":[1.7938397E2,1.1478314E2,1.025444E2,1.0630248E2,0E0,4.180592E1,2.2801628E2,6.6072754E1,1.2061925E2,2.3447678E1,5.660284E1,9.002535E1,2.351672E2,0E0,0E0,0E0,0E0,0E0,0E0,0E0,0E0,0E0,0E0,0E0,0E0],"parents":[2147483647,0,0,1,1,2,2,3,3,5,5,6,6,7,7,8,8,9,9,10,10,11,11,12,12],"right_children":[2,4,6,8,-1,10,12,14,16,18,20,22,24,-1,-1,-1,-1,-1,-1,-1,-1,-1,-1,-1,-1],"split_conditions":[-1.38E-2,6.709E-1,5.101E-1,-7.649E-1,7.47081E-2,1.552E-1,1.5116667E1,8.93E-2,6.16E-2,-4.99E-2,5.4E-3,-2.25E-1,1.5866667E1,2.4466923E-2,7.5091094E-2,1.38466535E-2,-1.6768081E-2,-1.2933215E-3,1.1201479E-5,7.089951E-4,7.7400426E-3,2.9056659E-2,-8.319025E-3,-1.16824664E-1,-1.9100433E-2],"split_indices":[3,6,5,1,0,5,12,5,5,1,3,1,12,0,0,0,0,0,0,0,0,0,0,0,0],"split_type":[0,0,0,0,0,0,0,0,0,0,0,0,0,0,0,0,0,0,0,0,0,0,0,0,0],"sum_hessian":[2.00566E5,2.284E3,1.98282E5,2.21E3,7.4E1,1.96042E5,2.24E3,3.42E2,1.868E3,1.79925E5,1.6117E4,1.972E3,2.68E2,2.56E2,8.6E1,1.456E3,4.12E2,4.6423E4,1.33502E5,1.2396E4,3.721E3,1.76E2,1.796E3,9.5E1,1.73E2],"tree_param":{"num_deleted":"0","num_feature":"15","num_nodes":"25","size_leaf_vector":"1"}},{"base_weights":[-4.1522724E-3,8.495864E-2,-2.4800658E-2,2.7666673E-1,5.6206264E-2,-1.1226661E-2,-6.9332436E-2,1.207926E-1,4.439851E-1,2.9367449E-2,2.3682553E-1,2.8310025E-1,-1.3433837E-2,-6.3001715E-2,-1.07891E0,1.8374715E-2,2.4855705E-3,1.4036489E-1,1.912573E-2,4.7942167E-4,6.5411776E-3,8.688206E-2,1.0799202E-2,-4.2409413E-3,3.655639E-2,9.033294E-3,-7.5472955E-4,-9.052382E-3,-1.3407583E-3,-3.2252163E-2,-1.2514433E-1],"categories":[],"categories_nodes":[],"categories_segments":[],"categories_sizes":[],"default_left":[0,0,0,0,0,0,0,0,0,0,0,0,0,0,0,0,0,0,0,0,0,0,0,0,0,0,0,0,0,0,0],"id":21,"left_children":[1,3,5,7,9,11,13,15,17,19,21,23,25,27,29,-1,-1,-1,-1,-1,-1,-1,-1,-1,-1,-1,-1,-1,-1,-1,-1],"loss_changes":[3.6906677E2,2.0797662E2,9.843545E1,1.2828903E2,1.5906241E2,8.1081085E1,2.4307187E2,4.4680614E1,3.4366138E2,5.7330223E1,1.3240503E2,1.5319641E2,3.99347E1,1.614901E2,1.4480795E2,0E0,0E0,0E0,0E0,0E0,0E0,0E0,0E0,0E0,0E0,0E0,0E0,0E0,0E0,0E0,0E0],"parents":[2147483647,0,0,1,1,2,2,3,3,4,4,5,5,6,6,7,7,8,8,9,9,10,10,11,11,12,12,13,13,14,14],"right_children":[2,4,6,8,10,12,14,16,18,20,22,24,26,28,30,-1,-1,-1,-1,-1,-1,-1,-1,-1,-1,-1,-1,-1,-1,-1,-1],"split_conditions":[1E0,-1.131E-1,4E0,3.92473E1,1.341E-1,-6.089E-1,1.61E-2,9.216666E0,-8.004E-1,1.524E-1,-1.2139E0,3.51352E1,-1.38E-2,-6.46E-2,1.2E1,1.8374715E-2,2.4855705E-3,1.4036489E-1,1.912573E-2,4.7942167E-4,6.5411776E-3,8.688206E-2,1.0799202E-2,-4.2409413E-3,3.655639E-2,9.033294E-3,-7.5472955E-4,-9.052382E-3,-1.3407583E-3,-3.2252163E-2,-1.2514433E-1],"split_indices":[13,5,13,0,5,5,3,12,6,6,6,0,3,1,12,0,0,0,0,0,0,0,0,0,0,0,0,0,0,0,0],"split_type":[0,0,0,0,0,0,0,0,0,0,0,0,0,0,0,0,0,0,0,0,0,0,0,0,0,0,0,0,0,0,0],"sum_hessian":[2.00578E5,3.7733E4,1.62845E5,4.92E3,3.2813E4,1.24804E5,3.8041E4,2.548E3,2.372E3,2.8569E4,4.244E3,9.28E2,1.23876E5,3.7805E4,2.36E2,5.69E2,1.979E3,5.9E1,2.313E3,2.3909E4,4.66E3,5.7E1,4.187E3,5.1E2,4.18E2,1.05E3,1.22826E5,8.869E3,2.8936E4,1.82E2,5.4E1],"tree_param":{"num_deleted":"0","num_feature":"15","num_nodes":"31","size_leaf_vector":"1"}},{"base_weights":[2.379251E-3,3.6950397E-1,9.191258E-4,1.5092038E-1,7.884367E-1,1.9689046E-3,-2.6132232E-1,4.4688138E-1,-4.4366993E-2,9.00473E-2,4.2865163E-1,6.064539E-4,1.6961202E-1,-9.8506844E-1,1.3985746E-1,-3.9119064E-3,3.45751E-2,1.0497839E-2,-1.1517535E-2,8.534717E-3,5.5749875E-2,-3.115269E-4,1.4706259E-3,5.273718E-3,7.969922E-2,-6.304412E-2,-2.7471194E-3,-1.6431762E-3,8.525754E-2],"categories":[],"categories_nodes":[],"categories_segments":[],"categories_sizes":[],"default_left":[0,0,0,0,0,0,0,0,0,0,0,0,0,0,0,0,0,0,0,0,0,0,0,0,0,0,0,0,0],"id":22,"left_children":[1,3,5,7,9,11,13,15,17,-1,19,21,23,25,27,-1,-1,-1,-1,-1,-1,-1,-1,-1,-1,-1,-1,-1,-1],"loss_changes":[1.07441376E2,7.258906E1,5.496051E1,3.024789E1,9.831375E1,4.5417187E1,2.312582E2,2.6772743E1,1.4995188E1,0E0,3.5573353E1,3.884656E1,1.462754E2,7.2788574E1,1.3875021E2,0E0,0E0,0E0,0E0,0E0,0E0,0E0,0E0,0E0,0E0,0E0,0E0,0E0,0E0],"parents":[2147483647,0,0,1,1,2,2,3,3,4,4,5,5,6,6,7,7,8,8,10,10,11,11,12,12,13,13,14,14],"right_children":[2,4,6,8,10,12,14,16,18,-1,20,22,24,26,28,-1,-1,-1,-1,-1,-1,-1,-1,-1,-1,-1,-1,-1,-1],"split_conditions":[-7.649E-1,3.64765E1,2.15E-2,-1.65E-2,8.733334E0,1.36E-2,9.216666E0,6.117E-1,9.7E0,9.00473E-2,1.5816667E1,1.3584E0,1.8116667E1,5.566E-1,1.7833334E1,-3.9119064E-3,3.45751E-2,1.0497839E-2,-1.1517535E-2,8.534717E-3,5.5749875E-2,-3.115269E-4,1.4706259E-3,5.273718E-3,7.969922E-2,-6.304412E-2,-2.7471194E-3,-1.6431762E-3,8.525754E-2],"split_indices":[1,0,3,3,12,3,12,4,12,0,12,4,12,1,12,0,0,0,0,0,0,0,0,0,0,0,0,0,0],"split_type":[0,0,0,0,0,0,0,0,0,0,0,0,0,0,0,0,0,0,0,0,0,0,0,0,0,0,0,0,0],"sum_hessian":[2.00432E5,7.93E2,1.99639E5,5.22E2,2.71E2,1.98844E5,7.95E2,2.07E2,3.15E2,7E1,2.01E2,1.97242E5,1.602E3,2.83E2,5.12E2,6.6E1,1.41E2,1.33E2,1.82E2,1.47E2,5.4E1,1.59408E5,3.7834E4,1.534E3,6.8E1,2.18E2,6.5E1,4.62E2,5E1],"tree_param":{"num_deleted":"0","num_feature":"15","num_nodes":"29","size_leaf_vector":"1"}},{"base_weights":[7.517736E-4,8.601816E-2,-1.9096905E-2,2.9843393E-1,6.408431E-2,-5.9515736E-3,-6.2025845E-2,2.6902112E-1,8.366128E-2,3.2755636E-2,2.1937288E-1,1.7628292E-2,-1.7965483E-2,-5.815037E-2,-1.477878E0,1.1460237E-2,4.681762E-2,1.1453186E-3,1.2427576E-2,5.415833E-2,9.740626E-3,-2.2220765E-3,2.4661587E-3,-7.511486E-4,-1.5141505E-2,-2.59374E-3,-3.125827E-2,-9.404368E-2,-5.1935583E-2],"categories":[],"categories_nodes":[],"categories_segments":[],"categories_sizes":[],"default_left":[0,0,0,0,0,0,0,0,0,0,0,0,0,0,0,0,0,0,0,0,0,0,0,0,0,0,0,0,0],"id":23,"left_children":[1,3,5,7,9,11,13,15,-1,17,19,21,23,25,27,-1,-1,-1,-1,-1,-1,-1,-1,-1,-1,-1,-1,-1,-1],"loss_changes":[3.3921442E2,1.7631369E2,9.1748245E1,1.4277585E2,1.6689104E2,3.526125E1,2.0904932E2,9.19592E1,0E0,6.067109E1,1.2196661E2,8.2654175E1,6.911398E1,1.3522377E2,1.6452438E1,0E0,0E0,0E0,0E0,0E0,0E0,0E0,0E0,0E0,0E0,0E0,0E0,0E0,0E0],"parents":[2147483647,0,0,1,1,2,2,3,3,4,4,5,5,6,6,7,7,9,9,10,10,11,11,12,12,13,13,14,14],"right_children":[2,4,6,8,10,12,14,16,-1,18,20,22,24,26,28,-1,-1,-1,-1,-1,-1,-1,-1,-1,-1,-1,-1,-1,-1],"split_conditions":[1E0,-3.049E-1,4E0,8.5E-3,2.167E-1,2E0,2.15E-2,1.901E-1,8.366128E-2,5E-3,-2.901E-1,1.0583333E1,1.36E-2,5.101E-1,1.0217E0,1.1460237E-2,4.681762E-2,1.1453186E-3,1.2427576E-2,5.415833E-2,9.740626E-3,-2.2220765E-3,2.4661587E-3,-7.511486E-4,-1.5141505E-2,-2.59374E-3,-3.125827E-2,-9.404368E-2,-5.1935583E-2],"split_indices":[13,6,13,3,6,13,3,5,0,3,5,12,3,5,6,0,0,0,0,0,0,0,0,0,0,0,0,0,0],"split_type":[0,0,0,0,0,0,0,0,0,0,0,0,0,0,0,0,0,0,0,0,0,0,0,0,0,0,0,0,0],"sum_hessian":[2.00429E5,3.7846E4,1.62583E5,3.541E3,3.4305E4,1.2447E5,3.8113E4,3.468E3,7.3E1,2.8547E4,5.758E3,4.2012E4,8.2458E4,3.801E4,1.03E2,3.274E3,1.94E2,2.7302E4,1.245E3,1.58E2,5.6E3,1.4201E4,2.7811E4,8.1616E4,8.42E2,3.7595E4,4.15E2,5.2E1,5.1E1],"tree_param":{"num_deleted":"0","num_feature":"15","num_nodes":"29","size_leaf_vector":"1"}}]},"name":"gbtree"},"learner_model_param":{"base_score":"[4.2353977E-2]","boost_from_average":"1","num_class":"0","num_feature":"15","num_target":"1"},"objective":{"name":"reg:squarederror","reg_loss_param":{"scale_pos_weight":"1"}}},"version":[3,2,0]}