{"learner":{"attributes":{"best_iteration":"0","best_score":"0.5070798473114474"},"feature_names":["rsi_14","macd_signal","bb_position","vwap_deviation","volume_ratio","price_change_5","price_change_20","price_change_1d","price_change_5d","sentiment_avg_1h","sentiment_count_1h","sentiment_deviation","sentiment_momentum","has_breaking_event","hour_of_day","day_of_week","minutes_since_open"],"feature_types":[],"gradient_booster":{"model":{"cats":{"enc":[],"feature_segments":[],"sorted_idx":[]},"gbtree_model_param":{"num_parallel_tree":"1","num_trees":"31"},"iteration_indptr":[0,1,2,3,4,5,6,7,8,9,10,11,12,13,14,15,16,17,18,19,20,21,22,23,24,25,26,27,28,29,30,31],"tree_info":[0,0,0,0,0,0,0,0,0,0,0,0,0,0,0,0,0,0,0,0,0,0,0,0,0,0,0,0,0,0,0],"trees":[{"base_weights":[1.6544821E-3,-4.208389E-2,1.013124E-1,-6.828825E-1,-3.4860887E-2,1.11667976E-1,-6.9263494E-1,1.8645379E-1,-8.235504E-1,-3.0526284E-2,-3.251966E-1,2.8701408E-2,1.6870078E-1,-9.077984E-1,-1.5260257E-1,4.0566814E-1,-3.0222416E-1,-9.9341923E-1,-3.0825463E-1,7.149638E-2,-4.0826965E-2,-5.888311E-1,-1.07792646E-1,8.886293E-2,-5.118728E-2,1.3819084E-1,5.239433E-1,-1.6856894E-1,-1.0819192E0,-1.1054807E0,3.4408003E-1,-1.2457084E-2,3.1017441E-2,-4.6132185E-2,1.6536823E-2,-3.0404259E-2,-6.433807E-2,-3.188571E-2,1.4636408E-2,1.718784E-2,2.873611E-4,1.1060539E-2,-2.1763586E-3,7.928578E-3,-3.2922313E-2,-4.1492086E-2,8.217405E-3,9.414311E-3,2.2904614E-4,-2.0095117E-3,-2.951681E-2,-5.570424E-4,8.6008515E-3,3.651883E-2,1.5368089E-2,4.735891E-2,-4.695818E-2,-9.773653E-2,-4.6868566E-2,-1.4794948E-2,-7.77494E-2,2.649082E-2,-2.8275756E-2],"categories":[],"categories_nodes":[],"categories_segments":[],"categories_sizes":[],"default_left":[0,0,0,0,0,0,0,0,0,0,0,0,0,0,0,0,0,0,0,0,0,0,0,0,0,0,0,0,0,0,0,0,0,0,0,0,0,0,0,0,0,0,0,0,0,0,0,0,0,0,0,0,0,0,0,0,0,0,0,0,0,0,0],"id":0,"left_children":[1,3,5,7,9,11,13,15,17,19,21,23,25,27,29,31,33,35,37,39,41,43,45,47,49,51,53,55,57,59,61,-1,-1,-1,-1,-1,-1,-1,-1,-1,-1,-1,-1,-1,-1,-1,-1,-1,-1,-1,-1,-1,-1,-1,-1,-1,-1,-1,-1,-1,-1,-1,-1],"loss_changes":[2.7931866E2,2.0610522E2,1.6077747E2,6.0850067E1,5.5413292E1,9.129489E1,2.9118675E1,7.615285E0,3.7105164E1,4.560449E1,3.706057E1,3.778881E1,1.2385779E2,2.2967392E1,3.490162E1,7.002063E0,9.035884E0,3.5500153E1,2.145427E1,7.1238625E1,2.789727E1,1.532386E1,7.0130775E1,3.7579998E1,2.0002926E1,5.319902E1,4.0193314E1,3.1387646E1,1.65094E1,8.721424E0,8.529041E0,0E0,0E0,0E0,0E0,0E0,0E0,0E0,0E0,0E0,0E0,0E0,0E0,0E0,0E0,0E0,0E0,0E0,0E0,0E0,0E0,0E0,0E0,0E0,0E0,0E0,0E0,0E0,0E0,0E0,0E0,0E0,0E0],"parents":[2147483647,0,0,1,1,2,2,3,3,4,4,5,5,6,6,7,7,8,8,9,9,10,10,11,11,12,12,13,13,14,14,15,15,16,16,17,17,18,18,19,19,20,20,21,21,22,22,23,23,24,24,25,25,26,26,27,27,28,28,29,29,30,30],"right_children":[2,4,6,8,10,12,14,16,18,20,22,24,26,28,30,32,34,36,38,40,42,44,46,48,50,52,54,56,58,60,62,-1,-1,-1,-1,-1,-1,-1,-1,-1,-1,-1,-1,-1,-1,-1,-1,-1,-1,-1,-1,-1,-1,-1,-1,-1,-1,-1,-1,-1,-1,-1,-1],"split_conditions":[2.2294E0,-2.03528E1,2.22203E1,-1.802E-1,3.11E-2,2E0,3E0,3E0,2.36E-2,-4.07E-2,2E0,2.72E-2,1.22373E1,1E0,7.53E-2,-4.799E-1,-1.58E-1,-1.58E-1,-3.34743E1,-3.53E-1,-1.0086E1,-3.5644E0,-8.756E-1,1E0,1.069E-1,7.9E-3,6.3E-2,1.069E-1,4.49E-2,-2.96E-2,1.0739E0,-1.2457084E-2,3.1017441E-2,-4.6132185E-2,1.6536823E-2,-3.0404259E-2,-6.433807E-2,-3.188571E-2,1.4636408E-2,1.718784E-2,2.873611E-4,1.1060539E-2,-2.1763586E-3,7.928578E-3,-3.2922313E-2,-4.1492086E-2,8.217405E-3,9.414311E-3,2.2904614E-4,-2.0095117E-3,-2.951681E-2,-5.570424E-4,8.6008515E-3,3.651883E-2,1.5368089E-2,4.735891E-2,-4.695818E-2,-9.773653E-2,-4.6868566E-2,-1.4794948E-2,-7.77494E-2,2.649082E-2,-2.8275756E-2],"split_indices":[8,8,8,1,3,15,15,15,1,3,15,3,8,15,3,5,3,3,8,1,8,8,8,15,3,3,3,3,3,1,6,0,0,0,0,0,0,0,0,0,0,0,0,0,0,0,0,0,0,0,0,0,0,0,0,0,0,0,0,0,0,0,0],"split_type":[0,0,0,0,0,0,0,0,0,0,0,0,0,0,0,0,0,0,0,0,0,0,0,0,0,0,0,0,0,0,0,0,0,0,0,0,0,0,0,0,0,0,0,0,0,0,0,0,0,0,0,0,0,0,0,0,0,0,0,0,0,0,0],"sum_hessian":[6.4078473E4,4.453382E4,1.9544652E4,4.95342E2,4.4038477E4,1.929386E4,2.5079344E2,6.8943214E1,4.263988E2,4.339176E4,6.4671735E2,7.860526E3,1.1433333E4,1.7885269E2,7.194075E1,4.7710705E1,2.1232512E1,3.1998645E2,1.0641235E2,3.978723E3,3.941304E4,2.915099E2,3.5520743E2,4.483807E3,3.3767188E3,1.0530327E4,9.030062E2,3.4471607E1,1.4438109E2,2.4230043E1,4.7710705E1,1.174033E1,3.5970375E1,1.0491359E1,1.0741153E1,1.39635E2,1.8035146E2,6.869342E1,3.7718933E1,7.731132E2,3.2056096E3,4.011696E2,3.9011867E4,2.4729631E1,2.6678027E2,9.667038E1,2.5853705E2,2.0565562E3,2.4272507E3,3.3102734E3,6.6445274E1,1.9448981E3,8.585429E3,4.611202E2,4.4188605E2,1.3988479E1,2.048313E1,1.873457E1,1.25646515E2,9.242388E0,1.4987656E1,3.9967083E1,7.743622E0],"tree_param":{"num_deleted":"0","num_feature":"17","num_nodes":"63","size_leaf_vector":"1"}},{"base_weights":[1.5793925E-3,-4.054723E-2,9.237356E-2,-6.200259E-1,-3.374817E-2,1.02018766E-1,-6.734053E-1,1.6793378E-1,-8.030714E-1,-2.9166358E-2,-3.3342338E-1,2.8109854E-2,1.5256037E-1,8.0091946E-2,-7.8755254E-1,3.891995E-1,-2.563004E-1,-3.8564256E-1,-1.081597E0,2.9578278E-2,-4.5668922E-2,-6.643637E-1,-2.0425786E-1,8.93038E-2,-5.1499534E-2,1.0256187E-1,3.3850887E-1,1.0921911E0,-7.631563E-1,-1.4077116E0,-5.4343665E-1,1.2487221E-2,5.937404E-2,-3.2441325E-2,1.3906582E-2,3.0438757E-2,-3.599737E-2,-3.842412E-2,-6.238983E-2,1.1822746E-2,-5.817883E-4,-2.5707057E-2,-2.1608735E-3,2.1620326E-2,-3.6099732E-2,-2.570478E-2,3.30637E-3,1.0175077E-2,-3.649484E-4,-5.2681617E-3,7.9641985E-3,-4.7949684E-4,7.3407083E-3,2.6351249E-2,1.1761209E-2,7.444789E-2,2.2184331E-2,-6.262889E-2,-1.4110885E-2,-7.706689E-2,-4.0236276E-2,-4.2115476E-2,9.002182E-3],"categories":[],"categories_nodes":[],"categories_segments":[],"categories_sizes":[],"default_left":[0,0,0,0,0,0,0,0,0,0,0,0,0,0,0,0,0,0,0,0,0,0,0,0,0,0,0,0,0,0,0,0,0,0,0,0,0,0,0,0,0,0,0,0,0,0,0,0,0,0,0,0,0,0,0,0,0,0,0,0,0,0,0],"id":1,"left_children":[1,3,5,7,9,11,13,15,17,19,21,23,25,27,29,31,33,35,37,39,41,43,45,47,49,51,53,55,57,59,61,-1,-1,-1,-1,-1,-1,-1,-1,-1,-1,-1,-1,-1,-1,-1,-1,-1,-1,-1,-1,-1,-1,-1,-1,-1,-1,-1,-1,-1,-1,-1,-1],"loss_changes":[2.4546138E2,1.7269022E2,1.5029538E2,7.3449936E1,5.948334E1,7.503024E1,2.183403E1,9.172108E0,4.7560944E1,4.1374603E1,2.7751663E1,3.97517E1,1.10871704E2,3.0028725E1,3.2527893E1,6.8189497E0,7.2568555E0,5.5857243E1,1.189267E1,7.981065E1,3.8241776E1,1.1860489E1,3.9466537E1,5.089535E1,4.0282795E1,4.6666656E1,4.908673E1,3.4456844E0,4.1774797E0,3.7138824E0,3.4624462E1,0E0,0E0,0E0,0E0,0E0,0E0,0E0,0E0,0E0,0E0,0E0,0E0,0E0,0E0,0E0,0E0,0E0,0E0,0E0,0E0,0E0,0E0,0E0,0E0,0E0,0E0,0E0,0E0,0E0,0E0,0E0,0E0],"parents":[2147483647,0,0,1,1,2,2,3,3,4,4,5,5,6,6,7,7,8,8,9,9,10,10,11,11,12,12,13,13,14,14,15,15,16,16,17,17,18,18,19,19,20,20,21,21,22,22,23,23,24,24,25,25,26,26,27,27,28,28,29,29,30,30],"right_children":[2,4,6,8,10,12,14,16,18,20,22,24,26,28,30,32,34,36,38,40,42,44,46,48,50,52,54,56,58,60,62,-1,-1,-1,-1,-1,-1,-1,-1,-1,-1,-1,-1,-1,-1,-1,-1,-1,-1,-1,-1,-1,-1,-1,-1,-1,-1,-1,-1,-1,-1,-1,-1],"split_conditions":[2.0971E0,-2.03528E1,2.22203E1,-1.038E-1,3.04E-2,2E0,1E0,3E0,-4.5673E0,-8.8E-2,-7.945E-1,2.61E-2,8.155E0,1.069E-1,7.53E-2,2E0,-1.58E-1,1E0,-1.58E-1,-4.07E-2,-1.66702E1,-8.833E0,2E0,1E0,4.4626E0,1.035E1,8.151E-1,1.4578E0,1.3E-2,4E0,3E0,1.2487221E-2,5.937404E-2,-3.2441325E-2,1.3906582E-2,3.0438757E-2,-3.599737E-2,-3.842412E-2,-6.238983E-2,1.1822746E-2,-5.817883E-4,-2.5707057E-2,-2.1608735E-3,2.1620326E-2,-3.6099732E-2,-2.570478E-2,3.30637E-3,1.0175077E-2,-3.649484E-4,-5.2681617E-3,7.9641985E-3,-4.7949684E-4,7.3407083E-3,2.6351249E-2,1.1761209E-2,7.444789E-2,2.2184331E-2,-6.262889E-2,-1.4110885E-2,-7.706689E-2,-4.0236276E-2,-4.2115476E-2,9.002182E-3],"split_indices":[8,8,8,1,3,15,15,15,7,1,8,3,8,3,3,15,3,15,3,3,8,8,15,15,7,14,7,7,1,15,15,0,0,0,0,0,0,0,0,0,0,0,0,0,0,0,0,0,0,0,0,0,0,0,0,0,0,0,0,0,0,0,0],"split_type":[0,0,0,0,0,0,0,0,0,0,0,0,0,0,0,0,0,0,0,0,0,0,0,0,0,0,0,0,0,0,0,0,0,0,0,0,0,0,0,0,0,0,0,0,0,0,0,0,0,0,0,0,0,0,0,0,0,0,0,0,0,0,0],"sum_hessian":[6.4173426E4,4.38353E4,2.0338123E4,5.07312E2,4.332799E4,2.0086002E4,2.5212224E2,9.564965E1,4.1166238E2,4.2676594E4,6.5139575E2,8.157921E3,1.192808E4,3.320843E1,2.189138E2,6.291695E1,3.27327E1,1.6570435E2,2.4595802E2,9.359288E3,3.3317305E4,1.8170314E2,4.6969263E2,4.612372E3,3.5455486E3,9.401676E3,2.5264048E3,1.4958929E1,1.8249504E1,6.0486233E1,1.5842757E2,5.467789E1,8.239057E0,1.8748428E1,1.3984271E1,4.148442E1,1.24219925E2,8.723461E1,1.5872342E2,1.5540239E3,7.805264E3,1.7235094E2,3.3144953E4,8.746489E0,1.7295665E2,2.1845781E2,2.512348E2,2.1131877E3,2.4991846E3,2.8243208E3,7.2122784E2,2.660291E3,6.7413843E3,8.927845E2,1.6336204E3,8.476727E0,6.4822025E0,8.249776E0,9.999728E0,4.8239777E1,1.2246457E1,1.119969E2,4.6430664E1],"tree_param":{"num_deleted":"0","num_feature":"17","num_nodes":"63","size_leaf_vector":"1"}},{"base_weights":[-1.1784912E-3,-4.1403808E-2,9.219891E-2,-5.853284E-1,-3.5181887E-2,1.0187647E-1,-6.450728E-1,3.0166095E-1,-7.400448E-1,-1.5630351E-2,-8.220954E-2,-1.22662E-2,1.2696934E-1,-1.4061208E0,-5.3851074E-1,-1.0887831E-1,5.225349E-1,-3.6279625E-1,-9.997822E-1,9.90601E-2,-2.5155712E-2,-1.4845552E-1,-2.9661085E-2,-3.53173E-1,1.5305193E-2,1.121798E-1,3.2987913E-1,-4.294204E-2,-7.7434026E-2,-6.553114E-3,-7.2451043E-1,1.9584049E-2,-3.8196854E-2,1.2907734E-3,3.3564348E-2,-2.9845664E-2,3.0133873E-2,-5.743738E-2,-2.991016E-2,1.8112881E-2,6.0198165E-4,-2.0812728E-2,-1.1178261E-3,5.2467985E-3,-7.934339E-3,-8.410701E-4,-2.5804743E-2,3.4808885E-2,-2.2763802E-2,3.092194E-3,-1.2749815E-2,6.5871216E-3,-3.6051268E-5,1.9762024E-2,-3.126942E-2,-5.8651526E-2,1.3646475E-2,-4.450656E-3,-4.3808334E-2],"categories":[],"categories_nodes":[],"categories_segments":[],"categories_sizes":[],"default_left":[0,0,0,0,0,0,0,0,0,0,0,0,0,0,0,0,0,0,0,0,0,0,0,0,0,0,0,0,0,0,0,0,0,0,0,0,0,0,0,0,0,0,0,0,0,0,0,0,0,0,0,0,0,0,0,0,0,0,0],"id":2,"left_children":[1,3,5,7,9,11,13,15,17,19,21,23,25,27,29,31,33,35,37,39,41,43,45,47,49,51,53,-1,-1,55,57,-1,-1,-1,-1,-1,-1,-1,-1,-1,-1,-1,-1,-1,-1,-1,-1,-1,-1,-1,-1,-1,-1,-1,-1,-1,-1,-1,-1],"loss_changes":[2.4125064E2,1.519E2,1.3804216E2,6.988582E1,4.0807957E1,5.4673676E1,1.9572784E1,6.957834E0,4.201831E1,3.4252827E1,4.5366577E1,3.234818E1,4.6922714E1,1.0236931E0,2.1912628E1,9.299799E0,3.6515636E0,4.05791E1,1.4602402E1,5.5063793E1,3.1681803E1,1.4962677E1,4.539332E1,2.7907425E1,4.0074764E1,3.2216965E1,6.659108E1,0E0,0E0,1.9357851E1,1.5739136E1,0E0,0E0,0E0,0E0,0E0,0E0,0E0,0E0,0E0,0E0,0E0,0E0,0E0,0E0,0E0,0E0,0E0,0E0,0E0,0E0,0E0,0E0,0E0,0E0,0E0,0E0,0E0,0E0],"parents":[2147483647,0,0,1,1,2,2,3,3,4,4,5,5,6,6,7,7,8,8,9,9,10,10,11,11,12,12,13,13,14,14,15,15,16,16,17,17,18,18,19,19,20,20,21,21,22,22,23,23,24,24,25,25,26,26,29,29,30,30],"right_children":[2,4,6,8,10,12,14,16,18,20,22,24,26,28,30,32,34,36,38,40,42,44,46,48,50,52,54,-1,-1,56,58,-1,-1,-1,-1,-1,-1,-1,-1,-1,-1,-1,-1,-1,-1,-1,-1,-1,-1,-1,-1,-1,-1,-1,-1,-1,-1,-1,-1],"split_conditions":[2.2759E0,-2.03528E1,2.22203E1,-1.67E-1,3.1E-3,9.5E0,-3.117E0,9.75E0,-4.5673E0,-3.732E-1,6.364E-1,1.1E-3,1.29508E1,6.8E-3,2.1698E0,7.6E0,-1.9005E0,3.39E-2,2.91E-2,-4.71E-2,-1.66702E1,-2.3301E0,4.35E-2,-2.07E-2,5.15E-2,1.61667E1,1.069E-1,-4.294204E-2,-7.7434026E-2,6.04E-2,9.5333E0,1.9584049E-2,-3.8196854E-2,1.2907734E-3,3.3564348E-2,-2.9845664E-2,3.0133873E-2,-5.743738E-2,-2.991016E-2,1.8112881E-2,6.0198165E-4,-2.0812728E-2,-1.1178261E-3,5.2467985E-3,-7.934339E-3,-8.410701E-4,-2.5804743E-2,3.4808885E-2,-2.2763802E-2,3.092194E-3,-1.2749815E-2,6.5871216E-3,-3.6051268E-5,1.9762024E-2,-3.126942E-2,-5.8651526E-2,1.3646475E-2,-4.450656E-3,-4.3808334E-2],"split_indices":[8,8,8,1,3,14,7,14,7,1,7,3,8,3,7,14,6,1,1,3,8,8,3,3,3,14,3,0,0,3,14,0,0,0,0,0,0,0,0,0,0,0,0,0,0,0,0,0,0,0,0,0,0,0,0,0,0,0,0],"split_type":[0,0,0,0,0,0,0,0,0,0,0,0,0,0,0,0,0,0,0,0,0,0,0,0,0,0,0,0,0,0,0,0,0,0,0,0,0,0,0,0,0,0,0,0,0,0,0,0,0,0,0,0,0,0,0,0,0,0,0],"sum_hessian":[6.42264E4,4.4889402E4,1.9336996E4,5.0662714E2,4.4382777E4,1.9087314E4,2.496817E2,7.510429E1,4.3152286E2,3.1350344E4,1.3032432E4,3.4399856E3,1.5647329E4,2.9168686E1,2.2051302E2,2.644952E1,4.8654766E1,1.769351E2,2.5458775E2,2.403348E3,2.8946996E4,5.7640605E3,7.2683716E3,2.565134E2,3.1834722E3,1.4585767E4,1.0615632E3,7.4795384E0,2.1689148E1,5.739603E1,1.6311697E2,1.5220745E1,1.1228775E1,1.1483173E1,3.7171593E1,1.4271095E2,3.422414E1,1.8434471E2,7.024305E1,5.963863E2,1.8069615E3,2.0465881E2,2.8742338E4,2.233455E2,5.540715E3,7.0824604E3,1.8591084E2,2.2229921E1,2.3428348E2,2.7165298E3,4.669425E2,1.2431551E4,2.1542158E3,9.941291E2,6.74341E1,1.047584E1,4.6920193E1,3.1732534E1,1.3138445E2],"tree_param":{"num_deleted":"0","num_feature":"17","num_nodes":"59","size_leaf_vector":"1"}},{"base_weights":[2.2571106E-3,-3.706215E-2,9.3394205E-2,-5.6577873E-1,-3.1167835E-2,1.0232739E-1,-5.9462446E-1,2.418659E-1,-7.1060675E-1,3.199735E-2,-4.8687268E-2,2.9262273E-2,1.5266497E-1,-7.9797757E-1,-1.02850676E-1,4.6870968E-1,-2.5329533E-1,-8.381602E-1,1.698188E-2,5.019423E-1,1.8791547E-2,-5.150649E-1,-4.6384275E-2,5.6820188E-2,-1.53018E-1,1.0246346E-1,3.2527596E-1,-4.7540583E-2,-9.8449546E-1,1.1757373E0,-3.4564933E-1,1.4530425E-2,7.939038E-2,-6.370472E-2,1.140542E-2,-2.5839314E-2,-5.2640416E-2,-2.5110308E-2,3.9902937E-2,3.9253525E-2,1.4479967E-2,3.207688E-3,-9.2741393E-4,-3.40863E-2,3.270844E-2,-2.1245515E-3,-1.19956E-2,6.328009E-3,-2.4081266E-4,5.2379067E-3,-1.908537E-2,1.2909098E-3,7.637831E-3,2.1769136E-2,1.0123367E-2,2.812013E-2,-3.4357693E-2,-5.480952E-2,-1.5261177E-3,7.71389E-2,2.951862E-2,6.5271156E-3,-3.346296E-2],"categories":[],"categories_nodes":[],"categories_segments":[],"categories_sizes":[],"default_left":[0,0,0,0,0,0,0,0,0,0,0,0,0,0,0,0,0,0,0,0,0,0,0,0,0,0,0,0,0,0,0,0,0,0,0,0,0,0,0,0,0,0,0,0,0,0,0,0,0,0,0,0,0,0,0,0,0,0,0,0,0,0,0],"id":3,"left_children":[1,3,5,7,9,11,13,15,17,19,21,23,25,27,29,31,33,35,37,39,41,43,45,47,49,51,53,55,57,59,61,-1,-1,-1,-1,-1,-1,-1,-1,-1,-1,-1,-1,-1,-1,-1,-1,-1,-1,-1,-1,-1,-1,-1,-1,-1,-1,-1,-1,-1,-1,-1,-1],"loss_changes":[2.2965944E2,1.3951318E2,1.1878259E2,5.7905807E1,4.9002842E1,7.013185E1,2.4692207E1,8.632603E0,3.8880035E1,5.9663574E1,3.7209442E1,3.9089478E1,9.780344E1,2.446379E1,2.3260998E1,9.969343E0,1.2312467E1,2.4036865E1,2.6129812E1,1.5570747E1,1.5844473E1,3.3620148E1,2.5981285E1,2.9054127E1,6.0288013E1,3.3717995E1,3.4303925E1,1.4396037E1,1.4905731E1,1.6623192E0,9.740813E0,0E0,0E0,0E0,0E0,0E0,0E0,0E0,0E0,0E0,0E0,0E0,0E0,0E0,0E0,0E0,0E0,0E0,0E0,0E0,0E0,0E0,0E0,0E0,0E0,0E0,0E0,0E0,0E0,0E0,0E0,0E0,0E0],"parents":[2147483647,0,0,1,1,2,2,3,3,4,4,5,5,6,6,7,7,8,8,9,9,10,10,11,11,12,12,13,13,14,14,15,15,16,16,17,17,18,18,19,19,20,20,21,21,22,22,23,23,24,24,25,25,26,26,27,27,28,28,29,29,30,30],"right_children":[2,4,6,8,10,12,14,16,18,20,22,24,26,28,30,32,34,36,38,40,42,44,46,48,50,52,54,56,58,60,62,-1,-1,-1,-1,-1,-1,-1,-1,-1,-1,-1,-1,-1,-1,-1,-1,-1,-1,-1,-1,-1,-1,-1,-1,-1,-1,-1,-1,-1,-1,-1,-1],"split_conditions":[2.2759E0,-2.03528E1,2.22203E1,-1.67E-1,-8.8E-2,2E0,3E0,3E0,1.071E-1,-1.3649E1,-1.66702E1,1.61667E1,8.155E0,1E0,9.5E0,2E0,3.13526E1,-4.5673E0,-3.34743E1,1.10167E1,-1.0716E0,2.427E-1,4.2667E0,1E0,4.3075E0,1.14E1,1.987E0,5.4908E0,1.65667E1,1.669E-1,3.1199E0,1.4530425E-2,7.939038E-2,-6.370472E-2,1.140542E-2,-2.5839314E-2,-5.2640416E-2,-2.5110308E-2,3.9902937E-2,3.9253525E-2,1.4479967E-2,3.207688E-3,-9.2741393E-4,-3.40863E-2,3.270844E-2,-2.1245515E-3,-1.19956E-2,6.328009E-3,-2.4081266E-4,5.2379067E-3,-1.908537E-2,1.2909098E-3,7.637831E-3,2.1769136E-2,1.0123367E-2,2.812013E-2,-3.4357693E-2,-5.480952E-2,-1.5261177E-3,7.71389E-2,2.951862E-2,6.5271156E-3,-3.346296E-2],"split_indices":[8,8,8,1,1,15,15,15,1,8,8,14,8,15,14,15,0,7,8,14,7,1,7,15,8,14,7,7,14,1,7,0,0,0,0,0,0,0,0,0,0,0,0,0,0,0,0,0,0,0,0,0,0,0,0,0,0,0,0,0,0,0,0],"split_type":[0,0,0,0,0,0,0,0,0,0,0,0,0,0,0,0,0,0,0,0,0,0,0,0,0,0,0,0,0,0,0,0,0,0,0,0,0,0,0,0,0,0,0,0,0,0,0,0,0,0,0,0,0,0,0,0,0,0,0,0,0,0,0],"sum_hessian":[6.408707E4,4.4771785E4,1.9315287E4,4.925807E2,4.4279203E4,1.9068555E4,2.4673354E2,7.479736E1,4.1778333E2,9.614374E3,3.466483E4,7.778958E3,1.1289597E4,1.7411336E2,7.262017E1,5.133372E1,2.346364E1,3.5533722E2,6.2446087E1,2.61775E2,9.352599E3,1.6924124E2,3.449559E4,6.75795E3,1.0210076E3,8.747191E3,2.5424053E3,3.4910236E1,1.3920312E2,1.0976264E1,6.16439E1,4.53725E1,5.9612217E0,6.9915943E0,1.6472046E1,1.4365807E2,2.1167915E2,3.7726208E1,2.471988E1,1.110324E2,1.5074258E2,4.222358E3,5.1302407E3,1.484923E2,2.0748953E1,3.381651E4,6.790756E2,3.170059E3,3.587891E3,4.8023456E2,5.407731E2,3.4662476E3,5.280944E3,1.3391847E3,1.2032207E3,1.7931372E1,1.6978867E1,1.244795E2,1.4723624E1,5.740943E0,5.2353206E0,2.5183302E1,3.64606E1],"tree_param":{"num_deleted":"0","num_feature":"17","num_nodes":"63","size_leaf_vector":"1"}},{"base_weights":[1.3500316E-3,-3.451277E-2,8.487424E-2,-4.997799E-1,-2.9231464E-2,9.3504064E-2,-5.557702E-1,1.1314066E-1,-6.466028E-1,2.427895E-2,-4.2459067E-2,7.981647E-2,2.8781918E-1,-1.233045E0,-4.666028E-1,-3.6251094E-2,1.9796966E-1,-2.9458633E-1,-8.8533473E-1,1.4387502E-1,-3.1110931E-2,-4.9105685E-2,5.7394534E-2,1.262555E-1,3.4897827E-2,4.9989054E-1,1.5172891E-1,-7.299684E-2,-2.889791E-2,2.3715103E-1,-6.1145455E-1,5.1950168E-2,5.3133345E-3,-2.5943337E-2,2.0121966E-2,-5.617234E-2,-3.0000543E-2,1.7651876E-2,3.5170566E-3,-8.792891E-3,-5.81776E-4,-2.2908612E-3,-1.8914677E-2,2.5716146E-2,1.3626026E-3,2.196079E-3,8.7827295E-3,2.8537593E-3,-7.543575E-3,-1.2229221E-2,2.8987078E-2,-7.0930147E-3,9.870626E-3,2.6203528E-2,-4.3944757E-2,-8.035148E-3,-3.922646E-2],"categories":[],"categories_nodes":[],"categories_segments":[],"categories_sizes":[],"default_left":[0,0,0,0,0,0,0,0,0,0,0,0,0,0,0,0,0,0,0,0,0,0,0,0,0,0,0,0,0,0,0,0,0,0,0,0,0,0,0,0,0,0,0,0,0,0,0,0,0,0,0,0,0,0,0,0,0],"id":4,"left_children":[1,3,5,7,9,11,13,15,17,19,21,23,25,27,29,-1,31,33,35,37,39,41,43,45,47,49,51,-1,-1,53,55,-1,-1,-1,-1,-1,-1,-1,-1,-1,-1,-1,-1,-1,-1,-1,-1,-1,-1,-1,-1,-1,-1,-1,-1,-1,-1],"loss_changes":[1.921586E2,1.1026679E2,1.06591095E2,4.53984E1,3.1412388E1,5.0551605E1,1.4901382E1,7.124606E0,3.3898697E1,5.8275665E1,2.3618546E1,3.705342E1,3.6026283E1,3.4972458E0,2.339444E1,0E0,6.826823E0,2.612259E1,1.5747803E1,4.2803658E1,1.694818E1,3.6098145E1,3.057773E1,3.5516968E1,3.721851E1,2.9182907E1,1.0266659E1,0E0,0E0,1.3157355E1,1.4651207E1,0E0,0E0,0E0,0E0,0E0,0E0,0E0,0E0,0E0,0E0,0E0,0E0,0E0,0E0,0E0,0E0,0E0,0E0,0E0,0E0,0E0,0E0,0E0,0E0,0E0,0E0],"parents":[2147483647,0,0,1,1,2,2,3,3,4,4,5,5,6,6,7,7,8,8,9,9,10,10,11,11,12,12,13,13,14,14,16,16,17,17,18,18,19,19,20,20,21,21,22,22,23,23,24,24,25,25,26,26,29,29,30,30],"right_children":[2,4,6,8,10,12,14,16,18,20,22,24,26,28,30,-1,32,34,36,38,40,42,44,46,48,50,52,-1,-1,54,56,-1,-1,-1,-1,-1,-1,-1,-1,-1,-1,-1,-1,-1,-1,-1,-1,-1,-1,-1,-1,-1,-1,-1,-1,-1,-1],"split_conditions":[2.2759E0,-2.03528E1,2.22203E1,-1.038E-1,9.5E0,1.29508E1,-3.3277E0,-1.2345E0,-4.5673E0,-6.422E-1,2.89E-1,7.598E-1,1.6796E0,1.08E-2,9.3667E0,-3.6251094E-2,-6.777E-1,2.68E-2,3E-3,-5.3709E0,-4.0514E0,5.1625E0,-1.05721E1,-6.242E-1,1.61667E1,-3.0152E0,9.2167E0,-7.299684E-2,-2.889791E-2,1.1636E0,2.2196E0,5.1950168E-2,5.3133345E-3,-2.5943337E-2,2.0121966E-2,-5.617234E-2,-3.0000543E-2,1.7651876E-2,3.5170566E-3,-8.792891E-3,-5.81776E-4,-2.2908612E-3,-1.8914677E-2,2.5716146E-2,1.3626026E-3,2.196079E-3,8.7827295E-3,2.8537593E-3,-7.543575E-3,-1.2229221E-2,2.8987078E-2,-7.0930147E-3,9.870626E-3,2.6203528E-2,-4.3944757E-2,-8.035148E-3,-3.922646E-2],"split_indices":[8,8,8,1,14,8,7,5,7,7,1,7,7,1,14,0,5,1,1,8,8,7,8,7,14,7,14,0,0,6,7,0,0,0,0,0,0,0,0,0,0,0,0,0,0,0,0,0,0,0,0,0,0,0,0,0,0],"split_type":[0,0,0,0,0,0,0,0,0,0,0,0,0,0,0,0,0,0,0,0,0,0,0,0,0,0,0,0,0,0,0,0,0,0,0,0,0,0,0,0,0,0,0,0,0,0,0,0,0,0,0,0,0,0,0,0,0],"sum_hessian":[6.4148992E4,4.4879613E4,1.9269377E4,5.0266525E2,4.437695E4,1.9014102E4,2.5527602E2,9.718603E1,4.0547922E2,8.795431E3,3.558152E4,1.77642E4,1.2499032E3,2.8206213E1,2.270698E2,8.238431E0,8.894759E1,1.6476413E2,2.4071509E2,2.7835913E3,6.01184E3,3.336137E4,2.2201455E3,8.733392E3,9.030807E3,4.8752026E2,7.623829E2,2.0037527E1,8.168687E0,3.8650654E1,1.8841914E2,7.729362E0,8.121823E1,1.2484774E2,3.991639E1,1.2961209E2,1.11103004E2,7.2306836E2,2.060523E3,7.120023E2,5.2998374E3,3.303253E4,3.2884317E2,1.364001E2,2.0837454E3,3.2756782E3,5.457714E3,8.068297E3,9.6250995E2,4.702541E1,4.4049487E2,1.0237256E2,6.600103E2,3.116818E1,7.4824724E0,5.2810154E1,1.35609E2],"tree_param":{"num_deleted":"0","num_feature":"17","num_nodes":"57","size_leaf_vector":"1"}},{"base_weights":[4.8030764E-4,-3.485976E-2,8.253792E-2,-5.1333946E-1,-2.9477496E-2,9.155025E-2,-5.9497E-1,1.9624788E-1,-6.3832045E-1,-2.7164534E-2,-5.292532E-1,-1.7192092E-2,1.1555396E-1,-1.2711496E0,-5.142859E-1,1.00769505E-1,4.4646982E-2,-7.699783E-1,-1.9943002E-1,2.210022E-2,-4.608511E-2,-4.4916978E-1,-1.3986845E0,2.7559033E-2,-2.2410747E-1,1.0193273E-1,3.03881E-1,-8.939443E-1,-7.8715816E-2,-3.865217E-1,-1.0149705E0,-5.236656E-3,1.7964022E-2,-2.3003269E-2,-4.9899843E-2,-2.408488E-2,1.55958785E-2,2.4645533E-2,5.641718E-4,-3.437515E-3,-2.4440736E-4,-2.8258488E-2,-7.4884817E-3,-8.206351E-2,-3.81823E-2,-1.3022579E-2,2.827083E-3,1.7884854E-2,-1.4405747E-2,5.9703565E-3,4.3910375E-4,1.8085858E-2,-2.7806288E-2,-1.944234E-2,-6.0682006E-2,1.45970555E-2,-2.6903331E-2,-8.204153E-2,-3.8251985E-2],"categories":[],"categories_nodes":[],"categories_segments":[],"categories_sizes":[],"default_left":[0,0,0,0,0,0,0,0,0,0,0,0,0,0,0,0,0,0,0,0,0,0,0,0,0,0,0,0,0,0,0,0,0,0,0,0,0,0,0,0,0,0,0,0,0,0,0,0,0,0,0,0,0,0,0,0,0,0,0],"id":5,"left_children":[1,3,5,7,9,11,13,15,17,19,21,23,25,27,29,31,-1,33,35,37,39,41,43,45,47,49,51,53,-1,55,57,-1,-1,-1,-1,-1,-1,-1,-1,-1,-1,-1,-1,-1,-1,-1,-1,-1,-1,-1,-1,-1,-1,-1,-1,-1,-1,-1,-1],"loss_changes":[1.8598788E2,1.1543289E2,1.17939285E2,4.434317E1,5.123093E1,4.973723E1,1.3180916E1,4.9276886E0,2.4356033E1,4.1133617E1,1.3587227E1,3.1917898E1,4.0009262E1,1.6062927E0,1.4207409E1,3.6218276E0,0E0,2.2573349E1,1.4472522E1,6.2357433E1,2.9770409E1,6.459236E0,1.3264809E0,2.3674114E1,2.2928398E1,2.369487E1,5.2541573E1,1.797905E0,0E0,1.9018433E1,5.9063263E0,0E0,0E0,0E0,0E0,0E0,0E0,0E0,0E0,0E0,0E0,0E0,0E0,0E0,0E0,0E0,0E0,0E0,0E0,0E0,0E0,0E0,0E0,0E0,0E0,0E0,0E0,0E0,0E0],"parents":[2147483647,0,0,1,1,2,2,3,3,4,4,5,5,6,6,7,7,8,8,9,9,10,10,11,11,12,12,13,13,14,14,15,15,17,17,18,18,19,19,20,20,21,21,22,22,23,23,24,24,25,25,26,26,27,27,29,29,30,30],"right_children":[2,4,6,8,10,12,14,16,18,20,22,24,26,28,30,32,-1,34,36,38,40,42,44,46,48,50,52,54,-1,56,58,-1,-1,-1,-1,-1,-1,-1,-1,-1,-1,-1,-1,-1,-1,-1,-1,-1,-1,-1,-1,-1,-1,-1,-1,-1,-1,-1,-1],"split_conditions":[2.2759E0,-2.03528E1,2.22203E1,-1.802E-1,4.35E-2,9.5E0,3.7E-2,-1.11E-1,3.27E-2,-5.64E-2,1.62333E1,4.49E-2,1.29508E1,1.2E1,1.1636E0,3.635E-1,4.4646982E-2,-1.58E-1,-3.34743E1,-8.37E-2,5.4E-2,6.25679E1,6.37E-2,1.1E-3,4.6811E0,1.60333E1,1.069E-1,1.57E-2,-7.8715816E-2,9.3667E0,2.79E-2,-5.236656E-3,1.7964022E-2,-2.3003269E-2,-4.9899843E-2,-2.408488E-2,1.55958785E-2,2.4645533E-2,5.641718E-4,-3.437515E-3,-2.4440736E-4,-2.8258488E-2,-7.4884817E-3,-8.206351E-2,-3.81823E-2,-1.3022579E-2,2.827083E-3,1.7884854E-2,-1.4405747E-2,5.9703565E-3,4.3910375E-4,1.8085858E-2,-2.7806288E-2,-1.944234E-2,-6.0682006E-2,1.45970555E-2,-2.6903331E-2,-8.204153E-2,-3.8251985E-2],"split_indices":[8,8,8,1,3,14,3,3,1,1,14,3,8,14,6,2,0,3,8,3,1,0,5,3,8,14,3,3,0,14,1,0,0,0,0,0,0,0,0,0,0,0,0,0,0,0,0,0,0,0,0,0,0,0,0,0,0,0,0],"split_type":[0,0,0,0,0,0,0,0,0,0,0,0,0,0,0,0,0,0,0,0,0,0,0,0,0,0,0,0,0,0,0,0,0,0,0,0,0,0,0,0,0,0,0,0,0,0,0,0,0,0,0,0,0,0,0,0,0,0,0],"sum_hessian":[6.41335E4,4.482788E4,1.9305621E4,4.9759552E2,4.4330285E4,1.905304E4,2.5258209E2,7.443213E1,4.231634E2,4.4127117E4,2.03166E2,3.445303E3,1.5607735E4,2.5353163E1,2.2722893E2,6.646768E1,7.964447E0,3.249353E2,9.8228096E1,1.2244678E4,3.188244E4,1.874194E2,1.5746598E1,2.833375E3,6.1192816E2,1.4556444E4,1.051291E3,1.3056599E1,1.2296563E1,1.8244481E2,4.4784115E1,3.7361843E1,2.9105843E1,1.3901277E2,1.8592252E2,6.332836E1,3.489973E1,2.7400015E2,1.1970678E4,2.0566676E4,1.1315764E4,1.3444298E2,5.297642E1,1.0247513E1,5.4990854E0,2.583247E2,2.5750503E3,6.0194412E1,5.5173376E2,1.2256862E4,2.2995818E3,9.855888E2,6.5702255E1,5.919886E0,7.1367126E0,3.314209E1,1.4930273E2,1.1192205E1,3.359191E1],"tree_param":{"num_deleted":"0","num_feature":"17","num_nodes":"59","size_leaf_vector":"1"}},{"base_weights":[2.3975759E-3,-2.8264351E-2,7.8040026E-2,-4.580677E-1,-2.3513347E-2,8.621325E-2,-5.384834E-1,-1.14205025E-1,-7.115447E-1,3.395977E-2,-3.668171E-2,1.0903689E-2,1.3830331E-1,-7.5431544E-1,-3.4766494E-5,6.883485E-1,-4.744436E-1,-5.7330847E-1,-8.706386E-1,1.8361907E-1,-5.3659794E-3,-7.078494E-2,-2.3856503E-3,-5.7805018E-3,2.753912E-1,1.1340059E-1,4.0960824E-1,-1.0881733E-2,-9.2231536E-1,9.348573E-1,-2.53301E-1,6.9760375E-2,8.824353E-3,-7.4400106E-3,-3.8933437E-2,-3.318153E-2,1.7468583E-2,-7.4226156E-2,-3.5252314E-2,3.856829E-2,4.8829205E-3,-1.5110102E-3,8.6526675E-3,-4.178991E-3,2.5213286E-3,9.684118E-5,-2.9415457E-2,1.5970295E-3,-7.350503E-3,-9.078975E-4,1.9573543E-2,-2.1280313E-3,7.41634E-3,2.7141621E-2,-9.249929E-3,1.5407436E-2,-4.6689846E-2,-5.188463E-2,-8.415257E-3,6.613039E-2,1.2463358E-2,1.389695E-2,-2.8274352E-2],"categories":[],"categories_nodes":[],"categories_segments":[],"categories_sizes":[],"default_left":[0,0,0,0,0,0,0,0,0,0,0,0,0,0,0,0,0,0,0,0,0,0,0,0,0,0,0,0,0,0,0,0,0,0,0,0,0,0,0,0,0,0,0,0,0,0,0,0,0,0,0,0,0,0,0,0,0,0,0,0,0,0,0],"id":6,"left_children":[1,3,5,7,9,11,13,15,17,19,21,23,25,27,29,31,33,35,37,39,41,43,45,47,49,51,53,55,57,59,61,-1,-1,-1,-1,-1,-1,-1,-1,-1,-1,-1,-1,-1,-1,-1,-1,-1,-1,-1,-1,-1,-1,-1,-1,-1,-1,-1,-1,-1,-1,-1,-1],"loss_changes":[1.4857727E2,9.306949E1,9.3152664E1,4.3351753E1,3.4123276E1,7.153725E1,2.8110435E1,6.1804287E1,5.805298E0,4.9468243E1,4.2902927E1,3.290922E1,7.2785034E1,2.1556E1,1.6861725E1,2.373703E1,1.4482716E1,1.3258812E1,1.2305489E1,8.829037E1,2.9525404E1,2.8528877E1,4.6323486E1,3.7380486E1,1.5086266E1,5.379677E1,7.186246E1,9.956939E0,1.2077049E1,3.7056885E0,9.450124E0,0E0,0E0,0E0,0E0,0E0,0E0,0E0,0E0,0E0,0E0,0E0,0E0,0E0,0E0,0E0,0E0,0E0,0E0,0E0,0E0,0E0,0E0,0E0,0E0,0E0,0E0,0E0,0E0,0E0,0E0,0E0,0E0],"parents":[2147483647,0,0,1,1,2,2,3,3,4,4,5,5,6,6,7,7,8,8,9,9,10,10,11,11,12,12,13,13,14,14,15,15,16,16,17,17,18,18,19,19,20,20,21,21,22,22,23,23,24,24,25,25,26,26,27,27,28,28,29,29,30,30],"right_children":[2,4,6,8,10,12,14,16,18,20,22,24,26,28,30,32,34,36,38,40,42,44,46,48,50,52,54,56,58,60,62,-1,-1,-1,-1,-1,-1,-1,-1,-1,-1,-1,-1,-1,-1,-1,-1,-1,-1,-1,-1,-1,-1,-1,-1,-1,-1,-1,-1,-1,-1,-1,-1],"split_conditions":[2.4128E0,-2.03528E1,2.22203E1,-5.4341E0,1E0,2E0,3E0,1E0,-1.79E-2,9.5E0,3E0,5.4908E0,1.22373E1,1E0,1.00167E1,-3.34743E1,3E0,-5.007E-1,1E0,-5.9865E0,1.5297E0,1.9019E0,5.8711E0,8.155E0,1.045E1,9.5E0,5.1625E0,9.8802E0,1.59833E1,5.67594E1,2.7045E0,6.9760375E-2,8.824353E-3,-7.4400106E-3,-3.8933437E-2,-3.318153E-2,1.7468583E-2,-7.4226156E-2,-3.5252314E-2,3.856829E-2,4.8829205E-3,-1.5110102E-3,8.6526675E-3,-4.178991E-3,2.5213286E-3,9.684118E-5,-2.9415457E-2,1.5970295E-3,-7.350503E-3,-9.078975E-4,1.9573543E-2,-2.1280313E-3,7.41634E-3,2.7141621E-2,-9.249929E-3,1.5407436E-2,-4.6689846E-2,-5.188463E-2,-8.415257E-3,6.613039E-2,1.2463358E-2,1.389695E-2,-2.8274352E-2],"split_indices":[8,8,8,7,15,15,15,15,7,14,15,7,8,15,14,8,15,7,15,8,8,7,7,8,14,14,7,7,14,0,7,0,0,0,0,0,0,0,0,0,0,0,0,0,0,0,0,0,0,0,0,0,0,0,0,0,0,0,0,0,0,0,0],"split_type":[0,0,0,0,0,0,0,0,0,0,0,0,0,0,0,0,0,0,0,0,0,0,0,0,0,0,0,0,0,0,0,0,0,0,0,0,0,0,0,0,0,0,0,0,0,0,0,0,0,0,0,0,0,0,0,0,0,0,0,0,0,0,0],"sum_hessian":[6.4058117E4,4.5581945E4,1.8476172E4,4.9730646E2,4.5084637E4,1.8235287E4,2.4088438E2,2.1164413E2,2.8566232E2,8.403988E3,3.668065E4,7.456381E3,1.0778906E4,1.7167084E2,6.921354E1,6.52862E1,1.4635794E2,1.55314E2,1.3034831E2,1.7480157E3,6.655973E3,1.8391496E4,1.8289154E4,7.014854E3,4.415273E2,9.874003E3,9.049032E2,3.1839474E1,1.3983136E2,1.4179812E1,5.5033726E1,2.6695326E1,3.8590874E1,7.14098E1,7.494814E1,1.417215E2,1.3592499E1,2.5999172E1,1.04349144E2,2.2201802E2,1.5259977E3,5.8428774E3,8.1309576E2,1.6635766E4,1.7557314E3,1.8156209E4,1.3294527E2,5.5368003E3,1.4780536E3,1.25358055E2,3.1616928E2,1.806582E3,8.0674214E3,7.393383E2,1.6556485E2,2.4155567E1,7.6839075E0,1.2094792E2,1.8883446E1,8.463782E0,5.7160296E0,2.0410809E1,3.4622917E1],"tree_param":{"num_deleted":"0","num_feature":"17","num_nodes":"63","size_leaf_vector":"1"}},{"base_weights":[1.5103008E-3,-1.4269856E-2,2.5516108E-2,4.0103693E-2,-3.8774166E-2,-2.2862785E-1,3.1006131E-2,1.6201454E-1,1.26698855E-2,-4.861461E-2,4.270158E-2,1.7948917E-1,-3.6476704E-1,1.813641E-2,1.1674402E-1,6.053259E-1,1.2385464E-1,3.6431727E-1,4.8450297E-3,1.866574E-2,-5.8435358E-2,-8.2399204E-2,1.8187186E-1,4.8108613E-1,3.8913626E-2,-5.827612E-1,-2.5350708E-1,2.5098503E-2,-1.651637E-1,-1.6127771E-1,1.4636551E-1,3.7560858E-2,9.430667E-3,6.6992664E-3,-4.7131848E-2,2.0795172E-2,-5.3120222E-2,1.4714734E-3,-2.73013E-3,-3.5020247E-2,1.2611033E-3,-3.4393694E-3,-7.437572E-4,-2.5678272E-3,-1.9829473E-2,1.2505377E-2,-3.3948736E-3,-1.3705014E-2,3.0842885E-2,-3.7658986E-2,6.610658E-3,-3.156471E-2,1.2156122E-2,-9.4982525E-3,-3.493355E-2,2.1370833E-3,-1.1833647E-3,1.795521E-3,-1.9235766E-2,-6.607927E-4,-1.6539609E-2,1.6875455E-2,6.3530738E-3],"categories":[],"categories_nodes":[],"categories_segments":[],"categories_sizes":[],"default_left":[0,0,0,0,0,0,0,0,0,0,0,0,0,0,0,0,0,0,0,0,0,0,0,0,0,0,0,0,0,0,0,0,0,0,0,0,0,0,0,0,0,0,0,0,0,0,0,0,0,0,0,0,0,0,0,0,0,0,0,0,0,0,0],"id":7,"left_children":[1,3,5,7,9,11,13,15,17,19,21,23,25,27,29,31,33,35,37,39,41,43,45,47,49,51,53,55,57,59,61,-1,-1,-1,-1,-1,-1,-1,-1,-1,-1,-1,-1,-1,-1,-1,-1,-1,-1,-1,-1,-1,-1,-1,-1,-1,-1,-1,-1,-1,-1,-1,-1],"loss_changes":[2.4261053E1,5.1488754E1,3.5448986E1,4.014953E1,2.13597E1,2.991518E1,2.7435005E1,3.723029E1,2.6966858E1,1.5705879E1,5.0002777E1,5.7072525E0,9.631229E0,2.7596283E1,2.674852E1,1.0468357E1,2.2077465E1,1.6142992E1,1.4015467E1,1.4294245E1,9.351891E0,1.4733423E1,2.3186562E1,4.5625E0,6.9877377E0,5.5836105E0,7.4683266E0,1.792369E1,3.4946777E1,7.8498077E0,1.0780117E1,0E0,0E0,0E0,0E0,0E0,0E0,0E0,0E0,0E0,0E0,0E0,0E0,0E0,0E0,0E0,0E0,0E0,0E0,0E0,0E0,0E0,0E0,0E0,0E0,0E0,0E0,0E0,0E0,0E0,0E0,0E0,0E0],"parents":[2147483647,0,0,1,1,2,2,3,3,4,4,5,5,6,6,7,7,8,8,9,9,10,10,11,11,12,12,13,13,14,14,15,15,16,16,17,17,18,18,19,19,20,20,21,21,22,22,23,23,24,24,25,25,26,26,27,27,28,28,29,29,30,30],"right_children":[2,4,6,8,10,12,14,16,18,20,22,24,26,28,30,32,34,36,38,40,42,44,46,48,50,52,54,56,58,60,62,-1,-1,-1,-1,-1,-1,-1,-1,-1,-1,-1,-1,-1,-1,-1,-1,-1,-1,-1,-1,-1,-1,-1,-1,-1,-1,-1,-1,-1,-1,-1,-1],"split_conditions":[3E0,1E0,-5.8172E0,9.2167E0,2.502E0,-3.344E-1,1.726E-1,-3.117E0,-5.8172E0,2.994E-1,2E0,1.478E-1,1.31E2,3.9491E0,6.9167E0,2.612E-1,6.9573E0,7.762E-1,1.2441E0,-8.1272E0,1.4603E0,1.60333E1,5.1625E0,2.13608E1,2.99291E1,4.029E-1,6.06817E1,1.057E-1,4E0,7.057E-1,-2.0767E0,3.7560858E-2,9.430667E-3,6.6992664E-3,-4.7131848E-2,2.0795172E-2,-5.3120222E-2,1.4714734E-3,-2.73013E-3,-3.5020247E-2,1.2611033E-3,-3.4393694E-3,-7.437572E-4,-2.5678272E-3,-1.9829473E-2,1.2505377E-2,-3.3948736E-3,-1.3705014E-2,3.0842885E-2,-3.7658986E-2,6.610658E-3,-3.156471E-2,1.2156122E-2,-9.4982525E-3,-3.493355E-2,2.1370833E-3,-1.1833647E-3,1.795521E-3,-1.9235766E-2,-6.607927E-4,-1.6539609E-2,1.6875455E-2,6.3530738E-3],"split_indices":[15,15,7,14,7,1,1,7,7,4,15,2,16,7,14,6,7,1,7,7,4,14,7,0,0,1,0,6,15,7,7,0,0,0,0,0,0,0,0,0,0,0,0,0,0,0,0,0,0,0,0,0,0,0,0,0,0,0,0,0,0,0,0],"split_type":[0,0,0,0,0,0,0,0,0,0,0,0,0,0,0,0,0,0,0,0,0,0,0,0,0,0,0,0,0,0,0,0,0,0,0,0,0,0,0,0,0,0,0,0,0,0,0,0,0,0,0,0,0,0,0,0,0,0,0,0,0,0,0],"sum_hessian":[6.4042566E4,3.8641848E4,2.5400715E4,1.2004335E4,2.6637514E4,5.362448E2,2.486447E4,2.2042305E3,9.8001045E3,2.3767354E4,2.8701602E3,1.3405559E2,4.021892E2,2.1620352E4,3.24412E3,1.7352242E2,2.030708E3,2.1233325E2,9.587771E3,3.0272515E3,2.0740102E4,1.511697E3,1.3584633E3,4.1848885E1,9.220671E1,1.344738E2,2.677154E2,2.0830049E4,7.903025E2,3.119327E2,2.9321873E3,1.27930984E2,4.559143E1,2.0124657E3,1.8242199E1,2.0560756E2,6.725688E0,6.7831284E3,2.804643E3,2.639621E1,3.0008552E3,1.6757197E4,3.9829048E3,1.376827E3,1.3486996E2,1.066971E3,2.9149222E2,6.222023E0,3.562686E1,8.971117E0,8.323559E1,1.2723262E2,7.2411833E0,2.355238E2,3.219159E1,1.5296127E4,5.533921E3,4.129463E2,3.773562E2,1.6707741E2,1.4485529E2,2.674529E2,2.6647344E3],"tree_param":{"num_deleted":"0","num_feature":"17","num_nodes":"63","size_leaf_vector":"1"}},{"base_weights":[-2.694476E-3,-3.4098182E-2,7.04422E-2,-4.607255E-1,-2.937257E-2,7.862467E-2,-5.616987E-1,2.4455924E-1,-5.818329E-1,-2.7452826E-2,-4.4337922E-1,1.0193753E-2,1.2574399E-1,-7.1707445E-1,-1.7366251E-1,-1.0111974E-1,4.9320862E-1,-6.716093E-1,3.001335E-2,1.9770138E-2,-4.4005416E-2,4.6247792E-1,-5.032713E-1,1.5507272E-1,-1.5447428E-2,1.0072632E-1,4.142793E-1,-5.784421E-2,-8.720355E-1,-9.405793E-1,2.553932E-1,2.6757909E-2,-3.1923648E-2,8.77105E-3,4.2291883E-2,-1.796913E-2,-4.6626803E-2,-3.0981665E-2,5.1506728E-2,2.4363512E-2,4.134302E-4,-2.4768075E-2,-2.0847844E-3,2.7770929E-3,4.545039E-2,-2.0802548E-2,-6.7757525E-2,1.13862725E-2,-1.24912E-2,4.0396475E-4,-8.838002E-3,-3.2165197E-3,6.776694E-3,2.893126E-2,1.0130883E-2,4.4321526E-2,-3.600766E-2,-5.1618803E-2,6.9087665E-3,2.7151138E-2,-6.701126E-2,2.4490764E-2,-1.9793762E-2],"categories":[],"categories_nodes":[],"categories_segments":[],"categories_sizes":[],"default_left":[0,0,0,0,0,0,0,0,0,0,0,0,0,0,0,0,0,0,0,0,0,0,0,0,0,0,0,0,0,0,0,0,0,0,0,0,0,0,0,0,0,0,0,0,0,0,0,0,0,0,0,0,0,0,0,0,0,0,0,0,0,0,0],"id":8,"left_children":[1,3,5,7,9,11,13,15,17,19,21,23,25,27,29,31,33,35,37,39,41,43,45,47,49,51,53,55,57,59,61,-1,-1,-1,-1,-1,-1,-1,-1,-1,-1,-1,-1,-1,-1,-1,-1,-1,-1,-1,-1,-1,-1,-1,-1,-1,-1,-1,-1,-1,-1,-1,-1],"loss_changes":[1.4751532E2,9.0576096E1,9.984096E1,4.2183197E1,3.5310043E1,6.1417908E1,1.4747665E1,6.3102484E0,2.311023E1,3.4580345E1,1.1358093E1,2.8861649E1,8.1386795E1,1.791069E1,2.3882309E1,1.1043977E1,4.6179333E0,2.9532394E1,3.6207203E1,6.1737083E1,3.412875E1,2.3550234E0,1.3763187E1,3.4423275E1,2.5054495E1,5.9654655E1,3.1180481E1,2.2236267E1,2.3190132E1,1.6137407E1,7.348092E0,0E0,0E0,0E0,0E0,0E0,0E0,0E0,0E0,0E0,0E0,0E0,0E0,0E0,0E0,0E0,0E0,0E0,0E0,0E0,0E0,0E0,0E0,0E0,0E0,0E0,0E0,0E0,0E0,0E0,0E0,0E0,0E0],"parents":[2147483647,0,0,1,1,2,2,3,3,4,4,5,5,6,6,7,7,8,8,9,9,10,10,11,11,12,12,13,13,14,14,15,15,16,16,17,17,18,18,19,19,20,20,21,21,22,22,23,23,24,24,25,25,26,26,27,27,28,28,29,29,30,30],"right_children":[2,4,6,8,10,12,14,16,18,20,22,24,26,28,30,32,34,36,38,40,42,44,46,48,50,52,54,56,58,60,62,-1,-1,-1,-1,-1,-1,-1,-1,-1,-1,-1,-1,-1,-1,-1,-1,-1,-1,-1,-1,-1,-1,-1,-1,-1,-1,-1,-1,-1,-1,-1,-1],"split_conditions":[2.2759E0,-2.03528E1,2.22203E1,-1.802E-1,4.35E-2,2E0,3E0,1.00167E1,1.413E-1,-6.41E-2,-4.6311E0,7.7E-3,1.22373E1,1E0,7.53E-2,7.3167E0,8.167E-1,-1.58E-1,-3.34743E1,-8.37E-2,-1.66702E1,3.031E-1,1.60333E1,5.9935E0,1.61667E1,9.3E0,6.64E-2,1.069E-1,1.62333E1,9.5E0,6.924E-1,2.6757909E-2,-3.1923648E-2,8.77105E-3,4.2291883E-2,-1.796913E-2,-4.6626803E-2,-3.0981665E-2,5.1506728E-2,2.4363512E-2,4.134302E-4,-2.4768075E-2,-2.0847844E-3,2.7770929E-3,4.545039E-2,-2.0802548E-2,-6.7757525E-2,1.13862725E-2,-1.24912E-2,4.0396475E-4,-8.838002E-3,-3.2165197E-3,6.776694E-3,2.893126E-2,1.0130883E-2,4.4321526E-2,-3.600766E-2,-5.1618803E-2,6.9087665E-3,2.7151138E-2,-6.701126E-2,2.4490764E-2,-1.9793762E-2],"split_indices":[8,8,8,1,3,15,15,14,1,1,8,3,8,15,3,14,4,3,8,3,8,1,14,8,14,14,3,3,14,14,6,0,0,0,0,0,0,0,0,0,0,0,0,0,0,0,0,0,0,0,0,0,0,0,0,0,0,0,0,0,0,0,0],"split_type":[0,0,0,0,0,0,0,0,0,0,0,0,0,0,0,0,0,0,0,0,0,0,0,0,0,0,0,0,0,0,0,0,0,0,0,0,0,0,0,0,0,0,0,0,0,0,0,0,0,0,0,0,0,0,0,0,0,0,0,0,0,0,0],"sum_hessian":[6.4225453E4,4.493264E4,1.9292816E4,4.9119473E2,4.4441445E4,1.9047145E4,2.4567184E2,7.183499E1,4.1935974E2,4.4237383E4,2.0406161E2,7.7675806E3,1.1279563E4,1.7482231E2,7.084954E1,3.0301859E1,4.153313E1,3.6561526E2,5.37445E1,1.1481516E4,3.2755867E4,1.2238254E1,1.9182336E2,1.167255E3,6.600325E3,1.0380834E4,8.987289E2,3.3534447E1,1.4128786E2,2.4989603E1,4.585994E1,1.3875736E1,1.6426123E1,2.2633442E1,1.8899687E1,1.6752777E2,1.980875E2,3.2811584E1,2.0932913E1,2.7469485E2,1.1206821E4,1.6568187E2,3.2590186E4,6.9912777E0,5.2469764E0,1.7535764E2,1.6465736E1,9.900439E2,1.7721115E2,5.761052E3,8.392738E2,1.8077366E3,8.573098E3,5.0493527E2,3.937936E2,1.3684967E1,1.9849482E1,1.219155E2,1.937236E1,5.2269344E0,1.9762669E1,3.3904152E1,1.1955789E1],"tree_param":{"num_deleted":"0","num_feature":"17","num_nodes":"63","size_leaf_vector":"1"}},{"base_weights":[-2.1289089E-3,-2.2363931E-2,3.9897185E-2,6.6974E-2,-4.255586E-2,-4.5024976E-2,1.0023873E-1,1.8380241E-1,3.5217687E-2,-5.351845E-1,-3.992622E-2,-3.582655E-2,-6.271156E-1,1.7182565E-1,6.0359553E-2,4.3094873E-1,9.3950585E-2,-5.0780337E-2,8.502412E-2,-2.4411461E-1,-8.346454E-1,-5.9713647E-2,2.1014744E-2,-2.3087926E-1,-1.8332189E-2,-7.534892E-1,1.8516654E-1,9.839723E-2,2.9070085E-1,-8.1807226E-2,8.875203E-2,1.8434862E-2,3.4702163E-2,1.2413583E-3,2.2743095E-2,1.8955385E-2,-4.5402953E-3,2.635007E-4,6.18116E-3,-2.5679378E-2,1.7462438E-2,-5.887974E-2,-1.3040497E-2,-4.583891E-4,-3.917135E-3,-5.298964E-4,5.802496E-3,-1.3679442E-2,1.1389431E-2,2.1529854E-3,-4.6547083E-3,-4.4759713E-2,-1.40735E-3,-5.9796926E-2,7.095491E-2,1.5621881E-2,3.8156826E-3,-5.05955E-2,1.5522606E-2,-1.1412594E-2,-4.9499213E-5,-2.211525E-3,6.34616E-3],"categories":[],"categories_nodes":[],"categories_segments":[],"categories_sizes":[],"default_left":[0,0,0,0,0,0,0,0,0,0,0,0,0,0,0,0,0,0,0,0,0,0,0,0,0,0,0,0,0,0,0,0,0,0,0,0,0,0,0,0,0,0,0,0,0,0,0,0,0,0,0,0,0,0,0,0,0,0,0,0,0,0,0],"id":9,"left_children":[1,3,5,7,9,11,13,15,17,19,21,23,25,27,29,31,33,35,37,39,41,43,45,47,49,51,53,55,57,59,61,-1,-1,-1,-1,-1,-1,-1,-1,-1,-1,-1,-1,-1,-1,-1,-1,-1,-1,-1,-1,-1,-1,-1,-1,-1,-1,-1,-1,-1,-1,-1,-1],"loss_changes":[5.4565933E1,7.813218E1,1.0686658E2,2.9617634E1,4.5742985E1,4.6363255E1,3.479458E1,3.7851162E1,2.6901112E1,1.6139053E1,4.2376385E1,2.910125E1,1.396759E1,3.80399E1,3.1618298E1,7.190689E0,3.1239296E1,3.9672173E1,1.22418995E1,1.5608133E1,1.779853E1,2.4978333E1,2.5880875E1,1.3813427E1,3.5935375E1,1.19770355E1,3.397284E1,1.27265415E1,4.3145645E1,1.5435117E1,3.314331E1,0E0,0E0,0E0,0E0,0E0,0E0,0E0,0E0,0E0,0E0,0E0,0E0,0E0,0E0,0E0,0E0,0E0,0E0,0E0,0E0,0E0,0E0,0E0,0E0,0E0,0E0,0E0,0E0,0E0,0E0,0E0,0E0],"parents":[2147483647,0,0,1,1,2,2,3,3,4,4,5,5,6,6,7,7,8,8,9,9,10,10,11,11,12,12,13,13,14,14,15,15,16,16,17,17,18,18,19,19,20,20,21,21,22,22,23,23,24,24,25,25,26,26,27,27,28,28,29,29,30,30],"right_children":[2,4,6,8,10,12,14,16,18,20,22,24,26,28,30,32,34,36,38,40,42,44,46,48,50,52,54,56,58,60,62,-1,-1,-1,-1,-1,-1,-1,-1,-1,-1,-1,-1,-1,-1,-1,-1,-1,-1,-1,-1,-1,-1,-1,-1,-1,-1,-1,-1,-1,-1,-1,-1],"split_conditions":[1.12E-2,1E0,2E0,2E0,-1.58E-1,1.069E-1,7.417E-1,-2.26E-2,-1.49E-2,3E0,4E0,-7E-1,4.88E2,2.18E-2,2E0,-1.1215E0,9.531E-1,-5.8172E0,1.66E2,2E0,4E0,-1.4036E0,5.08E-2,4.79E-2,2.72E-2,6.8673E1,7.8717E0,7.37E-2,-4.3461E0,3E0,1.78E-2,1.8434862E-2,3.4702163E-2,1.2413583E-3,2.2743095E-2,1.8955385E-2,-4.5402953E-3,2.635007E-4,6.18116E-3,-2.5679378E-2,1.7462438E-2,-5.887974E-2,-1.3040497E-2,-4.583891E-4,-3.917135E-3,-5.298964E-4,5.802496E-3,-1.3679442E-2,1.1389431E-2,2.1529854E-3,-4.6547083E-3,-4.4759713E-2,-1.40735E-3,-5.9796926E-2,7.095491E-2,1.5621881E-2,3.8156826E-3,-5.05955E-2,1.5522606E-2,-1.1412594E-2,-4.9499213E-5,-2.211525E-3,6.34616E-3],"split_indices":[3,15,15,16,3,3,7,3,3,15,15,7,16,3,16,7,7,7,16,15,15,7,1,3,3,0,7,2,7,15,3,0,0,0,0,0,0,0,0,0,0,0,0,0,0,0,0,0,0,0,0,0,0,0,0,0,0,0,0,0,0,0,0],"split_type":[0,0,0,0,0,0,0,0,0,0,0,0,0,0,0,0,0,0,0,0,0,0,0,0,0,0,0,0,0,0,0,0,0,0,0,0,0,0,0,0,0,0,0,0,0,0,0,0,0,0,0,0,0,0,0,0,0,0,0,0,0,0,0],"sum_hessian":[6.4163055E4,4.3310215E4,2.0852842E4,7.9838506E3,3.5326363E4,8.662233E3,1.2190609E4,1.7053275E3,6.278523E3,1.864948E2,3.5139867E4,8.528523E3,1.3370961E2,4.3602456E3,7.830364E3,4.5366922E2,1.2516582E3,2.302648E3,3.975875E3,9.549286E1,9.100194E1,2.652671E4,8.613156E3,7.009631E2,7.8275605E3,1.1577059E2,1.7939028E1,2.6964775E3,1.6637682E3,1.3031836E3,6.52718E3,3.6880634E2,8.486291E1,1.0513647E3,2.002935E2,1.9540977E2,2.1072383E3,1.2970415E3,2.6788335E3,6.576188E1,2.9730976E1,5.630152E1,3.4700417E1,7.144137E3,1.9382574E4,6.463886E3,2.1492705E3,6.416211E2,5.9342026E1,4.2983394E3,3.529221E3,9.665383E1,1.9116758E1,8.479241E0,9.459785E0,2.5095944E2,2.445518E3,2.4100315E1,1.6396678E3,4.6278003E2,8.404035E2,1.4556744E3,5.0715054E3],"tree_param":{"num_deleted":"0","num_feature":"17","num_nodes":"63","size_leaf_vector":"1"}},{"base_weights":[-1.0134748E-3,-2.8450863E-2,7.345189E-2,-4.2307287E-1,-2.4218699E-2,8.166913E-2,-4.851006E-1,-1.2275228E-1,-6.5908104E-1,-2.2252101E-2,-4.4811925E-1,1.78842E-2,1.2580247E-1,-6.675644E-1,-3.868081E-2,5.7963425E-1,-4.2002445E-1,2.7167972E-2,-7.518046E-1,-4.7386377E-3,-5.827493E-2,9.865218E-1,-5.344239E-1,4.9803723E-2,-9.465052E-2,1.0171562E-1,4.2567888E-1,-2.3191422E-3,-8.2872206E-1,-7.9501367E-1,3.6259592E-1,5.4726552E-2,-1.8628879E-2,-2.9173506E-2,3.13407E-2,-2.0395447E-2,2.4024379E-2,-4.1391425E-2,-2.6003825E-3,4.93338E-3,-7.035879E-4,-5.478747E-3,3.187975E-4,1.3962564E-2,7.299879E-2,3.2603968E-2,-2.9488245E-2,1.3990453E-2,1.794531E-3,-8.322994E-3,9.119726E-3,-2.7790335E-3,6.837923E-3,2.6757408E-2,-5.3283817E-4,4.0185813E-2,-3.0981673E-2,-4.7944058E-2,-1.600367E-3,-2.9420535E-4,-8.038027E-2,3.0382095E-2,-3.1218553E-2],"categories":[],"categories_nodes":[],"categories_segments":[],"categories_sizes":[],"default_left":[0,0,0,0,0,0,0,0,0,0,0,0,0,0,0,0,0,0,0,0,0,0,0,0,0,0,0,0,0,0,0,0,0,0,0,0,0,0,0,0,0,0,0,0,0,0,0,0,0,0,0,0,0,0,0,0,0,0,0,0,0,0,0],"id":10,"left_children":[1,3,5,7,9,11,13,15,17,19,21,23,25,27,29,31,33,35,37,39,41,43,45,47,49,51,53,55,57,59,61,-1,-1,-1,-1,-1,-1,-1,-1,-1,-1,-1,-1,-1,-1,-1,-1,-1,-1,-1,-1,-1,-1,-1,-1,-1,-1,-1,-1,-1,-1,-1,-1],"loss_changes":[1.3091231E2,7.818769E1,7.922227E1,3.5128517E1,3.8609657E1,4.786125E1,2.0360062E1,4.6142944E1,1.7705826E1,2.9092033E1,2.7008633E1,2.4985561E1,7.254355E1,1.9037987E1,2.264847E1,3.2664215E1,2.6892363E1,6.9113626E0,1.29852295E1,2.9947935E1,5.003198E1,3.7739048E0,1.3673927E1,1.732939E1,3.060907E1,5.1289146E1,3.567955E1,1.8229622E1,1.4794197E1,1.6567905E1,1.2187284E1,0E0,0E0,0E0,0E0,0E0,0E0,0E0,0E0,0E0,0E0,0E0,0E0,0E0,0E0,0E0,0E0,0E0,0E0,0E0,0E0,0E0,0E0,0E0,0E0,0E0,0E0,0E0,0E0,0E0,0E0,0E0,0E0],"parents":[2147483647,0,0,1,1,2,2,3,3,4,4,5,5,6,6,7,7,8,8,9,9,10,10,11,11,12,12,13,13,14,14,15,15,16,16,17,17,18,18,19,19,20,20,21,21,22,22,23,23,24,24,25,25,26,26,27,27,28,28,29,29,30,30],"right_children":[2,4,6,8,10,12,14,16,18,20,22,24,26,28,30,32,34,36,38,40,42,44,46,48,50,52,54,56,58,60,62,-1,-1,-1,-1,-1,-1,-1,-1,-1,-1,-1,-1,-1,-1,-1,-1,-1,-1,-1,-1,-1,-1,-1,-1,-1,-1,-1,-1,-1,-1,-1,-1],"split_conditions":[2.658E0,-2.03528E1,2.22203E1,-5.0984E0,4.49E-2,2E0,3E0,1E0,-1.071E-1,2.5E-3,-2.286E-1,8.6807E0,1.29508E1,1E0,7.53E-2,-1.58E-1,6.89E-2,-1.58E-1,2.427E-1,-3.53E-1,8.915E-1,7E-4,-5.102E0,-2.5E-3,4.887E0,9.5E0,5.1625E0,1.069E-1,1.59833E1,1.2E1,1.0739E0,5.4726552E-2,-1.8628879E-2,-2.9173506E-2,3.13407E-2,-2.0395447E-2,2.4024379E-2,-4.1391425E-2,-2.6003825E-3,4.93338E-3,-7.035879E-4,-5.478747E-3,3.187975E-4,1.3962564E-2,7.299879E-2,3.2603968E-2,-2.9488245E-2,1.3990453E-2,1.794531E-3,-8.322994E-3,9.119726E-3,-2.7790335E-3,6.837923E-3,2.6757408E-2,-5.3283817E-4,4.0185813E-2,-3.0981673E-2,-4.7944058E-2,-1.600367E-3,-2.9420535E-4,-8.038027E-2,3.0382095E-2,-3.1218553E-2],"split_indices":[8,8,8,7,3,15,15,15,1,3,7,8,8,15,3,3,1,3,1,1,7,1,8,3,7,14,7,3,14,14,6,0,0,0,0,0,0,0,0,0,0,0,0,0,0,0,0,0,0,0,0,0,0,0,0,0,0,0,0,0,0,0,0],"split_type":[0,0,0,0,0,0,0,0,0,0,0,0,0,0,0,0,0,0,0,0,0,0,0,0,0,0,0,0,0,0,0,0,0,0,0,0,0,0,0,0,0,0,0,0,0,0,0,0,0,0,0,0,0,0,0,0,0,0,0,0,0,0,0],"sum_hessian":[6.4072203E4,4.6821168E4,1.7251033E4,4.957602E2,4.632541E4,1.7001764E4,2.492704E2,2.1882515E2,2.7693506E2,4.611253E4,2.1287689E2,6.9534727E3,1.0048291E4,1.7659563E2,7.2674774E1,6.479038E1,1.5403477E2,3.3048603E1,2.4388646E2,3.1028383E4,1.5084149E4,1.1487618E1,2.0138928E2,5.417424E3,1.536049E3,9.302435E3,7.4585675E2,3.4635902E1,1.4195973E2,2.485204E1,4.7822735E1,4.1954525E1,2.2835857E1,1.3361565E2,2.0419125E1,1.6914734E1,1.6133871E1,2.1982262E2,2.4063835E1,2.5678901E3,2.8460492E4,8.4101E3,6.67405E3,5.243869E0,6.2437496E0,8.494104E0,1.9289517E2,3.0791965E2,5.109504E3,1.2201804E3,3.1586847E2,1.6947317E3,7.6077026E3,5.960831E2,1.4977365E2,1.4890815E1,1.9745089E1,1.2184963E2,2.0110092E1,1.3119035E1,1.1733005E1,3.8618736E1,9.203998E0],"tree_param":{"num_deleted":"0","num_feature":"17","num_nodes":"63","size_leaf_vector":"1"}},{"base_weights":[-2.196674E-3,-3.0432189E-2,6.707852E-2,-3.3517638E-1,-2.5357427E-2,7.385745E-2,-4.3580848E-1,2.3356883E-1,-5.3981566E-1,4.187586E-1,-2.7496433E-2,6.812177E-3,1.1995031E-1,-6.167089E-1,-1.6288215E-2,4.3538982E-1,-1.1008777E-1,-6.92574E-1,1.3404869E-1,7.3604894E-1,2.2945452E-2,-2.3831263E-2,-2.7047285E-1,1.2328192E-2,-5.994098E-1,7.931831E-2,2.7588797E-1,1.2992387E-1,-7.9314154E-1,-7.895484E-1,3.0335632E-1,1.4839254E-2,5.87739E-2,-1.657426E-2,6.1460186E-2,-1.7973071E-2,-4.163341E-2,-1.3167523E-2,2.139807E-2,4.9369287E-2,2.944364E-2,-6.405705E-3,6.0472023E-2,1.5456356E-3,-1.8111907E-3,-2.7350837E-2,-2.299966E-3,1.8612611E-3,-6.0455827E-3,-4.9885135E-2,-5.4245368E-3,-7.9583394E-4,6.099531E-3,1.9138448E-2,9.226873E-3,5.3907987E-2,-1.4628808E-2,-4.456128E-2,-3.2499998E-3,1.4562571E-2,-5.7910617E-2,2.5486479E-2,-2.6646217E-2],"categories":[],"categories_nodes":[],"categories_segments":[],"categories_sizes":[],"default_left":[0,0,0,0,0,0,0,0,0,0,0,0,0,0,0,0,0,0,0,0,0,0,0,0,0,0,0,0,0,0,0,0,0,0,0,0,0,0,0,0,0,0,0,0,0,0,0,0,0,0,0,0,0,0,0,0,0,0,0,0,0,0,0],"id":11,"left_children":[1,3,5,7,9,11,13,15,17,19,21,23,25,27,29,31,33,35,37,39,41,43,45,47,49,51,53,55,57,59,61,-1,-1,-1,-1,-1,-1,-1,-1,-1,-1,-1,-1,-1,-1,-1,-1,-1,-1,-1,-1,-1,-1,-1,-1,-1,-1,-1,-1,-1,-1,-1,-1],"loss_changes":[1.25155304E2,7.029094E1,6.3193443E1,8.677589E1,4.2487846E1,5.64963E1,1.8702919E1,1.3759317E1,5.6482544E1,2.6907104E1,3.962311E1,2.4917065E1,6.862178E1,2.279464E1,1.885568E1,1.2447975E1,2.2332531E1,2.054831E1,1.2034588E1,3.8190918E0,1.7436583E1,2.974289E1,4.10193E1,2.449606E1,1.3029287E1,3.493442E1,2.1790192E1,1.3850405E1,9.903145E0,9.22517E0,9.593327E0,0E0,0E0,0E0,0E0,0E0,0E0,0E0,0E0,0E0,0E0,0E0,0E0,0E0,0E0,0E0,0E0,0E0,0E0,0E0,0E0,0E0,0E0,0E0,0E0,0E0,0E0,0E0,0E0,0E0,0E0,0E0,0E0],"parents":[2147483647,0,0,1,1,2,2,3,3,4,4,5,5,6,6,7,7,8,8,9,9,10,10,11,11,12,12,13,13,14,14,15,15,16,16,17,17,18,18,19,19,20,20,21,21,22,22,23,23,24,24,25,25,26,26,27,27,28,28,29,29,30,30],"right_children":[2,4,6,8,10,12,14,16,18,20,22,24,26,28,30,32,34,36,38,40,42,44,46,48,50,52,54,56,58,60,62,-1,-1,-1,-1,-1,-1,-1,-1,-1,-1,-1,-1,-1,-1,-1,-1,-1,-1,-1,-1,-1,-1,-1,-1,-1,-1,-1,-1,-1,-1,-1,-1],"split_conditions":[2.4128E0,-1.66702E1,2.22203E1,-7.27E-2,-9.32E-2,2E0,3E0,3E0,9.51E-2,-3.33E-2,3.18E-2,1.069E-1,8.6807E0,1E0,7.53E-2,2E0,-7.68E-2,-1.58E-1,-3.34743E1,1.708E-1,4.916E-1,1E0,2E0,3.8E2,1E0,6.5E1,4.79E-2,8.14E-2,4E2,1.5E1,1.0739E0,1.4839254E-2,5.87739E-2,-1.657426E-2,6.1460186E-2,-1.7973071E-2,-4.163341E-2,-1.3167523E-2,2.139807E-2,4.9369287E-2,2.944364E-2,-6.405705E-3,6.0472023E-2,1.5456356E-3,-1.8111907E-3,-2.7350837E-2,-2.299966E-3,1.8612611E-3,-6.0455827E-3,-4.9885135E-2,-5.4245368E-3,-7.9583394E-4,6.099531E-3,1.9138448E-2,9.226873E-3,5.3907987E-2,-1.4628808E-2,-4.456128E-2,-3.2499998E-3,1.4562571E-2,-5.7910617E-2,2.5486479E-2,-2.6646217E-2],"split_indices":[8,8,8,1,3,15,15,15,1,1,3,3,8,15,3,15,3,3,8,2,1,15,15,16,15,16,3,3,16,16,6,0,0,0,0,0,0,0,0,0,0,0,0,0,0,0,0,0,0,0,0,0,0,0,0,0,0,0,0,0,0,0,0],"split_type":[0,0,0,0,0,0,0,0,0,0,0,0,0,0,0,0,0,0,0,0,0,0,0,0,0,0,0,0,0,0,0,0,0,0,0,0,0,0,0,0,0,0,0,0,0,0,0,0,0,0,0,0,0,0,0,0,0,0,0,0,0,0,0],"sum_hessian":[6.3982605E4,4.5455996E4,1.852661E4,7.4349316E2,4.47125E4,1.8281033E4,2.4557558E2,1.9669258E2,5.4680054E2,2.1338397E2,4.4499117E4,7.448222E3,1.0832812E4,1.7125783E2,7.431774E1,1.2375022E2,7.294237E1,4.4573022E2,1.0107035E2,1.1796317E2,9.542081E1,4.383893E4,6.6018854E2,7.3820327E3,6.618946E1,8.594809E3,2.2380032E3,3.2784225E1,1.384736E2,2.1305935E1,5.3011806E1,1.0540992E2,1.8340302E1,6.3240593E1,9.70177E0,1.330153E2,3.127149E2,4.3014484E1,5.805587E1,4.1457024E1,7.650615E1,8.543554E1,9.9852705E0,8.091833E3,3.5747098E4,2.9514404E2,3.650445E2,6.2204146E3,1.1616182E3,3.597217E1,3.0217287E1,2.6596638E3,5.9351445E3,1.029863E3,1.2081403E3,9.626711E0,2.3157516E1,1.2183753E2,1.6636072E1,5.472466E0,1.5833468E1,4.2832333E1,1.0179471E1],"tree_param":{"num_deleted":"0","num_feature":"17","num_nodes":"63","size_leaf_vector":"1"}},{"base_weights":[-1.15669915E-4,-1.0203124E-2,4.2239424E-2,3.6753617E-2,-2.4398519E-2,5.478036E-2,-2.663927E-1,1.5552323E-1,7.3107057E-3,-3.3798583E-2,7.893684E-2,4.128137E-2,2.0226298E-1,6.3001114E-1,-2.9999766E-1,4.335627E-1,1.206898E-1,2.7635053E-1,-1.3354222E-3,2.0423708E-2,-4.3878537E-2,-5.3546973E-2,1.5408912E-1,-1.4226128E-1,5.318512E-2,-7.3811546E-2,2.9558983E-1,5.2335806E-2,1.0112224E-2,-3.867695E-1,-6.242426E-3,2.5851358E-2,5.4226904E-3,6.63761E-3,-3.4285333E-2,-2.6409624E-3,2.0542033E-2,-9.399119E-3,4.545847E-4,-1.437585E-2,1.5436172E-3,-1.4795635E-3,-3.6956992E-3,-8.545108E-4,-1.1688892E-2,-3.7766316E-3,1.035387E-2,7.2037983E-3,-1.631958E-2,7.0731887E-3,1.7093376E-3,1.771276E-2,-1.457592E-2,1.9227276E-2,8.852581E-3,-2.3247978E-2,-3.8877118E-3,-4.936455E-2,5.1003858E-3],"categories":[],"categories_nodes":[],"categories_segments":[],"categories_sizes":[],"default_left":[0,0,0,0,0,0,0,0,0,0,0,0,0,0,0,0,0,0,0,0,0,0,0,0,0,0,0,0,0,0,0,0,0,0,0,0,0,0,0,0,0,0,0,0,0,0,0,0,0,0,0,0,0,0,0,0,0,0,0],"id":12,"left_children":[1,3,5,7,9,11,13,15,17,19,21,23,25,27,29,31,33,35,37,39,41,43,45,47,49,51,53,-1,-1,55,57,-1,-1,-1,-1,-1,-1,-1,-1,-1,-1,-1,-1,-1,-1,-1,-1,-1,-1,-1,-1,-1,-1,-1,-1,-1,-1,-1,-1],"loss_changes":[2.739974E1,3.4525322E1,4.7759613E1,4.204415E1,3.863524E1,2.3592709E1,1.4703716E1,2.3080082E1,2.241529E1,1.9926304E1,3.3029118E1,2.373906E1,2.5627434E1,2.9493194E0,1.1852974E1,7.1491356E0,2.0750648E1,1.3304331E1,1.8173306E1,1.8398878E1,1.3189796E1,7.888212E0,2.5766354E1,3.494033E1,1.710385E1,2.3576662E1,7.7658386E0,0E0,0E0,8.638718E0,1.1471895E1,0E0,0E0,0E0,0E0,0E0,0E0,0E0,0E0,0E0,0E0,0E0,0E0,0E0,0E0,0E0,0E0,0E0,0E0,0E0,0E0,0E0,0E0,0E0,0E0,0E0,0E0,0E0,0E0],"parents":[2147483647,0,0,1,1,2,2,3,3,4,4,5,5,6,6,7,7,8,8,9,9,10,10,11,11,12,12,13,13,14,14,15,15,16,16,17,17,18,18,19,19,20,20,21,21,22,22,23,23,24,24,25,25,26,26,29,29,30,30],"right_children":[2,4,6,8,10,12,14,16,18,20,22,24,26,28,30,32,34,36,38,40,42,44,46,48,50,52,54,-1,-1,56,58,-1,-1,-1,-1,-1,-1,-1,-1,-1,-1,-1,-1,-1,-1,-1,-1,-1,-1,-1,-1,-1,-1,-1,-1,-1,-1,-1,-1],"split_conditions":[4E0,1E0,4.1015E0,9.5E0,2.9424E0,2.527E-1,6.2E0,-2.4762E0,-5.0984E0,3.613E-1,2E0,-3.8357E0,9.6333E0,5.4908E0,2.527E-1,7.31E-2,6.353E0,5.583E-1,-3.117E0,-4.5673E0,5.68E-2,7.91E-1,1.01167E1,-1.104E-1,-1.3437E0,-2.286E-1,4.888E-1,5.2335806E-2,1.0112224E-2,1.52167E1,9.5333E0,2.5851358E-2,5.4226904E-3,6.63761E-3,-3.4285333E-2,-2.6409624E-3,2.0542033E-2,-9.399119E-3,4.545847E-4,-1.437585E-2,1.5436172E-3,-1.4795635E-3,-3.6956992E-3,-8.545108E-4,-1.1688892E-2,-3.7766316E-3,1.035387E-2,7.2037983E-3,-1.631958E-2,7.0731887E-3,1.7093376E-3,1.771276E-2,-1.457592E-2,1.9227276E-2,8.852581E-3,-2.3247978E-2,-3.8877118E-3,-4.936455E-2,5.1003858E-3],"split_indices":[15,15,7,14,7,1,14,7,7,4,15,7,14,7,1,1,7,4,7,7,5,6,14,1,7,7,6,0,0,14,14,0,0,0,0,0,0,0,0,0,0,0,0,0,0,0,0,0,0,0,0,0,0,0,0,0,0,0,0],"split_type":[0,0,0,0,0,0,0,0,0,0,0,0,0,0,0,0,0,0,0,0,0,0,0,0,0,0,0,0,0,0,0,0,0,0,0,0,0,0,0,0,0,0,0,0,0,0,0,0,0,0,0,0,0,0,0,0,0,0,0],"sum_hessian":[6.412769E4,5.1793184E4,1.2334507E4,1.202251E4,3.9770676E4,1.1853669E4,4.8083856E2,2.3874612E3,9.635049E3,3.645515E4,3.3155269E3,1.0860861E4,9.928076E2,1.6733337E1,4.6410522E2,2.6453146E2,2.1229297E3,2.9903622E2,9.336013E3,5.714511E3,3.0740637E4,1.2001334E3,2.1153936E3,6.6081866E2,1.0200042E4,2.5087917E2,7.4192847E2,7.7433205E0,8.990017E0,3.5803055E2,1.0607468E2,2.1002254E2,5.4508938E1,2.092465E3,3.0464544E1,8.691521E1,2.1212103E2,4.93064E2,8.842949E3,1.8666385E2,5.5278477E3,2.083285E4,9.907788E3,9.9912683E2,2.0100665E2,3.9654828E2,1.7188452E3,2.5871457E2,4.021041E2,1.8052487E3,8.394794E3,8.4366356E1,1.665128E2,4.2257083E2,3.193576E2,2.8532916E2,7.2701385E1,9.734298E0,9.634038E1],"tree_param":{"num_deleted":"0","num_feature":"17","num_nodes":"59","size_leaf_vector":"1"}},{"base_weights":[-1.4144242E-3,-2.905552E-2,5.8391593E-2,-3.9837766E-1,-2.4909222E-2,6.4591505E-2,-4.466723E-1,1.7935672E-1,-5.0329596E-1,-7.174687E-3,-7.030347E-2,1.0593565E-2,1.0179906E-1,-5.998328E-1,-3.874043E-2,-5.8677757E-1,3.5025847E-1,-6.1002487E-1,8.798953E-2,1.0744574E-1,-1.6043827E-2,-6.548085E-2,-4.20844E-1,7.1023345E-2,-4.2625073E-2,8.3309785E-2,3.7919137E-1,2.2981977E-2,-7.4348956E-1,-3.878814E-1,5.6463724E-1,-4.922196E-2,-8.865169E-3,2.6531149E-2,-3.7776406E-3,-1.4628577E-2,-4.339355E-2,-3.002624E-2,1.7789342E-2,3.6097627E-2,4.1483836E-3,-2.38898E-3,4.976956E-4,2.9673997E-2,-3.370053E-3,3.0691747E-2,-2.4757018E-2,1.3427073E-2,-8.8050024E-4,4.994796E-4,-7.1009765E-3,1.9209259E-4,6.076764E-3,2.8539712E-2,1.0079082E-2,5.1562905E-2,-3.715172E-2,-4.4002265E-2,1.8133903E-3,2.7065039E-2,-3.001E-2,5.4022964E-2,1.2857902E-2],"categories":[],"categories_nodes":[],"categories_segments":[],"categories_sizes":[],"default_left":[0,0,0,0,0,0,0,0,0,0,0,0,0,0,0,0,0,0,0,0,0,0,0,0,0,0,0,0,0,0,0,0,0,0,0,0,0,0,0,0,0,0,0,0,0,0,0,0,0,0,0,0,0,0,0,0,0,0,0,0,0,0,0],"id":13,"left_children":[1,3,5,7,9,11,13,15,17,19,21,23,25,27,29,31,33,35,37,39,41,43,45,47,49,51,53,55,57,59,61,-1,-1,-1,-1,-1,-1,-1,-1,-1,-1,-1,-1,-1,-1,-1,-1,-1,-1,-1,-1,-1,-1,-1,-1,-1,-1,-1,-1,-1,-1,-1,-1],"loss_changes":[1.0583801E2,6.704126E1,6.339884E1,2.9552612E1,3.485917E1,4.016691E1,1.5317635E1,1.0083221E1,2.6029694E1,3.16562E1,2.0536674E1,2.6236517E1,6.06753E1,1.5982712E1,1.4563687E1,2.1267686E0,4.8253765E0,2.829721E1,1.1979397E1,3.3581337E1,2.3846783E1,1.5224777E1,1.298016E1,6.6883514E1,2.2687551E1,3.371237E1,2.5046005E1,2.73469E1,1.5474625E1,8.951359E0,3.7453556E0,0E0,0E0,0E0,0E0,0E0,0E0,0E0,0E0,0E0,0E0,0E0,0E0,0E0,0E0,0E0,0E0,0E0,0E0,0E0,0E0,0E0,0E0,0E0,0E0,0E0,0E0,0E0,0E0,0E0,0E0,0E0,0E0],"parents":[2147483647,0,0,1,1,2,2,3,3,4,4,5,5,6,6,7,7,8,8,9,9,10,10,11,11,12,12,13,13,14,14,15,15,16,16,17,17,18,18,19,19,20,20,21,21,22,22,23,23,24,24,25,25,26,26,27,27,28,28,29,29,30,30],"right_children":[2,4,6,8,10,12,14,16,18,20,22,24,26,28,30,32,34,36,38,40,42,44,46,48,50,52,54,56,58,60,62,-1,-1,-1,-1,-1,-1,-1,-1,-1,-1,-1,-1,-1,-1,-1,-1,-1,-1,-1,-1,-1,-1,-1,-1,-1,-1,-1,-1,-1,-1,-1,-1],"split_conditions":[2.0971E0,-2.03528E1,2.22203E1,-1.67E-1,3.1E-3,2E0,3E0,1.114E-1,1.071E-1,-3.955E-1,4.49E-2,1E0,1.29508E1,1E0,1.069E-1,-1.5983E0,3E0,-1.58E-1,1E0,-9.32E-2,-2.5009E0,-1.0086E1,-5.102E0,1.49E-2,5.9935E0,7.6E1,6.3E-2,1.069E-1,3.85E2,-1.399E-1,5.6E1,-4.922196E-2,-8.865169E-3,2.6531149E-2,-3.7776406E-3,-1.4628577E-2,-4.339355E-2,-3.002624E-2,1.7789342E-2,3.6097627E-2,4.1483836E-3,-2.38898E-3,4.976956E-4,2.9673997E-2,-3.370053E-3,3.0691747E-2,-2.4757018E-2,1.3427073E-2,-8.8050024E-4,4.994796E-4,-7.1009765E-3,1.9209259E-4,6.076764E-3,2.8539712E-2,1.0079082E-2,5.1562905E-2,-3.715172E-2,-4.4002265E-2,1.8133903E-3,2.7065039E-2,-3.001E-2,5.4022964E-2,1.2857902E-2],"split_indices":[8,8,8,1,3,15,15,2,1,1,3,15,8,15,3,6,15,3,15,3,8,8,8,3,8,16,3,3,16,1,16,0,0,0,0,0,0,0,0,0,0,0,0,0,0,0,0,0,0,0,0,0,0,0,0,0,0,0,0,0,0,0,0],"split_type":[0,0,0,0,0,0,0,0,0,0,0,0,0,0,0,0,0,0,0,0,0,0,0,0,0,0,0,0,0,0,0,0,0,0,0,0,0,0,0,0,0,0,0,0,0,0,0,0,0,0,0,0,0,0,0,0,0,0,0,0,0,0,0],"sum_hessian":[6.402178E4,4.378553E4,2.0236248E4,4.850575E2,4.3300477E4,1.9991713E4,2.4453635E2,7.444046E1,4.1061703E2,3.1137066E4,1.216341E4,8.156203E3,1.183551E4,1.7744363E2,6.709272E1,1.3133037E1,6.130742E1,3.4780536E2,6.2811657E1,2.2354958E3,2.890157E4,1.1999512E4,1.638985E2,3.8191838E3,4.337019E3,1.1097143E4,7.383674E2,3.3415012E1,1.4402863E2,4.2726456E1,2.4366264E1,5.9502683E0,7.182768E0,4.2892807E1,1.8414616E1,1.5684122E2,1.9096414E2,1.7241308E1,4.5570347E1,8.4545265E1,2.1509507E3,1.3014168E4,1.5887401E4,3.396988E1,1.1965542E4,1.0493946E1,1.5340456E2,1.1823359E3,2.636848E3,2.8364421E3,1.500577E3,3.6045833E3,7.492559E3,3.541267E2,3.8424066E2,1.4276791E1,1.913822E1,1.2245496E2,2.1573656E1,7.658899E0,3.506756E1,8.161217E0,1.6205048E1],"tree_param":{"num_deleted":"0","num_feature":"17","num_nodes":"63","size_leaf_vector":"1"}},{"base_weights":[1.9177331E-3,-2.6251012E-2,6.5382354E-2,-3.3151796E-1,-2.1070434E-2,7.106089E-2,-3.898255E-1,2.8807434E-1,-4.670309E-1,4.0350303E-1,-2.31575E-2,1.811417E-2,1.07325815E-1,-5.358579E-1,-3.0631885E-2,2.269671E-1,6.6396035E-2,-5.8700466E-1,1.5609933E-1,6.3093287E-1,1.20099865E-1,-1.9944571E-2,-2.535807E-1,4.1366224E-3,2.1548976E-1,7.1238436E-2,2.6027468E-1,1.09539665E-1,-6.860664E-1,-7.2730917E-1,3.4056607E-1,2.2749474E-2,-5.10762E-4,-1.7030843E-2,-3.5195187E-2,-2.1654649E-2,2.7542973E-2,4.5760807E-2,2.2558741E-2,-1.970031E-3,4.0398326E-2,1.4637318E-3,-1.5556305E-3,-2.4027053E-2,-3.3818502E-3,3.0530659E-3,-3.949925E-3,1.3568607E-2,-1.5287633E-2,-2.5204823E-3,5.1514856E-3,1.8280922E-2,5.014308E-3,4.8584547E-2,-1.2955754E-2,-6.6496275E-2,-2.719386E-2,3.7206009E-3,-7.502162E-2,3.8474143E-2,-5.4813637E-3],"categories":[],"categories_nodes":[],"categories_segments":[],"categories_sizes":[],"default_left":[0,0,0,0,0,0,0,0,0,0,0,0,0,0,0,0,0,0,0,0,0,0,0,0,0,0,0,0,0,0,0,0,0,0,0,0,0,0,0,0,0,0,0,0,0,0,0,0,0,0,0,0,0,0,0,0,0,0,0,0,0],"id":14,"left_children":[1,3,5,7,9,11,13,15,17,19,21,23,25,27,29,31,-1,33,35,37,39,41,43,45,47,49,51,53,55,57,59,-1,-1,-1,-1,-1,-1,-1,-1,-1,-1,-1,-1,-1,-1,-1,-1,-1,-1,-1,-1,-1,-1,-1,-1,-1,-1,-1,-1,-1,-1],"loss_changes":[1.1467168E2,7.0250656E1,5.0997955E1,6.2374985E1,3.8719646E1,3.7394585E1,1.2735241E1,8.191105E0,4.5592728E1,1.3701191E1,3.2179302E1,2.184456E1,6.37809E1,1.6824604E1,1.869343E1,6.8969393E0,0E0,1.4466232E1,2.3277433E1,5.634987E0,1.0608204E1,2.3569101E1,2.5193478E1,3.5004704E1,1.533605E1,3.6178955E1,3.714673E1,1.0893463E1,1.2120445E1,1.5677265E1,9.201363E0,0E0,0E0,0E0,0E0,0E0,0E0,0E0,0E0,0E0,0E0,0E0,0E0,0E0,0E0,0E0,0E0,0E0,0E0,0E0,0E0,0E0,0E0,0E0,0E0,0E0,0E0,0E0,0E0,0E0,0E0],"parents":[2147483647,0,0,1,1,2,2,3,3,4,4,5,5,6,6,7,7,8,8,9,9,10,10,11,11,12,12,13,13,14,14,15,15,17,17,18,18,19,19,20,20,21,21,22,22,23,23,24,24,25,25,26,26,27,27,28,28,29,29,30,30],"right_children":[2,4,6,8,10,12,14,16,18,20,22,24,26,28,30,32,-1,34,36,38,40,42,44,46,48,50,52,54,56,58,60,-1,-1,-1,-1,-1,-1,-1,-1,-1,-1,-1,-1,-1,-1,-1,-1,-1,-1,-1,-1,-1,-1,-1,-1,-1,-1,-1,-1,-1,-1],"split_conditions":[2.1851E0,-1.66702E1,2.22203E1,-1.802E-1,-9.32E-2,2E0,3E0,-6.68E-2,1.071E-1,-3.21E-2,3.18E-2,5.1625E0,8.6807E0,1E0,7.53E-2,-7.0719E0,6.6396035E-2,-1.58E-1,-3.34743E1,1.819E-1,1.669E-1,1E0,2E0,2.61E-2,1.069E-1,7.9E-3,2.5678E0,8.14E-2,6.04E-2,1.2E1,6.9573E0,2.2749474E-2,-5.10762E-4,-1.7030843E-2,-3.5195187E-2,-2.1654649E-2,2.7542973E-2,4.5760807E-2,2.2558741E-2,-1.970031E-3,4.0398326E-2,1.4637318E-3,-1.5556305E-3,-2.4027053E-2,-3.3818502E-3,3.0530659E-3,-3.949925E-3,1.3568607E-2,-1.5287633E-2,-2.5204823E-3,5.1514856E-3,1.8280922E-2,5.014308E-3,4.8584547E-2,-1.2955754E-2,-6.6496275E-2,-2.719386E-2,3.7206009E-3,-7.502162E-2,3.8474143E-2,-5.4813637E-3],"split_indices":[8,8,8,1,3,15,15,3,1,1,3,7,8,15,3,7,0,3,8,2,1,15,15,3,3,3,7,3,3,14,7,0,0,0,0,0,0,0,0,0,0,0,0,0,0,0,0,0,0,0,0,0,0,0,0,0,0,0,0,0,0],"split_type":[0,0,0,0,0,0,0,0,0,0,0,0,0,0,0,0,0,0,0,0,0,0,0,0,0,0,0,0,0,0,0,0,0,0,0,0,0,0,0,0,0,0,0,0,0,0,0,0,0,0,0,0,0,0,0,0,0,0,0,0,0],"sum_hessian":[6.414218E4,4.4424824E4,1.9717355E4,7.402861E2,4.368454E4,1.9475252E4,2.4210204E2,1.3265144E2,6.0763464E2,2.1274774E2,4.3471793E4,7.9173857E3,1.1557867E4,1.7177426E2,7.032777E1,1.26439415E2,6.2120247E0,5.0958093E2,9.805369E1,1.1734922E2,9.539851E1,4.2875047E4,5.96746E2,7.394734E3,5.226519E2,9.352635E3,2.2052327E3,3.2481667E1,1.392926E2,2.4112753E1,4.6215015E1,6.3996315E1,6.2443096E1,1.6523315E2,3.4434778E2,3.9300026E1,5.8753662E1,4.387327E1,7.347595E1,7.820686E1,1.7191654E1,7.929027E3,3.494602E4,2.6802002E2,3.2872595E2,4.38944E3,3.0052935E3,4.7247702E2,5.0174873E1,1.9376616E3,7.4149727E3,1.3289235E3,8.763092E2,9.239055E0,2.324261E1,2.3685772E1,1.1560683E2,1.2281111E1,1.1831643E1,2.3303568E1,2.2911446E1],"tree_param":{"num_deleted":"0","num_feature":"17","num_nodes":"61","size_leaf_vector":"1"}},{"base_weights":[-6.591743E-4,-2.521452E-2,5.5497043E-2,-3.492637E-1,-2.161276E-2,6.1331663E-2,-4.0994152E-1,-1.4090587E-1,-5.433185E-1,1.8796801E-3,-4.606506E-2,1.1312575E-2,9.56902E-2,4.729016E-2,-5.257588E-1,4.2592657E-1,-2.3547944E-1,-5.9440047E-1,3.7683114E-1,-1.5690297E-2,6.942194E-2,5.4190296E-1,-4.762931E-2,1.5025999E-1,-1.38223795E-2,7.564424E-2,3.3116218E-1,-2.8002214E-1,1.0132098E0,-5.910739E-1,2.1548189E-1,-8.566386E-3,3.9403033E-2,-7.084001E-3,-3.2264523E-2,-3.571227E-2,-1.7109377E-2,-8.987798E-3,5.3333182E-2,-2.1795498E-3,3.5587722E-3,-2.020408E-2,4.0167677E-3,3.534068E-2,-1.8273551E-2,-2.23544E-3,-1.8644016E-2,1.7820673E-2,-2.3987354E-4,4.1958873E-4,-7.809306E-3,-5.137847E-4,5.656473E-3,2.5329346E-2,7.169924E-3,-6.215669E-2,3.5558932E-3,2.60939E-2,6.821759E-2,-3.6419384E-2,-1.492852E-2,-3.182335E-2,5.2282978E-2],"categories":[],"categories_nodes":[],"categories_segments":[],"categories_sizes":[],"default_left":[0,0,0,0,0,0,0,0,0,0,0,0,0,0,0,0,0,0,0,0,0,0,0,0,0,0,0,0,0,0,0,0,0,0,0,0,0,0,0,0,0,0,0,0,0,0,0,0,0,0,0,0,0,0,0,0,0,0,0,0,0,0,0],"id":15,"left_children":[1,3,5,7,9,11,13,15,17,19,21,23,25,27,29,31,33,35,37,39,41,43,45,47,49,51,53,55,57,59,61,-1,-1,-1,-1,-1,-1,-1,-1,-1,-1,-1,-1,-1,-1,-1,-1,-1,-1,-1,-1,-1,-1,-1,-1,-1,-1,-1,-1,-1,-1,-1,-1],"loss_changes":[8.8371735E1,5.2034805E1,5.2973766E1,1.9739193E1,2.533324E1,3.3093697E1,1.2814644E1,1.2842001E1,1.2134773E1,2.6693361E1,1.9900032E1,2.7391815E1,5.3858788E1,1.6006369E1,9.461132E0,7.562799E0,7.7635403E0,7.0239944E0,5.5439625E0,4.326502E1,2.4027342E1,8.849947E0,2.0455856E1,3.840684E1,2.1006996E1,3.3886967E1,2.9416138E1,1.2914938E1,1.4968634E0,6.909561E0,1.2225839E1,0E0,0E0,0E0,0E0,0E0,0E0,0E0,0E0,0E0,0E0,0E0,0E0,0E0,0E0,0E0,0E0,0E0,0E0,0E0,0E0,0E0,0E0,0E0,0E0,0E0,0E0,0E0,0E0,0E0,0E0,0E0,0E0],"parents":[2147483647,0,0,1,1,2,2,3,3,4,4,5,5,6,6,7,7,8,8,9,9,10,10,11,11,12,12,13,13,14,14,15,15,16,16,17,17,18,18,19,19,20,20,21,21,22,22,23,23,24,24,25,25,26,26,27,27,28,28,29,29,30,30],"right_children":[2,4,6,8,10,12,14,16,18,20,22,24,26,28,30,32,34,36,38,40,42,44,46,48,50,52,54,56,58,60,62,-1,-1,-1,-1,-1,-1,-1,-1,-1,-1,-1,-1,-1,-1,-1,-1,-1,-1,-1,-1,-1,-1,-1,-1,-1,-1,-1,-1,-1,-1,-1,-1],"split_conditions":[2.2294E0,-2.03528E1,2.22203E1,2E0,-5.4E-3,2E0,4E0,3.36375E1,3.96E2,4E0,-1.0086E1,7.7E-3,1.22373E1,3E0,4.76E2,-2.4931E0,3.57E2,4E0,-4.82E-2,-1.3411E0,-1.47854E1,8.919E-1,4.35E-2,1E0,3.93E2,6.5E1,6.3E-2,8.94E-2,8.94E-2,3E0,1.069E-1,-8.566386E-3,3.9403033E-2,-7.084001E-3,-3.2264523E-2,-3.571227E-2,-1.7109377E-2,-8.987798E-3,5.3333182E-2,-2.1795498E-3,3.5587722E-3,-2.020408E-2,4.0167677E-3,3.534068E-2,-1.8273551E-2,-2.23544E-3,-1.8644016E-2,1.7820673E-2,-2.3987354E-4,4.1958873E-4,-7.809306E-3,-5.137847E-4,5.656473E-3,2.5329346E-2,7.169924E-3,-6.215669E-2,3.5558932E-3,2.60939E-2,6.821759E-2,-3.6419384E-2,-1.492852E-2,-3.182335E-2,5.2282978E-2],"split_indices":[8,8,8,15,3,15,16,0,16,15,8,3,8,15,16,6,16,15,6,8,8,2,3,15,16,16,3,3,3,15,3,0,0,0,0,0,0,0,0,0,0,0,0,0,0,0,0,0,0,0,0,0,0,0,0,0,0,0,0,0,0,0,0],"split_type":[0,0,0,0,0,0,0,0,0,0,0,0,0,0,0,0,0,0,0,0,0,0,0,0,0,0,0,0,0,0,0,0,0,0,0,0,0,0,0,0,0,0,0,0,0,0,0,0,0,0,0,0,0,0,0,0,0,0,0,0,0,0,0],"sum_hessian":[6.408492E4,4.458838E4,1.9496543E4,4.890904E2,4.409929E4,1.9256021E4,2.405203E2,2.3668568E2,2.5240472E2,2.2491553E4,2.1607738E4,7.841586E3,1.1414436E4,4.873045E1,1.9178986E2,3.3342392E1,2.0334329E2,2.3946489E2,1.2939828E1,1.7849162E4,4.64239E3,5.6416973E1,2.155132E4,1.2004506E3,6.6411353E3,1.0520165E4,8.942705E2,3.6927322E1,1.1803124E1,1.7644485E2,1.5345001E1,1.2784418E1,2.0557974E1,1.6656488E2,3.6778416E1,1.6108813E2,7.837675E1,7.5707974E0,5.3690305E0,1.3510256E4,4.3389062E3,1.0377652E2,4.5386133E3,4.7927437E1,8.489537E0,2.1360656E4,1.9066527E2,5.147615E2,6.8568915E2,5.745552E3,8.9558344E2,3.1957976E3,7.3243677E3,4.614484E2,4.3282208E2,9.187485E0,2.773984E1,5.9557843E0,5.84734E0,1.1906186E2,5.7382988E1,7.688356E0,7.656646E0],"tree_param":{"num_deleted":"0","num_feature":"17","num_nodes":"63","size_leaf_vector":"1"}},{"base_weights":[6.5942755E-4,-2.414346E-2,5.2510697E-2,-2.9682928E-1,-1.9448135E-2,5.7681616E-2,-3.8902903E-1,2.9603866E-1,-4.323407E-1,4.5729223E-1,-2.1832705E-2,9.777717E-3,9.0618536E-2,-2.73721E-1,-8.694202E-1,-3.293051E-2,4.750462E-1,-5.3791344E-1,1.4609839E-1,3.042739E-1,8.768697E-1,-6.5411716E-3,-6.459989E-2,-3.657126E-3,2.0717065E-1,7.3912345E-2,3.45513E-1,-1.0571212E0,-1.7432086E-1,-6.2263202E-2,-6.107169E-1,3.4948137E-2,-2.6195547E-2,3.7271738E-2,1.1687985E-2,-1.4135844E-2,-3.2915693E-2,-1.8023035E-2,2.5884295E-2,3.7890762E-2,-2.1415032E-3,1.3886054E-2,5.154674E-2,-1.0935202E-3,2.6200288E-3,-6.3681514E-3,-3.0070991E-4,1.1780963E-3,-6.2328395E-3,1.317512E-2,-1.7699791E-2,-1.593899E-3,5.1329182E-3,2.2744743E-2,-4.0858146E-3,-6.358759E-2,-2.9288534E-2,2.044729E-2,-1.6327586E-2,-8.683712E-3,-4.02631E-2],"categories":[],"categories_nodes":[],"categories_segments":[],"categories_sizes":[],"default_left":[0,0,0,0,0,0,0,0,0,0,0,0,0,0,0,0,0,0,0,0,0,0,0,0,0,0,0,0,0,0,0,0,0,0,0,0,0,0,0,0,0,0,0,0,0,0,0,0,0,0,0,0,0,0,0,0,0,0,0,0,0],"id":16,"left_children":[1,3,5,7,9,11,13,15,17,19,21,23,25,27,29,31,33,35,37,39,41,43,45,47,49,51,53,55,57,-1,59,-1,-1,-1,-1,-1,-1,-1,-1,-1,-1,-1,-1,-1,-1,-1,-1,-1,-1,-1,-1,-1,-1,-1,-1,-1,-1,-1,-1,-1,-1],"loss_changes":[8.226941E1,5.5396667E1,4.7281006E1,5.8969193E1,4.83703E1,3.2281E1,1.3041252E1,8.074625E0,3.6508118E1,1.3329079E1,2.7681856E1,2.2110313E1,5.1601685E1,1.4983551E1,3.70673E0,1.803203E1,5.612091E0,1.5320755E1,1.7665625E1,2.4701782E1,4.8884277E0,2.8174738E1,4.099277E1,2.5714676E1,1.688827E1,3.4608574E1,3.4873756E1,1.4538403E0,1.5587582E1,0E0,2.3407545E0,0E0,0E0,0E0,0E0,0E0,0E0,0E0,0E0,0E0,0E0,0E0,0E0,0E0,0E0,0E0,0E0,0E0,0E0,0E0,0E0,0E0,0E0,0E0,0E0,0E0,0E0,0E0,0E0,0E0,0E0],"parents":[2147483647,0,0,1,1,2,2,3,3,4,4,5,5,6,6,7,7,8,8,9,9,10,10,11,11,12,12,13,13,14,14,15,15,16,16,17,17,18,18,19,19,20,20,21,21,22,22,23,23,24,24,25,25,26,26,27,27,28,28,30,30],"right_children":[2,4,6,8,10,12,14,16,18,20,22,24,26,28,30,32,34,36,38,40,42,44,46,48,50,52,54,56,58,-1,60,-1,-1,-1,-1,-1,-1,-1,-1,-1,-1,-1,-1,-1,-1,-1,-1,-1,-1,-1,-1,-1,-1,-1,-1,-1,-1,-1,-1,-1,-1],"split_conditions":[2.0153E0,-1.66702E1,2.22203E1,-1.802E-1,-9.32E-2,2E0,1.1636E0,-1.58E-1,1.071E-1,-1.05721E1,3.7E-3,5.1625E0,1.29508E1,3.7E-2,9.51E-2,1E0,-6.3243E0,-1.58E-1,-3.34743E1,1.02E2,7E0,4E0,7.964E-1,8.155E0,1.069E-1,1.5E1,5.1625E0,3E0,2.4E1,-6.2263202E-2,4.584E-1,3.4948137E-2,-2.6195547E-2,3.7271738E-2,1.1687985E-2,-1.4135844E-2,-3.2915693E-2,-1.8023035E-2,2.5884295E-2,3.7890762E-2,-2.1415032E-3,1.3886054E-2,5.154674E-2,-1.0935202E-3,2.6200288E-3,-6.3681514E-3,-3.0070991E-4,1.1780963E-3,-6.2328395E-3,1.317512E-2,-1.7699791E-2,-1.593899E-3,5.1329182E-3,2.2744743E-2,-4.0858146E-3,-6.358759E-2,-2.9288534E-2,2.044729E-2,-1.6327586E-2,-8.683712E-3,-4.02631E-2],"split_indices":[8,8,8,1,3,15,6,3,1,8,3,7,8,3,1,15,7,3,8,16,16,15,7,8,3,16,7,15,16,0,1,0,0,0,0,0,0,0,0,0,0,0,0,0,0,0,0,0,0,0,0,0,0,0,0,0,0,0,0,0,0],"split_type":[0,0,0,0,0,0,0,0,0,0,0,0,0,0,0,0,0,0,0,0,0,0,0,0,0,0,0,0,0,0,0,0,0,0,0,0,0,0,0,0,0,0,0,0,0,0,0,0,0,0,0,0,0,0,0,0,0,0,0,0,0],"sum_hessian":[6.396807E4,4.3270367E4,2.0697705E4,7.31399E2,4.253897E4,2.0458977E4,2.387278E2,1.3585283E2,5.955462E2,2.1076389E2,4.2328203E4,8.336116E3,1.2122861E4,1.9378377E2,4.494403E1,4.8161175E1,8.769165E1,5.0368677E2,9.185939E1,1.557043E2,5.505958E1,3.118063E4,1.1147573E4,7.8058223E3,5.302939E2,1.1378393E4,7.444682E2,2.073449E1,1.7304929E2,1.676882E1,2.817521E1,1.9166504E1,2.899467E1,4.0366756E1,4.732489E1,1.6253381E2,3.4115298E2,3.888295E1,5.2976444E1,6.6989555E1,8.871475E1,1.1835349E1,4.3224236E1,2.4745572E4,6.4350576E3,5.381342E3,5.766232E3,6.37301E3,1.4328125E3,4.8239944E2,4.7894413E1,2.431167E3,8.947226E3,5.926655E2,1.5180267E2,1.308026E1,7.65423E0,3.5468136E1,1.3758115E2,9.261688E0,1.8913523E1],"tree_param":{"num_deleted":"0","num_feature":"17","num_nodes":"61","size_leaf_vector":"1"}},{"base_weights":[-1.8658547E-4,-2.2903608E-2,4.5494758E-2,-3.101151E-1,-1.961879E-2,5.062108E-2,-4.0526408E-1,-1.9177356E-1,-7.03255E-1,-1.6854934E-2,-2.1263193E-1,9.2234395E-2,1.0783549E-2,3.706079E-2,-5.1175976E-1,3.2498893E-1,-3.642854E-1,-1.5087996E0,-4.6630844E-1,2.8867392E-2,-2.726704E-2,-5.917958E-1,-6.411999E-2,-1.0719986E-3,1.2165318E-1,2.6856087E-2,-1.425837E-1,-3.2050782E-1,5.4578234E-2,-5.616377E-1,1.7362729E-1,5.2820887E-2,-2.3380617E-2,-2.1664385E-2,1.1073946E-2,-8.1662685E-2,-4.5606196E-2,-4.702233E-2,-1.6060539E-3,2.9310482E-3,-7.154122E-3,-1.6475313E-3,8.45047E-3,-7.4432977E-3,-3.6217354E-2,-2.0802481E-2,1.2418572E-2,-5.3544426E-3,1.9480943E-3,5.5217417E-3,2.23555E-2,-3.5493553E-3,2.977078E-3,-1.49934245E-2,-6.7558617E-4,-2.869145E-2,4.8925355E-2,-1.2506974E-2,-3.558233E-2,-3.6375664E-2,4.176391E-2],"categories":[],"categories_nodes":[],"categories_segments":[],"categories_sizes":[],"default_left":[0,0,0,0,0,0,0,0,0,0,0,0,0,0,0,0,0,0,0,0,0,0,0,0,0,0,0,0,0,0,0,0,0,0,0,0,0,0,0,0,0,0,0,0,0,0,0,0,0,0,0,0,0,0,0,0,0,0,0,0,0],"id":17,"left_children":[1,3,5,7,9,11,13,15,17,19,21,23,25,27,29,31,33,35,37,39,41,43,45,47,49,51,53,55,-1,57,59,-1,-1,-1,-1,-1,-1,-1,-1,-1,-1,-1,-1,-1,-1,-1,-1,-1,-1,-1,-1,-1,-1,-1,-1,-1,-1,-1,-1,-1,-1],"loss_changes":[6.638895E1,4.0303795E1,4.9118256E1,2.2339767E1,2.2532228E1,3.4828167E1,1.1278927E1,3.3341537E1,2.0558037E1,1.9828573E1,3.3539715E1,2.8206406E1,2.6465544E1,1.8190762E1,6.685787E0,5.487388E1,1.1408188E1,3.5715866E-1,1.7987408E1,3.9534554E1,3.7850105E1,9.738178E0,4.7347805E1,1.0462878E1,2.8474586E1,3.1081373E1,2.0671465E1,1.2443366E1,0E0,8.227459E0,8.858063E0,0E0,0E0,0E0,0E0,0E0,0E0,0E0,0E0,0E0,0E0,0E0,0E0,0E0,0E0,0E0,0E0,0E0,0E0,0E0,0E0,0E0,0E0,0E0,0E0,0E0,0E0,0E0,0E0,0E0,0E0],"parents":[2147483647,0,0,1,1,2,2,3,3,4,4,5,5,6,6,7,7,8,8,9,9,10,10,11,11,12,12,13,13,14,14,15,15,16,16,17,17,18,18,19,19,20,20,21,21,22,22,23,23,24,24,25,25,26,26,27,27,29,29,30,30],"right_children":[2,4,6,8,10,12,14,16,18,20,22,24,26,28,30,32,34,36,38,40,42,44,46,48,50,52,54,56,-1,58,60,-1,-1,-1,-1,-1,-1,-1,-1,-1,-1,-1,-1,-1,-1,-1,-1,-1,-1,-1,-1,-1,-1,-1,-1,-1,-1,-1,-1,-1,-1],"split_conditions":[1.9313E0,-2.03528E1,2.22203E1,5.21E-1,3.04E-2,7.598E-1,4E0,1E0,1E0,1E0,-9.165E-1,-1.172E0,4.15E2,3E0,5.06E2,-1.58E-1,-7.68E-2,-3.34743E1,2.7045E0,8.8E-3,2.02E-2,1.3E1,2E0,7.8E1,1.22373E1,3.1E1,2E0,9.051E-1,5.4578234E-2,2.2714E0,5.08152E1,5.2820887E-2,-2.3380617E-2,-2.1664385E-2,1.1073946E-2,-8.1662685E-2,-4.5606196E-2,-4.702233E-2,-1.6060539E-3,2.9310482E-3,-7.154122E-3,-1.6475313E-3,8.45047E-3,-7.4432977E-3,-3.6217354E-2,-2.0802481E-2,1.2418572E-2,-5.3544426E-3,1.9480943E-3,5.5217417E-3,2.23555E-2,-3.5493553E-3,2.977078E-3,-1.49934245E-2,-6.7558617E-4,-2.869145E-2,4.8925355E-2,-1.2506974E-2,-3.558233E-2,-3.6375664E-2,4.176391E-2],"split_indices":[8,8,8,7,3,7,16,15,15,15,8,7,16,15,16,3,3,8,7,3,3,16,15,16,8,16,15,2,0,7,0,0,0,0,0,0,0,0,0,0,0,0,0,0,0,0,0,0,0,0,0,0,0,0,0,0,0,0,0,0,0],"split_type":[0,0,0,0,0,0,0,0,0,0,0,0,0,0,0,0,0,0,0,0,0,0,0,0,0,0,0,0,0,0,0,0,0,0,0,0,0,0,0,0,0,0,0,0,0,0,0,0,0,0,0,0,0,0,0,0,0,0,0,0,0],"sum_hessian":[6.397229E4,4.2725625E4,2.1246664E4,4.8206805E2,4.224356E4,2.1008629E4,2.3803615E2,3.7167548E2,1.10392586E2,4.164826E4,5.952962E2,1.0274657E4,1.0733972E4,4.6316147E1,1.9172E2,9.280187E1,2.788736E2,2.3870985E1,8.65216E1,7.724807E3,3.3923453E4,1.6670331E2,4.2859286E2,2.4631963E3,7.8114604E3,9.716527E3,1.01744495E3,3.5107655E1,1.1208492E1,1.7888264E2,1.2837349E1,4.8090305E1,4.471157E1,2.4971753E2,2.9156086E1,1.831384E1,5.5571437E0,4.0800713E1,4.572089E1,6.585871E3,1.1389359E3,3.2969586E4,9.538693E2,3.888598E1,1.2781733E2,2.0142053E2,2.2717235E2,6.7472626E2,1.78847E3,7.5524697E3,2.5899084E2,2.4328064E3,7.2837207E3,4.5800497E2,5.5943994E2,2.9845697E1,5.261957E0,5.9011288E1,1.1987136E2,5.392902E0,7.4444475E0],"tree_param":{"num_deleted":"0","num_feature":"17","num_nodes":"61","size_leaf_vector":"1"}},{"base_weights":[-3.5239568E-3,-1.857386E-2,4.912711E-2,-1.6072677E-2,-3.3257532E-1,5.6501906E-2,-3.866763E-1,-2.0612144E-1,-1.3389041E-2,-7.740599E-2,-2.7919012E-1,1.0908164E-1,9.123756E-3,-8.390318E-1,-2.2500487E-1,-5.868676E-3,-3.6003473E-1,2.255806E-1,-1.6545309E-2,3.9522458E-2,-4.485331E-1,1.6305596E-2,1.7070106E-1,-7.342679E-3,1.9657643E-1,5.1409554E-2,-1.0431876E0,-4.1534808E-1,3.0973843E-1,1.710343E-2,-2.811524E-2,-3.703444E-2,-1.2415567E-2,8.899385E-3,4.298511E-2,-1.7266037E-4,-2.2750366E-3,-1.8403493E-2,1.9349132E-2,-3.0801747E-2,-8.14302E-3,-4.9580936E-3,4.8547448E-3,-2.1780108E-3,1.2082789E-2,6.592356E-4,-7.002372E-3,1.3264537E-2,-1.03547E-2,-5.881377E-2,-2.6609872E-2,6.4268108E-3,-2.8270686E-2,2.5332687E-2,-2.9437006E-2],"categories":[],"categories_nodes":[],"categories_segments":[],"categories_sizes":[],"default_left":[0,0,0,0,0,0,0,0,0,0,0,0,0,0,0,0,0,0,0,0,0,0,0,0,0,0,0,0,0,0,0,0,0,0,0,0,0,0,0,0,0,0,0,0,0,0,0,0,0,0,0,0,0,0,0],"id":18,"left_children":[1,3,5,7,9,11,13,15,17,-1,19,21,23,25,27,29,31,33,35,37,39,41,43,45,47,-1,49,51,53,-1,-1,-1,-1,-1,-1,-1,-1,-1,-1,-1,-1,-1,-1,-1,-1,-1,-1,-1,-1,-1,-1,-1,-1,-1,-1],"loss_changes":[5.0709587E1,3.908208E1,4.574428E1,2.5180527E1,2.5086777E1,3.485075E1,1.7133583E1,2.1186544E1,3.67286E1,0E0,2.0415173E1,3.79057E1,2.2720215E1,2.4706676E1,1.8028809E1,5.8229946E1,1.6346214E1,1.9004436E1,1.8217506E1,1.8843723E1,1.1712952E1,2.4707579E1,6.058613E1,1.8435417E1,1.6541712E1,0E0,3.2084808E0,1.069319E1,8.567506E0,0E0,0E0,0E0,0E0,0E0,0E0,0E0,0E0,0E0,0E0,0E0,0E0,0E0,0E0,0E0,0E0,0E0,0E0,0E0,0E0,0E0,0E0,0E0,0E0,0E0,0E0],"parents":[2147483647,0,0,1,1,2,2,3,3,4,4,5,5,6,6,7,7,8,8,10,10,11,11,12,12,13,13,14,14,15,15,16,16,17,17,18,18,19,19,20,20,21,21,22,22,23,23,24,24,26,26,27,27,28,28],"right_children":[2,4,6,8,10,12,14,16,18,-1,20,22,24,26,28,30,32,34,36,38,40,42,44,46,48,-1,50,52,54,-1,-1,-1,-1,-1,-1,-1,-1,-1,-1,-1,-1,-1,-1,-1,-1,-1,-1,-1,-1,-1,-1,-1,-1,-1,-1],"split_conditions":[3.3437E0,5.8711E0,2.22203E1,-1.66702E1,-3.34743E1,9.325E-1,7.53E-2,-5.4341E0,-7.68E-2,-7.740599E-2,1.36E-2,2E0,6.353E0,1E0,3E0,3E0,1E0,1.60333E1,5.5E-2,1.22833E1,9.346E-1,-5.881E-1,9.2E-3,1.58E1,1.069E-1,5.1409554E-2,4E0,9.6333E0,1.0739E0,1.710343E-2,-2.811524E-2,-3.703444E-2,-1.2415567E-2,8.899385E-3,4.298511E-2,-1.7266037E-4,-2.2750366E-3,-1.8403493E-2,1.9349132E-2,-3.0801747E-2,-8.14302E-3,-4.9580936E-3,4.8547448E-3,-2.1780108E-3,1.2082789E-2,6.592356E-4,-7.002372E-3,1.3264537E-2,-1.03547E-2,-5.881377E-2,-2.6609872E-2,6.4268108E-3,-2.8270686E-2,2.5332687E-2,-2.9437006E-2],"split_indices":[8,7,8,8,8,7,3,7,3,0,3,15,7,15,15,15,15,14,5,14,8,7,3,14,3,0,15,14,6,0,0,0,0,0,0,0,0,0,0,0,0,0,0,0,0,0,0,0,0,0,0,0,0,0,0],"split_type":[0,0,0,0,0,0,0,0,0,0,0,0,0,0,0,0,0,0,0,0,0,0,0,0,0,0,0,0,0,0,0,0,0,0,0,0,0,0,0,0,0,0,0,0,0,0,0,0,0,0,0,0,0,0,0],"sum_hessian":[6.399332E4,4.976813E4,1.422519E4,4.9375875E4,3.9225293E2,1.3989329E4,2.3586131E2,6.864621E2,4.8689414E4,1.532454E1,3.769284E2,6.6300605E3,7.359268E3,6.099843E1,1.7486288E2,2.9877347E2,3.876886E2,6.3377954E2,4.8055637E4,1.3105063E2,2.4587776E2,2.6465698E3,3.9834907E3,6.765892E3,5.9337646E2,5.6142077E0,5.538422E1,1.2912411E2,4.573877E1,1.8406416E2,1.1470932E2,8.669147E1,3.0099713E2,5.907244E2,4.3055126E1,3.3093594E4,1.4962043E4,6.0279606E1,7.077103E1,1.5426772E2,9.161005E1,1.0893695E3,1.5572003E3,9.910905E2,2.9924001E3,5.860295E3,9.0559705E2,5.0735532E2,8.6021126E1,4.2907093E1,1.2477128E1,2.7953918E1,1.0117019E2,3.787417E1,7.8646045E0],"tree_param":{"num_deleted":"0","num_feature":"17","num_nodes":"55","size_leaf_vector":"1"}},{"base_weights":[1.3195183E-3,-1.6396554E-2,4.7639754E-2,-3.1082782E-1,-1.3318788E-2,5.278624E-2,-3.3124587E-1,-8.051427E-2,-4.9112087E-1,7.256933E-2,-2.1484282E-2,9.7124346E-2,1.4164364E-2,-7.33499E-1,-1.8799497E-1,-1.4226857E-1,1.0122982E0,-4.1179055E-1,-9.598724E-1,2.593294E-1,3.7386682E-2,2.553635E-1,-2.423544E-2,2.0839335E-2,1.3179137E-1,3.0505769E-2,-1.2402319E-1,-4.5478582E-1,-9.3314487E-1,3.1007823E-1,-3.2893583E-1,9.40416E-3,-2.1064997E-2,7.449067E-2,1.7330108E-2,-2.4557894E-2,1.6666269E-2,-7.4671455E-2,-1.4983587E-2,1.5135653E-2,-2.915659E-2,-1.3445477E-2,2.8440643E-3,-1.0875316E-3,2.084081E-2,-1.0364864E-2,-1.0205068E-3,1.1425531E-2,2.8675786E-5,5.853701E-3,2.649718E-2,-4.317725E-3,2.8884746E-3,-4.36856E-4,-1.315547E-2,-3.5436604E-2,1.2215277E-3,-2.4905568E-2,-7.069301E-2,-4.0309694E-2,2.8394787E-2,-5.7122357E-2,-1.1844408E-2],"categories":[],"categories_nodes":[],"categories_segments":[],"categories_sizes":[],"default_left":[0,0,0,0,0,0,0,0,0,0,0,0,0,0,0,0,0,0,0,0,0,0,0,0,0,0,0,0,0,0,0,0,0,0,0,0,0,0,0,0,0,0,0,0,0,0,0,0,0,0,0,0,0,0,0,0,0,0,0,0,0,0,0],"id":19,"left_children":[1,3,5,7,9,11,13,15,17,19,21,23,25,27,29,31,33,35,37,39,41,43,45,47,49,51,53,55,57,59,61,-1,-1,-1,-1,-1,-1,-1,-1,-1,-1,-1,-1,-1,-1,-1,-1,-1,-1,-1,-1,-1,-1,-1,-1,-1,-1,-1,-1,-1,-1,-1,-1],"loss_changes":[5.244946E1,4.189135E1,3.449712E1,1.981871E1,3.2090622E1,2.9874207E1,1.3524775E1,1.4395996E1,9.572556E0,2.6093039E1,3.1830841E1,2.1476418E1,2.1062273E1,3.0210686E0,1.246994E1,1.858553E1,3.113453E0,1.3824841E1,1.2954662E1,2.3186752E1,1.9982826E1,1.8407583E1,2.8968283E1,1.0685164E1,3.2659195E1,2.657684E1,1.5813684E1,3.399613E0,6.6416187E0,1.1789444E1,1.0048866E1,0E0,0E0,0E0,0E0,0E0,0E0,0E0,0E0,0E0,0E0,0E0,0E0,0E0,0E0,0E0,0E0,0E0,0E0,0E0,0E0,0E0,0E0,0E0,0E0,0E0,0E0,0E0,0E0,0E0,0E0,0E0,0E0],"parents":[2147483647,0,0,1,1,2,2,3,3,4,4,5,5,6,6,7,7,8,8,9,9,10,10,11,11,12,12,13,13,14,14,15,15,16,16,17,17,18,18,19,19,20,20,21,21,22,22,23,23,24,24,25,25,26,26,27,27,28,28,29,29,30,30],"right_children":[2,4,6,8,10,12,14,16,18,20,22,24,26,28,30,32,34,36,38,40,42,44,46,48,50,52,54,56,58,60,62,-1,-1,-1,-1,-1,-1,-1,-1,-1,-1,-1,-1,-1,-1,-1,-1,-1,-1,-1,-1,-1,-1,-1,-1,-1,-1,-1,-1,-1,-1,-1,-1],"split_conditions":[2.5572E0,-2.03528E1,2.22203E1,-5.0984E0,-4.07E-2,7.598E-1,7.53E-2,-9.32E-2,5.1625E0,9.3E0,-1.0086E1,-9.298E-1,1.61667E1,1.17333E1,2.2196E0,-3.34743E1,5.402E-1,3.3152E0,-3.34743E1,-2.1121E0,-1.66702E1,-3.14E-2,-3.8357E0,2.4E-1,1.29508E1,9.5E0,3.34E-2,-8.415E-1,5.373E-1,-1.57E0,8.94E-2,9.40416E-3,-2.1064997E-2,7.449067E-2,1.7330108E-2,-2.4557894E-2,1.6666269E-2,-7.4671455E-2,-1.4983587E-2,1.5135653E-2,-2.915659E-2,-1.3445477E-2,2.8440643E-3,-1.0875316E-3,2.084081E-2,-1.0364864E-2,-1.0205068E-3,1.1425531E-2,2.8675786E-5,5.853701E-3,2.649718E-2,-4.317725E-3,2.8884746E-3,-4.36856E-4,-1.315547E-2,-3.5436604E-2,1.2215277E-3,-2.4905568E-2,-7.069301E-2,-4.0309694E-2,2.8394787E-2,-5.7122357E-2,-1.1844408E-2],"split_indices":[8,8,8,7,3,7,3,3,7,14,8,7,14,14,7,8,2,7,8,8,8,3,7,4,8,14,3,7,7,7,3,0,0,0,0,0,0,0,0,0,0,0,0,0,0,0,0,0,0,0,0,0,0,0,0,0,0,0,0,0,0,0,0],"split_type":[0,0,0,0,0,0,0,0,0,0,0,0,0,0,0,0,0,0,0,0,0,0,0,0,0,0,0,0,0,0,0,0,0,0,0,0,0,0,0,0,0,0,0,0,0,0,0,0,0,0,0,0,0,0,0,0,0,0,0,0,0,0,0],"sum_hessian":[6.391305E4,4.6231547E4,1.7681506E4,4.7723633E2,4.575431E4,1.7445402E4,2.3610397E2,2.1018463E2,2.670517E2,3.9715874E3,4.1782723E4,8.1209707E3,9.324432E3,6.0919548E1,1.7518443E2,1.9976578E2,1.0418852E1,2.3000476E2,3.7046925E1,6.285712E2,3.343016E3,4.1022424E2,4.1372496E4,2.5379019E3,5.583069E3,8.339071E3,9.853598E2,2.67932E1,3.4126347E1,3.837397E1,1.3681047E2,9.162031E1,1.0814548E2,5.346057E0,5.072795E0,2.0817181E2,2.1832947E1,1.9790602E1,1.7256323E1,5.9839667E2,3.0174559E1,1.992731E2,3.143743E3,1.513373E2,2.5888693E2,8.457456E2,4.0526754E4,2.247305E2,2.3131714E3,5.3853E3,1.9776897E2,1.5770798E3,6.7619917E3,5.393582E2,4.460016E2,1.7199764E1,9.593435E0,1.8983244E1,1.5143103E1,6.8009415E0,3.1573027E1,1.2746476E1,1.2406399E2],"tree_param":{"num_deleted":"0","num_feature":"17","num_nodes":"63","size_leaf_vector":"1"}},{"base_weights":[-6.276666E-4,-2.0243589E-2,4.0399518E-2,-2.8683105E-1,-1.7312463E-2,4.4158895E-2,-2.8778994E-1,-2.4910447E-1,-1.0813723E0,5.9660333E-3,-4.5097943E-2,-5.5446527E-3,6.56931E-2,-9.071987E-1,-2.1818508E-1,-3.06327E-1,3.523533E-1,-7.076346E-2,-3.2441255E-2,-1.9364666E-2,4.1373707E-2,5.411901E-1,-4.68204E-2,7.1123177E-1,-1.0217292E-2,4.6346594E-2,1.3713829E-1,-5.4651916E-1,-6.1968334E-2,-1.0534058E-1,-7.284512E-1,-6.804079E-3,-2.594384E-2,-5.9110295E-2,4.0844303E-2,2.6358145E-3,-2.3647973E-3,1.9415546E-3,2.0176446E-2,3.290435E-3,3.893502E-2,-1.9508336E-2,-2.158216E-3,1.2885593E-2,5.1989224E-2,-9.760131E-3,2.3203307E-4,3.8077105E-3,-1.3213421E-4,8.78031E-3,-2.756945E-3,5.7281363E-3,-5.38432E-2,1.8221393E-2,-1.08191585E-2,-5.434711E-2,-2.8462807E-2],"categories":[],"categories_nodes":[],"categories_segments":[],"categories_sizes":[],"default_left":[0,0,0,0,0,0,0,0,0,0,0,0,0,0,0,0,0,0,0,0,0,0,0,0,0,0,0,0,0,0,0,0,0,0,0,0,0,0,0,0,0,0,0,0,0,0,0,0,0,0,0,0,0,0,0,0,0],"id":20,"left_children":[1,3,5,7,9,11,13,15,17,19,21,23,25,27,29,31,33,-1,-1,35,37,39,41,43,45,47,49,51,-1,53,55,-1,-1,-1,-1,-1,-1,-1,-1,-1,-1,-1,-1,-1,-1,-1,-1,-1,-1,-1,-1,-1,-1,-1,-1,-1,-1],"loss_changes":[5.1543762E1,3.385292E1,2.5572868E1,1.3853916E1,2.7722E1,2.1923931E1,9.923239E0,1.5633598E1,2.1231384E0,2.09184E1,1.9756325E1,2.0748005E1,1.974741E1,2.1259441E0,1.2150877E1,1.4854183E1,2.9233639E1,0E0,0E0,2.7376263E1,8.940889E0,6.419899E0,2.443914E1,5.710497E0,1.6913963E1,1.642454E1,2.253051E1,4.683501E0,0E0,9.211141E0,1.5663681E0,0E0,0E0,0E0,0E0,0E0,0E0,0E0,0E0,0E0,0E0,0E0,0E0,0E0,0E0,0E0,0E0,0E0,0E0,0E0,0E0,0E0,0E0,0E0,0E0,0E0,0E0],"parents":[2147483647,0,0,1,1,2,2,3,3,4,4,5,5,6,6,7,7,8,8,9,9,10,10,11,11,12,12,13,13,14,14,15,15,16,16,19,19,20,20,21,21,22,22,23,23,24,24,25,25,26,26,27,27,29,29,30,30],"right_children":[2,4,6,8,10,12,14,16,18,20,22,24,26,28,30,32,34,-1,-1,36,38,40,42,44,46,48,50,52,-1,54,56,-1,-1,-1,-1,-1,-1,-1,-1,-1,-1,-1,-1,-1,-1,-1,-1,-1,-1,-1,-1,-1,-1,-1,-1,-1,-1],"split_conditions":[2.0153E0,-2.03528E1,2.22203E1,-7.2E-3,-4.5E-3,6.5E1,3.7E-2,-7.15E-2,-3.34743E1,-2.5009E0,-1.0086E1,-2.36E-2,8.155E0,1.2E1,1.2743E0,-1.58E-1,-3.34743E1,-7.076346E-2,-3.2441255E-2,-4.07E-2,1.8897E0,-1.26793E1,-6.3249E0,-3.4E-2,1.1E-3,8.47E-2,3.83E2,1.57E-2,-6.1968334E-2,9.4333E0,4.69E-1,-6.804079E-3,-2.594384E-2,-5.9110295E-2,4.0844303E-2,2.6358145E-3,-2.3647973E-3,1.9415546E-3,2.0176446E-2,3.290435E-3,3.893502E-2,-1.9508336E-2,-2.158216E-3,1.2885593E-2,5.1989224E-2,-9.760131E-3,2.3203307E-4,3.8077105E-3,-1.3213421E-4,8.78031E-3,-2.756945E-3,5.7281363E-3,-5.38432E-2,1.8221393E-2,-1.08191585E-2,-5.434711E-2,-2.8462807E-2],"split_indices":[8,8,8,3,3,16,3,3,8,8,8,3,8,14,6,3,8,0,0,3,8,8,8,3,3,6,16,3,0,14,4,0,0,0,0,0,0,0,0,0,0,0,0,0,0,0,0,0,0,0,0,0,0,0,0,0,0],"split_type":[0,0,0,0,0,0,0,0,0,0,0,0,0,0,0,0,0,0,0,0,0,0,0,0,0,0,0,0,0,0,0,0,0,0,0,0,0,0,0,0,0,0,0,0,0,0,0,0,0,0,0,0,0,0,0,0,0],"sum_hessian":[6.404452E4,4.3328703E4,2.0715816E4,4.7016403E2,4.285854E4,2.0482062E4,2.3375449E2,4.5010556E2,2.0058496E1,2.3321076E4,1.9537463E4,6.1916743E3,1.4290389E4,2.2398478E1,2.11356E2,4.1145093E2,3.8654617E1,1.0037942E1,1.0020554E1,1.3595378E4,9.725699E3,5.6313435E1,1.9481148E4,3.9122517E1,6.152552E3,1.1246594E4,3.0437952E3,1.2006599E1,1.0391879E1,1.7406767E2,3.7288334E1,2.2937186E2,1.8207909E2,8.623245E0,3.003137E1,3.796651E3,9.798727E3,9.658992E3,6.670657E1,1.9187124E1,3.7126312E1,2.041432E2,1.9277006E4,1.7185198E1,2.193732E1,4.5652765E2,5.696024E3,6.9918403E3,4.254753E3,2.5364312E3,5.073638E2,5.693527E0,6.3130717E0,3.2842937E1,1.4122473E2,9.674534E0,2.76138E1],"tree_param":{"num_deleted":"0","num_feature":"17","num_nodes":"57","size_leaf_vector":"1"}},{"base_weights":[-9.669151E-4,1.2600448E-2,-3.1283002E-2,5.585486E-2,2.663322E-3,-6.741299E-2,-5.455887E-4,1.5054676E-1,3.4594733E-2,-2.3838084E-2,3.0459888E-2,-6.4252235E-2,-5.6220365E-1,-2.0911932E-2,8.768635E-2,4.906945E-1,1.3201657E-1,1.1721898E-1,2.1876777E-2,-2.5234908E-1,-2.1330183E-2,9.029816E-3,6.736042E-2,5.7747975E-2,-7.5880796E-2,-3.78359E-1,-1.0165747E0,1.8834374E-4,-8.105515E-2,2.8890906E-2,1.6382599E-1,3.1614255E-2,6.968148E-3,-5.4678516E-3,7.998268E-3,-1.0120815E-2,7.0937686E-3,1.9413158E-3,-3.1894662E-3,-1.431516E-2,2.8862743E-2,-2.7256997E-3,-3.2186342E-4,-1.6845004E-5,4.887448E-3,9.480211E-3,2.0826724E-3,1.871965E-2,1.0191276E-3,3.1897144E-3,-4.275305E-3,5.554913E-3,-2.5990615E-2,-6.9490895E-2,-2.4033202E-2,-6.2804706E-3,6.7221135E-4,2.3995675E-2,-4.3862695E-3,-1.8118945E-3,4.0259506E-3,1.7786194E-3,1.372276E-2],"categories":[],"categories_nodes":[],"categories_segments":[],"categories_sizes":[],"default_left":[0,0,0,0,0,0,0,0,0,0,0,0,0,0,0,0,0,0,0,0,0,0,0,0,0,0,0,0,0,0,0,0,0,0,0,0,0,0,0,0,0,0,0,0,0,0,0,0,0,0,0,0,0,0,0,0,0,0,0,0,0,0,0],"id":21,"left_children":[1,3,5,7,9,11,13,15,17,19,21,23,25,27,29,31,33,35,37,39,41,43,45,47,49,51,53,55,57,59,61,-1,-1,-1,-1,-1,-1,-1,-1,-1,-1,-1,-1,-1,-1,-1,-1,-1,-1,-1,-1,-1,-1,-1,-1,-1,-1,-1,-1,-1,-1,-1,-1],"loss_changes":[2.6336313E1,1.9012844E1,2.1984434E1,1.663097E1,2.6499142E1,1.4195213E1,1.9224522E1,9.483482E0,7.0902367E0,1.0548151E1,1.3883318E1,1.2833851E1,4.4296093E0,1.1030466E1,8.977029E0,3.7867432E0,9.718262E0,7.122841E0,8.497672E0,5.7939405E0,9.002337E0,9.230892E0,2.026195E1,9.30997E0,1.1105873E1,3.0088058E0,2.534113E0,1.0733313E1,8.489013E0,3.8137307E0,1.2391289E1,0E0,0E0,0E0,0E0,0E0,0E0,0E0,0E0,0E0,0E0,0E0,0E0,0E0,0E0,0E0,0E0,0E0,0E0,0E0,0E0,0E0,0E0,0E0,0E0,0E0,0E0,0E0,0E0,0E0,0E0,0E0,0E0],"parents":[2147483647,0,0,1,1,2,2,3,3,4,4,5,5,6,6,7,7,8,8,9,9,10,10,11,11,12,12,13,13,14,14,15,15,16,16,17,17,18,18,19,19,20,20,21,21,22,22,23,23,24,24,25,25,26,26,27,27,28,28,29,29,30,30],"right_children":[2,4,6,8,10,12,14,16,18,20,22,24,26,28,30,32,34,36,38,40,42,44,46,48,50,52,54,56,58,60,62,-1,-1,-1,-1,-1,-1,-1,-1,-1,-1,-1,-1,-1,-1,-1,-1,-1,-1,-1,-1,-1,-1,-1,-1,-1,-1,-1,-1,-1,-1,-1,-1],"split_conditions":[1.318E-1,1E0,7.1E-2,9.2167E0,3E0,2.558E0,4E0,-7.591E-1,3.228E-1,-1.7524E0,1.40167E1,8E0,1.14E1,1.41333E1,2.527E-1,1.046E-1,4.9E0,-6.623E-1,3.83E2,7.476E-1,8.1E1,9.8E-2,-1.14E-1,2.4E-1,-1.735E-1,6.25679E1,1.37167E1,5.8333E0,7.31E-2,7.98E-1,7.4E1,3.1614255E-2,6.968148E-3,-5.4678516E-3,7.998268E-3,-1.0120815E-2,7.0937686E-3,1.9413158E-3,-3.1894662E-3,-1.431516E-2,2.8862743E-2,-2.7256997E-3,-3.2186342E-4,-1.6845004E-5,4.887448E-3,9.480211E-3,2.0826724E-3,1.871965E-2,1.0191276E-3,3.1897144E-3,-4.275305E-3,5.554913E-3,-2.5990615E-2,-6.9490895E-2,-2.4033202E-2,-6.2804706E-3,6.7221135E-4,2.3995675E-2,-4.3862695E-3,-1.8118945E-3,4.0259506E-3,1.7786194E-3,1.372276E-2],"split_indices":[6,15,1,14,15,6,15,1,4,1,14,14,14,14,1,5,14,6,16,2,16,1,1,4,1,0,14,14,1,4,16,0,0,0,0,0,0,0,0,0,0,0,0,0,0,0,0,0,0,0,0,0,0,0,0,0,0,0,0,0,0,0,0],"split_type":[0,0,0,0,0,0,0,0,0,0,0,0,0,0,0,0,0,0,0,0,0,0,0,0,0,0,0,0,0,0,0,0,0,0,0,0,0,0,0,0,0,0,0,0,0,0,0,0,0,0,0,0,0,0,0,0,0,0,0,0,0,0,0],"sum_hessian":[6.4028473E4,4.4233316E4,1.9795158E4,8.262707E3,3.597061E4,9.098833E3,1.0696325E4,1.5138754E3,6.7488315E3,1.8414377E4,1.755623E4,9.0422E3,5.6632294E1,8.690974E3,2.0053512E3,7.689414E1,1.4369812E3,8.99149E2,5.8496826E3,1.9882172E2,1.8215555E4,1.1107037E4,6.4491934E3,7.865197E2,8.255681E3,4.1623554E1,1.5008739E1,6.4345225E3,2.2564512E3,1.1323352E3,8.73016E2,5.4236526E1,2.2657616E1,1.4881978E2,1.2881614E3,6.387611E1,8.352729E2,4.883918E3,9.65765E2,1.9163342E2,7.188299E0,5.64188E3,1.2573676E4,1.0047271E4,1.0597661E3,1.1194625E3,5.329731E3,8.2064285E1,7.0445544E2,5.3187634E2,7.723804E3,9.380323E0,3.2243233E1,7.907834E0,7.1009054E0,6.125904E2,5.821932E3,2.5681498E1,2.2307698E3,5.00833E2,6.3150214E2,4.0491513E2,4.681009E2],"tree_param":{"num_deleted":"0","num_feature":"17","num_nodes":"63","size_leaf_vector":"1"}},{"base_weights":[1.456679E-3,1.3724285E-2,-2.6015686E-2,7.172056E-4,4.8977528E-2,-2.4025341E-2,-3.008322E-1,8.743108E-2,-1.8833056E-2,-3.275468E-2,1.0698515E-1,-3.683176E-2,1.4444026E-2,-9.5654494E-1,-1.18447915E-1,5.954492E-1,8.357249E-2,-4.4476036E-2,7.156514E-3,2.0121647E-2,-9.606395E-2,-3.848593E-2,1.1603841E-1,2.1835616E-2,-5.0318595E-2,3.5581358E-2,-2.0546152E-1,-6.38608E-2,-6.968928E-1,2.2796178E-1,-3.9940208E-1,4.321783E-2,-2.7680522E-2,-4.5356066E-3,4.5947595E-3,1.9928252E-3,-3.0583187E-3,1.5659953E-3,-4.6274266E-3,2.0283423E-3,-1.7154468E-2,-3.3369127E-3,-1.5271981E-2,3.1052667E-4,-3.1903304E-2,6.725224E-3,3.6812671E-3,1.1208233E-2,-8.255954E-4,-3.5917216E-3,8.8899734E-4,-6.622509E-3,3.4126714E-3,-2.7983526E-2,-5.2091526E-3,-1.2993279E-2,-4.9411867E-2,1.3704082E-3,3.5873327E-2,-2.6537938E-2,3.3771794E-2],"categories":[],"categories_nodes":[],"categories_segments":[],"categories_sizes":[],"default_left":[0,0,0,0,0,0,0,0,0,0,0,0,0,0,0,0,0,0,0,0,0,0,0,0,0,0,0,0,0,0,0,0,0,0,0,0,0,0,0,0,0,0,0,0,0,0,0,0,0,0,0,0,0,0,0,0,0,0,0,0,0],"id":22,"left_children":[1,3,5,7,9,11,13,15,17,19,21,23,25,27,29,31,33,35,37,39,41,43,45,47,49,51,53,-1,55,57,59,-1,-1,-1,-1,-1,-1,-1,-1,-1,-1,-1,-1,-1,-1,-1,-1,-1,-1,-1,-1,-1,-1,-1,-1,-1,-1,-1,-1,-1,-1],"loss_changes":[2.157844E1,2.029598E1,1.08038225E1,5.4816166E1,5.6562187E1,9.668374E0,1.6872421E1,1.1611366E1,1.758512E1,1.658182E1,9.193924E0,1.1650532E1,2.2792475E1,1.6716671E0,1.1017158E1,1.4284183E1,8.573902E0,1.8696775E1,3.1576073E1,2.006101E1,1.382069E1,1.0979707E1,5.135025E0,2.1361279E1,1.7541695E1,2.456506E1,1.5367485E1,0E0,2.1880846E0,4.9784746E0,9.161763E0,0E0,0E0,0E0,0E0,0E0,0E0,0E0,0E0,0E0,0E0,0E0,0E0,0E0,0E0,0E0,0E0,0E0,0E0,0E0,0E0,0E0,0E0,0E0,0E0,0E0,0E0,0E0,0E0,0E0,0E0],"parents":[2147483647,0,0,1,1,2,2,3,3,4,4,5,5,6,6,7,7,8,8,9,9,10,10,11,11,12,12,13,13,14,14,15,15,16,16,17,17,18,18,19,19,20,20,21,21,22,22,23,23,24,24,25,25,26,26,28,28,29,29,30,30],"right_children":[2,4,6,8,10,12,14,16,18,20,22,24,26,28,30,32,34,36,38,40,42,44,46,48,50,52,54,-1,56,58,60,-1,-1,-1,-1,-1,-1,-1,-1,-1,-1,-1,-1,-1,-1,-1,-1,-1,-1,-1,-1,-1,-1,-1,-1,-1,-1,-1,-1,-1,-1],"split_conditions":[1.318E-1,1.23E-2,1.069E-1,1E0,2E0,2.18E-2,1E0,-1.58E-1,3E0,2.61E-2,1.33E-2,1E0,3.83E2,1.05E1,1.05333E1,1.59E1,-6.27E-2,-2.64E-2,4.3E-3,1.854E-1,1.64E1,5.18E2,4E0,8.6667E0,4E0,9.0167E0,1E0,-6.38608E-2,1.321E-1,3E0,1.76E1,4.321783E-2,-2.7680522E-2,-4.5356066E-3,4.5947595E-3,1.9928252E-3,-3.0583187E-3,1.5659953E-3,-4.6274266E-3,2.0283423E-3,-1.7154468E-2,-3.3369127E-3,-1.5271981E-2,3.1052667E-4,-3.1903304E-2,6.725224E-3,3.6812671E-3,1.1208233E-2,-8.255954E-4,-3.5917216E-3,8.8899734E-4,-6.622509E-3,3.4126714E-3,-2.7983526E-2,-5.2091526E-3,-1.2993279E-2,-4.9411867E-2,1.3704082E-3,3.5873327E-2,-2.6537938E-2,3.3771794E-2],"split_indices":[6,3,3,15,15,3,15,3,15,3,3,15,16,14,14,14,3,3,3,5,14,16,15,14,15,14,15,0,5,15,14,0,0,0,0,0,0,0,0,0,0,0,0,0,0,0,0,0,0,0,0,0,0,0,0,0,0,0,0,0,0],"split_type":[0,0,0,0,0,0,0,0,0,0,0,0,0,0,0,0,0,0,0,0,0,0,0,0,0,0,0,0,0,0,0,0,0,0,0,0,0,0,0,0,0,0,0,0,0,0,0,0,0,0,0,0,0,0,0,0,0,0,0,0,0],"sum_hessian":[6.4025094E4,4.426109E4,1.9764002E4,3.2332627E4,1.1928465E4,1.9622973E4,1.4103091E2,5.9478525E3,2.6384773E4,4.9518247E3,6.9766396E3,1.4722056E4,4.900916E3,2.9767036E1,1.1126388E2,4.3679886E1,5.904173E3,1.3280584E4,1.3104189E4,2.6986099E3,2.2532148E3,4.0855627E2,6.5680835E3,2.7516846E3,1.1970371E4,4.4719136E3,4.2900235E2,1.1565127E1,1.820191E1,4.9912094E1,6.1351788E1,3.5597088E1,8.082797E0,2.6864355E2,5.6355293E3,2.1939016E3,1.1086683E4,1.0548468E4,2.555722E3,2.5556409E3,1.4296909E2,1.9775525E3,2.7566235E2,3.811338E2,2.7422462E1,4.574317E3,1.9937665E3,4.3765982E2,2.3140247E3,9.09632E3,2.874051E3,7.274753E2,3.7444382E3,9.438308E1,3.3461926E2,8.037431E0,1.016448E1,3.6155087E1,1.3757006E1,5.5121544E1,6.2302427E0],"tree_param":{"num_deleted":"0","num_feature":"17","num_nodes":"61","size_leaf_vector":"1"}},{"base_weights":[-3.574093E-3,-2.8619036E-1,-1.4612298E-3,4.787172E-2,-3.9810556E-1,-1.3997942E-2,3.9366934E-2,3.841366E-1,-3.738119E-1,-5.065762E-1,-2.774932E-1,-1.072461E-2,-2.3755288E-1,4.533171E-2,-3.3229566E-1,5.4133296E-1,-2.9901639E-2,-5.640548E-2,-1.3882253E-1,-2.6569784E-1,-6.114365E-1,-2.2664864E-1,-5.1959753E-2,5.5257134E-2,-1.6740076E-2,-1.9533014E-1,-1.0024496E0,-4.3251794E-2,6.781893E-2,-4.806503E-1,1.349121E-2,4.862939E-2,4.2577144E-3,-2.3782464E-2,6.8946354E-2,-2.5099397E-2,1.6956737E-2,-1.1363929E-2,-3.765645E-2,-1.5513891E-2,2.5041673E-2,9.790372E-3,7.5019564E-4,1.1843603E-2,-9.55529E-4,-1.2486848E-2,4.0141866E-3,-5.7970066E-2,-1.1840808E-2,-1.6812565E-2,-9.425996E-4,7.127572E-4,5.259905E-3,3.947866E-3,-3.0398268E-2,-3.2127123E-2,1.5626391E-2],"categories":[],"categories_nodes":[],"categories_segments":[],"categories_sizes":[],"default_left":[0,0,0,0,0,0,0,0,0,0,0,0,0,0,0,0,0,0,0,0,0,0,0,0,0,0,0,0,0,0,0,0,0,0,0,0,0,0,0,0,0,0,0,0,0,0,0,0,0,0,0,0,0,0,0,0,0],"id":23,"left_children":[1,3,5,7,9,11,13,15,17,19,21,23,25,27,29,31,-1,-1,33,35,37,39,-1,41,43,45,47,49,51,53,55,-1,-1,-1,-1,-1,-1,-1,-1,-1,-1,-1,-1,-1,-1,-1,-1,-1,-1,-1,-1,-1,-1,-1,-1,-1,-1],"loss_changes":[3.8229656E1,1.7780888E1,3.2528168E1,1.7175201E1,4.5165787E0,3.5576477E1,3.311197E1,1.0717114E1,9.378623E0,4.5409126E0,6.3778887E0,1.9020874E1,2.2462772E1,2.9274408E1,1.21098385E1,1.1436602E1,0E0,0E0,2.220734E1,8.494293E0,6.848648E0,9.972191E0,0E0,2.2650158E1,2.6406868E1,1.000885E1,4.106762E0,2.1266937E1,2.3463715E1,1.1812908E1,1.4287847E1,0E0,0E0,0E0,0E0,0E0,0E0,0E0,0E0,0E0,0E0,0E0,0E0,0E0,0E0,0E0,0E0,0E0,0E0,0E0,0E0,0E0,0E0,0E0,0E0,0E0,0E0],"parents":[2147483647,0,0,1,1,2,2,3,3,4,4,5,5,6,6,7,7,8,8,9,9,10,10,11,11,12,12,13,13,14,14,15,15,18,18,19,19,20,20,21,21,23,23,24,24,25,25,26,26,27,27,28,28,29,29,30,30],"right_children":[2,4,6,8,10,12,14,16,18,20,22,24,26,28,30,32,-1,-1,34,36,38,40,-1,42,44,46,48,50,52,54,56,-1,-1,-1,-1,-1,-1,-1,-1,-1,-1,-1,-1,-1,-1,-1,-1,-1,-1,-1,-1,-1,-1,-1,-1,-1,-1],"split_conditions":[-2.03528E1,1E0,3.1575E0,-1.58E-1,2E2,3.43E-2,2.22203E1,3.88E2,-3.34743E1,2E0,-7.2E-3,-4.07E-2,4.03E2,1.5E1,3E0,4.61583E1,-2.9901639E-2,-5.640548E-2,-6.68E-2,2.859E-1,-8.341E-1,-7.15E-2,-5.1959753E-2,2.6E1,-1.0086E1,4E0,3.136E-1,3.1E-3,2E0,1E0,7.53E-2,4.862939E-2,4.2577144E-3,-2.3782464E-2,6.8946354E-2,-2.5099397E-2,1.6956737E-2,-1.1363929E-2,-3.765645E-2,-1.5513891E-2,2.5041673E-2,9.790372E-3,7.5019564E-4,1.1843603E-2,-9.55529E-4,-1.2486848E-2,4.0141866E-3,-5.7970066E-2,-1.1840808E-2,-1.6812565E-2,-9.425996E-4,7.127572E-4,5.259905E-3,3.947866E-3,-3.0398268E-2,-3.2127123E-2,1.5626391E-2],"split_indices":[8,15,8,3,16,3,8,16,8,15,3,3,16,16,15,0,0,0,3,6,6,3,0,16,8,15,6,3,15,15,3,0,0,0,0,0,0,0,0,0,0,0,0,0,0,0,0,0,0,0,0,0,0,0,0,0,0],"split_type":[0,0,0,0,0,0,0,0,0,0,0,0,0,0,0,0,0,0,0,0,0,0,0,0,0,0,0,0,0,0,0,0,0,0,0,0,0,0,0,0,0,0,0,0,0,0,0,0,0,0,0,0,0,0,0,0,0],"sum_hessian":[6.4022082E4,4.7408508E2,6.3547996E4,1.19112274E2,3.549728E2,4.8619523E4,1.4928474E4,6.631749E1,5.2794785E1,1.8520865E2,1.6976418E2,4.7918934E4,7.005899E2,1.4693537E4,2.3493704E2,5.755469E1,8.762799E0,1.1637767E1,4.1157017E1,5.7244385E1,1.2796426E2,1.6035765E2,9.40652E0,4.0030095E3,4.3915926E4,6.651297E2,3.5460182E1,2.9746458E3,1.1718891E4,1.6412965E2,7.080738E1,2.9003654E1,2.8551035E1,3.424402E1,6.9129987E0,4.128543E1,1.5958953E1,3.5182137E1,9.278212E1,1.4433842E2,1.6019224E1,8.903503E2,3.1126594E3,4.0576318E2,4.351016E4,5.555556E2,1.0957408E2,2.900083E1,6.459352E0,2.2769086E2,2.7469548E3,4.8172397E3,6.901651E3,3.0490376E1,1.3363928E2,2.1810429E1,4.8996952E1],"tree_param":{"num_deleted":"0","num_feature":"17","num_nodes":"57","size_leaf_vector":"1"}},{"base_weights":[1.1709278E-3,-1.7665548E-2,4.2047534E-2,-2.74844E-1,-1.4831685E-2,7.221068E-2,-6.986731E-3,-1.3162541E-1,-6.752932E-1,4.7983173E-2,-2.4846813E-2,-2.3913432E-2,9.463021E-2,7.9588534E-4,-3.5925606E-1,3.6649412E-1,-3.101478E-1,-1.2325771E0,-5.205539E-1,-3.593435E-2,9.849197E-2,-2.1669684E-2,-2.0427176E-1,4.9661666E-2,-1.0024649E-1,8.140119E-2,4.0860027E-1,1.46766035E-2,-1.7438056E-1,1.6439638E-1,-4.8304328E-1,5.051077E-2,-1.810847E-2,-2.32648E-2,3.618713E-2,-3.3475608E-2,-7.282225E-2,-4.0432796E-2,-7.808012E-3,8.915722E-3,-5.261663E-3,-2.2243834E-3,6.7396327E-3,-1.7904023E-3,6.4115925E-4,-2.0312099E-2,-2.0537877E-3,3.9369334E-3,-1.8088672E-2,-1.4605661E-2,2.3333258E-3,-1.0452293E-2,4.3592746E-3,1.8151945E-3,3.2154217E-2,-2.1306989E-3,3.6545172E-3,-2.1157082E-2,2.1291648E-3,-7.836703E-3,6.32528E-2,-5.893379E-2,-1.8736418E-2],"categories":[],"categories_nodes":[],"categories_segments":[],"categories_sizes":[],"default_left":[0,0,0,0,0,0,0,0,0,0,0,0,0,0,0,0,0,0,0,0,0,0,0,0,0,0,0,0,0,0,0,0,0,0,0,0,0,0,0,0,0,0,0,0,0,0,0,0,0,0,0,0,0,0,0,0,0,0,0,0,0,0,0],"id":24,"left_children":[1,3,5,7,9,11,13,15,17,19,21,23,25,27,29,31,33,35,37,39,41,43,45,47,49,51,53,55,57,59,61,-1,-1,-1,-1,-1,-1,-1,-1,-1,-1,-1,-1,-1,-1,-1,-1,-1,-1,-1,-1,-1,-1,-1,-1,-1,-1,-1,-1,-1,-1,-1,-1],"loss_changes":[4.931678E1,3.1950964E1,2.9883663E1,2.7314606E1,2.7284447E1,2.696109E1,2.1099573E1,3.1520864E1,1.0191807E1,2.5283009E1,2.131889E1,1.3296671E1,4.209954E1,1.8313986E1,1.086273E1,4.428894E1,4.2129654E1,2.3742218E0,1.0378035E1,3.330141E1,1.9331776E1,1.7925323E1,2.1431177E1,1.4453495E1,3.276475E1,1.6373367E1,3.575818E1,2.3357727E1,2.986388E1,1.170401E1,9.715288E0,0E0,0E0,0E0,0E0,0E0,0E0,0E0,0E0,0E0,0E0,0E0,0E0,0E0,0E0,0E0,0E0,0E0,0E0,0E0,0E0,0E0,0E0,0E0,0E0,0E0,0E0,0E0,0E0,0E0,0E0,0E0,0E0],"parents":[2147483647,0,0,1,1,2,2,3,3,4,4,5,5,6,6,7,7,8,8,9,9,10,10,11,11,12,12,13,13,14,14,15,15,16,16,17,17,18,18,19,19,20,20,21,21,22,22,23,23,24,24,25,25,26,26,27,27,28,28,29,29,30,30],"right_children":[2,4,6,8,10,12,14,16,18,20,22,24,26,28,30,32,34,36,38,40,42,44,46,48,50,52,54,56,58,60,62,-1,-1,-1,-1,-1,-1,-1,-1,-1,-1,-1,-1,-1,-1,-1,-1,-1,-1,-1,-1,-1,-1,-1,-1,-1,-1,-1,-1,-1,-1,-1,-1],"split_conditions":[2.0971E0,-2.03528E1,1.3736E0,-1.79E-2,-2.3509E0,-1.1992E0,2.22203E1,1E0,1E0,-4.1653E0,3.04E-2,5.7E-3,1.22373E1,1.675E1,9.3667E0,-1.58E-1,4.62E-2,3.1199E0,2.7045E0,-7.68E-2,1E0,4.47E-2,2E0,1.76E1,2E0,-6.7E-3,2E0,2.7802E0,2E0,3E0,7.53E-2,5.051077E-2,-1.810847E-2,-2.32648E-2,3.618713E-2,-3.3475608E-2,-7.282225E-2,-4.0432796E-2,-7.808012E-3,8.915722E-3,-5.261663E-3,-2.2243834E-3,6.7396327E-3,-1.7904023E-3,6.4115925E-4,-2.0312099E-2,-2.0537877E-3,3.9369334E-3,-1.8088672E-2,-1.4605661E-2,2.3333258E-3,-1.0452293E-2,4.3592746E-3,1.8151945E-3,3.2154217E-2,-2.1306989E-3,3.6545172E-3,-2.1157082E-2,2.1291648E-3,-7.836703E-3,6.32528E-2,-5.893379E-2,-1.8736418E-2],"split_indices":[8,8,7,7,7,7,8,15,15,7,3,3,8,14,14,3,1,7,7,3,15,1,15,14,15,3,15,7,15,15,3,0,0,0,0,0,0,0,0,0,0,0,0,0,0,0,0,0,0,0,0,0,0,0,0,0,0,0,0,0,0,0,0],"split_type":[0,0,0,0,0,0,0,0,0,0,0,0,0,0,0,0,0,0,0,0,0,0,0,0,0,0,0,0,0,0,0,0,0,0,0,0,0,0,0,0,0,0,0,0,0,0,0,0,0,0,0,0,0,0,0,0,0,0,0,0,0,0,0],"sum_hessian":[6.40482E4,4.38446E4,2.0203598E4,4.7681424E2,4.3367785E4,1.2508559E4,7.69504E3,3.5218558E2,1.24628654E2,5.9631475E3,3.7404637E4,2.365665E3,1.0142894E4,7.5296855E3,1.6535413E2,9.264137E1,2.5954422E2,2.5570955E1,9.905769E1,2.240677E3,3.7224707E3,3.675493E4,6.497095E2,1.2047719E3,1.1608932E3,9.734014E3,4.0887988E2,6.9776997E3,5.519862E2,3.1552158E1,1.3380196E2,4.89825E1,4.3658875E1,2.2615656E2,3.3387657E1,8.409733E0,1.7161222E1,5.4639034E1,4.4418663E1,5.472358E2,1.6934413E3,7.5368036E2,2.9687903E3,2.606929E4,1.068564E4,2.896953E2,3.6001416E2,1.1260033E3,7.876846E1,5.029968E2,6.578964E2,1.8938301E2,9.544631E3,1.584537E2,2.5042618E2,3.522853E3,3.4548464E3,2.5670706E2,2.9527917E2,2.5089577E1,6.4625807E0,1.6695606E1,1.1710635E2],"tree_param":{"num_deleted":"0","num_feature":"17","num_nodes":"63","size_leaf_vector":"1"}},{"base_weights":[1.0673007E-3,-1.6957562E-2,3.870541E-2,-2.1934111E-1,-1.3559544E-2,6.225115E-2,-1.0949107E-2,-1.4096443E-2,-3.630759E-1,3.5133186E-1,-1.5358419E-2,2.1944414E-3,8.4208034E-2,-7.24604E-2,3.343474E-2,-4.0922064E-1,9.854592E-2,-5.0528395E-1,-1.753945E-1,5.9946364E-1,1.549092E-1,-1.2585423E-2,-1.9817968E-1,8.882098E-2,-3.2583468E-2,7.362666E-2,4.0459672E-1,3.980151E-2,-1.0503851E-1,6.7568876E-2,-2.6051405E-1,4.548198E-3,-3.2567795E-2,3.1202788E-2,1.3767484E-3,-2.2776356E-2,-5.9968915E-2,-6.708165E-2,3.1263503E-4,-1.8097697E-2,3.3180285E-2,-2.3356527E-3,3.5301507E-2,-7.7198644E-4,6.989468E-3,-2.3277042E-2,-4.3944004E-3,-2.640547E-3,9.060067E-3,-3.8287554E-2,-1.2605961E-3,-1.6715331E-2,4.005075E-3,-4.9927104E-2,2.2341585E-2,-1.155848E-2,5.187027E-3,2.013757E-3,-6.5156645E-3,4.2275446E-3,-1.8739877E-2,-4.278644E-2,-8.710836E-3],"categories":[],"categories_nodes":[],"categories_segments":[],"categories_sizes":[],"default_left":[0,0,0,0,0,0,0,0,0,0,0,0,0,0,0,0,0,0,0,0,0,0,0,0,0,0,0,0,0,0,0,0,0,0,0,0,0,0,0,0,0,0,0,0,0,0,0,0,0,0,0,0,0,0,0,0,0,0,0,0,0,0,0],"id":25,"left_children":[1,3,5,7,9,11,13,15,17,19,21,23,25,27,29,31,33,35,37,39,41,43,45,47,49,51,53,55,57,59,61,-1,-1,-1,-1,-1,-1,-1,-1,-1,-1,-1,-1,-1,-1,-1,-1,-1,-1,-1,-1,-1,-1,-1,-1,-1,-1,-1,-1,-1,-1,-1,-1],"loss_changes":[4.3452698E1,2.9780796E1,2.4249664E1,2.1090477E1,2.7964478E1,1.8552444E1,1.82186E1,1.3195204E1,1.1135017E1,1.009354E1,2.1486118E1,1.1353808E1,3.4897675E1,1.0233193E1,3.891258E1,8.023791E0,8.5956545E0,7.6978035E0,3.8735413E1,5.9133797E0,1.3145348E1,1.8162298E1,1.8631989E1,1.4134753E1,1.4514283E1,2.6372353E1,1.9952732E1,1.0935926E1,7.968092E0,2.6128746E1,