{"learner":{"attributes":{"best_iteration":"3","best_score":"0.5279183323426455"},"feature_names":["rsi_14","macd_signal","bb_position","vwap_deviation","volume_ratio","price_change_5","price_change_20","price_change_1d","price_change_5d","price_vs_50d_ma","ma_10d_50d_cross","drawdown_from_peak","dist_from_52w_low","sentiment_avg_1h","sentiment_count_1h","sentiment_deviation","sentiment_momentum","has_breaking_event","hour_of_day","day_of_week","minutes_since_open","fundamental_gross_margin","fundamental_operating_margin","fundamental_net_margin","fundamental_fcf_margin","fundamental_rd_intensity","fundamental_revenue_growth_yoy","fundamental_revenue_growth_qoq","fundamental_debt_to_equity"],"feature_types":[],"gradient_booster":{"model":{"cats":{"enc":[],"feature_segments":[],"sorted_idx":[]},"gbtree_model_param":{"num_parallel_tree":"1","num_trees":"34"},"iteration_indptr":[0,1,2,3,4,5,6,7,8,9,10,11,12,13,14,15,16,17,18,19,20,21,22,23,24,25,26,27,28,29,30,31,32,33,34],"tree_info":[0,0,0,0,0,0,0,0,0,0,0,0,0,0,0,0,0,0,0,0,0,0,0,0,0,0,0,0,0,0,0,0,0,0],"trees":[{"base_weights":[6.2328496E-4,-1.1376451E-1,8.974714E-2,-2.6107574E-1,-4.260479E-2,4.9047005E-1,7.4886255E-2,-6.905925E-2,-3.879657E-1,-3.0292382E-2,-8.4513634E-1,5.42723E-1,-1.1190864E0,5.3459838E-2,2.7054796E-1,1.2896927E-1,-3.6116773E-1,-2.8452575E-1,-6.649458E-1,-7.668035E-2,1.4645159E-1,-1.4067979E0,-5.559788E-1,5.7789207E-1,-1.5027391E0,8.562088E-2,-1.2684247E0,7.942207E-2,-1.136348E-1,6.7931965E-2,4.8271433E-1,-1.60152E-2,1.2672636E-2,-1.3219851E-2,-5.5303514E-2,2.1658119E-2,-1.655176E-2,-2.6301755E-2,-5.8938187E-2,-1.0972208E-3,-1.6004851E-2,-6.215258E-3,1.3773128E-2,-8.441103E-2,1.7003726E-2,-5.9356815E-3,-5.2768923E-2,2.2119997E-2,7.311217E-2,3.4393407E-2,-9.335322E-2,-7.890277E-2,-8.302999E-3,4.7773905E-3,-1.712103E-2,8.481067E-3,-1.2120883E-2,9.452037E-3,-1.1991445E-2,2.6101938E-2,-6.644933E-2],"categories":[],"categories_nodes":[],"categories_segments":[],"categories_sizes":[],"default_left":[1,0,0,0,0,0,0,0,0,0,0,0,0,0,0,0,0,0,1,0,0,1,0,0,0,0,0,0,0,0,0,0,0,0,0,0,0,0,0,0,0,0,0,0,0,0,0,0,0,0,0,0,0,0,0,0,0,0,0,0,0],"id":0,"left_children":[1,3,5,7,9,11,13,15,17,19,21,23,25,27,29,31,33,35,37,39,41,43,45,47,49,-1,51,53,55,57,59,-1,-1,-1,-1,-1,-1,-1,-1,-1,-1,-1,-1,-1,-1,-1,-1,-1,-1,-1,-1,-1,-1,-1,-1,-1,-1,-1,-1,-1,-1],"loss_changes":[1.9504669E3,8.782825E2,6.403526E2,6.648983E2,5.5822107E2,3.2400592E2,4.3469727E2,6.2823737E2,4.7058594E2,4.5622318E2,1.3785504E2,2.6883228E2,5.3435852E1,4.054485E2,4.399131E2,3.6208905E2,3.1600775E2,3.9953748E2,3.182207E2,5.872511E2,4.0412524E2,1.4287549E2,1.23291336E2,4.3823254E2,5.175682E1,0E0,3.9241013E1,5.502976E2,4.585311E2,1.9520529E2,3.568473E2,0E0,0E0,0E0,0E0,0E0,0E0,0E0,0E0,0E0,0E0,0E0,0E0,0E0,0E0,0E0,0E0,0E0,0E0,0E0,0E0,0E0,0E0,0E0,0E0,0E0,0E0,0E0,0E0,0E0,0E0],"parents":[2147483647,0,0,1,1,2,2,3,3,4,4,5,5,6,6,7,7,8,8,9,9,10,10,11,11,12,12,13,13,14,14,15,15,16,16,17,17,18,18,19,19,20,20,21,21,22,22,23,23,24,24,26,26,27,27,28,28,29,29,30,30],"right_children":[2,4,6,8,10,12,14,16,18,20,22,24,26,28,30,32,34,36,38,40,42,44,46,48,50,-1,52,54,56,58,60,-1,-1,-1,-1,-1,-1,-1,-1,-1,-1,-1,-1,-1,-1,-1,-1,-1,-1,-1,-1,-1,-1,-1,-1,-1,-1,-1,-1,-1,-1],"split_conditions":[2.3608455E-2,-5.771E-1,2.6903788E-2,1.5102512E-1,3.47E-1,1.199E0,1.7620443E-1,2.474557E-1,-2.78E-2,-7.53E-2,-3.176E-1,1.296E-1,2.1E-3,4.180203E-1,7.884E-1,-1.6870132E-1,9.587662E-2,-2.1283637E-1,4.8596883E-1,5.07E-2,2.915E-1,4.180203E-1,9.8928E0,2.5555175E-2,-9.01E-2,8.562088E-2,3.1396E0,1.012E0,-3.42E-2,-5.023E-1,2.904E-1,-1.60152E-2,1.2672636E-2,-1.3219851E-2,-5.5303514E-2,2.1658119E-2,-1.655176E-2,-2.6301755E-2,-5.8938187E-2,-1.0972208E-3,-1.6004851E-2,-6.215258E-3,1.3773128E-2,-8.441103E-2,1.7003726E-2,-5.9356815E-3,-5.2768923E-2,2.2119997E-2,7.311217E-2,3.4393407E-2,-9.335322E-2,-7.890277E-2,-8.302999E-3,4.7773905E-3,-1.712103E-2,8.481067E-3,-1.2120883E-2,9.452037E-3,-1.1991445E-2,2.6101938E-2,-6.644933E-2],"split_indices":[23,11,23,27,9,12,25,21,10,11,11,10,10,26,12,27,22,26,27,10,12,26,12,23,11,0,7,12,10,11,10,0,0,0,0,0,0,0,0,0,0,0,0,0,0,0,0,0,0,0,0,0,0,0,0,0,0,0,0,0,0],"split_type":[0,0,0,0,0,0,0,0,0,0,0,0,0,0,0,0,0,0,0,0,0,0,0,0,0,0,0,0,0,0,0,0,0,0,0,0,0,0,0,0,0,0,0,0,0,0,0,0,0,0,0,0,0,0,0,0,0,0,0,0,0],"sum_hessian":[1.9132002E5,8.378466E4,1.0753537E5,2.7289223E4,5.649543E4,3.8442178E3,1.0369115E5,1.0858747E4,1.6430477E4,5.5642797E4,8.5263196E2,3.7239846E3,1.2023336E2,9.345806E4,1.0233084E4,6.471854E3,4.3868926E3,1.1964344E4,4.466132E3,4.40754E4,1.1567398E4,2.8846008E2,5.6417194E2,3.6617432E3,6.2241383E1,5.499239E0,1.14734116E2,8.0890305E4,1.2567761E4,5.2350254E3,4.998058E3,1.4038057E3,5.0680483E3,3.8837124E3,5.0318036E2,7.276493E2,1.1236694E4,3.5172632E3,9.4886865E2,3.598477E4,8.09063E3,3.7329832E3,7.8344155E3,2.484656E2,3.9994465E1,3.0145828E2,2.6271362E2,3.1765603E3,4.8518283E2,8.748789E0,5.3492596E1,8.923765E1,2.5496471E1,7.791272E4,2.977588E3,3.9279563E3,8.639804E3,3.75698E3,1.4780454E3,4.8925728E3,1.054854E2],"tree_param":{"num_deleted":"0","num_feature":"29","num_nodes":"61","size_leaf_vector":"1"}},{"base_weights":[-4.9433263E-4,-8.770276E-2,1.1370917E-1,-1.4106269E-1,1.6775946E-1,-1.6761902E-1,1.3108715E-1,-1.12175964E-1,-5.769437E-1,-6.025585E-2,2.3507948E-1,2.817237E-1,-2.6559117E-1,1.8103875E-1,5.3168032E-2,-3.1774342E-2,-2.0480925E-1,-6.396783E-1,9.7557765E-1,-2.1041681E-1,3.451177E-1,2.731979E-1,-2.024629E-1,-7.8266287E-1,5.598218E-1,-8.670469E-1,-4.6782494E-2,1.6276442E-1,6.3493776E-1,-3.6293453E-1,8.9367546E-2,3.1568628E-2,-2.2093772E-3,-9.492156E-3,-5.3829014E-2,-2.9204244E-2,-6.423305E-2,-4.598945E-2,6.5547906E-2,-5.5230344E-3,-2.8029824E-2,1.6219857E-3,3.8591173E-2,4.274781E-2,1.2415821E-2,-3.612971E-2,2.8537435E-2,3.1767882E-2,-6.9289565E-2,3.910594E-2,-4.9222536E-2,4.8112053E-2,-4.9025632E-2,5.3921122E-2,-9.186221E-3,2.5748324E-3,1.1105029E-2,2.2252463E-2,6.095494E-2,-1.2823622E-2,-7.947215E-2,3.1968595E-3,2.3509784E-2],"categories":[],"categories_nodes":[],"categories_segments":[],"categories_sizes":[],"default_left":[1,0,0,0,0,0,0,0,1,0,0,0,0,0,0,0,1,0,0,0,0,0,1,0,0,0,0,0,0,0,0,0,0,0,0,0,0,0,0,0,0,0,0,0,0,0,0,0,0,0,0,0,0,0,0,0,0,0,0,0,0,0,0],"id":1,"left_children":[1,3,5,7,9,11,13,15,17,19,21,23,25,27,29,31,33,35,37,39,41,43,45,47,49,51,53,55,57,59,61,-1,-1,-1,-1,-1,-1,-1,-1,-1,-1,-1,-1,-1,-1,-1,-1,-1,-1,-1,-1,-1,-1,-1,-1,-1,-1,-1,-1,-1,-1,-1,-1],"loss_changes":[1.9075686E3,1.4804215E3,4.0546338E2,1.131094E3,2.880603E2,2.1249246E2,3.0399573E2,6.275137E2,5.444321E2,2.6049356E2,2.416925E2,2.5624777E2,5.213646E2,3.9467896E2,4.596422E2,3.7133572E2,5.1057922E2,1.9169946E2,1.393046E2,1.0923163E2,1.5431462E2,1.9270184E2,4.6757956E2,1.5434601E2,2.3618628E2,2.2029529E2,4.4799692E2,3.0206445E2,2.0374738E2,3.1849704E2,2.7183405E2,0E0,0E0,0E0,0E0,0E0,0E0,0E0,0E0,0E0,0E0,0E0,0E0,0E0,0E0,0E0,0E0,0E0,0E0,0E0,0E0,0E0,0E0,0E0,0E0,0E0,0E0,0E0,0E0,0E0,0E0,0E0,0E0],"parents":[2147483647,0,0,1,1,2,2,3,3,4,4,5,5,6,6,7,7,8,8,9,9,10,10,11,11,12,12,13,13,14,14,15,15,16,16,17,17,18,18,19,19,20,20,21,21,22,22,23,23,24,24,25,25,26,26,27,27,28,28,29,29,30,30],"right_children":[2,4,6,8,10,12,14,16,18,20,22,24,26,28,30,32,34,36,38,40,42,44,46,48,50,52,54,56,58,60,62,-1,-1,-1,-1,-1,-1,-1,-1,-1,-1,-1,-1,-1,-1,-1,-1,-1,-1,-1,-1,-1,-1,-1,-1,-1,-1,-1,-1,-1,-1,-1,-1],"split_conditions":[7.2515495E-2,-7.36E-2,-9.9203214E-2,1.4583E0,2.695E-1,-1.966E-1,1.5044321E-1,-2.52E-2,4.969621E-1,2.1838E0,1.252E-1,-9.918E-1,-6.163E-1,6.198937E-1,0E0,-3.1102278E0,4.5311466E-1,-1.927E-1,1.8282E0,4.6E-2,3.13E-2,-1.34E-2,3.0136678E-2,-9.438E-1,1.6098E0,-1.943E-1,-4.93E-2,-1.9855686E-2,6.8275E0,1.2448E0,3.6337864E-1,3.1568628E-2,-2.2093772E-3,-9.492156E-3,-5.3829014E-2,-2.9204244E-2,-6.423305E-2,-4.598945E-2,6.5547906E-2,-5.5230344E-3,-2.8029824E-2,1.6219857E-3,3.8591173E-2,4.274781E-2,1.2415821E-2,-3.612971E-2,2.8537435E-2,3.1767882E-2,-6.9289565E-2,3.910594E-2,-4.9222536E-2,4.8112053E-2,-4.9025632E-2,5.3921122E-2,-9.186221E-3,2.5748324E-3,1.1105029E-2,2.2252463E-2,6.095494E-2,-1.2823622E-2,-7.947215E-2,3.1968595E-3,2.3509784E-2],"split_indices":[28,11,26,12,12,9,27,10,22,8,10,10,11,21,24,28,27,11,12,10,10,10,27,11,12,10,10,27,8,12,27,0,0,0,0,0,0,0,0,0,0,0,0,0,0,0,0,0,0,0,0,0,0,0,0,0,0,0,0,0,0,0,0],"split_type":[0,0,0,0,0,0,0,0,0,0,0,0,0,0,0,0,0,0,0,0,0,0,0,0,0,0,0,0,0,0,0,0,0,0,0,0,0,0,0,0,0,0,0,0,0,0,0,0,0,0,0,0,0,0,0,0,0,0,0,0,0,0,0],"sum_hessian":[1.915304E5,1.0860067E5,8.292974E4,8.983644E4,1.8764229E4,4.8241436E3,7.81056E4,8.4254016E4,5.5824277E3,4.2772236E3,1.4487006E4,8.632105E2,3.9609329E3,4.759351E4,3.051209E4,4.510564E4,3.914837E4,5.366178E3,2.1624963E2,3.1214412E3,1.1557826E3,1.3326394E4,1.1606116E3,1.7843974E2,6.847708E2,1.0558037E3,2.9051292E3,4.5752824E4,1.840686E3,2.44128E3,2.8070809E4,8.2788586E2,4.4277754E4,3.8488832E4,6.595396E2,4.9421055E3,4.2407278E2,3.2249947E1,1.839997E2,2.4293245E3,6.921168E2,6.6763464E2,4.881479E2,5.452172E2,1.2781177E4,6.9389874E2,4.6671286E2,5.323202E1,1.2520772E2,5.990338E2,8.573699E1,6.122689E1,9.9457684E2,3.1445825E2,2.590671E3,1.5913509E4,2.9839316E4,1.3904617E3,4.5022433E2,2.2474116E3,1.9386836E2,2.631477E4,1.7560394E3],"tree_param":{"num_deleted":"0","num_feature":"29","num_nodes":"63","size_leaf_vector":"1"}},{"base_weights":[4.993997E-4,-7.68074E-2,1.1700054E-1,-1.3229485E-1,1.04281835E-1,-1.639022E-1,1.3591367E-1,-1.0352509E-1,-5.808457E-1,-8.562192E-2,1.8533511E-1,2.482283E-1,-2.5386408E-1,1.9871329E-1,5.1477965E-2,-3.137007E-2,-1.9439192E-1,-6.011699E-1,1.4488623E0,6.0954666E-1,-1.4246517E-1,-9.9988747E-1,2.0091155E-1,-7.1969736E-1,5.087382E-1,-8.053012E-1,-5.4221388E-2,1.7847504E-1,6.297718E-1,-3.4666765E-1,8.63233E-2,-1.2186297E-3,-5.917597E-2,-8.94007E-3,-5.4272115E-2,-2.0552458E-2,-3.8937297E-2,8.739929E-2,-3.4003507E-2,-8.968109E-3,3.7667647E-2,-1.189122E-2,2.5936007E-3,-1.9397272E-2,-8.503669E-2,3.0301472E-2,7.84229E-3,3.0602006E-2,-6.4691596E-2,3.646604E-2,-5.1203515E-2,3.8993042E-2,-4.6172306E-2,5.164777E-2,-9.115681E-3,1.082626E-2,-3.494372E-4,-5.2820127E-3,3.8347095E-2,-7.37163E-3,-4.4222035E-2,1.3271322E-2,1.8780401E-3],"categories":[],"categories_nodes":[],"categories_segments":[],"categories_sizes":[],"default_left":[1,0,0,0,0,0,0,0,1,0,0,0,0,0,0,1,1,0,0,0,1,0,0,0,0,0,0,0,0,0,0,0,0,0,0,0,0,0,0,0,0,0,0,0,0,0,0,0,0,0,0,0,0,0,0,0,0,0,0,0,0,0,0],"id":2,"left_children":[1,3,5,7,9,11,13,15,17,19,21,23,25,27,29,31,33,35,37,39,41,43,45,47,49,51,53,55,57,59,61,-1,-1,-1,-1,-1,-1,-1,-1,-1,-1,-1,-1,-1,-1,-1,-1,-1,-1,-1,-1,-1,-1,-1,-1,-1,-1,-1,-1,-1,-1,-1,-1],"loss_changes":[1.7248008E3,1.1567573E3,4.05864E2,1.1370974E3,4.1562558E2,1.7874478E2,3.7950122E2,5.4293463E2,2.199635E2,3.192829E2,3.4957416E2,2.1822856E2,4.3551007E2,3.5795227E2,4.235681E2,3.721069E2,5.08974E2,1.7723206E2,3.4906433E1,6.942694E1,1.3840709E2,1.0469353E2,3.3337244E2,1.4120276E2,2.3112349E2,1.976532E2,4.048439E2,2.7666858E2,1.85716E2,2.631217E2,2.4516182E2,0E0,0E0,0E0,0E0,0E0,0E0,0E0,0E0,0E0,0E0,0E0,0E0,0E0,0E0,0E0,0E0,0E0,0E0,0E0,0E0,0E0,0E0,0E0,0E0,0E0,0E0,0E0,0E0,0E0,0E0,0E0,0E0],"parents":[2147483647,0,0,1,1,2,2,3,3,4,4,5,5,6,6,7,7,8,8,9,9,10,10,11,11,12,12,13,13,14,14,15,15,16,16,17,17,18,18,19,19,20,20,21,21,22,22,23,23,24,24,25,25,26,26,27,27,28,28,29,29,30,30],"right_children":[2,4,6,8,10,12,14,16,18,20,22,24,26,28,30,32,34,36,38,40,42,44,46,48,50,52,54,56,58,60,62,-1,-1,-1,-1,-1,-1,-1,-1,-1,-1,-1,-1,-1,-1,-1,-1,-1,-1,-1,-1,-1,-1,-1,-1,-1,-1,-1,-1,-1,-1,-1,-1],"split_conditions":[1.21633366E-1,-1.051E-1,-9.9203214E-2,1.4583E0,2.695E-1,-1.966E-1,1.5044321E-1,-2.52E-2,4.969621E-1,9.17E-2,-8.913375E-2,-9.918E-1,-6.163E-1,6.198937E-1,0E0,8.154376E-1,4.5311466E-1,-5.953E-1,4.35E-2,-2.89E-2,-3.1215152E-2,-8.84E-2,-2.3E-3,-9.438E-1,1.6098E0,-1.79E-1,-4.93E-2,7.34E-2,-1.894637E-1,9.128E-1,-5.56E-2,-1.2186297E-3,-5.917597E-2,-8.94007E-3,-5.4272115E-2,-2.0552458E-2,-3.8937297E-2,8.739929E-2,-3.4003507E-2,-8.968109E-3,3.7667647E-2,-1.189122E-2,2.5936007E-3,-1.9397272E-2,-8.503669E-2,3.0301472E-2,7.84229E-3,3.0602006E-2,-6.4691596E-2,3.646604E-2,-5.1203515E-2,3.8993042E-2,-4.6172306E-2,5.164777E-2,-9.115681E-3,1.082626E-2,-3.494372E-4,-5.2820127E-3,3.8347095E-2,-7.37163E-3,-4.4222035E-2,1.3271322E-2,1.8780401E-3],"split_indices":[28,11,26,12,12,9,27,10,22,12,27,10,11,21,24,21,27,11,10,9,27,11,10,11,12,10,10,10,27,12,10,0,0,0,0,0,0,0,0,0,0,0,0,0,0,0,0,0,0,0,0,0,0,0,0,0,0,0,0,0,0,0,0],"split_type":[0,0,0,0,0,0,0,0,0,0,0,0,0,0,0,0,0,0,0,0,0,0,0,0,0,0,0,0,0,0,0,0,0,0,0,0,0,0,0,0,0,0,0,0,0,0,0,0,0,0,0,0,0,0,0,0,0,0,0,0,0,0,0],"sum_hessian":[1.9150783E5,1.151187E5,7.638912E4,8.81186E4,2.7000104E4,4.8183335E3,7.157078E4,8.280855E4,5.310057E3,8.0767134E3,1.8923389E4,8.630047E2,3.9553286E3,4.104325E4,3.0527535E4,4.615745E4,3.6651098E4,5.25811E3,5.1947464E1,6.097696E2,7.466944E3,2.446492E2,1.867874E4,1.826405E2,6.803642E2,1.0505498E3,2.9047788E3,3.9204027E4,1.8392202E3,2.4560105E3,2.8071523E4,4.587982E4,2.7762592E2,3.602203E4,6.290686E2,2.5409604E3,2.7171494E3,4.570471E1,6.242755E0,9.397633E1,5.157933E2,5.0089033E3,2.4580403E3,1.3143799E2,1.1321121E2,1.8311682E3,1.6847572E4,5.499966E1,1.2764085E2,5.952303E2,8.513387E1,7.2479866E1,9.7807E2,3.0542596E2,2.5993528E3,3.2529945E4,6.6740835E3,2.891619E2,1.5500583E3,1.793008E3,6.630025E2,6.006264E3,2.206526E4],"tree_param":{"num_deleted":"0","num_feature":"29","num_nodes":"63","size_leaf_vector":"1"}},{"base_weights":[-1.5302518E-3,-6.831784E-2,1.2496143E-1,-5.223086E-2,-5.2808326E-1,2.4564616E-1,7.842881E-2,-9.2662275E-2,1.0670391E-1,-4.5704165E-1,-1.3747779E0,2.2020617E-1,9.1561455E-1,-7.5003546E-1,9.319559E-2,-7.5872935E-2,-4.8938903E-1,-1.3681971E0,1.1729016E-1,-3.3960077E-1,-9.137098E-1,-1.0394769E0,-1.5991927E0,2.5787205E-1,-4.427058E-1,-9.197352E-2,9.8108006E-1,-6.1872524E-1,-1.7166419E0,-2.0494277E-3,1.9652815E-1,-2.6424208E-3,-1.2272056E-2,-2.810554E-2,3.2220315E-4,-4.510502E-2,-9.520999E-2,4.825275E-3,3.74007E-2,-2.3237193E-2,-4.437495E-4,-8.110287E-2,-3.0649064E-2,4.0819902E-2,-5.6059588E-2,-6.847777E-2,-9.15597E-2,-9.054454E-3,1.4793827E-2,-5.019411E-2,8.708093E-3,3.2763783E-2,7.771432E-2,-5.9434097E-2,-1.8579511E-2,-4.683317E-2,-9.1024175E-2,5.8334786E-3,-4.3413425E-3,7.2282217E-3,2.240212E-2],"categories":[],"categories_nodes":[],"categories_segments":[],"categories_sizes":[],"default_left":[1,0,0,1,0,0,0,0,0,0,0,0,0,0,0,1,0,0,0,1,0,0,0,0,0,0,0,0,0,0,0,0,0,0,0,0,0,0,0,0,0,0,0,0,0,0,0,0,0,0,0,0,0,0,0,0,0,0,0,0,0],"id":3,"left_children":[1,3,5,7,9,11,13,15,17,19,21,23,25,27,29,31,33,35,37,39,41,43,45,47,49,-1,51,53,55,57,59,-1,-1,-1,-1,-1,-1,-1,-1,-1,-1,-1,-1,-1,-1,-1,-1,-1,-1,-1,-1,-1,-1,-1,-1,-1,-1,-1,-1,-1,-1],"loss_changes":[1.6168796E3,9.263911E2,3.713794E2,7.7769275E2,2.5407056E2,3.1346387E2,5.8401794E2,6.425908E2,3.8337796E2,2.0928564E2,2.2964539E1,4.4285126E2,1.2317578E2,1.05048645E2,4.6156198E2,3.613753E2,1.4124274E2,4.199945E1,3.1939975E2,1.2872195E2,1.6917749E2,2.1248734E1,7.8384705E0,2.799641E2,3.3031067E2,0E0,1.2185779E2,1.0345206E2,6.3475037E0,2.4563669E2,2.939204E2,0E0,0E0,0E0,0E0,0E0,0E0,0E0,0E0,0E0,0E0,0E0,0E0,0E0,0E0,0E0,0E0,0E0,0E0,0E0,0E0,0E0,0E0,0E0,0E0,0E0,0E0,0E0,0E0,0E0,0E0],"parents":[2147483647,0,0,1,1,2,2,3,3,4,4,5,5,6,6,7,7,8,8,9,9,10,10,11,11,12,12,13,13,14,14,15,15,16,16,17,17,18,18,19,19,20,20,21,21,22,22,23,23,24,24,26,26,27,27,28,28,29,29,30,30],"right_children":[2,4,6,8,10,12,14,16,18,20,22,24,26,28,30,32,34,36,38,40,42,44,46,48,50,-1,52,54,56,58,60,-1,-1,-1,-1,-1,-1,-1,-1,-1,-1,-1,-1,-1,-1,-1,-1,-1,-1,-1,-1,-1,-1,-1,-1,-1,-1,-1,-1,-1,-1],"split_conditions":[2.5438148E-1,1.923E-1,-3.23E-2,1.6798708E-1,1.26472E1,2.2308E0,-6.0819095E-1,1.4583E0,-5.166E-1,2.22222E1,2.904E-1,9.128E-1,-6.0819095E-1,2.008E-1,7.74E-1,1.13436714E-1,1.433E-1,-7.509E-1,1.098E-1,6.322932E-2,4.351655E-3,-1.7821E0,4.457E-1,-9.154E-1,6.05432E-1,-9.197352E-2,-6.86E-2,-4.751483E0,4.68E-2,8.771849E-2,1.479E-1,-2.6424208E-3,-1.2272056E-2,-2.810554E-2,3.2220315E-4,-4.510502E-2,-9.520999E-2,4.825275E-3,3.74007E-2,-2.3237193E-2,-4.437495E-4,-8.110287E-2,-3.0649064E-2,4.0819902E-2,-5.6059588E-2,-6.847777E-2,-9.15597E-2,-9.054454E-3,1.4793827E-2,-5.019411E-2,8.708093E-3,3.2763783E-2,7.771432E-2,-5.9434097E-2,-1.8579511E-2,-4.683317E-2,-9.1024175E-2,5.8334786E-3,-4.3413425E-3,7.2282217E-3,2.240212E-2],"split_indices":[28,9,10,22,12,12,22,12,10,8,10,12,22,9,8,23,9,9,10,22,22,8,9,9,28,0,10,23,10,22,9,0,0,0,0,0,0,0,0,0,0,0,0,0,0,0,0,0,0,0,0,0,0,0,0,0,0,0,0,0,0],"split_type":[0,0,0,0,0,0,0,0,0,0,0,0,0,0,0,0,0,0,0,0,0,0,0,0,0,0,0,0,0,0,0,0,0,0,0,0,0,0,0,0,0,0,0,0,0,0,0,0,0,0,0,0,0,0,0,0,0,0,0,0,0],"sum_hessian":[1.9138831E5,1.25254445E5,6.613387E4,1.21021086E5,4.2333574E3,1.8402293E4,4.7731574E4,9.6478375E4,2.4542715E4,3.9070754E3,3.2628192E2,1.7730365E4,6.719273E2,8.350095E2,4.6896562E4,9.256236E4,3.9160159E3,1.7398851E2,2.4368727E4,3.1092234E3,7.978521E2,1.3307889E2,1.9320302E2,1.677769E4,9.52677E2,1.4966602E1,6.569607E2,7.3658685E2,9.842271E1,2.440378E4,2.2492785E4,8.149766E4,1.1064706E4,3.4150164E3,5.009996E2,9.449803E1,7.949048E1,2.3592422E4,7.7630365E2,2.2553992E3,8.538241E2,2.364694E2,5.613827E2,5.233222E0,1.2784567E2,1.0056547E2,9.263755E1,1.3365425E3,1.5441146E4,4.9852856E2,4.5414844E2,4.2024243E2,2.3671826E2,2.2163344E2,5.1495337E2,1.2741129E1,8.568158E1,1.0166555E4,1.4237225E4,1.864271E4,3.850074E3],"tree_param":{"num_deleted":"0","num_feature":"29","num_nodes":"61","size_leaf_vector":"1"}},{"base_weights":[-4.0311366E-4,-9.729676E-2,7.518288E-2,-1.11328565E-1,5.0524896E-1,4.3045986E-1,6.2111888E-2,-9.2669256E-2,-5.9062636E-1,4.200427E-1,1.2356802E0,4.9270418E-1,-1.5606071E-1,4.6254363E-2,2.762262E-1,-1.2928215E-1,1.3928346E-1,-6.455332E-1,7.098377E-1,5.418666E-1,-8.138052E-1,9.8664634E-2,1.021235E0,6.0409784E-1,1.2836112E-2,3.959438E-1,-7.893357E-1,1.8501434E-1,1.9961862E-2,2.3241305E-1,7.105479E-1,-5.6885526E-4,-9.101821E-3,4.026521E-3,4.4711053E-2,-2.7401665E-2,-6.414116E-2,9.5990926E-2,-4.7151785E-2,3.5569917E-2,-2.1231307E-2,-6.945724E-2,2.2980584E-2,3.1470407E-2,7.862537E-2,2.6653608E-2,6.8293944E-2,-2.008216E-2,2.2780541E-2,-1.8378878E-2,5.2156616E-2,-9.129593E-2,-1.8095458E-2,8.2089575E-3,4.4136897E-2,-1.0187545E-2,2.782748E-3,-3.6098693E-2,1.2565766E-2,6.02691E-3,4.992865E-2],"categories":[],"categories_nodes":[],"categories_segments":[],"categories_sizes":[],"default_left":[1,1,0,0,0,0,0,0,1,0,0,0,0,0,0,0,1,1,0,0,0,0,0,0,0,0,0,0,0,0,0,0,0,0,0,0,0,0,0,0,0,0,0,0,0,0,0,0,0,0,0,0,0,0,0,0,0,0,0,0,0],"id":4,"left_children":[1,3,5,7,9,11,13,15,17,19,21,23,25,27,29,31,33,35,37,39,41,-1,43,45,47,49,51,53,55,57,59,-1,-1,-1,-1,-1,-1,-1,-1,-1,-1,-1,-1,-1,-1,-1,-1,-1,-1,-1,-1,-1,-1,-1,-1,-1,-1,-1,-1,-1,-1],"loss_changes":[1.4022189E3,7.09448E2,4.9944647E2,7.332597E2,1.1833127E2,1.39409E2,3.522213E2,6.7027716E2,2.1983545E2,2.5772354E2,2.9458374E1,1.8444122E2,1.2857956E2,3.523858E2,1.3595264E2,4.2398413E2,4.7718652E2,1.8249683E2,2.5167911E2,2.5565454E2,1.1362226E2,0E0,3.2756607E1,1.5079468E2,1.19675934E2,9.75857E1,7.519968E1,2.2352832E2,6.484218E2,1.1742734E2,1.11185974E2,0E0,0E0,0E0,0E0,0E0,0E0,0E0,0E0,0E0,0E0,0E0,0E0,0E0,0E0,0E0,0E0,0E0,0E0,0E0,0E0,0E0,0E0,0E0,0E0,0E0,0E0,0E0,0E0,0E0,0E0],"parents":[2147483647,0,0,1,1,2,2,3,3,4,4,5,5,6,6,7,7,8,8,9,9,10,10,11,11,12,12,13,13,14,14,15,15,16,16,17,17,18,18,19,19,20,20,22,22,23,23,24,24,25,25,26,26,27,27,28,28,29,29,30,30],"right_children":[2,4,6,8,10,12,14,16,18,20,22,24,26,28,30,32,34,36,38,40,42,-1,44,46,48,50,52,54,56,58,60,-1,-1,-1,-1,-1,-1,-1,-1,-1,-1,-1,-1,-1,-1,-1,-1,-1,-1,-1,-1,-1,-1,-1,-1,-1,-1,-1,-1,-1,-1],"split_conditions":[2.3608455E-2,8.6693945E0,2.6903788E-2,2.105E-1,1.1704015E-1,7.8031175E-2,-1.3E-2,-7.53E-2,6.322932E-2,-3.28E-2,-9.93E-2,8.72E-2,1.59E-2,-9.91E-2,1.2082071E0,6.0560886E-2,5.1141962E-2,1.8686388E-1,-3.689E-1,1.0799453E-1,-6.3264735E-2,9.8664634E-2,2.214E-1,2.5555175E-2,1.5861958E-1,-1.6265E0,-2.38E-2,9.516458E-1,-4.065E-1,-1.3569352E-1,-8.7E-3,-5.6885526E-4,-9.101821E-3,4.026521E-3,4.4711053E-2,-2.7401665E-2,-6.414116E-2,9.5990926E-2,-4.7151785E-2,3.5569917E-2,-2.1231307E-2,-6.945724E-2,2.2980584E-2,3.1470407E-2,7.862537E-2,2.6653608E-2,6.8293944E-2,-2.008216E-2,2.2780541E-2,-1.8378878E-2,5.2156616E-2,-9.129593E-2,-1.8095458E-2,8.2089575E-3,4.4136897E-2,-1.0187545E-2,2.782748E-3,-3.6098693E-2,1.2565766E-2,6.02691E-3,4.992865E-2],"split_indices":[23,28,23,9,27,27,11,11,22,11,11,9,9,9,28,27,25,25,11,27,27,0,9,23,26,8,11,26,11,27,11,0,0,0,0,0,0,0,0,0,0,0,0,0,0,0,0,0,0,0,0,0,0,0,0,0,0,0,0,0,0],"split_type":[0,0,0,0,0,0,0,0,0,0,0,0,0,0,0,0,0,0,0,0,0,0,0,0,0,0,0,0,0,0,0,0,0,0,0,0,0,0,0,0,0,0,0,0,0,0,0,0,0,0,0,0,0,0,0,0,0,0,0,0,0],"sum_hessian":[1.9145852E5,8.3903E4,1.0755551E5,8.199437E4,1.9086311E3,3.8155217E3,1.03739984E5,7.892305E4,3.0713208E3,1.7106549E3,1.9797624E2,3.4495942E3,3.6592734E2,9.658781E4,7.1521753E3,6.816405E4,1.0759002E4,2.947383E3,1.2393775E2,1.5574418E3,1.532131E2,4.2745552E1,1.552307E2,2.799481E3,6.501134E2,1.9570908E2,1.7021825E2,1.5385269E4,8.120254E4,6.4981914E3,6.539838E2,2.1071271E4,4.7092777E4,9.983168E3,7.758337E2,2.5579055E3,3.8947754E2,7.146241E1,5.2475338E1,1.3252455E3,2.3219627E2,1.0547004E2,4.7743057E1,9.198935E1,6.324134E1,2.5622827E3,2.371982E2,3.3583383E2,3.1427957E2,8.998327E1,1.0572581E2,4.8741016E1,1.21477234E2,1.494036E4,4.449086E2,1.1172464E4,7.003008E4,1.2547909E2,6.3727124E3,2.1499411E2,4.3898975E2],"tree_param":{"num_deleted":"0","num_feature":"29","num_nodes":"61","size_leaf_vector":"1"}},{"base_weights":[2.0956704E-3,-6.5556526E-2,1.0399976E-1,-1.1086245E-1,9.848325E-2,-1.4422305E-1,1.20603204E-1,-8.206273E-2,-5.323781E-1,-1.6001107E-1,1.4818275E-1,9.5082946E-2,-1.569898E-1,1.7815925E-1,4.3511078E-2,-6.391037E-2,-3.3547357E-1,-4.2233297E-1,-8.5583746E-1,4.758381E-1,-2.633737E-1,1.1840165E-1,4.920029E-1,-1.3321859E-1,-1.2095503E0,1.3261281E-1,3.484976E-1,-3.2284772E-1,7.553622E-2,-3.0006014E-3,-5.8918007E-2,-5.0596654E-2,-1.3548776E-2,-1.6451806E-2,-7.040223E-2,5.2330684E-2,-4.6904676E-2,3.3733014E-2,-5.753637E-2,-6.89824E-3,-3.2067265E-2,6.236236E-3,-6.6125624E-2,3.2922417E-2,4.7330195E-3,-1.7952304E-2,3.4226588E-4,4.323643E-2,-7.683572E-2,9.672996E-3,1.6946866E-3,4.0304237E-3,2.1453941E-2,-1.1634906E-2,-6.961186E-2,2.5999893E-3,2.1495087E-2],"categories":[],"categories_nodes":[],"categories_segments":[],"categories_sizes":[],"default_left":[1,1,0,0,0,0,0,1,1,0,0,0,0,0,0,1,0,0,0,0,0,0,0,0,0,0,0,0,0,0,0,0,0,0,0,0,0,0,0,0,0,0,0,0,0,0,0,0,0,0,0,0,0,0,0,0,0],"id":5,"left_children":[1,3,5,7,9,11,13,15,17,19,21,-1,23,25,27,29,31,33,35,37,39,41,43,45,47,49,51,53,55,-1,-1,-1,-1,-1,-1,-1,-1,-1,-1,-1,-1,-1,-1,-1,-1,-1,-1,-1,-1,-1,-1,-1,-1,-1,-1,-1,-1],"loss_changes":[1.318174E3,8.540569E2,3.1443524E2,1.0930729E3,3.1953067E2,1.2524007E2,3.1727905E2,3.8770508E2,2.0461926E2,2.6374335E2,2.1353485E2,0E0,1.1880602E2,3.1758582E2,3.586639E2,3.416487E2,2.4553595E2,3.9487122E2,2.295896E2,1.8227121E2,1.6348436E2,1.7508276E2,1.0988931E2,1.4711087E2,7.2508255E1,1.9404199E2,1.8640918E2,2.3658582E2,2.3443831E2,0E0,0E0,0E0,0E0,0E0,0E0,0E0,0E0,0E0,0E0,0E0,0E0,0E0,0E0,0E0,0E0,0E0,0E0,0E0,0E0,0E0,0E0,0E0,0E0,0E0,0E0,0E0,0E0],"parents":[2147483647,0,0,1,1,2,2,3,3,4,4,5,5,6,6,7,7,8,8,9,9,10,10,12,12,13,13,14,14,15,15,16,16,17,17,18,18,19,19,20,20,21,21,22,22,23,23,24,24,25,25,26,26,27,27,28,28],"right_children":[2,4,6,8,10,12,14,16,18,20,22,-1,24,26,28,30,32,34,36,38,40,42,44,46,48,50,52,54,56,-1,-1,-1,-1,-1,-1,-1,-1,-1,-1,-1,-1,-1,-1,-1,-1,-1,-1,-1,-1,-1,-1,-1,-1,-1,-1,-1,-1],"split_conditions":[1.21633366E-1,1.6798708E-1,-9.9203214E-2,1.4583E0,2.2832474E-3,-3.24544E1,1.5044321E-1,2.3064804E-1,0E0,1.9918778E-3,1.1585E0,9.5082946E-2,1.6098E0,2.7593115E-1,0E0,1.1819472E0,2.3781343E-1,1.26472E1,-2.35213E1,5.665E-1,5.27E-1,1.49486E1,2.4406E0,9.57E-2,-1.83192E1,9.528144E-1,-1.8398097E-1,1.2448E0,3.6337864E-1,-3.0006014E-3,-5.8918007E-2,-5.0596654E-2,-1.3548776E-2,-1.6451806E-2,-7.040223E-2,5.2330684E-2,-4.6904676E-2,3.3733014E-2,-5.753637E-2,-6.89824E-3,-3.2067265E-2,6.236236E-3,-6.6125624E-2,3.2922417E-2,4.7330195E-3,-1.7952304E-2,3.4226588E-4,4.323643E-2,-7.683572E-2,9.672996E-3,1.6946866E-3,4.0304237E-3,2.1453941E-2,-1.1634906E-2,-6.961186E-2,2.5999893E-3,2.1495087E-2],"split_indices":[28,22,26,12,27,8,27,24,26,25,12,0,12,26,24,26,24,12,8,12,12,8,12,12,8,28,27,12,27,0,0,0,0,0,0,0,0,0,0,0,0,0,0,0,0,0,0,0,0,0,0,0,0,0,0,0,0],"split_type":[0,0,0,0,0,0,0,0,0,0,0,0,0,0,0,0,0,0,0,0,0,0,0,0,0,0,0,0,0,0,0,0,0,0,0,0,0,0,0,0,0,0,0,0,0,0,0,0,0,0,0,0,0,0,0,0,0],"sum_hessian":[1.9120302E5,1.14914086E5,7.628893E4,9.0045E4,2.4869086E4,4.7825015E3,7.150643E4,8.428733E4,5.757671E3,4.010044E3,2.0859041E4,2.8741232E1,4.7537603E3,4.0939895E4,3.0566535E4,7.86544E4,5.6329277E3,4.297806E3,1.4598645E3,5.602132E2,3.4498306E3,1.919753E4,1.6615118E3,4.6498735E3,1.0388699E2,3.2303975E4,8.635918E3,2.4564414E3,2.8110094E4,7.838127E4,2.731241E2,4.890503E2,5.1438774E3,3.9274133E3,3.7039288E2,6.001806E1,1.3998464E3,4.9971597E2,6.049724E1,2.5913877E3,8.5844305E2,1.9114564E4,8.296579E1,1.1705256E3,4.9098627E2,1.7793817E3,2.8704917E3,1.3929347E1,8.995765E1,1.998496E4,1.2319015E4,1.9974551E3,6.638463E3,2.2665857E3,1.8985576E2,2.636042E4,1.7496737E3],"tree_param":{"num_deleted":"0","num_feature":"29","num_nodes":"57","size_leaf_vector":"1"}},{"base_weights":[-7.665398E-4,-5.9121307E-2,1.0984377E-1,-1.0631168E-1,1.2077566E-1,1.8518306E-1,1.9655362E-2,-8.42536E-2,-4.8549324E-1,-1.0383681E-1,2.0019443E-1,3.524658E-1,1.2841669E-1,-3.2902518E-1,6.972099E-2,-1.9967456E-1,-4.441039E-2,-5.2513784E-1,9.370382E-1,-2.083296E-1,2.8013614E-1,1.7415263E-1,6.139402E-1,-1.3597573E-2,4.43015E-1,-6.7207575E-2,2.1728632E-1,-2.0883447E-1,-6.873207E-1,6.1430752E-2,1.1430731E0,-1.3274399E-3,-1.687684E-2,-1.991709E-3,-7.511889E-2,-2.378745E-2,-5.707686E-2,6.0707904E-2,-8.605979E-2,2.5154078E-2,-1.22477915E-2,3.786847E-2,2.5750548E-3,2.0709822E-2,6.34391E-3,8.7364905E-2,2.3496788E-2,-5.798748E-3,6.0304143E-2,1.980992E-2,6.0940262E-2,-1.3799173E-2,1.199587E-2,1.8243134E-2,2.3764912E-3,-1.9067355E-2,1.5717642E-2,-4.3891E-2,-9.380932E-3,7.2957748E-3,-3.1562713E-3,6.98696E-2,2.3972787E-2],"categories":[],"categories_nodes":[],"categories_segments":[],"categories_sizes":[],"default_left":[1,0,0,0,0,0,0,0,1,0,1,0,0,0,0,0,1,0,0,0,0,0,0,0,0,0,0,0,0,0,0,0,0,0,0,0,0,0,0,0,0,0,0,0,0,0,0,0,0,0,0,0,0,0,0,0,0,0,0,0,0,0,0],"id":6,"left_children":[1,3,5,7,9,11,13,15,17,19,21,23,25,27,29,31,33,35,37,39,41,43,45,47,49,51,53,55,57,59,61,-1,-1,-1,-1,-1,-1,-1,-1,-1,-1,-1,-1,-1,-1,-1,-1,-1,-1,-1,-1,-1,-1,-1,-1,-1,-1,-1,-1,-1,-1,-1,-1],"loss_changes":[1.2350007E3,1.0633503E3,4.48997E2,8.2989E2,4.6434274E2,3.4185193E2,5.2508307E2,4.312273E2,3.0811597E2,2.7289087E2,2.0709326E2,3.0235938E2,4.673866E2,1.6249268E2,2.3397276E2,5.7432056E2,4.6504535E2,1.6103418E2,1.1130243E2,1.394181E2,1.5872873E2,2.0526514E2,1.8496167E2,2.2613214E2,2.651173E2,5.3858636E2,4.630938E2,2.5549313E2,9.00986E1,2.7467596E2,3.3342957E1,0E0,0E0,0E0,0E0,0E0,0E0,0E0,0E0,0E0,0E0,0E0,0E0,0E0,0E0,0E0,0E0,0E0,0E0,0E0,0E0,0E0,0E0,0E0,0E0,0E0,0E0,0E0,0E0,0E0,0E0,0E0,0E0],"parents":[2147483647,0,0,1,1,2,2,3,3,4,4,5,5,6,6,7,7,8,8,9,9,10,10,11,11,12,12,13,13,14,14,15,15,16,16,17,17,18,18,19,19,20,20,21,21,22,22,23,23,24,24,25,25,26,26,27,27,28,28,29,29,30,30],"right_children":[2,4,6,8,10,12,14,16,18,20,22,24,26,28,30,32,34,36,38,40,42,44,46,48,50,52,54,56,58,60,62,-1,-1,-1,-1,-1,-1,-1,-1,-1,-1,-1,-1,-1,-1,-1,-1,-1,-1,-1,-1,-1,-1,-1,-1,-1,-1,-1,-1,-1,-1,-1,-1],"split_conditions":[2.5438148E-1,-8.51E-2,1.0799453E-1,1.4583E0,2.73E-1,-2.952E-1,-2.7252788E-2,-6.425E-1,3.4768423E-1,2.6212E0,2.802658E-1,-9.321E-1,-2.2026688E-2,9.128E-1,4.9457E0,2.474557E-1,1.1121728E0,-1.927E-1,3.9732346E-1,1.111E-1,1.15671776E-1,3.518E-1,4.644E-1,4.4366196E-2,2.5264685E0,2.1838E0,9.8773414E-1,-4.721E-1,6.8275E0,3.124E-1,1.05905E1,-1.3274399E-3,-1.687684E-2,-1.991709E-3,-7.511889E-2,-2.378745E-2,-5.707686E-2,6.0707904E-2,-8.605979E-2,2.5154078E-2,-1.22477915E-2,3.786847E-2,2.5750548E-3,2.0709822E-2,6.34391E-3,8.7364905E-2,2.3496788E-2,-5.798748E-3,6.0304143E-2,1.980992E-2,6.0940262E-2,-1.3799173E-2,1.199587E-2,1.8243134E-2,2.3764912E-3,-1.9067355E-2,1.5717642E-2,-4.3891E-2,-9.380932E-3,7.2957748E-3,-3.1562713E-3,6.98696E-2,2.3972787E-2],"split_indices":[28,11,27,12,12,11,23,11,23,8,27,11,27,12,12,21,27,11,23,12,28,12,12,27,28,8,28,11,8,12,8,0,0,0,0,0,0,0,0,0,0,0,0,0,0,0,0,0,0,0,0,0,0,0,0,0,0,0,0,0,0,0,0],"split_type":[0,0,0,0,0,0,0,0,0,0,0,0,0,0,0,0,0,0,0,0,0,0,0,0,0,0,0,0,0,0,0,0,0,0,0,0,0,0,0,0,0,0,0,0,0,0,0,0,0,0,0,0,0,0,0,0,0,0,0,0,0,0,0],"sum_hessian":[1.9133336E5,1.2525366E5,6.60797E4,9.9225375E4,2.6028281E4,3.600321E4,3.0076496E4,9.377163E4,5.453742E3,6.7990044E3,1.9229277E4,9.12066E3,2.688255E4,3.775634E3,2.6300861E4,2.406224E4,6.97094E4,5.3064863E3,1.4725592E2,5.344918E3,1.4540862E3,1.809196E4,1.1373154E3,1.8088536E3,7.311806E3,8.397593E3,1.8484957E4,2.8284197E3,9.472144E2,2.6100328E4,2.0053355E2,1.0667416E4,1.3394823E4,6.9492305E4,2.170923E2,4.914486E3,3.9200034E2,1.338458E2,1.3410126E1,2.6108017E2,5.083838E3,4.7023828E2,9.8384784E2,2.9755166E3,1.5116445E4,1.2696097E2,1.01035443E3,1.6696146E3,1.39239E2,6.8970977E3,4.1470844E2,4.9992974E3,3.398296E3,9.887871E3,8.597087E3,2.1272607E3,7.0115894E2,6.852303E2,2.6198416E2,1.5551672E4,1.0548656E4,1.4417531E2,5.6358242E1],"tree_param":{"num_deleted":"0","num_feature":"29","num_nodes":"63","size_leaf_vector":"1"}},{"base_weights":[1.6435238E-3,-8.4579274E-2,6.8811186E-2,-2.0677817E-1,-2.5628777E-2,3.96E-1,5.6767423E-2,4.7607154E-2,-2.8441554E-1,1.3670129E0,-3.0163072E-2,4.4550142E-1,-1.1307434E0,-8.897369E-4,1.0452228E-1,3.279493E-1,-2.5664696E-1,-2.1009451E-1,-4.5337826E-1,-3.5230514E-2,1.4717598E0,6.8758125E-3,-1.8026794E-1,4.7658324E-1,-1.4079021E0,-1.5507547E0,-2.328869E-1,-1.1094369E-1,9.643163E-2,2.4264655E-1,5.9271432E-2,2.3253672E-2,-3.5958607E-3,-2.993441E-3,-3.3751618E-2,-1.7713236E-2,-2.5538122E-3,-2.3489628E-2,9.5388524E-2,7.754317E-2,-2.5047055E-2,-1.3506977E-4,4.546384E-2,-1.7509306E-2,5.389055E-3,1.7487904E-2,6.511001E-2,3.906959E-2,-9.121376E-2,-8.867128E-2,-1.8519208E-2,2.0425739E-2,-7.486035E-2,8.1671495E-3,-9.868012E-3,-7.400506E-3,8.337404E-3,3.3694636E-2,1.0154796E-2,1.6939242E-3,1.7830087E-2],"categories":[],"categories_nodes":[],"categories_segments":[],"categories_sizes":[],"default_left":[1,0,0,0,0,0,0,0,0,0,0,0,0,0,0,0,0,1,1,0,0,1,1,0,0,0,0,0,0,0,0,0,0,0,0,0,0,0,0,0,0,0,0,0,0,0,0,0,0,0,0,0,0,0,0,0,0,0,0,0,0],"id":7,"left_children":[1,3,5,7,9,11,13,15,17,19,21,23,25,27,29,31,33,35,37,-1,39,41,43,45,47,49,51,53,55,57,59,-1,-1,-1,-1,-1,-1,-1,-1,-1,-1,-1,-1,-1,-1,-1,-1,-1,-1,-1,-1,-1,-1,-1,-1,-1,-1,-1,-1,-1,-1],"loss_changes":[1.1070791E3,6.029888E2,4.234066E2,5.379977E2,3.5661264E2,2.888069E2,2.8536246E2,5.434507E2,2.6198645E2,4.0807343E1,3.129304E2,2.135675E2,4.4923508E1,5.0290454E2,3.542975E2,1.8185065E2,2.5151491E2,3.3232764E2,2.4796533E2,0E0,2.8050812E1,3.9017844E2,5.4527246E2,3.8020966E2,5.721994E1,2.0799744E1,3.260141E1,5.223375E2,4.283292E2,2.3844861E2,3.2238007E2,0E0,0E0,0E0,0E0,0E0,0E0,0E0,0E0,0E0,0E0,0E0,0E0,0E0,0E0,0E0,0E0,0E0,0E0,0E0,0E0,0E0,0E0,0E0,0E0,0E0,0E0,0E0,0E0,0E0,0E0],"parents":[2147483647,0,0,1,1,2,2,3,3,4,4,5,5,6,6,7,7,8,8,9,9,10,10,11,11,12,12,13,13,14,14,15,15,16,16,17,17,18,18,20,20,21,21,22,22,23,23,24,24,25,25,26,26,27,27,28,28,29,29,30,30],"right_children":[2,4,6,8,10,12,14,16,18,20,22,24,26,28,30,32,34,36,38,-1,40,42,44,46,48,50,52,54,56,58,60,-1,-1,-1,-1,-1,-1,-1,-1,-1,-1,-1,-1,-1,-1,-1,-1,-1,-1,-1,-1,-1,-1,-1,-1,-1,-1,-1,-1,-1,-1],"split_conditions":[2.3608455E-2,-5.771E-1,2.6903788E-2,-7.624497E-2,-4.1940597E-1,1.199E0,1.21633366E-1,1.3877709E-1,-3.94E-2,-7.46E-2,6.07E-2,1.296E-1,2.2015E0,1.6798708E-1,-3.53E-2,1.4583E0,3.447E-1,-1.3569352E-1,2.016188E-2,-3.5230514E-2,1.15103E1,1.6715232E0,4.895161E-2,2.5555175E-2,-8.51E-2,8.84E-2,1.2923E0,-7.62E-2,-3.789E-1,-9.9342E0,-9.7E-3,2.3253672E-2,-3.5958607E-3,-2.993441E-3,-3.3751618E-2,-1.7713236E-2,-2.5538122E-3,-2.3489628E-2,9.5388524E-2,7.754317E-2,-2.5047055E-2,-1.3506977E-4,4.546384E-2,-1.7509306E-2,5.389055E-3,1.7487904E-2,6.511001E-2,3.906959E-2,-9.121376E-2,-8.867128E-2,-1.8519208E-2,2.0425739E-2,-7.486035E-2,8.1671495E-3,-9.868012E-3,-7.400506E-3,8.337404E-3,3.3694636E-2,1.0154796E-2,1.6939242E-3,1.7830087E-2],"split_indices":[23,11,23,24,27,12,28,27,10,10,10,10,7,22,10,12,12,27,23,0,8,28,21,23,11,10,12,10,11,8,11,0,0,0,0,0,0,0,0,0,0,0,0,0,0,0,0,0,0,0,0,0,0,0,0,0,0,0,0,0,0],"split_type":[0,0,0,0,0,0,0,0,0,0,0,0,0,0,0,0,0,0,0,0,0,0,0,0,0,0,0,0,0,0,0,0,0,0,0,0,0,0,0,0,0,0,0,0,0,0,0,0,0,0,0,0,0,0,0,0,0,0,0,0,0],"sum_hessian":[1.911577E5,8.370533E4,1.0745238E5,2.7238969E4,5.646636E4,3.8137458E3,1.0363863E5,6.36942E3,2.0869549E4,1.8227667E2,5.6284082E4,3.6946624E3,1.19083405E2,4.6951906E4,5.6686727E4,3.314935E3,3.054485E3,1.44956455E4,6.3739033E3,8.497208E0,1.7377946E2,4.5145285E4,1.1138797E4,3.634455E3,6.0207447E1,8.063548E1,3.8447926E1,2.2034494E4,2.4917414E4,1.3987313E4,4.2699414E4,2.4683228E3,8.466122E2,2.0781956E3,9.762895E2,7.602127E3,6.893519E3,6.330695E3,4.320879E1,1.6728531E2,6.4941597E0,4.4672176E4,4.7311008E2,7.0058677E3,4.1329297E3,3.1517327E3,4.827223E2,9.480777E0,5.072667E1,6.741547E1,1.3220017E1,2.5956722E1,1.2491203E1,5.278766E3,1.6755727E4,5.5662607E3,1.9351154E4,1.173697E3,1.2813616E4,3.9340707E4,3.358707E3],"tree_param":{"num_deleted":"0","num_feature":"29","num_nodes":"61","size_leaf_vector":"1"}},{"base_weights":[-4.6083992E-4,-8.203394E-2,6.3090675E-2,-1.9291705E-1,-2.8742883E-2,3.736265E-1,5.159875E-2,-6.436591E-3,-2.7523273E-1,3.1464815E-1,-5.377778E-2,4.2072964E-1,-1.0720111E0,3.421911E-2,2.1025823E-1,-4.0216553E-1,1.3111036E-1,-2.0426847E-1,-4.584154E-1,4.5939767E-1,-1.9784702E-1,-8.3187884E-1,-4.3530975E-2,4.5382765E-1,-1.3686299E0,7.949154E-2,-1.2292637E0,6.553938E-2,-1.0648136E-1,4.2588938E-2,3.8655478E-1,-2.6590899E-2,3.4262206E-2,2.5317956E-2,-3.3389546E-3,-1.3275203E-2,6.5828683E-3,-1.7349297E-2,-4.691705E-2,3.208534E-2,8.702087E-3,-3.802095E-2,2.1257142E-2,-1.7573768E-2,-6.8736516E-2,6.3719854E-2,-2.4062207E-3,1.6840285E-2,6.1436146E-2,3.5494816E-2,-8.696978E-2,-7.015114E-2,4.2530477E-2,7.3251273E-3,9.116387E-4,-2.4170456E-2,-2.306885E-3,-1.1496745E-3,2.9322369E-2,5.2581053E-2,1.4327459E-2],"categories":[],"categories_nodes":[],"categories_segments":[],"categories_sizes":[],"default_left":[1,0,0,0,0,0,0,0,0,0,0,0,0,0,0,0,0,1,1,1,0,0,0,0,0,0,0,0,0,0,0,0,0,0,0,0,0,0,0,0,0,0,0,0,0,0,0,0,0,0,0,0,0,0,0,0,0,0,0,0,0],"id":8,"left_children":[1,3,5,7,9,11,13,15,17,19,21,23,25,27,29,31,33,35,37,39,41,43,45,47,49,-1,51,53,55,57,59,-1,-1,-1,-1,-1,-1,-1,-1,-1,-1,-1,-1,-1,-1,-1,-1,-1,-1,-1,-1,-1,-1,-1,-1,-1,-1,-1,-1,-1,-1],"loss_changes":[9.9111884E2,4.947121E2,3.8347882E2,4.1715607E2,4.8613525E2,2.6157666E2,2.8574457E2,4.5310275E2,2.4499207E2,2.851444E2,4.201845E2,2.2060895E2,5.2722992E1,4.115977E2,3.0239816E2,3.0306985E2,4.5874374E2,2.7961017E2,2.811604E2,1.5577924E2,2.9716647E2,1.7815558E2,3.1498785E2,3.303659E2,5.341411E1,0E0,4.2785126E1,2.9259567E2,3.867797E2,1.8708182E2,3.3138086E2,0E0,0E0,0E0,0E0,0E0,0E0,0E0,0E0,0E0,0E0,0E0,0E0,0E0,0E0,0E0,0E0,0E0,0E0,0E0,0E0,0E0,0E0,0E0,0E0,0E0,0E0,0E0,0E0,0E0,0E0],"parents":[2147483647,0,0,1,1,2,2,3,3,4,4,5,5,6,6,7,7,8,8,9,9,10,10,11,11,12,12,13,13,14,14,15,15,16,16,17,17,18,18,19,19,20,20,21,21,22,22,23,23,24,24,26,26,27,27,28,28,29,29,30,30],"right_children":[2,4,6,8,10,12,14,16,18,20,22,24,26,28,30,32,34,36,38,40,42,44,46,48,50,-1,52,54,56,58,60,-1,-1,-1,-1,-1,-1,-1,-1,-1,-1,-1,-1,-1,-1,-1,-1,-1,-1,-1,-1,-1,-1,-1,-1,-1,-1,-1,-1,-1,-1],"split_conditions":[2.3608455E-2,-5.771E-1,2.6903788E-2,7.949671E-2,-1.626E-1,1.199E0,1.7620443E-1,-1.3668157E-1,-3.74E-2,1.2923E0,-8.4847575E-1,1.296E-1,2.1E-3,5.828E-1,7.754E-1,1.558E-1,-1.072E-1,7.1621317E-1,4.8596883E-1,-2.8073888E-3,2.4406E0,-5.292E-1,-4.1940597E-1,2.5555175E-2,-8.51E-2,7.949154E-2,4.3801E0,6.928539E-2,6.566625E-3,1.207E-1,-1.34E-2,-2.6590899E-2,3.4262206E-2,2.5317956E-2,-3.3389546E-3,-1.3275203E-2,6.5828683E-3,-1.7349297E-2,-4.691705E-2,3.208534E-2,8.702087E-3,-3.802095E-2,2.1257142E-2,-1.7573768E-2,-6.8736516E-2,6.3719854E-2,-2.4062207E-3,1.6840285E-2,6.1436146E-2,3.5494816E-2,-8.696978E-2,-7.015114E-2,4.2530477E-2,7.3251273E-3,9.116387E-4,-2.4170456E-2,-2.306885E-3,-1.1496745E-3,2.9322369E-2,5.2581053E-2,1.4327459E-2],"split_indices":[23,11,23,27,9,12,25,27,10,12,22,10,10,12,12,10,10,27,27,22,12,11,27,23,11,0,7,24,28,9,10,0,0,0,0,0,0,0,0,0,0,0,0,0,0,0,0,0,0,0,0,0,0,0,0,0,0,0,0,0,0],"split_type":[0,0,0,0,0,0,0,0,0,0,0,0,0,0,0,0,0,0,0,0,0,0,0,0,0,0,0,0,0,0,0,0,0,0,0,0,0,0,0,0,0,0,0,0,0,0,0,0,0,0,0,0,0,0,0,0,0,0,0,0,0],"sum_hessian":[1.911826E5,8.372063E4,1.0746196E5,2.717493E4,5.6545703E4,3.8337766E3,1.0362818E5,8.322336E3,1.8852594E4,3.8415486E3,5.2704152E4,3.7134893E3,1.20287506E2,9.339848E4,1.0229701E4,2.1460698E3,6.1762656E3,1.3589996E4,5.2625977E3,2.9955786E3,8.4597E2,6.839968E2,5.2020156E4,3.6467805E3,6.670857E1,6.201612E0,1.1408589E2,7.639361E4,1.7004875E4,5.2437764E3,4.985925E3,1.9179075E3,2.2816228E2,2.131963E3,4.044303E3,1.1494825E4,2.095171E3,4.272361E3,9.902365E2,1.827055E3,1.1685236E3,4.4442496E2,4.0154498E2,3.6374414E2,3.202527E2,1.7971838E2,5.1840438E4,3.1695596E3,4.77221E2,9.959659E0,5.6748917E1,1.0559E2,8.495894E0,2.817362E4,4.8219984E4,2.345713E3,1.4659161E4,4.6803438E3,5.634324E2,6.5048627E2,4.3354385E3],"tree_param":{"num_deleted":"0","num_feature":"29","num_nodes":"61","size_leaf_vector":"1"}},{"base_weights":[-3.933048E-5,-1.1063963E-1,4.555471E-2,-2.7854517E-1,-3.676506E-2,7.0647546E-4,1.0219101E-1,-2.6484784E-1,-1.3464746E0,1.8835603E-1,-8.870024E-2,-4.5600135E-2,1.21601656E-1,3.8547814E-1,7.789708E-2,-2.2811003E-1,-6.8106437E-1,-1.4153459E0,-6.122788E-1,2.6481202E-1,-2.7272096E-1,1.1888875E-1,-1.3220793E-1,-2.674282E-3,-2.2425814E-1,-7.814095E-2,1.9602665E-1,7.343175E-2,5.3220195E-1,2.051858E-2,1.9120905E-1,-1.2526395E-2,1.997144E-2,7.2681986E-2,-3.664687E-2,-4.616654E-2,-7.776602E-2,-7.866535E-2,1.9272907E-2,3.6737874E-2,9.900519E-3,4.314571E-3,-5.057475E-2,1.2335196E-2,-6.284834E-3,2.069148E-3,-9.941604E-3,7.1834907E-4,-1.9542672E-2,-1.4677648E-2,3.2306172E-2,-1.1312091E-2,1.0963567E-2,2.216595E-2,7.6941736E-3,-3.6563532E-4,5.0445784E-2,-4.0284623E-4,3.3655036E-2,-1.2212362E-2,3.956057E-3,4.311354E-3,1.3351302E-2],"categories":[],"categories_nodes":[],"categories_segments":[],"categories_sizes":[],"default_left":[0,1,1,0,0,0,0,1,0,0,0,0,0,0,0,0,0,0,0,0,0,0,0,1,1,1,0,0,0,0,0,0,0,0,0,0,0,0,0,0,0,0,0,0,0,0,0,0,0,0,0,0,0,0,0,0,0,0,0,0,0,0,0],"id":9,"left_children":[1,3,5,7,9,11,13,15,17,19,21,23,25,27,29,31,33,35,37,39,41,43,45,47,49,51,53,55,57,59,61,-1,-1,-1,-1,-1,-1,-1,-1,-1,-1,-1,-1,-1,-1,-1,-1,-1,-1,-1,-1,-1,-1,-1,-1,-1,-1,-1,-1,-1,-1,-1,-1],"loss_changes":[9.6470825E2,6.926726E2,3.4408264E2,2.4923132E2,4.5344598E2,4.2323462E2,4.1196576E2,2.5746167E2,1.00468445E1,2.56361E2,2.8463196E2,4.1921622E2,3.1127347E2,2.1643341E2,3.5848032E2,2.1791321E2,1.5232391E2,1.2100769E1,2.0044357E1,1.9564111E2,2.7448398E2,1.7074506E2,3.0132208E2,2.915641E2,6.3887683E2,2.5043266E2,1.5890784E2,1.143138E2,2.4479572E2,5.6796075E2,1.4750128E2,0E0,0E0,0E0,0E0,0E0,0E0,0E0,0E0,0E0,0E0,0E0,0E0,0E0,0E0,0E0,0E0,0E0,0E0,0E0,0E0,0E0,0E0,0E0,0E0,0E0,0E0,0E0,0E0,0E0,0E0,0E0,0E0],"parents":[2147483647,0,0,1,1,2,2,3,3,4,4,5,5,6,6,7,7,8,8,9,9,10,10,11,11,12,12,13,13,14,14,15,15,16,16,17,17,18,18,19,19,20,20,21,21,22,22,23,23,24,24,25,25,26,26,27,27,28,28,29,29,30,30],"right_children":[2,4,6,8,10,12,14,16,18,20,22,24,26,28,30,32,34,36,38,40,42,44,46,48,50,52,54,56,58,60,62,-1,-1,-1,-1,-1,-1,-1,-1,-1,-1,-1,-1,-1,-1,-1,-1,-1,-1,-1,-1,-1,-1,-1,-1,-1,-1,-1,-1,-1,-1,-1,-1],"split_conditions":[-4.193E-1,-1.3569352E-1,1.21633366E-1,1.26472E1,0E0,-7.36E-2,-3.213E-1,-1.8398097E-1,1.78472E1,2.9519022E-1,-1.02684E1,5.828E-1,2.915E-1,4.1083717E-1,2.1838E0,7.4734E0,-9.741E-1,-5.863E-1,3E0,-7.3466234E-2,1.7391E0,2.782431E-1,-8.175E-1,2.6691863E-1,4.3005437E-1,5.1141962E-2,3.518E-1,3.4152663E-1,5.6E-2,-2.3134658E-2,-1.07E-1,-1.2526395E-2,1.997144E-2,7.2681986E-2,-3.664687E-2,-4.616654E-2,-7.776602E-2,-7.866535E-2,1.9272907E-2,3.6737874E-2,9.900519E-3,4.314571E-3,-5.057475E-2,1.2335196E-2,-6.284834E-3,2.069148E-3,-9.941604E-3,7.1834907E-4,-1.9542672E-2,-1.4677648E-2,3.2306172E-2,-1.1312091E-2,1.0963567E-2,2.216595E-2,7.6941736E-3,-3.6563532E-4,5.0445784E-2,-4.0284623E-4,3.3655036E-2,-1.2212362E-2,3.956057E-3,4.311354E-3,1.3351302E-2],"split_indices":[11,27,28,12,27,11,11,27,7,21,8,12,12,28,8,12,11,11,19,27,8,27,11,27,24,25,12,27,12,27,11,0,0,0,0,0,0,0,0,0,0,0,0,0,0,0,0,0,0,0,0,0,0,0,0,0,0,0,0,0,0,0,0],"split_type":[0,0,0,0,0,0,0,0,0,0,0,0,0,0,0,0,0,0,0,0,0,0,0,0,0,0,0,0,0,0,0,0,0,0,0,0,0,0,0,0,0,0,0,0,0,0,0,0,0,0,0,0,0,0,0,0,0,0,0,0,0,0,0],"sum_hessian":[1.9130534E5,5.5842727E4,1.3546261E5,1.7061588E4,3.8781137E4,7.55993E4,5.986332E4,1.6846758E4,2.1482965E2,7.269169E3,3.1511969E4,5.4662484E4,2.0936807E4,4.7270605E3,5.513626E4,1.5481789E4,1.3649694E3,1.9555762E2,1.9272038E1,6.235604E3,1.0335652E3,5.4598E3,2.605217E4,4.4073934E4,1.0588554E4,5.6834507E3,1.5253356E4,1.5122878E3,3.214773E3,3.66027E4,1.853356E4,1.4948382E4,5.334073E2,3.1740593E1,1.3332288E3,4.499499E1,1.5056262E2,9.522761E0,9.749276E0,7.7481696E2,5.460787E3,6.961496E2,3.3741556E2,3.585884E3,1.8739158E3,7.2257295E3,1.882644E4,4.2221355E4,1.8525762E3,9.808333E3,7.80221E2,3.7942747E3,1.8891761E3,2.2195745E3,1.3033782E4,1.3930424E3,1.1924552E2,6.651768E2,2.5495962E3,6.6327646E3,2.9969936E4,7.7728364E3,1.0760724E4],"tree_param":{"num_deleted":"0","num_feature":"29","num_nodes":"63","size_leaf_vector":"1"}},{"base_weights":[1.8908082E-4,-4.717853E-2,8.985497E-2,-8.671523E-2,1.08762056E-1,2.0204058E-1,4.5798972E-2,-5.844788E-2,-2.4837007E-1,1.2238362E-1,-2.4704933E-1,-1.7013246E-1,2.3744991E-1,-6.397644E-1,5.77211E-2,-1.2525085E-1,1.8008514E-3,-3.007498E-1,8.6652213E-1,8.0175824E-2,2.725718E-1,-4.9591428E-1,8.028644E-1,-5.8474415E-3,-5.3913236E-1,6.506617E-1,1.9101849E-1,-1.4818408E0,-5.050625E-1,-2.2720518E-2,1.4701517E-1,-3.8874063E-3,-1.571274E-2,1.0367474E-2,-1.0518235E-3,-2.11395E-2,-1.5942779E-3,4.8866693E-2,-8.507209E-2,5.7544117E-3,-5.5055427E-3,-5.9231546E-2,1.4672796E-2,-9.370623E-2,-2.0018032E-2,1.7383618E-2,8.516784E-2,5.882774E-2,-4.9662422E-3,2.0198347E-2,-4.49199E-2,2.7055612E-2,6.263484E-2,8.573766E-3,4.3777592E-2,5.903181E-3,-8.150067E-2,7.2127925E-3,-3.6830764E-2,-2.6044515E-3,1.4431267E-2,1.3453334E-2,3.974881E-3],"categories":[],"categories_nodes":[],"categories_segments":[],"categories_sizes":[],"default_left":[1,0,0,0,0,0,0,0,1,0,1,0,0,0,0,0,0,1,0,1,0,0,0,0,0,0,0,0,0,0,0,0,0,0,0,0,0,0,0,0,0,0,0,0,0,0,0,0,0,0,0,0,0,0,0,0,0,0,0,0,0,0,0],"id":10,"left_children":[1,3,5,7,9,11,13,15,17,19,21,23,25,27,29,31,33,35,37,39,41,43,45,47,49,51,53,55,57,59,61,-1,-1,-1,-1,-1,-1,-1,-1,-1,-1,-1,-1,-1,-1,-1,-1,-1,-1,-1,-1,-1,-1,-1,-1,-1,-1,-1,-1,-1,-1,-1,-1],"loss_changes":[8.112835E2,7.706006E2,3.2632367E2,4.5560614E2,1.2255472E2,2.4538855E2,3.8753748E2,3.4158078E2,8.668758E2,1.5432608E2,2.4403284E2,9.808194E1,3.2604645E2,9.1181946E1,3.347339E2,3.613075E2,2.0948026E2,4.6508972E2,1.9123047E2,1.262921E2,1.628917E2,9.859761E1,7.280038E1,1.2397075E2,1.69244E2,1.1255646E2,2.0432574E2,2.656543E1,1.0538457E2,2.2418721E2,1.8197458E2,0E0,0E0,0E0,0E0,0E0,0E0,0E0,0E0,0E0,0E0,0E0,0E0,0E0,0E0,0E0,0E0,0E0,0E0,0E0,0E0,0E0,0E0,0E0,0E0,0E0,0E0,0E0,0E0,0E0,0E0,0E0,0E0],"parents":[2147483647,0,0,1,1,2,2,3,3,4,4,5,5,6,6,7,7,8,8,9,9,10,10,11,11,12,12,13,13,14,14,15,15,16,16,17,17,18,18,19,19,20,20,21,21,22,22,23,23,24,24,25,25,26,26,27,27,28,28,29,29,30,30],"right_children":[2,4,6,8,10,12,14,16,18,20,22,24,26,28,30,32,34,36,38,40,42,44,46,48,50,52,54,56,58,60,62,-1,-1,-1,-1,-1,-1,-1,-1,-1,-1,-1,-1,-1,-1,-1,-1,-1,-1,-1,-1,-1,-1,-1,-1,-1,-1,-1,-1,-1,-1,-1,-1],"split_conditions":[2.5438148E-1,-8.18E-2,-3.13E-2,5.64E-2,1.441E-1,-4.551E-1,-6.0819095E-1,-3.689E-1,3.592012E-1,6.28E-2,2.1121311E-1,2.5264685E0,-9.9342E0,-7.108E-1,8.234E-1,-2.61E-2,-5.4159E0,4.895161E-2,1.82736E1,8.600405E-2,-1.4402045E-2,4.281768E-2,1.7E-1,-9.704E-1,-2.12953E1,2.428575E-1,2.5264685E0,-2.78E-2,-6.253E-1,3.100766E-1,4.8527688E-2,-3.8874063E-3,-1.571274E-2,1.0367474E-2,-1.0518235E-3,-2.11395E-2,-1.5942779E-3,4.8866693E-2,-8.507209E-2,5.7544117E-3,-5.5055427E-3,-5.9231546E-2,1.4672796E-2,-9.370623E-2,-2.0018032E-2,1.7383618E-2,8.516784E-2,5.882774E-2,-4.9662422E-3,2.0198347E-2,-4.49199E-2,2.7055612E-2,6.263484E-2,8.573766E-3,4.3777592E-2,5.903181E-3,-8.150067E-2,7.2127925E-3,-3.6830764E-2,-2.6044515E-3,1.4431267E-2,1.3453334E-2,3.974881E-3],"split_indices":[28,11,10,10,10,10,22,11,24,10,24,28,8,11,8,10,8,21,8,28,24,25,10,11,8,23,28,10,11,23,22,0,0,0,0,0,0,0,0,0,0,0,0,0,0,0,0,0,0,0,0,0,0,0,0,0,0,0,0,0,0,0,0],"split_type":[0,0,0,0,0,0,0,0,0,0,0,0,0,0,0,0,0,0,0,0,0,0,0,0,0,0,0,0,0,0,0,0,0,0,0,0,0,0,0,0,0,0,0,0,0,0,0,0,0,0,0,0,0,0,0,0,0,0,0,0,0,0,0],"sum_hessian":[1.9101144E5,1.2498588E5,6.6025555E4,9.970694E4,2.5278945E4,1.8616447E4,4.740911E4,8.486807E4,1.4838869E4,2.4347504E4,9.314418E2,1.6170011E3,1.6999445E4,8.0946423E2,4.6599645E4,4.024447E4,4.46236E4,1.4173692E4,6.651766E2,1.9007352E4,5.3401533E3,7.533905E2,1.7805128E2,1.1195668E3,4.9743433E2,1.7159052E3,1.528354E4,1.10249405E2,6.9921484E2,2.4515402E4,2.2084244E4,3.2162434E4,8.0820356E3,4.461303E3,4.0162297E4,9.748278E3,4.425414E3,6.382543E2,2.6922274E1,1.6060993E4,2.9463584E3,7.466453E1,5.265489E3,4.7640358E1,7.057501E2,1.191885E2,5.886279E1,8.117625E1,1.0383906E3,1.371861E2,3.6024823E2,1.4533456E3,2.6255954E2,1.4860528E4,4.2301202E2,9.362314E0,1.0088709E2,1.8390024E2,5.153146E2,2.2403012E4,2.11239E3,7.864535E3,1.421971E4],"tree_param":{"num_deleted":"0","num_feature":"29","num_nodes":"63","size_leaf_vector":"1"}},{"base_weights":[7.7897316E-4,-5.477715E-2,7.339947E-2,-9.2012234E-2,1.23034835E-1,6.557264E-2,4.0823746E-1,-7.691957E-2,-5.2036184E-1,1.4016035E-1,-1.9653371E-1,-7.963753E-2,9.4071925E-2,6.343099E-1,1.0451554E-2,-2.3214646E-2,-1.4241499E-1,-4.0285555E-1,-1.0478065E0,9.8015666E-2,3.795627E-1,-4.5390537E-1,8.4074205E-1,-5.9827525E-2,-1.04471E0,1.5813248E-1,2.3600148E-2,7.1723473E-1,-1.0480953E-1,9.29409E-1,-4.2174286E-1,3.1402167E-2,-1.7266761E-3,-9.118093E-3,5.9986613E-3,-2.444601E-2,1.3051103E-2,9.892493E-2,-5.9091788E-2,2.1253927E-2,3.3628435E-3,-6.308542E-3,2.3279032E-2,-1.5707893E-2,-8.000112E-2,4.9123067E-2,-8.438448E-2,-4.1460465E-3,3.438997E-2,6.772858E-3,-7.250248E-2,1.2372906E-2,2.3462193E-3,1.0566528E-2,-1.281179E-3,1.6465066E-2,5.105665E-2,-5.169862E-2,3.0485783E-2,-3.9836615E-2,6.3988484E-2,-1.0553914E-2,-6.1764628E-2],"categories":[],"categories_nodes":[],"categories_segments":[],"categories_sizes":[],"default_left":[1,0,0,0,0,0,0,0,1,0,1,0,0,0,0,0,1,1,0,0,0,0,0,0,0,0,0,0,0,0,0,0,0,0,0,0,0,0,0,0,0,0,0,0,0,0,0,0,0,0,0,0,0,0,0,0,0,0,0,0,0,0,0],"id":11,"left_children":[1,3,5,7,9,11,13,15,17,19,21,23,25,27,29,31,33,35,37,39,41,43,45,47,49,51,53,55,57,59,61,-1,-1,-1,-1,-1,-1,-1,-1,-1,-1,-1,-1,-1,-1,-1,-1,-1,-1,-1,-1,-1,-1,-1,-1,-1,-1,-1,-1,-1,-1,-1,-1],"loss_changes":[7.7062885E2,7.1651404E2,2.1694226E2,5.784542E2,1.025788E2,3.3480316E2,1.7003162E2,3.0403406E2,1.8832343E2,1.7941443E2,2.549393E2,2.5369653E2,3.052995E2,7.39686E1,2.7293158E2,3.5013025E2,4.0821313E2,1.4251947E2,2.271383E2,1.5212872E2,1.15862305E2,1.21963425E2,6.970729E1,2.2463167E2,1.27881714E2,3.5189233E2,2.975927E2,1.27473145E2,8.195286E1,1.3395447E2,7.984459E1,0E0,0E0,0E0,0E0,0E0,0E0,0E0,0E0,0E0,0E0,0E0,0E0,0E0,0E0,0E0,0E0,0E0,0E0,0E0,0E0,0E0,0E0,0E0,0E0,0E0,0E0,0E0,0E0,0E0,0E0,0E0,0E0],"parents":[2147483647,0,0,1,1,2,2,3,3,4,4,5,5,6,6,7,7,8,8,9,9,10,10,11,11,12,12,13,13,14,14,15,15,16,16,17,17,18,18,19,19,20,20,21,21,22,22,23,23,24,24,25,25,26,26,27,27,28,28,29,29,30,30],"right_children":[2,4,6,8,10,12,14,16,18,20,22,24,26,28,30,32,34,36,38,40,42,44,46,48,50,52,54,56,58,60,62,-1,-1,-1,-1,-1,-1,-1,-1,-1,-1,-1,-1,-1,-1,-1,-1,-1,-1,-1,-1,-1,-1,-1,-1,-1,-1,-1,-1,-1,-1,-1,-1],"split_conditions":[7.2515495E-2,-7.36E-2,8.6693945E0,1.923E-1,1.394E-1,1.2966437E-2,1.911E-1,-2.44E-2,1.6696979E-1,1.038E-1,2.1121311E-1,1.911E-1,6.801747E-2,2.672E-1,-3.176E-1,-3.1102278E0,2.5942105E-1,6.322932E-2,-8.225E-1,1.9918778E-3,4.3245114E-2,-8.7E-3,2.672E-1,-3.01E-2,1.148E-1,2.72E-2,-4.05E-2,4.62E-2,3.47E-1,-9.549E-1,3.47E-1,3.1402167E-2,-1.7266761E-3,-9.118093E-3,5.9986613E-3,-2.444601E-2,1.3051103E-2,9.892493E-2,-5.9091788E-2,2.1253927E-2,3.3628435E-3,-6.308542E-3,2.3279032E-2,-1.5707893E-2,-8.000112E-2,4.9123067E-2,-8.438448E-2,-4.1460465E-3,3.438997E-2,6.772858E-3,-7.250248E-2,1.2372906E-2,2.3462193E-3,1.0566528E-2,-1.281179E-3,1.6465066E-2,5.105665E-2,-5.169862E-2,3.0485783E-2,-3.9836615E-2,6.3988484E-2,-1.0553914E-2,-6.1764628E-2],"split_indices":[28,11,28,9,10,23,10,10,25,9,24,10,24,9,11,28,22,22,11,25,25,11,9,11,9,10,10,9,9,11,9,0,0,0,0,0,0,0,0,0,0,0,0,0,0,0,0,0,0,0,0,0,0,0,0,0,0,0,0,0,0,0,0],"split_type":[0,0,0,0,0,0,0,0,0,0,0,0,0,0,0,0,0,0,0,0,0,0,0,0,0,0,0,0,0,0,0,0,0,0,0,0,0,0,0,0,0,0,0,0,0,0,0,0,0,0,0,0,0,0,0,0,0,0,0,0,0,0,0],"sum_hessian":[1.9100714E5,1.0821826E5,8.2788875E4,8.948083E4,1.8737434E4,8.0899055E4,1.8898169E3,8.643647E4,3.0443613E3,1.778491E4,9.52523E2,1.3272242E4,6.762681E4,1.20461E3,6.8520685E2,4.7493832E4,3.8942637E4,2.491139E3,5.532224E2,1.5123892E4,2.661019E3,7.636151E2,1.8890784E2,1.3006324E4,2.659183E2,3.5424152E4,3.220266E4,1.08312E3,1.214901E2,2.1880986E2,4.6639697E2,8.104118E2,4.6683418E4,3.3797492E4,5.1451416E3,2.2054849E3,2.8565408E2,2.2878439E1,5.30344E2,1.2989666E3,1.3824925E4,3.867421E2,2.2742769E3,6.817612E2,8.18539E1,1.7946046E2,9.447374E0,1.2617473E4,3.8885126E2,6.815303E1,1.9776527E2,1.964416E4,1.5779995E4,6.688944E3,2.5513717E4,4.7669308E2,6.064269E2,5.261843E1,6.8871666E1,3.670403E1,1.8210583E2,3.7146695E2,9.493004E1],"tree_param":{"num_deleted":"0","num_feature":"29","num_nodes":"63","size_leaf_vector":"1"}},{"base_weights":[-3.1437955E-4,-9.594893E-2,3.9108332E-2,-3.2333218E-2,-2.4761581E-1,6.9629834E-3,1.0728265E-1,1.274099E-1,-1.3399954E-1,-2.346771E-1,-1.2399646E0,1.9015463E-1,-1.950536E-2,2.2415005E-2,1.9803143E-1,2.4714224E-1,1.0990085E-2,-2.043883E-1,1.5643662E-1,-2.5578445E-1,3.8935456E-1,-1.3366777E0,-5.366856E-1,1.5104413E-1,1.228779E0,-1.20071724E-1,1.7422015E-2,5.066731E-3,9.424795E-1,2.1152022E-1,-5.594503E-1,1.6281063E-2,-6.4553465E-3,2.3224193E-3,-3.7687954E-2,-9.507054E-3,-6.476659E-2,1.5002924E-2,-8.018467E-3,-1.1213305E-2,-5.109101E-2,-8.681226E-3,3.4258567E-2,-2.0185811E-2,-7.120414E-2,-5.1712036E-2,1.807989E-2,1.4499276E-2,-1.2147202E-3,4.626894E-2,8.5753985E-2,-7.4127577E-3,1.2981065E-2,2.0461295E-2,1.7180953E-4,5.0659776E-3,-6.786246E-3,6.226954E-2,-2.5991302E-3,2.9036138E-2,9.494944E-3,-6.1660416E-2,-2.044334E-2],"categories":[],"categories_nodes":[],"categories_segments":[],"categories_sizes":[],"default_left":[0,0,0,0,0,0,0,0,0,0,0,1,1,1,0,0,0,0,0,0,0,0,0,0,0,0,0,1,0,0,0,0,0,0,0,0,0,0,0,0,0,0,0,0,0,0,0,0,0,0,0,0,0,0,0,0,0,0,0,0,0,0,0],"id":12,"left_children":[1,3,5,7,9,11,13,15,17,19,21,23,25,27,29,31,33,35,37,39,41,43,45,47,49,51,53,55,57,59,61,-1,-1,-1,-1,-1,-1,-1,-1,-1,-1,-1,-1,-1,-1,-1,-1,-1,-1,-1,-1,-1,-1,-1,-1,-1,-1,-1,-1,-1,-1,-1,-1],"loss_changes":[7.203998E2,5.381327E2,2.9651514E2,6.381845E2,2.1132452E2,4.45846E2,3.3390094E2,2.1302893E2,4.9093878E2,2.144082E2,1.3694733E1,4.7135098E2,2.9836514E2,3.5760757E2,2.1419067E2,2.2250986E2,2.1018083E2,3.0018256E2,2.1321426E2,3.797694E2,8.883821E1,1.4560272E1,1.2569795E1,2.7256787E2,6.0545776E1,2.3094617E2,3.2201425E2,2.98027E2,1.2496445E2,1.6421802E2,3.671409E1,0E0,0E0,0E0,0E0,0E0,0E0,0E0,0E0,0E0,0E0,0E0,0E0,0E0,0E0,0E0,0E0,0E0,0E0,0E0,0E0,0E0,0E0,0E0,0E0,0E0,0E0,0E0,0E0,0E0,0E0,0E0,0E0],"parents":[2147483647,0,0,1,1,2,2,3,3,4,4,5,5,6,6,7,7,8,8,9,9,10,10,11,11,12,12,13,13,14,14,15,15,16,16,17,17,18,18,19,19,20,20,21,21,22,22,23,23,24,24,25,25,26,26,27,27,28,28,29,29,30,30],"right_children":[2,4,6,8,10,12,14,16,18,20,22,24,26,28,30,32,34,36,38,40,42,44,46,48,50,52,54,56,58,60,62,-1,-1,-1,-1,-1,-1,-1,-1,-1,-1,-1,-1,-1,-1,-1,-1,-1,-1,-1,-1,-1,-1,-1,-1,-1,-1,-1,-1,-1,-1,-1,-1],"split_conditions":[-4.193E-1,8.2507014E-1,2.1335E0,-1.455E-1,1.26472E1,-9.23E-2,-1.09E-1,-6.1217E0,4.601227E-1,7.4734E0,3.16719E1,6.2344825E-1,-9.9203214E-2,1.796384E0,3.47E-1,1.9270033E-1,1.3379E0,3.001E-1,1.22505695E-1,2.6093E0,-3.6394E0,8.8E-3,1.78472E1,2.483E-1,9.57E-2,-2.38E-2,-6.264521E-2,3.7005424E-2,2.214E-1,1.375E-1,2.4406E0,1.6281063E-2,-6.4553465E-3,2.3224193E-3,-3.7687954E-2,-9.507054E-3,-6.476659E-2,1.5002924E-2,-8.018467E-3,-1.1213305E-2,-5.109101E-2,-8.681226E-3,3.4258567E-2,-2.0185811E-2,-7.120414E-2,-5.1712036E-2,1.807989E-2,1.4499276E-2,-1.2147202E-3,4.626894E-2,8.5753985E-2,-7.4127577E-3,1.2981065E-2,2.0461295E-2,1.7180953E-4,5.0659776E-3,-6.786246E-3,6.226954E-2,-2.5991302E-3,2.9036138E-2,9.494944E-3,-6.1660416E-2,-2.044334E-2],"split_indices":[11,26,8,9,12,9,11,8,28,12,8,21,26,28,9,24,12,9,25,12,7,9,7,12,12,11,26,24,9,12,12,0,0,0,0,0,0,0,0,0,0,0,0,0,0,0,0,0,0,0,0,0,0,0,0,0,0,0,0,0,0,0,0],"split_type":[0,0,0,0,0,0,0,0,0,0,0,0,0,0,0,0,0,0,0,0,0,0,0,0,0,0,0,0,0,0,0,0,0,0,0,0,0,0,0,0,0,0,0,0,0,0,0,0,0,0,0,0,0,0,0,0,0,0,0,0,0,0,0],"sum_hessian":[1.9107667E5,5.5774152E4,1.3530252E5,3.929382E4,1.6480332E4,9.19484E4,4.335413E4,1.5281898E4,2.4011922E4,1.6269439E4,2.1089194E2,1.1607164E4,8.0341234E4,2.2403639E4,2.0950488E4,7.5332163E3,7.748682E3,1.9327979E4,4.6839434E3,1.5737714E4,5.3172485E2,1.846049E2,2.6287031E1,1.1187049E4,4.2011478E2,2.1577037E4,5.8764195E4,2.1990012E4,4.1362714E2,2.0584648E4,3.65839E2,6.2332114E3,1.3000049E3,7.406225E3,3.424572E2,1.9079977E4,2.4800159E2,3.222911E3,1.4610325E3,1.51170205E4,6.206935E2,1.8329771E2,3.4842715E2,1.6294657E1,1.6831026E2,1.6819458E1,9.467575E0,6.2409526E3,4.946096E3,2.6049582E2,1.5961896E2,2.0086676E4,1.4903618E3,2.0243749E3,5.673982E4,1.306105E4,8.928963E3,3.168599E2,9.676725E1,1.1373646E3,1.9447283E4,6.551494E1,3.0032404E2],"tree_param":{"num_deleted":"0","num_feature":"29","num_nodes":"63","size_leaf_vector":"1"}},{"base_weights":[1.5498452E-4,-4.2844266E-2,8.162353E-2,-7.81027E-2,9.110906E-2,1.4718822E-1,3.2230022E-3,-6.6667385E-2,-4.7776562E-1,6.8709135E-2,4.1918203E-1,1.3413036E-1,7.834886E-1,-2.8266075E-1,4.374415E-2,-6.402374E-2,-9.834054E-1,-3.6817434E-1,-1.3858883E0,6.501298E-1,5.6774642E-2,-1.7404653E0,4.7441489E-1,2.787564E-1,8.57304E-2,1.6899363E0,3.5470492E-1,-1.4742052E-2,-4.3732262E-1,1.5022075E-2,6.247637E-1,8.6309697E-4,-4.942018E-3,-1.6824842E-3,-7.1920395E-2,-2.2400526E-2,3.0605359E-2,-6.2230002E-2,-8.224319E-2,7.3836106E-3,5.1466294E-2,-1.5960902E-2,3.6096424E-3,-4.2357452E-2,-9.405637E-2,4.345178E-2,1.4344354E-2,-2.8299205E-3,1.8176384E-2,-4.0524285E-3,8.156276E-3,9.0314165E-2,6.749164E-2,3.6171284E-2,-4.190748E-3,-1.291976E-2,2.777019E-2,-3.2819998E-2,-9.104489E-3,1.0198016E-2,-3.3299786E-3,6.935095E-2,1.0203401E-2],"categories":[],"categories_nodes":[],"categories_segments":[],"categories_sizes":[],"default_left":[1,0,0,0,1,0,0,1,1,0,0,0,0,0,0,0,0,1,0,1,0,0,0,0,0,0,0,0,0,0,0,0,0,0,0,0,0,0,0,0,0,0,0,0,0,0,0,0,0,0,0,0,0,0,0,0,0,0,0,0,0,0,0],"id":13,"left_children":[1,3,5,7,9,11,13,15,17,19,21,23,25,27,29,31,33,35,37,39,41,43,45,47,49,51,53,55,57,59,61,-1,-1,-1,-1,-1,-1,-1,-1,-1,-1,-1,-1,-1,-1,-1,-1,-1,-1,-1,-1,-1,-1,-1,-1,-1,-1,-1,-1,-1,-1,-1,-1],"loss_changes":[6.6896124E2,5.9034357E2,3.3911136E2,4.521889E2,1.9137047E2,2.983985E2,3.48071E2,2.3307318E2,2.7339862E2,1.6914539E2,1.9936404E2,2.4640936E2,2.801118E2,1.5455746E2,4.3916284E2,2.7146857E2,1.1945621E2,1.9258145E2,8.783813E0,9.326549E1,1.3852927E2,3.6487885E0,1.1990866E2,2.509596E2,3.4051318E2,6.728882E0,7.954312E1,1.8993758E2,1.3211438E2,3.8675095E2,3.9723618E2,0E0,0E0,0E0,0E0,0E0,0E0,0E0,0E0,0E0,0E0,0E0,0E0,0E0,0E0,0E0,0E0,0E0,0E0,0E0,0E0,0E0,0E0,0E0,0E0,0E0,0E0,0E0,0E0,0E0,0E0,0E0,0E0],"parents":[2147483647,0,0,1,1,2,2,3,3,4,4,5,5,6,6,7,7,8,8,9,9,10,10,11,11,12,12,13,13,14,14,15,15,16,16,17,17,18,18,19,19,20,20,21,21,22,22,23,23,24,24,25,25,26,26,27,27,28,28,29,29,30,30],"right_children":[2,4,6,8,10,12,14,16,18,20,22,24,26,28,30,32,34,36,38,40,42,44,46,48,50,52,54,56,58,60,62,-1,-1,-1,-1,-1,-1,-1,-1,-1,-1,-1,-1,-1,-1,-1,-1,-1,-1,-1,-1,-1,-1,-1,-1,-1,-1,-1,-1,-1,-1,-1,-1],"split_conditions":[2.5438148E-1,-8.51E-2,1.0799453E-1,2.008E-1,2.802658E-1,9.117034E-2,-2.7252788E-2,8.154376E-1,3.8946372E-1,-2.95E-2,-3.04E-2,-2.952E-1,8.62E-2,-1.072E-1,1.345E-1,-1.039E-1,-3.111E-1,2.830987E-1,1.98595E1,-6.3264735E-2,-8.913375E-2,9.5E0,3.44E-2,-9.321E-1,-2.2026688E-2,-2.38E-2,5.336E-1,7.1621317E-1,2.79E-2,-3.23E-2,1.6763644E-1,8.6309697E-4,-4.942018E-3,-1.6824842E-3,-7.1920395E-2,-2.2400526E-2,3.0605359E-2,-6.2230002E-2,-8.224319E-2,7.3836106E-3,5.1466294E-2,-1.5960902E-2,3.6096424E-3,-4.2357452E-2,-9.405637E-2,4.345178E-2,1.4344354E-2,-2.8299205E-3,1.8176384E-2,-4.0524285E-3,8.156276E-3,9.0314165E-2,6.749164E-2,3.6171284E-2,-4.190748E-3,-1.291976E-2,2.777019E-2,-3.2819998E-2,-9.104489E-3,1.0198016E-2,-3.3299786E-3,6.935095E-2,1.0203401E-2],"split_indices":[28,11,27,9,27,27,23,21,26,10,10,11,10,10,10,9,10,26,8,27,27,18,10,11,27,11,7,27,10,10,22,0,0,0,0,0,0,0,0,0,0,0,0,0,0,0,0,0,0,0,0,0,0,0,0,0,0,0,0,0,0,0,0],"split_type":[0,0,0,0,0,0,0,0,0,0,0,0,0,0,0,0,0,0,0,0,0,0,0,0,0,0,0,0,0,0,0,0,0,0,0,0,0,0,0,0,0,0,0,0,0,0,0,0,0,0,0,0,0,0,0,0,0,0,0,0,0,0,0],"sum_hessian":[1.9096138E5,1.24991234E5,6.597013E4,9.8947305E4,2.604393E4,3.5925516E4,3.0044621E4,9.619607E4,2.7512346E3,2.4380506E4,1.663425E3,3.5204277E4,7.2123553E2,3.7291118E3,2.631551E4,9.592053E4,2.7554077E2,2.4562253E3,2.9500922E2,4.893034E2,2.3891201E4,4.072024E1,1.6227048E3,8.826038E3,2.637824E4,2.3066628E2,4.9056924E2,1.3652327E3,2.3638792E3,2.5076887E4,1.2386229E3,2.8764686E4,6.715584E4,8.9595764E1,1.85945E2,2.2717522E3,1.8447331E2,1.9463095E2,1.00378265E2,2.1104523E2,2.7825818E2,9.403305E2,2.2950871E4,6.4949145E0,3.4225327E1,5.2155206E2,1.1011527E3,1.780948E3,7.045091E3,8.361015E3,1.8017225E4,1.6865843E2,6.2007847E1,2.6614056E2,2.244287E2,9.568622E2,4.0837045E2,1.2711903E3,1.0926888E3,7.5646636E3,1.7512225E4,4.396776E2,7.989453E2],"tree_param":{"num_deleted":"0","num_feature":"29","num_nodes":"63","size_leaf_vector":"1"}},{"base_weights":[1.3765562E-3,-8.7669015E-2,3.800176E-2,-2.3546654E-1,-2.2543475E-2,1.6995464E-1,2.3073977E-2,-1.9390197E-1,-5.196687E-1,1.386355E-1,-1.2050097E-1,1.350754E-1,1.1397856E0,-2.6302924E-2,7.200008E-2,-2.7739802E-1,-2.747995E-2,-7.5234E-1,-5.800637E-2,1.6039523E-1,-9.959157E-1,-5.895636E-1,-9.3094744E-2,2.796407E-1,-4.0699713E-2,8.2787836E-1,1.6215786E0,1.4282114E-2,-2.2480619E-1,-8.4627134E-1,7.8523256E-2,-8.761422E-3,-2.3756221E-2,2.1055967E-2,-8.779396E-3,-5.3516638E-2,-2.6421929E-2,1.8812334E-2,-5.8818102E-2,1.4691274E-2,1.3247812E-3,-2.2860896E-2,-7.89508E-2,-1.7248984E-2,-6.477941E-2,-6.7695015E-4,-1.445239E-2,1.5239606E-2,-6.542029E-2,-6.669744E-2,-3.6229096E-5,5.499887E-2,-3.6307753E-3,7.033683E-2,9.216592E-2,-1.4547535E-4,3.72268E-2,-3.2665007E-2,-6.8651023E-3,-7.785387E-2,2.4459615E-2,2.7830992E-3,1.42267225E-2],"categories":[],"categories_nodes":[],"categories_segments":[],"categories_sizes":[],"default_left":[0,1,0,0,0,1,1,0,0,0,0,0,0,0,0,0,0,0,0,0,0,0,0,0,0,0,0,1,0,0,0,0,0,0,0,0,0,0,0,0,0,0,0,0,0,0,0,0,0,0,0,0,0,0,0,0,0,0,0,0,0,0,0],"id":14,"left_children":[1,3,5,7,9,11,13,15,17,19,21,23,25,27,29,31,33,35,37,39,41,43,45,47,49,51,53,55,57,59,61,-1,-1,-1,-1,-1,-1,-1,-1,-1,-1,-1,-1,-1,-1,-1,-1,-1,-1,-1,-1,-1,-1,-1,-1,-1,-1,-1,-1,-1,-1,-1,-1],"loss_changes":[6.2351654E2,5.3630975E2,2.6683417E2,2.0121515E2,6.1068353E2,4.6556323E2,2.9400803E2,2.0661188E2,2.3345917E2,3.6111957E2,3.0920813E2,3.3774414E2,7.046161E1,4.8798618E2,3.6623505E2,1.9994397E2,3.3021295E2,1.0233789E2,3.5473996E2,2.5631683E2,8.574841E1,2.2884634E2,3.543465E2,2.9169196E2,3.101258E2,7.164859E1,6.3025513E0,6.313652E2,3.85437E2,4.1014822E2,2.8585803E2,0E0,0E0,0E0,0E0,0E0,0E0,0E0,0E0,0E0,0E0,0E0,0E0,0E0,0E0,0E0,0E0,0E0,0E0,0E0,0E0,0E0,0E0,0E0,0E0,0E0,0E0,0E0,0E0,0E0,0E0,0E0,0E0],"parents":[2147483647,0,0,1,1,2,2,3,3,4,4,5,5,6,6,7,7,8,8,9,9,10,10,11,11,12,12,13,13,14,14,15,15,16,16,17,17,18,18,19,19,20,20,21,21,22,22,23,23,24,24,25,25,26,26,27,27,28,28,29,29,30,30],"right_children":[2,4,6,8,10,12,14,16,18,20,22,24,26,28,30,32,34,36,38,40,42,44,46,48,50,52,54,56,58,60,62,-1,-1,-1,-1,-1,-1,-1,-1,-1,-1,-1,-1,-1,-1,-1,-1,-1,-1,-1,-1,-1,-1,-1,-1,-1,-1,-1,-1,-1,-1,-1,-1],"split_conditions":[-4.193E-1,-1.3569352E-1,-9.03E-2,1.6098E0,-1.455E-1,6.2344825E-1,5.877167E-3,-6.508E-1,7.4734E0,8.154376E-1,1.05E-2,2.483E-1,1.131E-1,7.18E-2,-1.3878731E-1,-7.632E-1,-1.331E-1,-1.943E-1,1.26472E1,1.18704125E-1,-3.684E-1,6.908012E-3,1.7132264E-1,6.3E-3,-2.612E-1,3.12E-2,1.4245453E-2,3.6233932E-1,4.072E-1,6.566625E-3,1.177E-1,-8.761422E-3,-2.3756221E-2,2.1055967E-2,-8.779396E-3,-5.3516638E-2,-2.6421929E-2,1.8812334E-2,-5.8818102E-2,1.4691274E-2,1.3247812E-3,-2.2860896E-2,-7.89508E-2,-1.7248984E-2,-6.477941E-2,-6.7695015E-4,-1.445239E-2,1.5239606E-2,-6.542029E-2,-6.669744E-2,-3.6229096E-5,5.499887E-2,-3.6307753E-3,7.033683E-2,9.216592E-2,-1.4547535E-4,3.72268E-2,-3.2665007E-2,-6.8651023E-3,-7.785387E-2,2.4459615E-2,2.7830992E-3,1.42267225E-2],"split_indices":[11,27,9,12,9,21,27,11,12,21,12,12,12,10,22,11,10,10,12,27,9,28,27,10,10,12,27,23,12,28,9,0,0,0,0,0,0,0,0,0,0,0,0,0,0,0,0,0,0,0,0,0,0,0,0,0,0,0,0,0,0,0,0],"split_type":[0,0,0,0,0,0,0,0,0,0,0,0,0,0,0,0,0,0,0,0,0,0,0,0,0,0,0,0,0,0,0,0,0,0,0,0,0,0,0,0,0,0,0,0,0,0,0,0,0,0,0,0,0,0,0,0,0,0,0,0,0,0,0],"sum_hessian":[1.9118377E5,5.5717758E4,1.3546602E5,1.7041266E4,3.8676492E4,1.3766635E4,1.21699375E5,1.4868439E4,2.1728267E3,1.462014E4,2.4056354E4,1.3289816E4,4.7681882E2,6.057087E4,6.1128504E4,9.900544E3,4.9678955E3,1.4442936E3,7.2853314E2,1.4345857E4,2.742827E2,1.3268336E3,2.272952E4,7.2919775E3,5.997839E3,2.9108926E2,1.8572957E2,5.028979E4,1.0281084E4,4.3027106E2,6.0698234E4,6.5288374E3,3.3717073E3,1.2326177E3,3.7352778E3,5.9519556E2,8.49098E2,5.2524585E2,2.032873E2,7.1849243E3,7.1609326E3,1.4349698E2,1.3078575E2,9.865556E2,3.4027805E2,1.6166919E4,6.5626006E3,7.1790835E3,1.1289389E2,1.7886745E2,5.818971E3,2.2337216E2,6.7717094E1,9.806207E1,8.766749E1,4.913407E4,1.1557173E3,1.7423938E3,8.53869E3,2.807009E2,1.4957018E2,5.463644E4,6.0617915E3],"tree_param":{"num_deleted":"0","num_feature":"29","num_nodes":"63","size_leaf_vector":"1"}},{"base_weights":[1.6474981E-4,-4.2750668E-2,6.482849E-2,-3.0349847E-2,-3.8114852E-1,-1.2761833E-1,7.7774815E-2,-6.057704E-2,7.569913E-2,-3.1908968E-1,-1.1340191E0,2.8092298E-1,-2.1709172E-1,3.7626468E-2,1.3236324E-1,-4.3588623E-2,-3.0311272E-1,-5.6981146E-1,9.3888864E-2,-2.4960797E-1,-9.773437E-1,-8.3716834E-1,-1.4017717E0,3.51748E-2,1.1489933E0,-6.067841E-1,-5.235311E-2,9.550202E-2,-5.1113605E-2,2.733947E-2,1.750533E-1,-1.4245644E-3,-1.6900785E-2,-8.143478E-3,-2.9616868E-2,2.7962307E-2,-3.277337E-2,4.7940467E-2,4.0007797E-3,-7.866796E-3,-3.4103923E-2,-3.5028984E-3,-7.037767E-2,-5.386756E-2,-1.9099743E-3,-8.0907814E-2,-5.5191036E-2,2.1600189E-2,-2.8326435E-2,8.892854E-3,7.875331E-2,-3.8053457E-2,-9.447957E-3,-1.18153095E-2,1.120932E-2,2.9327808E-2,3.90285E-3,-1.6164904E-2,5.327794E-4,-6.91791E-3,9.5486045E-3,1.6554961E-2,6.545212E-3],"categories":[],"categories_nodes":[],"categories_segments":[],"categories_sizes":[],"default_left":[1,0,0,1,0,0,0,1,0,1,0,0,0,0,0,0,0,0,0,0,0,0,0,0,0,0,0,0,0,0,0,0,0,0,0,0,0,0,0,0,0,0,0,0,0,0,0,0,0,0,0,0,0,0,0,0,0,0,0,0,0,0,0],"id":15,"left_children":[1,3,5,7,9,11,13,15,17,19,21,23,25,27,29,31,33,35,37,39,41,43,45,47,49,51,53,55,57,59,61,-1,-1,-1,-1,-1,-1,-1,-1,-1,-1,-1,-1,-1,-1,-1,-1,-1,-1,-1,-1,-1,-1,-1,-1,-1,-1,-1,-1,-1,-1,-1,-1],"loss_changes":[5.29653E2,4.8141278E2,1.8970642E2,3.5475928E2,1.891153E2,1.7550026E2,1.5634558E2,3.548343E2,2.8828363E2,1.7117499E2,2.3341827E1,1.8400005E2,2.5276431E2,2.1113138E2,1.3554181E2,3.5775345E2,2.2856476E2,6.544371E1,2.8641473E2,1.3522867E2,1.3944162E2,2.8504318E1,8.573425E0,1.6103523E2,7.846724E1,7.5275696E1,1.4090508E2,2.1309883E2,2.7283548E2,2.3695917E2,1.4804163E2,0E0,0E0,0E0,0E0,0E0,0E0,0E0,0E0,0E0,0E0,0E0,0E0,0E0,0E0,0E0,0E0,0E0,0E0,0E0,0E0,0E0,0E0,0E0,0E0,0E0,0E0,0E0,0E0,0E0,0E0,0E0,0E0],"parents":[2147483647,0,0,1,1,2,2,3,3,4,4,5,5,6,6,7,7,8,8,9,9,10,10,11,11,12,12,13,13,14,14,15,15,16,16,17,17,18,18,19,19,20,20,21,21,22,22,23,23,24,24,25,25,26,26,27,27,28,28,29,29,30,30],"right_children":[2,4,6,8,10,12,14,16,18,20,22,24,26,28,30,32,34,36,38,40,42,44,46,48,50,52,54,56,58,60,62,-1,-1,-1,-1,-1,-1,-1,-1,-1,-1,-1,-1,-1,-1,-1,-1,-1,-1,-1,-1,-1,-1,-1,-1,-1,-1,-1,-1,-1,-1,-1,-1],"split_conditions":[1.21633366E-1,1.923E-1,-9.9203214E-2,1.6798708E-1,1.26472E1,-1.966E-1,1.2671E0,2.3064804E-1,-3.489E-1,5.2042E-1,4.457E-1,7.1621317E-1,-6.1307333E-2,3.775E-1,7.9E-3,1.4583E0,1.291E-1,-2.67896E1,-2.335E-1,2.55598E1,8.771E-1,2.22222E1,2.18322E1,-5.6782E0,-1.63191E1,1.3432835E0,7.995416E-2,1.5846738E-1,-8.7751605E-2,8.771849E-2,4.07E-2,-1.4245644E-3,-1.6900785E-2,-8.143478E-3,-2.9616868E-2,2.7962307E-2,-3.277337E-2,4.7940467E-2,4.0007797E-3,-7.866796E-3,-3.4103923E-2,-3.5028984E-3,-7.037767E-2,-5.386756E-2,-1.9099743E-3,-8.0907814E-2,-5.5191036E-2,2.1600189E-2,-2.8326435E-2,8.892854E-3,7.875331E-2,-3.8053457E-2,-9.447957E-3,-1.18153095E-2,1.120932E-2,2.9327808E-2,3.90285E-3,-1.6164904E-2,5.327794E-4,-6.91791E-3,9.5486045E-3,1.6554961E-2,6.545212E-3],"split_indices":[28,9,26,22,12,9,8,24,9,26,9,27,22,12,9,12,12,8,9,8,12,8,12,8,8,27,27,28,27,22,9,0,0,0,0,0,0,0,0,0,0,0,0,0,0,0,0,0,0,0,0,0,0,0,0,0,0,0,0,0,0,0,0],"split_type":[0,0,0,0,0,0,0,0,0,0,0,0,0,0,0,0,0,0,0,0,0,0,0,0,0,0,0,0,0,0,0,0,0,0,0,0,0,0,0,0,0,0,0,0,0,0,0,0,0,0,0,0,0,0,0,0,0,0,0,0,0,0,0],"sum_hessian":[1.9085902E5,1.1472185E5,7.6137164E4,1.1066746E5,4.0543955E3,4.7985103E3,7.133866E4,8.612083E4,2.4546633E4,3.7469592E3,3.074365E2,8.617166E2,3.9367937E3,4.1107137E4,3.023152E4,8.048447E4,5.636357E3,6.7190735E2,2.3874727E4,3.3904597E3,3.5649933E2,1.4775294E2,1.5968353E2,6.724021E2,1.8931456E2,1.1689459E3,2.7678477E3,2.4880318E4,1.6226818E4,8.737537E3,2.1493982E4,7.6559805E4,3.9246592E3,3.7968513E3,1.8395054E3,4.698988E1,6.249175E2,3.758284E2,2.3498898E4,2.7953967E3,5.95063E2,1.15043175E2,2.4145616E2,1.1333438E2,3.4418568E1,8.9936745E1,6.974679E1,4.0535126E2,2.6705084E2,5.816289E1,1.3115167E2,8.5310803E2,3.1583795E2,1.6622623E3,1.1055853E3,8.524473E2,2.4027871E4,3.0005837E3,1.3226234E4,4.341451E3,4.396086E3,4.738641E3,1.675534E4],"tree_param":{"num_deleted":"0","num_feature":"29","num_nodes":"63","size_leaf_vector":"1"}},{"base_weights":[-5.928788E-4,-3.8814902E-2,7.153065E-2,-3.501083E-2,-8.507772E-1,1.3232763E-1,-7.2437944E-4,-6.0388498E-2,6.644988E-2,-3.7359107E-1,-1.1550585E0,1.1953017E-1,7.605537E-1,8.907342E-2,-1.1598295E-1,-4.623688E-2,-3.2123104E-1,-1.2614764E0,7.563628E-2,1.4838624E0,-6.3481355E-1,-9.2688936E-1,-1.3712577E0,1.6273819E-1,-3.6595415E-2,1.5678577E0,3.4291342E-1,-2.1689478E-1,1.2508395E-1,-1.959879E-1,2.6133683E-1,-1.767292E-3,-1.9659474E-2,-3.5533495E-2,-7.875086E-3,-4.1523073E-2,-8.587097E-2,4.093548E-3,-6.1297845E-2,9.25167E-2,4.6035044E-2,-7.977042E-2,3.4824524E-3,4.39769E-3,-5.1482882E-2,-4.501684E-2,-7.168999E-2,1.27279805E-2,2.1213272E-3,-6.897596E-3,1.14878295E-2,1.3542714E-2,7.975407E-2,-1.3496204E-2,2.8563067E-2,-1.3229276E-2,5.9303492E-2,-3.1916987E-2,7.0926785E-3,-6.0086357E-3,-2.6701206E-2,-1.3464915E-2,2.1024566E-2],"categories":[],"categories_nodes":[],"categories_segments":[],"categories_sizes":[],"default_left":[1,0,0,1,0,0,0,0,0,0,0,0,0,0,0,1,0,0,0,0,0,0,0,0,0,0,0,0,0,0,0,0,0,0,0,0,0,0,0,0,0,0,0,0,0,0,0,0,0,0,0,0,0,0,0,0,0,0,0,0,0,0,0],"id":16,"left_children":[1,3,5,7,9,11,13,15,17,19,21,23,25,27,29,31,33,35,37,39,41,43,45,47,49,51,53,55,57,59,61,-1,-1,-1,-1,-1,-1,-1,-1,-1,-1,-1,-1,-1,-1,-1,-1,-1,-1,-1,-1,-1,-1,-1,-1,-1,-1,-1,-1,-1,-1,-1,-1],"loss_changes":[5.25784E2,3.8502588E2,2.9021906E2,3.194976E2,8.397049E1,2.8835364E2,3.124668E2,3.663777E2,3.029549E2,1.1147943E2,1.6215088E1,2.372074E2,2.4089651E2,1.8699666E2,3.99153E2,3.5574997E2,3.255719E2,3.2104675E1,2.0019427E2,4.1551895E0,1.3574023E2,1.8399033E1,4.008301E0,3.042367E2,2.058182E2,8.178589E0,6.637565E1,1.1989563E2,1.9446945E2,2.795018E2,1.9547733E2,0E0,0E0,0E0,0E0,0E0,0E0,0E0,0E0,0E0,0E0,0E0,0E0,0E0,0E0,0E0,0E0,0E0,0E0,0E0,0E0,0E0,0E0,0E0,0E0,0E0,0E0,0E0,0E0,0E0,0E0,0E0,0E0],"parents":[2147483647,0,0,1,1,2,2,3,3,4,4,5,5,6,6,7,7,8,8,9,9,10,10,11,11,12,12,13,13,14,14,15,15,16,16,17,17,18,18,19,19,20,20,21,21,22,22,23,23,24,24,25,25,26,26,27,27,28,28,29,29,30,30],"right_children":[2,4,6,8,10,12,14,16,18,20,22,24,26,28,30,32,34,36,38,40,42,44,46,48,50,52,54,56,58,60,62,-1,-1,-1,-1,-1,-1,-1,-1,-1,-1,-1,-1,-1,-1,-1,-1,-1,-1,-1,-1,-1,-1,-1,-1,-1,-1,-1,-1,-1,-1,-1,-1],"split_conditions":[2.5438148E-1,1.26472E1,1.0799453E-1,1.6798708E-1,1.4211562E-1,9.117034E-2,3.088E-1,1.4583E0,-5.166E-1,-2.35213E1,2.492E-1,6.17E-2,8.84E-2,3.6818474E-3,1.134E-1,2.9235792E-1,3.3333334E-1,-9.918E-1,2.028E-1,-2.67896E1,2.58E-2,-1.02366E1,-2.67896E1,9.8773414E-1,1.4083219E-1,3.055E-1,7.087E-1,1.40611E1,-1.3626E0,9.487E-1,-2.7252788E-2,-1.767292E-3,-1.9659474E-2,-3.5533495E-2,-7.875086E-3,-4.1523073E-2,-8.587097E-2,4.093548E-3,-6.1297845E-2,9.25167E-2,4.6035044E-2,-7.977042E-2,3.4824524E-3,4.39769E-3,-5.1482882E-2,-4.501684E-2,-7.168999E-2,1.27279805E-2,2.1213272E-3,-6.897596E-3,1.14878295E-2,1.3542714E-2,7.975407E-2,-1.3496204E-2,2.8563067E-2,-1.3229276E-2,5.9303492E-2,-3.1916987E-2,7.0926785E-3,-6.0086357E-3,-2.6701206E-2,-1.3464915E-2,2.1024566E-2],"split_indices":[28,12,27,22,21,27,12,12,10,8,10,10,10,22,10,24,27,10,10,8,10,7,8,28,21,12,12,8,10,12,23,0,0,0,0,0,0,0,0,0,0,0,0,0,0,0,0,0,0,0,0,0,0,0,0,0,0,0,0,0,0,0,0],"split_type":[0,0,0,0,0,0,0,0,0,0,0,0,0,0,0,0,0,0,0,0,0,0,0,0,0,0,0,0,0,0,0,0,0,0,0,0,0,0,0,0,0,0,0,0,0,0,0,0,0,0,0,0,0,0,0,0,0,0,0,0,0,0,0],"sum_hessian":[1.90727E5,1.2466237E5,6.606464E4,1.2408208E5,5.802858E2,3.587651E4,3.0188129E4,9.925622E4,2.4825867E4,2.2681432E2,3.5347153E2,3.5161434E4,7.150762E2,1.6968342E4,1.3219786E4,9.414945E4,5.1067593E3,1.696252E2,2.465624E4,2.738803E1,1.9942628E2,1.7454736E2,1.7892415E2,2.7539727E4,7.621708E3,2.428636E2,4.7221255E2,1.786246E3,1.5182097E4,1.0907497E4,2.3122888E3,9.128507E4,2.8643877E3,1.510534E3,3.596225E3,8.864661E1,8.097859E1,2.4539633E4,1.1660864E2,1.5206765E1,1.2181263E1,8.383939E1,1.1558689E2,1.6063488E1,1.5848387E2,2.278168E1,1.5614247E2,1.5618571E4,1.1921155E4,5.521182E3,2.100526E3,5.2179174E0,2.3764569E2,1.2813722E2,3.4407532E2,1.7283074E3,5.7938656E1,3.2553003E2,1.4856566E4,8.910414E3,1.9970831E3,5.333525E2,1.7789363E3],"tree_param":{"num_deleted":"0","num_feature":"29","num_nodes":"63","size_leaf_vector":"1"}},{"base_weights":[-1.5315148E-3,-8.379512E-2,3.2402594E-2,-2.2229794E-1,-2.288383E-2,2.6875543E-3,9.55206E-2,-1.9157545E-1,-5.784661E-1,8.937389E-2,-1.2306989E-1,-6.048072E-2,6.5137394E-2,1.9725913E-2,1.781975E-1,-5.61373E-1,-1.520575E-1,1.0225726E0,-6.8343574E-1,3.1324503E-1,-1.4408392E-2,1.0340053E-1,-2.0978668E-1,-1.5547408E-2,-3.452244E-1,1.0822966E-2,2.0436032E-1,1.8132341E-1,-1.1632292E-1,5.615114E-1,1.5758295E-1,3.841744E-2,-3.4303766E-2,2.2101594E-2,-8.800851E-3,7.136249E-2,-3.7542712E-2,-4.7797557E-2,-1.1342446E-2,5.343894E-2,1.1617289E-2,-1.5455617E-3,5.6367405E-2,1.5394672E-2,-2.4390358E-2,-8.30021E-3,-3.2790985E-2,-1.5355719E-3,2.5619898E-2,-3.5681255E-2,-1.2016117E-2,1.4461735E-3,-3.178693E-2,7.7882037E-3,3.4717266E-2,3.377546E-2,5.826028E-3,-1.839171E-2,-1.544464E-3,3.073433E-2,-3.8479593E-2,-4.896072E-2,8.128542E-3],"categories":[],"categories_nodes":[],"categories_segments":[],"categories_sizes":[],"default_left":[0,1,0,1,0,1,0,0,0,0,0,0,0,1,0,0,0,0,0,0,0,0,0,1,0,0,0,0,0,0,0,0,0,0,0,0,0,0,0,0,0,0,0,0,0,0,0,0,0,0,0,0,0,0,0,0,0,0,0,0,0,0,0],"id":17,"left_children":[1,3,5,7,9,11,13,15,17,19,21,23,25,27,29,31,33,35,37,39,41,43,45,47,49,51,53,55,57,59,61,-1,-1,-1,-1,-1,-1,-1,-1,-1,-1,-1,-1,-1,-1,-1,-1,-1,-1,-1,-1,-1,-1,-1,-1,-1,-1,-1,-1,-1,-1,-1,-1],"loss_changes":[5.3206024E2,4.6957745E2,2.530789E2,1.859289E2,4.3481558E2,3.6192407E2,2.7065598E2,2.2866461E2,2.275123E2,4.2361728E2,4.012268E2,5.8355927E2,3.4886453E2,4.9545328E2,1.631466E2,2.5106161E2,2.013948E2,6.0953873E1,1.5745117E2,3.5273798E2,2.3478E2,6.840943E2,2.883849E2,3.1540503E2,2.4006958E2,3.8843158E2,3.0818768E2,3.2979654E2,2.628924E2,7.506894E1,1.1132379E2,0E0,0E0,0E0,0E0,0E0,0E0,0E0,0E0,0E0,0E0,0E0,0E0,0E0,0E0,0E0,0E0,0E0,0E0,0E0,0E0,0E0,0E0,0E0,0E0,0E0,0E0,0E0,0E0,0E0,0E0,0E0,0E0],"parents":[2147483647,0,0,1,1,2,2,3,3,4,4,5,5,6,6,7,7,8,8,9,9,10,10,11,11,12,12,13,13,14,14,15,15,16,16,17,17,18,18,19,19,20,20,21,21,22,22,23,23,24,24,25,25,26,26,27,27,28,28,29,29,30,30],"right_children":[2,4,6,8,10,12,14,16,18,20,22,24,26,28,30,32,34,36,38,40,42,44,46,48,50,52,54,56,58,60,62,-1,-1,-1,-1,-1,-1,-1,-1,-1,-1,-1,-1,-1,-1,-1,-1,-1,-1,-1,-1,-1,-1,-1,-1,-1,-1,-1,-1,-1,-1,-1,-1],"split_conditions":[-4.193E-1,-1.3569352E-1,2.1335E0,-1.8398097E-1,-8.37E-2,2.2832474E-3,-1.07E-1,-5.166E-1,-6.039E-1,-6.5983E0,2.3176003E-2,7.18E-2,1.74909E-1,0E0,1.355E-1,-2.67896E1,-9.152E-1,1.1238E0,2.3781343E-1,-3.3041697E-2,1.2935386E0,8.4518485E-2,7.067161E-1,3.5884777E-1,4.072E-1,1.2448E0,4.609328E-1,-5.6688725E-3,2.3872377E-2,1.345E-1,-5.97E-2,3.841744E-2,-3.4303766E-2,2.2101594E-2,-8.800851E-3,7.136249E-2,-3.7542712E-2,-4.7797557E-2,-1.1342446E-2,5.343894E-2,1.1617289E-2,-1.5455617E-3,5.6367405E-2,1.5394672E-2,-2.4390358E-2,-8.30021E-3,-3.2790985E-2,-1.5355719E-3,2.5619898E-2,-3.5681255E-2,-1.2016117E-2,1.4461735E-3,-3.178693E-2,7.7882037E-3,3.4717266E-2,3.377546E-2,5.826028E-3,-1.839171E-2,-1.544464E-3,3.073433E-2,-3.8479593E-2,-4.896072E-2,8.128542E-3],"split_indices":[11,27,8,27,10,27,11,10,10,8,27,10,26,27,12,8,11,12,24,27,26,25,26,23,12,12,21,22,23,10,10,0,0,0,0,0,0,0,0,0,0,0,0,0,0,0,0,0,0,0,0,0,0,0,0,0,0,0,0,0,0,0,0],"split_type":[0,0,0,0,0,0,0,0,0,0,0,0,0,0,0,0,0,0,0,0,0,0,0,0,0,0,0,0,0,0,0,0,0,0,0,0,0,0,0,0,0,0,0,0,0,0,0,0,0,0,0,0,0,0,0,0,0,0,0,0,0,0,0],"sum_hessian":[1.9059525E5,5.5660562E4,1.3493469E5,1.700078E4,3.865978E4,9.174399E4,4.31907E4,1.5652186E4,1.3485944E3,1.8231562E4,2.0428219E4,4.560966E4,4.6134332E4,2.2533855E4,2.0656844E4,1.5098881E3,1.4142298E4,8.24403E1,1.266154E3,5.7741E3,1.2457462E4,5.656211E3,1.4772008E4,3.9394203E4,6.2154556E3,3.3187945E4,1.2946389E4,1.0299671E4,1.2234184E4,1.0528865E3,1.9603957E4,1.2901524E2,1.3808728E3,5.475691E2,1.3594729E4,6.728238E1,1.5157922E1,7.922207E2,4.739333E2,5.5728613E2,5.216814E3,1.2280928E4,1.7653445E2,4.202936E3,1.4532748E3,1.3452851E4,1.3191564E3,3.8295203E4,1.0990007E3,1.3762979E3,4.8391577E3,3.2285078E4,9.028662E2,1.1779434E4,1.1669551E3,1.1929357E3,9.106735E3,3.1011848E3,9.132999E3,1.0129588E3,3.992768E1,8.478676E1,1.951917E4],"tree_param":{"num_deleted":"0","num_feature":"29","num_nodes":"63","size_leaf_vector":"1"}},{"base_weights":[-3.21934E-4,-7.903693E-2,3.2070767E-2,-2.5306378E-2,-2.0846671E-1,1.4855646E-1,1.7682351E-2,-4.9403578E-2,4.2585695E-1,-1.9534478E-1,-9.988421E-1,3.4970713E-1,-4.9860515E-3,6.0483576E-3,2.1944495E-1,1.3699067E-1,-8.70125E-2,1.10400505E-1,6.179342E-1,-1.8391715E-1,-1.1032147E0,-7.602051E-1,-1.3589052E0,3.124422E-1,9.572465E-1,9.82923E-3,-1.04361534E-1,3.0537268E-2,-1.0404986E-1,2.78229E-1,-1.9844021E-1,2.0020504E-3,2.5045216E-2,-2.7236983E-3,-1.3747777E-2,3.0780083E-2,-2.9926125E-2,6.757477E-2,1.7850365E-2,-1.0171458E-2,1.8739874E-2,-5.9027124E-2,-1.785321E-2,-3.250402E-2,-8.151155E-2,-4.800551E-2,-7.922236E-2,1.2170307E-2,3.4898072E-2,3.8140442E-2,8.250233E-2,-7.376018E-4,6.1680403E-2,8.631192E-4,1.1269925E-2,-9.260702E-3,9.031753E-3,3.1203363E-2,1.01489285E-2,-8.0867514E-2,-6.5427492E-3],"categories":[],"categories_nodes":[],"categories_segments":[],"categories_sizes":[],"default_left":[0,0,0,0,1,0,1,0,0,0,0,0,1,0,0,0,0,0,0,0,0,0,0,0,0,1,0,0,0,0,0,0,0,0,0,0,0,0,0,0,0,0,0,0,0,0,0,0,0,0,0,0,0,0,0,0,0,0,0,0,0],"id":18,"left_children":[1,3,5,7,9,11,13,15,17,19,21,23,25,27,29,31,33,35,37,39,41,43,45,47,49,51,-1,53,55,57,59,-1,-1,-1,-1,-1,-1,-1,-1,-1,-1,-1,-1,-1,-1,-1,-1,-1,-1,-1,-1,-1,-1,-1,-1,-1,-1,-1,-1,-1,-1],"loss_changes":[4.863736E2,3.8673898E2,2.2649535E2,4.2727304E2,1.6899939E2,4.5886584E2,2.823379E2,2.6154077E2,1.2067328E2,1.6629791E2,2.1838135E1,1.4530884E2,2.5997366E2,3.0662885E2,1.6114117E2,2.2098624E2,1.8983357E2,2.7089905E2,2.3654272E2,1.728706E2,1.107753E1,1.44953E1,7.9073944E0,1.6114917E2,4.87453E1,2.5174718E2,0E0,2.4065134E2,4.7817703E2,1.4949503E2,7.739586E1,0E0,0E0,0E0,0E0,0E0,0E0,0E0,0E0,0E0,0E0,0E0,0E0,0E0,0E0,0E0,0E0,0E0,0E0,0E0,0E0,0E0,0E0,0E0,0E0,0E0,0E0,0E0,0E0,0E0,0E0],"parents":[2147483647,0,0,1,1,2,2,3,3,4,4,5,5,6,6,7,7,8,8,9,9,10,10,11,11,12,12,13,13,14,14,15,15,16,16,17,17,18,18,19,19,20,20,21,21,22,22,23,23,24,24,25,25,27,27,28,28,29,29,30,30],"right_children":[2,4,6,8,10,12,14,16,18,20,22,24,26,28,30,32,34,36,38,40,42,44,46,48,50,52,-1,54,56,58,60,-1,-1,-1,-1,-1,-1,-1,-1,-1,-1,-1,-1,-1,-1,-1,-1,-1,-1,-1,-1,-1,-1,-1,-1,-1,-1,-1,-1,-1,-1],"split_conditions":[-4.193E-1,8.2507014E-1,-3.247E-1,7.145681E-1,8.154376E-1,3.6285464E-2,3.5884777E-1,-1.02684E1,5.086E-1,1.26472E1,6.03E-2,1.5053847E-1,2.244125E0,6.791E-1,4.3409646E-1,2.7512908E-1,5.886E-1,3.701E-1,1.0376E0,7.4734E0,1.78472E1,-6.803E-1,-4.2237E0,1.0773029E0,5.322E-1,2.1270923E-1,-1.04361534E-1,-1.19E-2,6.8275E0,-1.186E-1,1.7097E0,2.0020504E-3,2.5045216E-2,-2.7236983E-3,-1.3747777E-2,3.0780083E-2,-2.9926125E-2,6.757477E-2,1.7850365E-2,-1.0171458E-2,1.8739874E-2,-5.9027124E-2,-1.785321E-2,-3.250402E-2,-8.151155E-2,-4.800551E-2,-7.922236E-2,1.2170307E-2,3.4898072E-2,3.8140442E-2,8.250233E-2,-7.376018E-4,6.1680403E-2,8.631192E-4,1.1269925E-2,-9.260702E-3,9.031753E-3,3.1203363E-2,1.01489285E-2,-8.0867514E-2,-6.5427492E-3],"split_indices":[11,26,11,28,21,24,23,8,12,12,12,21,28,12,23,26,12,12,12,12,7,11,8,28,12,25,0,11,8,11,12,0,0,0,0,0,0,0,0,0,0,0,0,0,0,0,0,0,0,0,0,0,0,0,0,0,0,0,0,0,0],"split_type":[0,0,0,0,0,0,0,0,0,0,0,0,0,0,0,0,0,0,0,0,0,0,0,0,0,0,0,0,0,0,0,0,0,0,0,0,0,0,0,0,0,0,0,0,0,0,0,0,0,0,0,0,0,0,0,0,0,0,0,0,0],"sum_hessian":[1.9074838E5,5.5610984E4,1.3513739E5,3.9298207E4,1.6312779E4,1.4856099E4,1.202813E5,3.7306508E4,1.9916969E3,1.6047602E4,2.6517776E2,6.4304775E3,8.425621E3,1.1372475E5,6.556544E3,6.263118E3,3.104339E4,7.5435815E2,1.2373387E3,1.5849305E4,1.9829707E2,1.6135121E2,1.0382655E2,6.0602705E3,3.7020703E2,8.367084E3,5.8536964E1,9.303246E4,2.069229E4,5.748267E3,8.082766E2,4.946452E3,1.3166663E3,2.6463125E4,4.580265E3,4.4054404E2,3.1381412E2,3.2354782E2,9.1379095E2,1.5315091E4,5.342136E2,1.7914873E2,1.914835E1,1.447735E2,1.657771E1,3.9406445E1,6.4420105E1,5.141244E3,9.190266E2,2.9071698E2,7.949004E1,8.203297E3,1.6378645E2,8.709988E4,5.9325747E3,1.6101945E4,4.5903433E3,1.0259376E3,4.7223296E3,3.5706673E1,7.7256995E2],"tree_param":{"num_deleted":"0","num_feature":"29","num_nodes":"61","size_leaf_vector":"1"}},{"base_weights":[-1.2725659E-4,-3.4939226E-2,6.5510474E-2,-6.499856E-2,7.883352E-2,1.638473E-1,2.6877675E-2,-5.0086603E-2,-3.279152E-1,-1.0832966E-1,1.4498195E-1,4.6189386E-1,1.2701657E-1,-5.8106226E-1,3.743307E-2,3.5047937E-2,-8.893737E-2,-3.59287E-1,1.0176283E0,-1.8459742E-1,3.591921E-1,7.3805547E-1,1.1910806E-1,1.23325415E-1,6.436711E-1,-3.1173384E-1,1.5331018E-1,-4.6416345E-1,-1.4616766E0,-3.2775924E-2,1.1516518E-1,-2.4874134E-3,7.0013017E-3,-1.3356753E-2,-2.9667856E-3,-1.5304972E-2,-5.1714968E-2,6.8580344E-2,-3.5618115E-2,-7.260078E-3,-2.866047E-2,2.982238E-2,-1.6224703E-2,-9.870222E-3,4.0534597E-2,1.5213418E-2,3.779497E-3,1.2488781E-2,-3.2612853E-2,-3.47375E-2,3.591593E-2,-6.4826855E-3,-4.9351178E-2,6.6960934E-3,3.3671692E-2,-6.27214E-2,-1.4826464E-2,-3.718002E-2,-7.922482E-2,-2.8138033E-3,1.3043353E-2,3.4863725E-3,1.6662935E-2],"categories":[],"categories_nodes":[],"categories_segments":[],"categories_sizes":[],"default_left":[1,0,0,0,0,0,0,0,1,0,0,0,0,0,0,0,0,0,0,0,0,0,0,0,0,0,0,0,0,0,0,0,0,0,0,0,0,0,0,0,0,0,0,0,0,0,0,0,0,0,0,0,0,0,0,0,0,0,0,0,0,0,0],"id":19,"left_children":[1,3,5,7,9,11,13,15,17,19,21,23,25,27,29,31,33,35,37,39,41,43,45,47,49,51,53,55,57,59,61,-1,-1,-1,-1,-1,-1,-1,-1,-1,-1,-1,-1,-1,-1,-1,-1,-1,-1,-1,-1,-1,-1,-1,-1,-1,-1,-1,-1,-1,-1,-1,-1],"loss_changes":[4.3556277E2,4.25987E2,2.5096512E2,3.862714E2,3.2230408E2,2.0447763E2,3.04381E2,3.084004E2,2.2358838E2,2.4247514E2,2.950669E2,1.26017975E2,1.9137564E2,8.265463E1,2.5443918E2,2.6009488E2,3.3770712E2,1.8523962E2,7.491951E1,8.941046E1,1.5491248E2,5.4781494E1,1.4849548E2,7.0480675E1,1.3366876E2,1.1520993E2,1.5770703E2,9.4494736E1,7.1474E0,1.690587E2,2.19233E2,0E0,0E0,0E0,0E0,0E0,0E0,0E0,0E0,0E0,0E0,0E0,0E0,0E0,0E0,0E0,0E0,0E0,0E0,0E0,0E0,0E0,0E0,0E0,0E0,0E0,0E0,0E0,0E0,0E0,0E0,0E0,0E0],"parents":[2147483647,0,0,1,1,2,2,3,3,4,4,5,5,6,6,7,7,8,8,9,9,10,10,11,11,12,12,13,13,14,14,15,15,16,16,17,17,18,18,19,19,20,20,21,21,22,22,23,23,24,24,25,25,26,26,27,27,28,28,29,29,30,30],"right_children":[2,4,6,8,10,12,14,16,18,20,22,24,26,28,30,32,34,36,38,40,42,44,46,48,50,52,54,56,58,60,62,-1,-1,-1,-1,-1,-1,-1,-1,-1,-1,-1,-1,-1,-1,-1,-1,-1,-1,-1,-1,-1,-1,-1,-1,-1,-1,-1,-1,-1,-1,-1,-1],"split_conditions":[2.5438148E-1,-8.51E-2,-3.13E-2,1.4583E0,2.73E-1,-1.02684E1,-6.0819095E-1,-9.46E-2,4.969621E-1,6.75E-2,-1.59E-2,-2.4590293E-1,-9.154E-1,2.008E-1,8.234E-1,-5.863E-1,-6.344E-1,-1.927E-1,4.35E-2,4.68E-2,2.304E-1,-1.1665686E-1,3.701E-1,-1.046E-1,-3.24544E1,-7.805E-1,2.4406E0,-6.95E-1,4.78E-2,3.3553284E-1,1.479E-1,-2.4874134E-3,7.0013017E-3,-1.3356753E-2,-2.9667856E-3,-1.5304972E-2,-5.1714968E-2,6.8580344E-2,-3.5618115E-2,-7.260078E-3,-2.866047E-2,2.982238E-2,-1.6224703E-2,-9.870222E-3,4.0534597E-2,1.5213418E-2,3.779497E-3,1.2488781E-2,-3.2612853E-2,-3.47375E-2,3.591593E-2,-6.4826855E-3,-4.9351178E-2,6.6960934E-3,3.3671692E-2,-6.27214E-2,-1.4826464E-2,-3.718002E-2,-7.922482E-2,-2.8138033E-3,1.3043353E-2,3.4863725E-3,1.6662935E-2],"split_indices":[28,11,10,12,12,8,22,9,22,9,10,24,9,9,8,11,11,11,10,10,12,23,12,10,8,11,12,11,10,23,9,0,0,0,0,0,0,0,0,0,0,0,0,0,0,0,0,0,0,0,0,0,0,0,0,0,0,0,0,0,0,0,0],"split_type":[0,0,0,0,0,0,0,0,0,0,0,0,0,0,0,0,0,0,0,0,0,0,0,0,0,0,0,0,0,0,0,0,0,0,0,0,0,0,0,0,0,0,0,0,0,0,0,0,0,0,0,0,0,0,0,0,0,0,0,0,0,0,0],"sum_hessian":[1.9061805E5,1.2455754E5,6.6060516E4,9.852671E4,2.6030824E4,1.8631703E4,4.742881E4,9.323959E4,5.2871187E3,6.797383E3,1.9233441E4,2.0478973E3,1.6583807E4,8.085094E2,4.66203E4,2.9216637E4,6.4022953E4,5.1673726E3,1.1974608E2,5.844554E3,9.528287E2,8.0286597E2,1.8430576E4,7.159975E2,1.3318998E3,9.370355E2,1.5646771E4,7.1510815E2,9.340127E1,2.4495824E4,2.2124477E4,1.6162157E4,1.30544795E4,9.119127E3,5.490383E4,4.7912964E3,3.760764E2,9.957824E1,2.0167841E1,5.3078413E3,5.36713E2,7.0745306E2,2.4537558E2,5.7725212E1,7.4514075E2,3.5062483E3,1.4924328E4,6.162093E2,9.978819E1,6.9920784E1,1.261979E3,7.389756E2,1.9805994E2,1.5085688E4,5.6108234E2,1.2401078E2,5.9109735E2,1.4672369E1,7.87289E1,2.2681445E4,1.8143792E3,1.8310893E4,3.8135828E3],"tree_param":{"num_deleted":"0","num_feature":"29","num_nodes":"63","size_leaf_vector":"1"}},{"base_weights":[1.8135774E-4,-7.225337E-2,3.0023977E-2,-2.1745682E-2,-1.934913E-1,1.4366528E-1,1.5949542E-2,8.7302715E-2,-9.268911E-2,-1.5020281E-1,-4.2203277E-1,3.2809904E-1,3.3603662E-3,-1.6111989E-2,8.246901E-2,2.825189E-1,-9.806895E-3,-2.8371832E-1,-2.5498662E-2,-4.627662E-1,-1.0388394E-1,1.8520609E-1,-5.1465553E-1,-3.1599697E-1,3.5985443E-1,-1.8368341E-2,1.1393838E0,4.4534E-3,-1.6785803E-1,-9.09423E-3,1.6382588E-1,-9.2112385E-3,1.9315483E-2,-9.8785364E-5,-8.445523E-2,-3.8949326E-3,-2.2971518E-2,2.64913E-2,-3.480954E-3,3.316855E-2,-3.0466879E-2,2.519906E-2,-6.4218426E-3,3.710129E-2,-4.4783484E-2,-9.079777E-2,-2.3948638E-2,-8.0795586E-2,1.0618303E-4,5.4957E-2,1.6151099E-2,1.9824765E-4,-5.4781623E-2,7.603996E-2,3.71076E-2,1.0951784E-3,-9.526849E-3,-1.8306544E-2,4.84506E-3,3.1604096E-3,-1.0192871E-2,2.5964469E-2,7.1901046E-3],"categories":[],"categories_nodes":[],"categories_segments":[],"categories_sizes":[],"default_left":[0,0,0,0,0,0,0,0,0,0,0,0,1,0,0,0,0,0,0,0,0,0,0,0,0,1,0,0,1,0,0,0,0,0,0,0,0,0,0,0,0,0,0,0,0,0,0,0,0,0,0,0,0,0,0,0,0,0,0,0,0,0,0],"id":20,"left_children":[1,3,5,7,9,11,13,15,17,19,21,23,25,27,29,31,33,35,37,39,41,43,45,47,49,51,53,55,57,59,61,-1,-1,-1,-1,-1,-1,-1,-1,-1,-1,-1,-1,-1,-1,-1,-1,-1,-1,-1,-1,-1,-1,-1,-1,-1,-1,-1,-1,-1,-1,-1,-1],"loss_changes":[4.1233228E2,3.4080945E2,2.1606952E2,3.0396906E2,1.6186658E2,3.8523514E2,2.5636694E2,2.9359076E2,3.0553345E2,1.9920374E2,1.466669E2,1.3167255E2,2.0875497E2,2.5312932E2,2.912308E2,2.4929822E2,1.360173E2,2.239711E2,4.315419E2,2.9354868E2,1.7898079E2,2.0867906E2,1.0413452E2,1.251991E2,1.6657227E2,1.9965482E2,2.2919174E1,2.4306152E2,5.082243E2,2.5904312E2,1.4727112E2,0E0,0E0,0E0,0E0,0E0,0E0,0E0,0E0,0E0,0E0,0E0,0E0,0E0,0E0,0E0,0E0,0E0,0E0,0E0,0E0,0E0,0E0,0E0,0E0,0E0,0E0,0E0,0E0,0E0,0E0,0E0,0E0],"parents":[2147483647,0,0,1,1,2,2,3,3,4,4,5,5,6,6,7,7,8,8,9,9,10,10,11,11,12,12,13,13,14,14,15,15,16,16,17,17,18,18,19,19,20,20,21,21,22,22,23,23,24,24,25,25,26,26,27,27,28,28,29,29,30,30],"right_children":[2,4,6,8,10,12,14,16,18,20,22,24,26,28,30,32,34,36,38,40,42,44,46,48,50,52,54,56,58,60,62,-1,-1,-1,-1,-1,-1,-1,-1,-1,-1,-1,-1,-1,-1,-1,-1,-1,-1,-1,-1,-1,-1,-1,-1,-1,-1,-1,-1,-1,-1,-1,-1],"split_conditions":[-4.193E-1,8.2507014E-1,-3.247E-1,-1.126E-1,5.34E-2,3.6285464E-2,2.1335E0,-6.5983E0,2.2293231E-3,-5.166E-1,4.895161E-2,-2.268E-1,2.1270923E-1,8.018E-1,-1.07E-1,-5.166E-1,9.8928E0,-1.75E-2,4.19161E-2,-2.67896E1,-9.235E-1,-6.95E-1,-9.321E-1,5.2954096E-2,-1.864E-1,4.890204E-1,3E0,7.18E-2,4.502029E-1,2.58E-2,1.375E-1,-9.2112385E-3,1.9315483E-2,-9.8785364E-5,-8.445523E-2,-3.8949326E-3,-2.2971518E-2,2.64913E-2,-3.480954E-3,3.316855E-2,-3.0466879E-2,2.519906E-2,-6.4218426E-3,3.710129E-2,-4.4783484E-2,-9.079777E-2,-2.3948638E-2,-8.0795586E-2,1.0618303E-4,5.4957E-2,1.6151099E-2,1.9824765E-4,-5.4781623E-2,7.603996E-2,3.71076E-2,1.0951784E-3,-9.526849E-3,-1.8306544E-2,4.84506E-3,3.1604096E-3,-1.0192871E-2,2.5964469E-2,7.1901046E-3],"split_indices":[11,26,11,10,10,24,8,8,26,10,21,10,25,12,11,10,12,10,26,8,11,11,11,22,10,22,19,10,26,10,12,0,0,0,0,0,0,0,0,0,0,0,0,0,0,0,0,0,0,0,0,0,0,0,0,0,0,0,0,0,0,0,0],"split_type":[0,0,0,0,0,0,0,0,0,0,0,0,0,0,0,0,0,0,0,0,0,0,0,0,0,0,0,0,0,0,0,0,0,0,0,0,0,0,0,0,0,0,0,0,0,0,0,0,0,0,0,0,0,0,0,0,0,0,0,0,0,0,0],"sum_hessian":[1.9074756E5,5.565616E4,1.350914E5,3.928939E4,1.636677E4,1.4886228E4,1.2020517E5,1.5485747E4,2.3803645E4,1.376178E4,2.604989E3,6.4310884E3,8.45514E3,8.111132E4,3.909386E4,5.143677E3,1.034207E4,6.193026E3,1.761062E4,1.7749933E3,1.1986787E4,3.446234E2,2.2603657E3,3.017489E2,6.1293394E3,8.297419E3,1.5772081E2,7.143153E4,9.67979E3,1.8393617E4,2.070024E4,9.35589E2,4.208088E3,1.0295062E4,4.7008514E1,2.8528245E3,3.3402017E3,1.2953684E3,1.6315251E4,2.0401088E2,1.5709824E3,4.6461536E2,1.1522172E4,2.2765767E2,1.1696574E2,5.8995476E1,2.20137E3,5.8524532E1,2.4322437E2,2.8951306E2,5.839826E3,8.1298706E3,1.6754803E2,7.901928E1,7.870152E1,6.556485E4,5.8666724E3,5.534633E3,4.145157E3,1.3414423E4,4.9791943E3,1.1025623E3,1.9597678E4],"tree_param":{"num_deleted":"0","num_feature":"29","num_nodes":"63","size_leaf_vector":"1"}},{"base_weights":[6.605796E-4,-3.798589E-2,5.1095713E-2,-6.590782E-2,9.722489E-2,4.42259E-2,3.440222E-1,-5.492436E-3,-1.3418697E-1,-6.467906E-2,1.4394757E-1,-7.069956E-2,6.680062E-2,5.197365E-1,-2.4565987E-2,1.2543887E-2,-3.9375645E-1,-1.0631482E-1,-4.4185895E-1,5.5912334E-1,-1.1547955E-1,6.8078864E-1,1.2379973E-1,-4.40963E-2,-6.7187226E-1,1.631068E-1,3.6174547E-2,6.1473954E-1,-1.0492706E-1,-5.244326E-1,7.4536586E-1,2.811566E-2,1.1324923E-4,-5.281332E-2,-1.6216619E-2,-4.951071E-3,-5.264449E-2,-7.7414565E-2,-1.642348E-2,6.728663E-2,5.9660287E-3,-1.9312863E-3,-3.3508573E-2,6.9105253E-3,4.178972E-2,7.361109E-3,-1.4331584E-2,-6.0475017E-3,5.883032E-3,-5.6959916E-2,-7.747386E-4,3.4037184E-2,7.01753E-3,5.1369756E-3,-1.719497E-3,1.8977901E-2,5.459538E-2,-4.3217655E-2,4.0459786E-2,-1.6454142E-3,-4.193878E-2,5.5375647E-2,-4.1799122E-4],"categories":[],"categories_nodes":[],"categories_segments":[],"categories_sizes":[],"default_left":[1,0,0,0,0,0,0,0,1,0,0,0,0,0,0,0,0,0,0,0,0,0,0,0,0,0,0,0,0,0,0,0,0,0,0,0,0,0,0,0,0,0,0,0,0,0,0,0,0,0,0,0,0,0,0,0,0,0,0,0,0,0,0],"id":21,"left_children":[1,3,5,7,9,11,13,15,17,19,21,23,25,27,29,31,33,35,37,39,41,43,45,47,49,51,53,55,57,59,61,-1,-1,-1,-1,-1,-1,-1,-1,-1,-1,-1,-1,-1,-1,-1,-1,-1,-1,-1,-1,-1,-1,-1,-1,-1,-1,-1,-1,-1,-1,-1,-1],"loss_changes":[3.7113864E2,4.070071E2,1.6621825E2,3.6859232E2,1.3959387E2,2.0941211E2,1.226008E2,3.3199435E2,3.5966663E2,1.3104236E2,1.5480579E2,2.119151E2,1.9897678E2,7.613211E1,2.3592343E2,2.5601382E2,9.6453766E1,2.6544012E2,4.3658734E2,1.075748E2,1.6293861E2,4.3431168E1,1.3273888E2,1.5779263E2,1.7222392E2,1.9164175E2,2.4043698E2,1.24456726E2,1.1875841E2,5.7396904E1,6.588202E1,0E0,0E0,0E0,0E0,0E0,0E0,0E0,0E0,0E0,0E0,0E0,0E0,0E0,0E0,0E0,0E0,0E0,0E0,0E0,0E0,0E0,0E0,0E0,0E0,0E0,0E0,0E0,0E0,0E0,0E0,0E0,0E0],"parents":[2147483647,0,0,1,1,2,2,3,3,4,4,5,5,6,6,7,7,8,8,9,9,10,10,11,11,12,12,13,13,14,14,15,15,16,16,17,17,18,18,19,19,20,20,21,21,22,22,23,23,24,24,25,25,26,26,27,27,28,28,29,29,30,30],"right_children":[2,4,6,8,10,12,14,16,18,20,22,24,26,28,30,32,34,36,38,40,42,44,46,48,50,52,54,56,58,60,62,-1,-1,-1,-1,-1,-1,-1,-1,-1,-1,-1,-1,-1,-1,-1,-1,-1,-1,-1,-1,-1,-1,-1,-1,-1,-1,-1,-1,-1,-1,-1,-1],"split_conditions":[7.2515495E-2,-7.19E-2,8.6693945E0,-2.44E-2,2.695E-1,1.2966437E-2,2.028E-1,1.4583E0,4.126519E-2,1.131E-1,-1.42E-2,1.7097E0,-3.53E-2,-2.5E-2,2.904E-1,-3.1102278E0,-8.126E-1,1.26472E1,1.8678582E-3,9.57E-2,5.25E-2,-3.04E-2,1.441E-1,1.6E-2,-2.338E-1,2.5555175E-2,6.801747E-2,1.5053847E-1,1.296E-1,-1.796E-1,-2.831E-1,2.811566E-2,1.1324923E-4,-5.281332E-2,-1.6216619E-2,-4.951071E-3,-5.264449E-2,-7.7414565E-2,-1.642348E-2,6.728663E-2,5.9660287E-3,-1.9312863E-3,-3.3508573E-2,6.9105253E-3,4.178972E-2,7.361109E-3,-1.4331584E-2,-6.0475017E-3,5.883032E-3,-5.6959916E-2,-7.747386E-4,3.4037184E-2,7.01753E-3,5.1369756E-3,-1.719497E-3,1.8977901E-2,5.459538E-2,-4.3217655E-2,4.0459786E-2,-1.6454142E-3,-4.193878E-2,5.5375647E-2,-4.1799122E-4],"split_indices":[28,11,28,10,12,23,10,12,28,12,10,12,10,11,10,28,11,12,26,10,10,10,10,10,11,23,24,21,10,11,11,0,0,0,0,0,0,0,0,0,0,0,0,0,0,0,0,0,0,0,0,0,0,0,0,0,0,0,0,0,0,0,0],"split_type":[0,0,0,0,0,0,0,0,0,0,0,0,0,0,0,0,0,0,0,0,0,0,0,0,0,0,0,0,0,0,0,0,0,0,0,0,0,0,0,0,0,0,0,0,0,0,0,0,0,0,0,0,0,0,0,0,0,0,0,0,0,0,0],"sum_hessian":[1.9040952E5,1.07803875E5,8.260565E4,8.93525E4,1.8451373E4,8.071387E4,1.8917775E3,4.7406727E4,4.1945773E4,4.1321646E3,1.4319209E4,1.3251215E4,6.746266E4,1.2807874E3,6.109902E2,4.5303188E4,2.1035356E3,3.846276E4,3.4830132E3,3.1041623E2,3.821748E3,5.1677954E2,1.380243E4,1.2690696E4,5.605189E2,1.6276268E4,5.1186387E4,1.1117246E3,1.6906268E2,3.706622E2,2.4032797E2,8.304911E2,4.44727E4,1.9817252E2,1.9053632E3,3.8169766E4,2.9299524E2,3.225895E2,3.1604236E3,1.1057945E2,1.9983676E2,3.3576128E3,4.6413528E2,1.1525075E2,4.015288E2,1.3057885E4,7.4454474E2,8.603341E3,4.087355E3,3.2698053E2,2.3353839E2,6.841837E2,1.5592084E4,2.633941E4,2.4846977E4,7.458925E2,3.6583212E2,9.237485E1,7.6687836E1,1.4501434E2,2.2564786E2,1.6201453E2,7.831345E1],"tree_param":{"num_deleted":"0","num_feature":"29","num_nodes":"63","size_leaf_vector":"1"}},{"base_weights":[-1.5023866E-3,-6.79783E-2,2.5847144E-2,2.4372406E-2,-1.3439134E-1,1.4801916E-1,1.311135E-2,-1.2848535E-1,1.14757754E-1,-5.646649E-2,-2.541266E-1,6.036254E-2,4.9520832E-1,-2.1428403E-2,8.016504E-2,-1.9559278E-1,2.7048138E-1,9.319658E-1,8.996857E-2,-1.2493169E-1,1.7861274E-1,7.404674E-2,-3.110655E-1,1.4352521E0,4.5817472E-2,1.348377E0,4.0820795E-1,-9.127141E-2,4.7656387E-2,1.1808388E-2,1.4813228E-1,1.638204E-2,-1.17223915E-2,1.9246193E-2,-3.623924E-2,5.82442E-2,-4.492396E-2,1.2135099E-2,-2.9767498E-3,1.2622379E-2,-8.027127E-3,-8.236005E-3,1.4705804E-2,7.886305E-2,4.6658647E-4,-1.2866765E-2,-3.688319E-2,-4.8946477E-2,8.071718E-2,6.6386326E-3,-5.7078847E-3,7.543395E-2,-9.703616E-2,2.3168304E-3,2.6118679E-2,-7.2689666E-3,-9.674257E-4,-4.704192E-2,2.8441898E-3,8.216123E-3,-5.7434984E-3,8.028256E-3,-2.8278962E-2],"categories":[],"categories_nodes":[],"categories_segments":[],"categories_sizes":[],"default_left":[0,0,0,1,0,0,0,0,0,0,0,0,0,1,0,0,0,0,0,0,0,0,1,0,0,0,0,0,0,1,0,0,0,0,0,0,0,0,0,0,0,0,0,0,0,0,0,0,0,0,0,0,0,0,0,0,0,0,0,0,0,0,0],"id":22,"left_children":[1,3,5,7,9,11,13,15,17,19,21,23,25,27,29,31,33,35,37,39,41,43,45,47,49,51,53,55,57,59,61,-1,-1,-1,-1,-1,-1,-1,-1,-1,-1,-1,-1,-1,-1,-1,-1,-1,-1,-1,-1,-1,-1,-1,-1,-1,-1,-1,-1,-1,-1,-1,-1],"loss_changes":[3.46374E2,3.406105E2,2.100239E2,3.209842E2,3.0138983E2,3.8777332E2,2.8311188E2,2.3118837E2,2.956736E2,3.1499075E2,2.3798663E2,2.034151E2,1.9010211E2,3.8930045E2,1.9308368E2,1.503281E2,1.4190662E2,1.8425458E2,3.2359488E2,2.0372218E2,1.7510597E2,1.8323022E2,2.485581E2,4.7619583E1,1.400907E2,1.2801825E2,9.633029E1,1.5613205E2,3.700261E2,4.0036154E2,1.850044E2,0E0,0E0,0E0,0E0,0E0,0E0,0E0,0E0,0E0,0E0,0E0,0E0,0E0,0E0,0E0,0E0,0E0,0E0,0E0,0E0,0E0,0E0,0E0,0E0,0E0,0E0,0E0,0E0,0E0,0E0,0E0,0E0],"parents":[2147483647,0,0,1,1,2,2,3,3,4,4,5,5,6,6,7,7,8,8,9,9,10,10,11,11,12,12,13,13,14,14,15,15,16,16,17,17,18,18,19,19,20,20,21,21,22,22,23,23,24,24,25,25,26,26,27,27,28,28,29,29,30,30],"right_children":[2,4,6,8,10,12,14,16,18,20,22,24,26,28,30,32,34,36,38,40,42,44,46,48,50,52,54,56,58,60,62,-1,-1,-1,-1,-1,-1,-1,-1,-1,-1,-1,-1,-1,-1,-1,-1,-1,-1,-1,-1,-1,-1,-1,-1,-1,-1,-1,-1,-1,-1,-1,-1],"split_conditions":[-4.193E-1,-1.455E-1,-9.46E-2,-1.3569352E-1,1.7132264E-1,5.6928897E-1,2.1335E0,-5.771E-1,-3.4377262E-1,4.907447E-1,-8.445E-1,-3.2217073E0,3.748772E-2,5.877167E-3,-1.09E-1,-2.67896E1,-4.474E-1,-4.721E-1,1.18704125E-1,-7.624497E-2,-9.321E-1,1.8678582E-3,4.1083717E-1,-3.738E-1,-2.712E-1,-1.406E-1,-3.545E-1,-1.186E-1,-3.1102278E0,-1.5870364E-3,3.47E-1,1.638204E-2,-1.17223915E-2,1.9246193E-2,-3.623924E-2,5.82442E-2,-4.492396E-2,1.2135099E-2,-2.9767498E-3,1.2622379E-2,-8.027127E-3,-8.236005E-3,1.4705804E-2,7.886305E-2,4.6658647E-4,-1.2866765E-2,-3.688319E-2,-4.8946477E-2,8.071718E-2,6.6386326E-3,-5.7078847E-3,7.543395E-2,-9.703616E-2,2.3168304E-3,2.6118679E-2,-7.2689666E-3,-9.674257E-4,-4.704192E-2,2.8441898E-3,8.216123E-3,-5.7434984E-3,8.028256E-3,-2.8278962E-2],"split_indices":[11,9,9,27,27,21,8,11,26,28,11,28,27,27,11,8,11,11,27,24,11,26,28,11,11,11,11,11,28,27,9,0,0,0,0,0,0,0,0,0,0,0,0,0,0,0,0,0,0,0,0,0,0,0,0,0,0,0,0,0,0,0,0],"split_type":[0,0,0,0,0,0,0,0,0,0,0,0,0,0,0,0,0,0,0,0,0,0,0,0,0,0,0,0,0,0,0,0,0,0,0,0,0,0,0,0,0,0,0,0,0,0,0,0,0,0,0,0,0,0,0,0,0,0,0,0,0,0,0],"sum_hessian":[1.9051388E5,5.553317E4,1.349807E5,2.3230547E4,3.2302625E4,1.2741672E4,1.2223903E5,8.631952E3,1.4598594E4,1.9568643E4,1.2733983E4,1.0174131E4,2.567541E3,8.068064E4,4.155839E4,7.389522E3,1.2424304E3,4.287189E2,1.4169875E4,1.5155249E4,4.413393E3,1.8826758E3,1.0851308E4,1.0548372E2,1.0068646E4,2.3625081E2,2.3312903E3,4.012E4,4.056064E4,2.0720424E4,2.0837969E4,5.1029572E2,6.879226E3,1.1148505E3,1.27579865E2,3.8064648E2,4.8072407E1,7.0089165E3,7.160959E3,1.3062644E3,1.3848985E4,1.110881E3,3.302512E3,7.674124E1,1.8059344E3,9.63889E3,1.212418E3,6.9762836E0,9.850744E1,6.5231377E3,3.5455093E3,2.2578781E2,1.046299E1,5.5943896E2,1.7718513E3,2.2894979E4,1.7225021E4,3.741903E2,4.018645E4,9.401371E3,1.1319053E4,2.048195E4,3.560198E2],"tree_param":{"num_deleted":"0","num_feature":"29","num_nodes":"63","size_leaf_vector":"1"}},{"base_weights":[-1.0700054E-3,-3.731196E-2,4.621285E-2,-6.194615E-2,8.008205E-2,3.9947495E-2,3.1410354E-1,-6.239753E-3,-1.24210104E-1,-8.1155375E-2,1.2784466E-1,6.543902E-2,-5.8775995E-2,5.009957E-1,-1.1066945E-2,1.090803E-2,-3.7516537E-1,-9.952617E-2,-3.944493E-1,-1.9810109E-1,2.6927942E-1,6.611882E-1,1.0795805E-1,-4.4979252E-2,8.724241E-2,-9.381435E-1,-2.977306E-2,1.4925041E0,4.4003338E-1,8.0947745E-1,-3.8939512E-1,2.8004084E-2,2.9391453E-5,1.831431E-2,-2.2566542E-2,-4.318207E-3,-3.5736676E-2,-6.8535194E-2,-1.4344819E-2,6.6415355E-2,-1.08765E-2,1.0218056E-4,3.19463E-2,4.2237986E-2,-5.7063065E-3,6.6764946E-3,-1.0541516E-2,-1.4005821E-4,-1.9810777E-2,1.7034601E-2,3.5045065E-3,-3.1878017E-2,-7.985824E-2,-5.3005842E-3,1.5526436E-2,8.662787E-2,4.6519127E-2,-5.553015E-2,2.6074922E-2,-4.3340903E-2,5.7370294E-2,7.4854195E-3,-3.1003628E-2],"categories":[],"categories_nodes":[],"categories_segments":[],"categories_sizes":[],"default_left":[1,0,0,0,0,0,0,0,1,0,0,0,0,0,0,0,0,0,0,0,0,0,0,0,0,0,0,0,0,0,0,0,0,0,0,0,0,0,0,0,0,0,0,0,0,0,0,0,0,0,0,0,0,0,0,0,0,0,0,0,0,0,0],"id":23,"left_children":[1,3,5,7,9,11,13,15,17,19,21,23,25,27,29,31,33,35,37,39,41,43,45,47,49,51,53,55,57,59,61,-1,-1,-1,-1,-1,-1,-1,-1,-1,-1,-1,-1,-1,-1,-1,-1,-1,-1,-1,-1,-1,-1,-1,-1,-1,-1,-1,-1,-1,-1,-1,-1],"loss_changes":[3.265557E2,3.1197604E2,1.3877203E2,3.092751E2,1.441083E2,2.0334273E2,1.1483534E2,2.9773544E2,2.8082635E2,1.7531995E2,1.5303838E2,1.5460718E2,4.2288602E2,7.187128E1,2.1470628E2,2.5489035E2,1.1821442E2,3.1235538E2,3.6959265E2,9.540233E1,1.0574732E2,7.3922455E1,1.1348694E2,1.5688637E2,2.3311157E2,1.0385281E2,4.165322E2,7.7102356E0,1.4355429E2,1.2463304E2,5.895851E1,0E0,0E0,0E0,0E0,0E0,0E0,0E0,0E0,0E0,0E0,0E0,0E0,0E0,0E0,0E0,0E0,0E0,0E0,0E0,0E0,0E0,0E0,0E0,0E0,0E0,0E0,0E0,0E0,0E0,0E0,0E0,0E0],"parents":[2147483647,0,0,1,1,2,2,3,3,4,4,5,5,6,6,7,7,8,8,9,9,10,10,11,11,12,12,13,13,14,14,15,15,16,16,17,17,18,18,19,19,20,20,21,21,22,22,23,23,24,24,25,25,26,26,27,27,28,28,29,29,30,30],"right_children":[2,4,6,8,10,12,14,16,18,20,22,24,26,28,30,32,34,36,38,40,42,44,46,48,50,52,54,56,58,60,62,-1,-1,-1,-1,-1,-1,-1,-1,-1,-1,-1,-1,-1,-1,-1,-1,-1,-1,-1,-1,-1,-1,-1,-1,-1,-1,-1,-1,-1,-1,-1,-1],"split_conditions":[7.2515495E-2,-7.36E-2,8.6693945E0,-2.52E-2,2.695E-1,6.372E-1,1.911E-1,1.4583E0,4.126519E-2,2.3419E0,-1.42E-2,1.2966437E-2,8.600405E-2,-9.549E-1,-3.176E-1,-3.1102278E0,-1.96034E1,2.22222E1,1.8678582E-3,-2.95E-2,3.19E-2,5.6445E0,1.296E-1,4.44E-1,2.5749711E-2,6.973E-1,1.8904668E-1,4.52E-2,-9.438E-1,-9.549E-1,2.202E-1,2.8004084E-2,2.9391453E-5,1.831431E-2,-2.2566542E-2,-4.318207E-3,-3.5736676E-2,-6.8535194E-2,-1.4344819E-2,6.6415355E-2,-1.08765E-2,1.0218056E-4,3.19463E-2,4.2237986E-2,-5.7063065E-3,6.6764946E-3,-1.0541516E-2,-1.4005821E-4,-1.9810777E-2,1.7034601E-2,3.5045065E-3,-3.1878017E-2,-7.985824E-2,-5.3005842E-3,1.5526436E-2,8.662787E-2,4.6519127E-2,-5.553015E-2,2.6074922E-2,-4.3340903E-2,5.7370294E-2,7.4854195E-3,-3.1003628E-2],"split_indices":[28,11,28,10,12,12,10,12,28,8,10,23,28,11,11,28,8,8,26,10,10,8,10,12,23,12,21,10,11,11,10,0,0,0,0,0,0,0,0,0,0,0,0,0,0,0,0,0,0,0,0,0,0,0,0,0,0,0,0,0,0,0,0],"split_type":[0,0,0,0,0,0,0,0,0,0,0,0,0,0,0,0,0,0,0,0,0,0,0,0,0,0,0,0,0,0,0,0,0,0,0,0,0,0,0,0,0,0,0,0,0,0,0,0,0,0,0,0,0,0,0,0,0,0,0,0,0,0,0],"sum_hessian":[1.9056248E5,1.07876305E5,8.268617E4,8.916601E4,1.8710299E4,8.079765E4,1.8885233E3,4.70618E4,4.2104207E4,4.2756895E3,1.4434609E4,6.4216547E4,1.6581105E4,1.1989084E3,6.8961487E2,4.4972438E4,2.089363E3,3.85815E4,3.522708E3,3.2061729E3,1.0695165E3,5.177124E2,1.3916896E4,1.0589149E4,5.3627395E4,5.284094E2,1.6052695E4,6.808429E1,1.1308242E3,2.172621E2,4.7235278E2,8.285611E2,4.4143875E4,1.9428064E2,1.8950824E3,3.7774477E4,8.070244E2,3.4841464E2,3.1742932E3,3.9450203E1,3.1667227E3,6.2133105E2,4.4818546E2,4.185278E2,9.918458E1,1.28839795E4,1.0329167E3,9.454783E3,1.1343665E3,3.398013E3,5.0229383E4,3.642435E2,1.6416595E2,1.3115163E4,2.9375325E3,4.6250774E1,2.1833511E1,5.5813652E1,1.0750105E3,3.618771E1,1.810744E2,1.4165341E2,3.3069937E2],"tree_param":{"num_deleted":"0","num_feature":"29","num_nodes":"63","size_leaf_vector":"1"}},{"base_weights":[-3.265544E-4,-6.566466E-2,2.6512843E-2,2.1838302E-2,-1.325749E-1,1.383932E-1,1.2658808E-2,-1.19407795E-1,1.0420756E-1,-5.39774E-2,-2.537261E-1,3.092464E-1,8.488119E-3,-1.5073933E-2,7.0318E-2,-1.826154E-1,2.4074419E-1,9.0503186E-1,7.954196E-2,-1.4247602E-1,1.1903942E-1,4.3793085E-1,-2.8417328E-1,5.4024804E-1,1.8412744E-1,2.2761447E-2,-9.9912345E-2,-1.13616705E-1,2.194759E-2,-1.20709045E-2,1.4270481E-1,-6.6540577E-3,-3.0267129E-2,2.0082237E-2,-7.002687E-2,5.5695157E-2,-4.6378326E-2,1.090983E-2,-2.973409E-3,-3.0114582E-2,-4.938833E-3,1.26922075E-2,-1.0267246E-2,-6.2706717E-3,3.614039E-2,-1.29144415E-2,-5.5499654E-2,-2.51938E-2,3.1869184E-2,1.1852363E-3,2.6675543E-2,7.213873E-5,5.4925334E-2,-2.509996E-3,-2.0672541E-2,1.0889321E-2,-7.324728E-4,-1.5632674E-3,4.487584E-2,7.7277566E-3,-2.6742859E-2],"categories":[],"categories_nodes":[],"categories_segments":[],"categories_sizes":[],"default_left":[0,0,0,1,0,0,0,0,0,0,0,0,1,0,0,1,0,0,0,0,0,0,1,0,0,1,0,0,0,1,0,0,0,0,0,0,0,0,0,0,0,0,0,0,0,0,0,0,0,0,0,0,0,0,0,0,0,0,0,0,0],"id":24,"left_children":[1,3,5,7,9,11,13,15,17,19,21,23,25,27,29,31,33,35,37,39,41,43,45,47,49,51,-1,53,55,57,59,-1,-1,-1,-1,-1,-1,-1,-1,-1,-1,-1,-1,-1,-1,-1,-1,-1,-1,-1,-1,-1,-1,-1,-1,-1,-1,-1,-1,-1,-1],"loss_changes":[3.3406027E2,3.247526E2,2.0929248E2,2.79652E2,2.992885E2,3.3021152E2,1.9212979E2,2.0160129E2,2.998277E2,2.9194183E2,2.605761E2,1.8563452E2,2.421596E2,2.9598508E2,2.327235E2,1.5765094E2,3.4977173E2,1.7464575E2,2.839264E2,2.5340186E2,2.822066E2,8.384266E1,2.5294983E2,2.2925507E2,2.337081E2,1.9250584E2,0E0,4.2127243E2,4.2268884E2,3.1867334E2,